
net {
  name = unnamedBN;
  software = "aGrUM 0.22.5";
  node_size = (50 50);
}

node motive_1_0 {
   states = (0 1 );
   label = "motive_1_0";
   ID = "motive_1_0";
}

node sneak_1_0 {
   states = (0 1 );
   label = "sneak_1_0";
   ID = "sneak_1_0";
}

node stealing_1_0 {
   states = (0 1 );
   label = "stealing_1_0";
   ID = "stealing_1_0";
}

node object_dropped_accidentally_0 {
   states = (0 1 );
   label = "object_dropped_accidentally_0";
   ID = "object_dropped_accidentally_0";
}

node E_psych_report_1_0 {
   states = (0 1 );
   label = "E_psych_report_1_0";
   ID = "E_psych_report_1_0";
}

node E_camera_1 {
   states = (0 1 );
   label = "E_camera_1";
   ID = "E_camera_1";
}

node E_camera_seen_stealing_1_0 {
   states = (0 1 );
   label = "E_camera_seen_stealing_1_0";
   ID = "E_camera_seen_stealing_1_0";
}

node E_object_gone_0 {
   states = (0 1 );
   label = "E_object_gone_0";
   ID = "E_object_gone_0";
}

potential (motive_1_0) {
   data = (  0.963074 0.0369261);
}

potential ( sneak_1_0 | motive_1_0   ) {
   data = 
   ((   0.999482   0.000518135)   % motive_1_0=0   
   (   0.0135135   0.986486));   % motive_1_0=1   
}

potential ( stealing_1_0 | motive_1_0   sneak_1_0   ) {
   data = 
   (((   0.999741   0.000259202)   % sneak_1_0=0   motive_1_0=0   
   (   0.5   0.5))   % sneak_1_0=1   motive_1_0=0   
   ((   0.5   0.5)   % sneak_1_0=0   motive_1_0=1   
   (   0.335616   0.664384)));   % sneak_1_0=1   motive_1_0=1   
}

potential ( object_dropped_accidentally_0 | stealing_1_0   ) {
   data = 
   ((   0.845957   0.154043)   % stealing_1_0=0   
   (   0.98   0.02));   % stealing_1_0=1   
}

potential ( E_psych_report_1_0 | sneak_1_0   motive_1_0   ) {
   data = 
   (((   0.999741   0.000259202)   % motive_1_0=0   sneak_1_0=0   
   (   0.5   0.5))   % motive_1_0=1   sneak_1_0=0   
   ((   0.5   0.5)   % motive_1_0=0   sneak_1_0=1   
   (   0.5   0.5)));   % motive_1_0=1   sneak_1_0=1   
}

potential (E_camera_1) {
   data = (  0.116766 0.883234);
}

potential ( E_camera_seen_stealing_1_0 | motive_1_0   sneak_1_0   ) {
   data = 
   (((   0.999741   0.000259202)   % sneak_1_0=0   motive_1_0=0   
   (   0.5   0.5))   % sneak_1_0=1   motive_1_0=0   
   ((   0.5   0.5)   % sneak_1_0=0   motive_1_0=1   
   (   0.5   0.5)));   % sneak_1_0=1   motive_1_0=1   
}

potential ( E_object_gone_0 | object_dropped_accidentally_0   stealing_1_0   ) {
   data = 
   (((   0.999698   0.00030248)   % stealing_1_0=0   object_dropped_accidentally_0=0   
   (   0.0102041   0.989796))   % stealing_1_0=1   object_dropped_accidentally_0=0   
   ((   0.00166113   0.998339)   % stealing_1_0=0   object_dropped_accidentally_0=1   
   (   0.5   0.5)));   % stealing_1_0=1   object_dropped_accidentally_0=1   
}


