
net {
  name = unnamedBN;
  software = "aGrUM 0.22.5";
  node_size = (50 50);
}

node motive_1_0 {
   states = (0 1 );
   label = "motive_1_0";
   ID = "motive_1_0";
}

node sneak_1_0 {
   states = (0 1 );
   label = "sneak_1_0";
   ID = "sneak_1_0";
}

node stealing_1_0 {
   states = (0 1 );
   label = "stealing_1_0";
   ID = "stealing_1_0";
}

node object_dropped_accidentally_0 {
   states = (0 1 );
   label = "object_dropped_accidentally_0";
   ID = "object_dropped_accidentally_0";
}

node E_psych_report_1_0 {
   states = (0 1 );
   label = "E_psych_report_1_0";
   ID = "E_psych_report_1_0";
}

node E_camera_1 {
   states = (0 1 );
   label = "E_camera_1";
   ID = "E_camera_1";
}

node E_camera_seen_stealing_1_0 {
   states = (0 1 );
   label = "E_camera_seen_stealing_1_0";
   ID = "E_camera_seen_stealing_1_0";
}

node E_object_gone_0 {
   states = (0 1 );
   label = "E_object_gone_0";
   ID = "E_object_gone_0";
}

potential (motive_1_0) {
   data = (  0.98503 0.0149701);
}

potential ( sneak_1_0 | motive_1_0   ) {
   data = 
   ((   0.999493   0.000506586)   % motive_1_0=0   
   (   0.0333333   0.966667));   % motive_1_0=1   
}

potential ( stealing_1_0 | motive_1_0   sneak_1_0   ) {
   data = 
   (((   0.999747   0.000253421)   % sneak_1_0=0   motive_1_0=0   
   (   0.5   0.5))   % sneak_1_0=1   motive_1_0=0   
   ((   0.5   0.5)   % sneak_1_0=0   motive_1_0=1   
   (   0.431034   0.568966)));   % sneak_1_0=1   motive_1_0=1   
}

potential ( object_dropped_accidentally_0 | sneak_1_0   ) {
   data = 
   ((   0.778622   0.221378)   % sneak_1_0=0   
   (   0.966667   0.0333333));   % sneak_1_0=1   
}

potential ( E_psych_report_1_0 | sneak_1_0   motive_1_0   ) {
   data = 
   (((   0.999747   0.000253421)   % motive_1_0=0   sneak_1_0=0   
   (   0.5   0.5))   % motive_1_0=1   sneak_1_0=0   
   ((   0.5   0.5)   % motive_1_0=0   sneak_1_0=1   
   (   0.293103   0.706897)));   % motive_1_0=1   sneak_1_0=1   
}

potential (E_camera_1) {
   data = (  0.140719 0.859281);
}

potential ( E_camera_seen_stealing_1_0 | stealing_1_0   sneak_1_0   motive_1_0   ) {
   data = 
   ((((   0.999873   0.000126743)   % motive_1_0=0   sneak_1_0=0   stealing_1_0=0   
   (   0.5   0.5))   % motive_1_0=1   sneak_1_0=0   stealing_1_0=0   
   ((   0.5   0.5)   % motive_1_0=0   sneak_1_0=1   stealing_1_0=0   
   (   0.98   0.02)))   % motive_1_0=1   sneak_1_0=1   stealing_1_0=0   
   (((   0.5   0.5)   % motive_1_0=0   sneak_1_0=0   stealing_1_0=1   
   (   0.5   0.5))   % motive_1_0=1   sneak_1_0=0   stealing_1_0=1   
   ((   0.5   0.5)   % motive_1_0=0   sneak_1_0=1   stealing_1_0=1   
   (   0.0151515   0.984848))));   % motive_1_0=1   sneak_1_0=1   stealing_1_0=1   
}

potential ( E_object_gone_0 | object_dropped_accidentally_0   stealing_1_0   E_camera_seen_stealing_1_0   ) {
   data = 
   ((((   0.999839   0.000161447)   % E_camera_seen_stealing_1_0=0   stealing_1_0=0   object_dropped_accidentally_0=0   
   (   0.5   0.5))   % E_camera_seen_stealing_1_0=1   stealing_1_0=0   object_dropped_accidentally_0=0   
   ((   0.5   0.5)   % E_camera_seen_stealing_1_0=0   stealing_1_0=1   object_dropped_accidentally_0=0   
   (   0.0151515   0.984848)))   % E_camera_seen_stealing_1_0=1   stealing_1_0=1   object_dropped_accidentally_0=0   
   (((   0.000572738   0.999427)   % E_camera_seen_stealing_1_0=0   stealing_1_0=0   object_dropped_accidentally_0=1   
   (   0.5   0.5))   % E_camera_seen_stealing_1_0=1   stealing_1_0=0   object_dropped_accidentally_0=1   
   ((   0.5   0.5)   % E_camera_seen_stealing_1_0=0   stealing_1_0=1   object_dropped_accidentally_0=1   
   (   0.5   0.5))));   % E_camera_seen_stealing_1_0=1   stealing_1_0=1   object_dropped_accidentally_0=1   
}


