
net {
  name = unnamedBN;
  software = "aGrUM 0.22.5";
  node_size = (50 50);
}

node motive_1_0 {
   states = (0 1 );
   label = "motive_1_0";
   ID = "motive_1_0";
}

node sneak_1_0 {
   states = (0 1 );
   label = "sneak_1_0";
   ID = "sneak_1_0";
}

node stealing_1_0 {
   states = (0 1 );
   label = "stealing_1_0";
   ID = "stealing_1_0";
}

node object_dropped_accidentally_0 {
   states = (0 1 );
   label = "object_dropped_accidentally_0";
   ID = "object_dropped_accidentally_0";
}

node E_psych_report_1_0 {
   states = (0 1 );
   label = "E_psych_report_1_0";
   ID = "E_psych_report_1_0";
}

node E_camera_1 {
   states = (0 1 );
   label = "E_camera_1";
   ID = "E_camera_1";
}

node E_camera_seen_stealing_1_0 {
   states = (0 1 );
   label = "E_camera_seen_stealing_1_0";
   ID = "E_camera_seen_stealing_1_0";
}

node E_object_gone_0 {
   states = (0 1 );
   label = "E_object_gone_0";
   ID = "E_object_gone_0";
}

potential (motive_1_0) {
   data = (  0.967066 0.0329341);
}

potential ( sneak_1_0 | motive_1_0   ) {
   data = 
   ((   0.999484   0.000515996)   % motive_1_0=0   
   (   0.0151515   0.984848));   % motive_1_0=1   
}

potential ( stealing_1_0 | motive_1_0   sneak_1_0   ) {
   data = 
   (((   0.999742   0.000258131)   % sneak_1_0=0   motive_1_0=0   
   (   0.5   0.5))   % sneak_1_0=1   motive_1_0=0   
   ((   0.5   0.5)   % sneak_1_0=0   motive_1_0=1   
   (   0.130769   0.869231)));   % sneak_1_0=1   motive_1_0=1   
}

potential ( object_dropped_accidentally_0 | stealing_1_0   motive_1_0   ) {
   data = 
   (((   0.824213   0.175787)   % motive_1_0=0   stealing_1_0=0   
   (   0.0555556   0.944444))   % motive_1_0=1   stealing_1_0=0   
   ((   0.5   0.5)   % motive_1_0=0   stealing_1_0=1   
   (   0.991228   0.00877193)));   % motive_1_0=1   stealing_1_0=1   
}

potential ( E_psych_report_1_0 | sneak_1_0   motive_1_0   ) {
   data = 
   (((   0.999742   0.000258131)   % motive_1_0=0   sneak_1_0=0   
   (   0.5   0.5))   % motive_1_0=1   sneak_1_0=0   
   ((   0.5   0.5)   % motive_1_0=0   sneak_1_0=1   
   (   0.438462   0.561538)));   % motive_1_0=1   sneak_1_0=1   
}

potential (E_camera_1) {
   data = (  0.148703 0.851297);
}

potential ( E_camera_seen_stealing_1_0 | motive_1_0   sneak_1_0   ) {
   data = 
   (((   0.999742   0.000258131)   % sneak_1_0=0   motive_1_0=0   
   (   0.5   0.5))   % sneak_1_0=1   motive_1_0=0   
   ((   0.5   0.5)   % sneak_1_0=0   motive_1_0=1   
   (   0.315385   0.684615)));   % sneak_1_0=1   motive_1_0=1   
}

potential ( E_object_gone_0 | object_dropped_accidentally_0   stealing_1_0   ) {
   data = 
   (((   0.999687   0.000313087)   % stealing_1_0=0   object_dropped_accidentally_0=0   
   (   0.00877193   0.991228))   % stealing_1_0=1   object_dropped_accidentally_0=0   
   ((   0.00143266   0.998567)   % stealing_1_0=0   object_dropped_accidentally_0=1   
   (   0.5   0.5)));   % stealing_1_0=1   object_dropped_accidentally_0=1   
}


