
net {
  name = unnamedBN;
  software = "aGrUM 0.22.5";
  node_size = (50 50);
}

node lost_object {
   states = (0 1 );
   label = "lost_object";
   ID = "lost_object";
}

node know_object {
   states = (0 1 );
   label = "know_object";
   ID = "know_object";
}

node target_object {
   states = (0 1 );
   label = "target_object";
   ID = "target_object";
}

node motive {
   states = (0 1 );
   label = "motive";
   ID = "motive";
}

node compromise_house {
   states = (0 1 );
   label = "compromise_house";
   ID = "compromise_house";
}

node flees_startled {
   states = (0 1 );
   label = "flees_startled";
   ID = "flees_startled";
}

node successful_stolen {
   states = (0 1 );
   label = "successful_stolen";
   ID = "successful_stolen";
}

node raining {
   states = (0 1 );
   label = "raining";
   ID = "raining";
}

node curtains {
   states = (0 1 );
   label = "curtains";
   ID = "curtains";
}

node E_object_is_gone {
   states = (0 1 );
   label = "E_object_is_gone";
   ID = "E_object_is_gone";
}

node E_broken_lock {
   states = (0 1 );
   label = "E_broken_lock";
   ID = "E_broken_lock";
}

node E_disturbed_house {
   states = (0 1 );
   label = "E_disturbed_house";
   ID = "E_disturbed_house";
}

node E_s_spotted_by_house {
   states = (0 1 );
   label = "E_s_spotted_by_house";
   ID = "E_s_spotted_by_house";
}

node E_s_spotted_with_goodie {
   states = (0 1 );
   label = "E_s_spotted_with_goodie";
   ID = "E_s_spotted_with_goodie";
}

node E_private {
   states = (0 1 );
   label = "E_private";
   ID = "E_private";
}

potential (lost_object) {
   data = (  0.780938 0.219062);
}

potential ( know_object | lost_object   curtains   ) {
   data = 
   (((   0.0129741   0.987026)   % curtains=0   lost_object=0   
   (   0.9992   0.0008))   % curtains=1   lost_object=0   
   ((   0.999332   0.000667557)   % curtains=0   lost_object=1   
   (   0.996124   0.00387597)));   % curtains=1   lost_object=1   
}

potential ( target_object | know_object   ) {
   data = 
   ((   0.999348   0.00065189)   % know_object=0   
   (   0.488682   0.511318));   % know_object=1   
}

potential ( motive | target_object   curtains   ) {
   data = 
   (((   0.999749   0.000251383)   % curtains=0   target_object=0   
   (   0.999336   0.000664011))   % curtains=1   target_object=0   
   ((   0.000395257   0.999605)   % curtains=0   target_object=1   
   (   1   0)));   % curtains=1   target_object=1   
}

potential ( compromise_house | motive   target_object   ) {
   data = 
   (((   0.999818   0.000182415)   % target_object=0   motive=0   
   (   1   0))   % target_object=1   motive=0   
   ((   1   0)   % target_object=0   motive=1   
   (   0.648617   0.351383)));   % target_object=1   motive=1   
}

potential ( flees_startled | target_object   motive   ) {
   data = 
   (((   0.999818   0.000182415)   % motive=0   target_object=0   
   (   1   0))   % motive=1   target_object=0   
   ((   1   0)   % motive=0   target_object=1   
   (   0.512648   0.487352)));   % motive=1   target_object=1   
}

potential ( successful_stolen | compromise_house   flees_startled   ) {
   data = 
   (((   0.99984   0.000159795)   % flees_startled=0   compromise_house=0   
   (   0.998845   0.00115473))   % flees_startled=1   compromise_house=0   
   ((   0.00191571   0.998084)   % flees_startled=0   compromise_house=1   
   (   0.997297   0.0027027)));   % flees_startled=1   compromise_house=1   
}

potential (raining) {
   data = (  0.495509 0.504491);
}

potential (curtains) {
   data = (  0.811876 0.188124);
}

potential ( E_object_is_gone | lost_object   compromise_house   successful_stolen   ) {
   data = 
   ((((   0.999907   9.31272e-05)   % successful_stolen=0   compromise_house=0   lost_object=0   
   (   1   0))   % successful_stolen=1   compromise_house=0   lost_object=0   
   ((   0.326558   0.673442)   % successful_stolen=0   compromise_house=1   lost_object=0   
   (   0.000959693   0.99904)))   % successful_stolen=1   compromise_house=1   lost_object=0   
   (((   0.000285225   0.999715)   % successful_stolen=0   compromise_house=0   lost_object=1   
   (   1   0))   % successful_stolen=1   compromise_house=0   lost_object=1   
   ((   1   0)   % successful_stolen=0   compromise_house=1   lost_object=1   
   (   1   0))));   % successful_stolen=1   compromise_house=1   lost_object=1   
}

potential ( E_broken_lock | compromise_house   successful_stolen   ) {
   data = 
   (((   0.99986   0.00014041)   % successful_stolen=0   compromise_house=0   
   (   1   0))   % successful_stolen=1   compromise_house=0   
   ((   0.0027027   0.997297)   % successful_stolen=0   compromise_house=1   
   (   0.00191571   0.998084)));   % successful_stolen=1   compromise_house=1   
}

potential ( E_disturbed_house | compromise_house   successful_stolen   ) {
   data = 
   (((   0.99986   0.00014041)   % successful_stolen=0   compromise_house=0   
   (   1   0))   % successful_stolen=1   compromise_house=0   
   ((   0.0027027   0.997297)   % successful_stolen=0   compromise_house=1   
   (   0.00191571   0.998084)));   % successful_stolen=1   compromise_house=1   
}

potential ( E_s_spotted_by_house | target_object   curtains   ) {
   data = 
   (((   0.227501   0.772499)   % curtains=0   target_object=0   
   (   0.0272244   0.972776))   % curtains=1   target_object=0   
   ((   0.000395257   0.999605)   % curtains=0   target_object=1   
   (   1   0)));   % curtains=1   target_object=1   
}

potential ( E_s_spotted_with_goodie | compromise_house   successful_stolen   ) {
   data = 
   (((   0.99986   0.00014041)   % successful_stolen=0   compromise_house=0   
   (   1   0))   % successful_stolen=1   compromise_house=0   
   ((   0.327027   0.672973)   % successful_stolen=0   compromise_house=1   
   (   0.00191571   0.998084)));   % successful_stolen=1   compromise_house=1   
}

potential ( E_private | successful_stolen   flees_startled   ) {
   data = 
   (((   0.99984   0.000159795)   % flees_startled=0   successful_stolen=0   
   (   0.000810373   0.99919))   % flees_startled=1   successful_stolen=0   
   ((   0.998084   0.00191571)   % flees_startled=0   successful_stolen=1   
   (   1   0)));   % flees_startled=1   successful_stolen=1   
}


