
net {
  name = unnamedBN;
  software = "aGrUM 0.22.5";
  node_size = (50 50);
}

node lost_object {
   states = (0 1 );
   label = "lost_object";
   ID = "lost_object";
}

node know_object {
   states = (0 1 );
   label = "know_object";
   ID = "know_object";
}

node target_object {
   states = (0 1 );
   label = "target_object";
   ID = "target_object";
}

node motive {
   states = (0 1 );
   label = "motive";
   ID = "motive";
}

node compromise_house {
   states = (0 1 );
   label = "compromise_house";
   ID = "compromise_house";
}

node flees_startled {
   states = (0 1 );
   label = "flees_startled";
   ID = "flees_startled";
}

node successful_stolen {
   states = (0 1 );
   label = "successful_stolen";
   ID = "successful_stolen";
}

node raining {
   states = (0 1 );
   label = "raining";
   ID = "raining";
}

node curtains {
   states = (0 1 );
   label = "curtains";
   ID = "curtains";
}

node E_object_is_gone {
   states = (0 1 );
   label = "E_object_is_gone";
   ID = "E_object_is_gone";
}

node E_broken_lock {
   states = (0 1 );
   label = "E_broken_lock";
   ID = "E_broken_lock";
}

node E_disturbed_house {
   states = (0 1 );
   label = "E_disturbed_house";
   ID = "E_disturbed_house";
}

node E_s_spotted_by_house {
   states = (0 1 );
   label = "E_s_spotted_by_house";
   ID = "E_s_spotted_by_house";
}

node E_s_spotted_with_goodie {
   states = (0 1 );
   label = "E_s_spotted_with_goodie";
   ID = "E_s_spotted_with_goodie";
}

node E_private {
   states = (0 1 );
   label = "E_private";
   ID = "E_private";
}

potential (lost_object) {
   data = (  0.80489 0.19511);
}

potential ( know_object | lost_object   curtains   ) {
   data = 
   (((   0.0319471   0.968053)   % curtains=0   lost_object=0   
   (   0.999139   0.000860585))   % curtains=1   lost_object=0   
   ((   0.999179   0.000821018)   % curtains=0   lost_object=1   
   (   0.99711   0.00289017)));   % curtains=1   lost_object=1   
}

potential ( target_object | know_object   ) {
   data = 
   ((   0.999308   0.000691563)   % know_object=0   
   (   0.507806   0.492194));   % know_object=1   
}

potential ( motive | target_object   curtains   ) {
   data = 
   (((   0.999749   0.000250878)   % curtains=0   target_object=0   
   (   0.999336   0.000664011))   % curtains=1   target_object=0   
   ((   0.000396511   0.999603)   % curtains=0   target_object=1   
   (   1   0)));   % curtains=1   target_object=1   
}

potential ( compromise_house | motive   target_object   ) {
   data = 
   (((   0.999818   0.000182149)   % target_object=0   motive=0   
   (   1   0))   % target_object=1   motive=0   
   ((   1   0)   % target_object=0   motive=1   
   (   0.64433   0.35567)));   % target_object=1   motive=1   
}

potential ( flees_startled | target_object   motive   ) {
   data = 
   (((   0.999818   0.000182149)   % motive=0   target_object=0   
   (   1   0))   % motive=1   target_object=0   
   ((   1   0)   % motive=0   target_object=1   
   (   0.517446   0.482554)));   % motive=1   target_object=1   
}

potential ( successful_stolen | compromise_house   flees_startled   ) {
   data = 
   (((   0.999842   0.000158178)   % flees_startled=0   compromise_house=0   
   (   0.998741   0.00125945))   % flees_startled=1   compromise_house=0   
   ((   0.0021097   0.99789)   % flees_startled=0   compromise_house=1   
   (   0.997653   0.00234742)));   % flees_startled=1   compromise_house=1   
}

potential (raining) {
   data = (  0.502495 0.497505);
}

potential (curtains) {
   data = (  0.811876 0.188124);
}

potential ( E_object_is_gone | lost_object   compromise_house   successful_stolen   ) {
   data = 
   ((((   0.99991   9.00414e-05)   % successful_stolen=0   compromise_house=0   lost_object=0   
   (   1   0))   % successful_stolen=1   compromise_house=0   lost_object=0   
   ((   0.34   0.66)   % successful_stolen=0   compromise_house=1   lost_object=0   
   (   0.00105708   0.998943)))   % successful_stolen=1   compromise_house=1   lost_object=0   
   (((   0.000320307   0.99968)   % successful_stolen=0   compromise_house=0   lost_object=1   
   (   1   0))   % successful_stolen=1   compromise_house=0   lost_object=1   
   ((   1   0)   % successful_stolen=0   compromise_house=1   lost_object=1   
   (   1   0))));   % successful_stolen=1   compromise_house=1   lost_object=1   
}

potential ( E_broken_lock | compromise_house   successful_stolen   ) {
   data = 
   (((   0.999859   0.000140568)   % successful_stolen=0   compromise_house=0   
   (   1   0))   % successful_stolen=1   compromise_house=0   
   ((   0.00234742   0.997653)   % successful_stolen=0   compromise_house=1   
   (   0.0021097   0.99789)));   % successful_stolen=1   compromise_house=1   
}

potential ( E_disturbed_house | compromise_house   successful_stolen   ) {
   data = 
   (((   0.999859   0.000140568)   % successful_stolen=0   compromise_house=0   
   (   1   0))   % successful_stolen=1   compromise_house=0   
   ((   0.00234742   0.997653)   % successful_stolen=0   compromise_house=1   
   (   0.0021097   0.99789)));   % successful_stolen=1   compromise_house=1   
}

potential ( E_s_spotted_by_house | target_object   curtains   ) {
   data = 
   (((   0.206974   0.793026)   % curtains=0   target_object=0   
   (   0.0378486   0.962151))   % curtains=1   target_object=0   
   ((   0.000396511   0.999603)   % curtains=0   target_object=1   
   (   1   0)));   % curtains=1   target_object=1   
}

potential ( E_s_spotted_with_goodie | compromise_house   successful_stolen   ) {
   data = 
   (((   0.999859   0.000140568)   % successful_stolen=0   compromise_house=0   
   (   1   0))   % successful_stolen=1   compromise_house=0   
   ((   0.340376   0.659624)   % successful_stolen=0   compromise_house=1   
   (   0.0021097   0.99789)));   % successful_stolen=1   compromise_house=1   
}

potential ( E_private | successful_stolen   flees_startled   ) {
   data = 
   (((   0.999842   0.000158178)   % flees_startled=0   successful_stolen=0   
   (   0.000821018   0.999179))   % flees_startled=1   successful_stolen=0   
   ((   0.99789   0.0021097)   % flees_startled=0   successful_stolen=1   
   (   1   0)));   % flees_startled=1   successful_stolen=1   
}


