
net {
  name = unnamedBN;
  software = "aGrUM 0.22.5";
  node_size = (50 50);
}

node lost_object {
   states = (0 1 );
   label = "lost_object";
   ID = "lost_object";
}

node know_object {
   states = (0 1 );
   label = "know_object";
   ID = "know_object";
}

node target_object {
   states = (0 1 );
   label = "target_object";
   ID = "target_object";
}

node motive {
   states = (0 1 );
   label = "motive";
   ID = "motive";
}

node compromise_house {
   states = (0 1 );
   label = "compromise_house";
   ID = "compromise_house";
}

node flees_startled {
   states = (0 1 );
   label = "flees_startled";
   ID = "flees_startled";
}

node successful_stolen {
   states = (0 1 );
   label = "successful_stolen";
   ID = "successful_stolen";
}

node raining {
   states = (0 1 );
   label = "raining";
   ID = "raining";
}

node curtains {
   states = (0 1 );
   label = "curtains";
   ID = "curtains";
}

node E_object_is_gone {
   states = (0 1 );
   label = "E_object_is_gone";
   ID = "E_object_is_gone";
}

node E_broken_lock {
   states = (0 1 );
   label = "E_broken_lock";
   ID = "E_broken_lock";
}

node E_disturbed_house {
   states = (0 1 );
   label = "E_disturbed_house";
   ID = "E_disturbed_house";
}

node E_s_spotted_by_house {
   states = (0 1 );
   label = "E_s_spotted_by_house";
   ID = "E_s_spotted_by_house";
}

node E_s_spotted_with_goodie {
   states = (0 1 );
   label = "E_s_spotted_with_goodie";
   ID = "E_s_spotted_with_goodie";
}

node E_private {
   states = (0 1 );
   label = "E_private";
   ID = "E_private";
}

potential (lost_object) {
   data = (  0.783233 0.216767);
}

potential ( know_object | curtains   lost_object   ) {
   data = 
   (((   0.0261235   0.973877)   % lost_object=0   curtains=0   
   (   0.999827   0.00017307))   % lost_object=1   curtains=0   
   ((   0.999793   0.000207211)   % lost_object=0   curtains=1   
   (   0.999139   0.000860585)));   % lost_object=1   curtains=1   
}

potential ( target_object | know_object   ) {
   data = 
   ((   0.999837   0.000162707)   % know_object=0   
   (   0.499797   0.500203));   % know_object=1   
}

potential ( motive | target_object   curtains   ) {
   data = 
   (((   0.999938   6.18735e-05)   % curtains=0   target_object=0   
   (   0.999833   0.000167056))   % curtains=1   target_object=0   
   ((   0.000101358   0.999899)   % curtains=0   target_object=1   
   (   1   0)));   % curtains=1   target_object=1   
}

potential ( compromise_house | motive   target_object   ) {
   data = 
   (((   0.999955   4.51549e-05)   % target_object=0   motive=0   
   (   1   0))   % target_object=1   motive=0   
   ((   1   0)   % target_object=0   motive=1   
   (   0.703122   0.296878)));   % target_object=1   motive=1   
}

potential ( flees_startled | compromise_house   motive   ) {
   data = 
   (((   0.999955   4.51549e-05)   % motive=0   compromise_house=0   
   (   0.494811   0.505189))   % motive=1   compromise_house=0   
   ((   1   0)   % motive=0   compromise_house=1   
   (   0.587372   0.412628)));   % motive=1   compromise_house=1   
}

potential ( successful_stolen | flees_startled   compromise_house   ) {
   data = 
   (((   0.999961   3.90961e-05)   % compromise_house=0   flees_startled=0   
   (   0.00058072   0.999419))   % compromise_house=1   flees_startled=0   
   ((   0.999715   0.000285225)   % compromise_house=0   flees_startled=1   
   (   0.999174   0.000826446)));   % compromise_house=1   flees_startled=1   
}

potential (raining) {
   data = (  0.503373 0.496627);
}

potential (curtains) {
   data = (  0.812969 0.187031);
}

potential ( E_object_is_gone | successful_stolen   compromise_house   lost_object   ) {
   data = 
   ((((   0.999977   2.25785e-05)   % lost_object=0   compromise_house=0   successful_stolen=0   
   (   7.20773e-05   0.999928))   % lost_object=1   compromise_house=0   successful_stolen=0   
   ((   0.357734   0.642266)   % lost_object=0   compromise_house=1   successful_stolen=0   
   (   1   0)))   % lost_object=1   compromise_house=1   successful_stolen=0   
   (((   1   0)   % lost_object=0   compromise_house=0   successful_stolen=1   
   (   1   0))   % lost_object=1   compromise_house=0   successful_stolen=1   
   ((   0.000290529   0.999709)   % lost_object=0   compromise_house=1   successful_stolen=1   
   (   1   0))));   % lost_object=1   compromise_house=1   successful_stolen=1   
}

potential ( E_broken_lock | compromise_house   successful_stolen   ) {
   data = 
   (((   0.999966   3.43855e-05)   % successful_stolen=0   compromise_house=0   
   (   1   0))   % successful_stolen=1   compromise_house=0   
   ((   0.000826446   0.999174)   % successful_stolen=0   compromise_house=1   
   (   0.00058072   0.999419)));   % successful_stolen=1   compromise_house=1   
}

potential ( E_disturbed_house | successful_stolen   compromise_house   ) {
   data = 
   (((   0.999966   3.43855e-05)   % compromise_house=0   successful_stolen=0   
   (   0.000826446   0.999174))   % compromise_house=1   successful_stolen=0   
   ((   1   0)   % compromise_house=0   successful_stolen=1   
   (   0.00058072   0.999419)));   % compromise_house=1   successful_stolen=1   
}

potential ( E_s_spotted_by_house | know_object   curtains   lost_object   motive   target_object   ) {
   data = 
   ((((((   0.999763   0.00023663)   % target_object=0   motive=0   lost_object=0   curtains=0   know_object=0   
   (   1   0))   % target_object=1   motive=0   lost_object=0   curtains=0   know_object=0   
   ((   1   0)   % target_object=0   motive=1   lost_object=0   curtains=0   know_object=0   
   (   1   0)))   % target_object=1   motive=1   lost_object=0   curtains=0   know_object=0   
   (((   0.199459   0.800541)   % target_object=0   motive=0   lost_object=1   curtains=0   know_object=0   
   (   1   0))   % target_object=1   motive=0   lost_object=1   curtains=0   know_object=0   
   ((   1   0)   % target_object=0   motive=1   lost_object=1   curtains=0   know_object=0   
   (   1   0))))   % target_object=1   motive=1   lost_object=1   curtains=0   know_object=0   
   ((((   0.0331917   0.966808)   % target_object=0   motive=0   lost_object=0   curtains=1   know_object=0   
   (   1   0))   % target_object=1   motive=0   lost_object=0   curtains=1   know_object=0   
   ((   1   0)   % target_object=0   motive=1   lost_object=0   curtains=1   know_object=0   
   (   1   0)))   % target_object=1   motive=1   lost_object=0   curtains=1   know_object=0   
   (((   0.0207929   0.979207)   % target_object=0   motive=0   lost_object=1   curtains=1   know_object=0   
   (   1   0))   % target_object=1   motive=0   lost_object=1   curtains=1   know_object=0   
   ((   1   0)   % target_object=0   motive=1   lost_object=1   curtains=1   know_object=0   
   (   1   0)))))   % target_object=1   motive=1   lost_object=1   curtains=1   know_object=0   
   (((((   0.153418   0.846582)   % target_object=0   motive=0   lost_object=0   curtains=0   know_object=1   
   (   1   0))   % target_object=1   motive=0   lost_object=0   curtains=0   know_object=1   
   ((   1   0)   % target_object=0   motive=1   lost_object=0   curtains=0   know_object=1   
   (   1.2672e-05   0.999987)))   % target_object=1   motive=1   lost_object=0   curtains=0   know_object=1   
   (((   1   0)   % target_object=0   motive=0   lost_object=1   curtains=0   know_object=1   
   (   1   0))   % target_object=1   motive=0   lost_object=1   curtains=0   know_object=1   
   ((   1   0)   % target_object=0   motive=1   lost_object=1   curtains=0   know_object=1   
   (   1   0))))   % target_object=1   motive=1   lost_object=1   curtains=0   know_object=1   
   ((((   1   0)   % target_object=0   motive=0   lost_object=0   curtains=1   know_object=1   
   (   1   0))   % target_object=1   motive=0   lost_object=0   curtains=1   know_object=1   
   ((   1   0)   % target_object=0   motive=1   lost_object=0   curtains=1   know_object=1   
   (   1   0)))   % target_object=1   motive=1   lost_object=0   curtains=1   know_object=1   
   (((   1   0)   % target_object=0   motive=0   lost_object=1   curtains=1   know_object=1   
   (   1   0))   % target_object=1   motive=0   lost_object=1   curtains=1   know_object=1   
   ((   1   0)   % target_object=0   motive=1   lost_object=1   curtains=1   know_object=1   
   (   1   0))))));   % target_object=1   motive=1   lost_object=1   curtains=1   know_object=1   
}

potential ( E_s_spotted_with_goodie | compromise_house   successful_stolen   ) {
   data = 
   (((   0.999966   3.43855e-05)   % successful_stolen=0   compromise_house=0   
   (   1   0))   % successful_stolen=1   compromise_house=0   
   ((   0.338017   0.661983)   % successful_stolen=0   compromise_house=1   
   (   0.00058072   0.999419)));   % successful_stolen=1   compromise_house=1   
}

potential ( E_private | successful_stolen   flees_startled   ) {
   data = 
   (((   0.999961   3.90961e-05)   % flees_startled=0   successful_stolen=0   
   (   0.000212134   0.999788))   % flees_startled=1   successful_stolen=0   
   ((   0.999419   0.00058072)   % flees_startled=0   successful_stolen=1   
   (   1   0)));   % flees_startled=1   successful_stolen=1   
}


