
net {
  name = unnamedBN;
  software = "aGrUM 0.22.5";
  node_size = (50 50);
}

node lost_object {
   states = (0 1 );
   label = "lost_object";
   ID = "lost_object";
}

node know_object {
   states = (0 1 );
   label = "know_object";
   ID = "know_object";
}

node target_object {
   states = (0 1 );
   label = "target_object";
   ID = "target_object";
}

node motive {
   states = (0 1 );
   label = "motive";
   ID = "motive";
}

node compromise_house {
   states = (0 1 );
   label = "compromise_house";
   ID = "compromise_house";
}

node flees_startled {
   states = (0 1 );
   label = "flees_startled";
   ID = "flees_startled";
}

node successful_stolen {
   states = (0 1 );
   label = "successful_stolen";
   ID = "successful_stolen";
}

node raining {
   states = (0 1 );
   label = "raining";
   ID = "raining";
}

node curtains {
   states = (0 1 );
   label = "curtains";
   ID = "curtains";
}

node E_object_is_gone {
   states = (0 1 );
   label = "E_object_is_gone";
   ID = "E_object_is_gone";
}

node E_broken_lock {
   states = (0 1 );
   label = "E_broken_lock";
   ID = "E_broken_lock";
}

node E_disturbed_house {
   states = (0 1 );
   label = "E_disturbed_house";
   ID = "E_disturbed_house";
}

node E_s_spotted_by_house {
   states = (0 1 );
   label = "E_s_spotted_by_house";
   ID = "E_s_spotted_by_house";
}

node E_s_spotted_with_goodie {
   states = (0 1 );
   label = "E_s_spotted_with_goodie";
   ID = "E_s_spotted_with_goodie";
}

node E_private {
   states = (0 1 );
   label = "E_private";
   ID = "E_private";
}

potential (lost_object) {
   data = (  0.777944 0.222056);
}

potential ( know_object | lost_object   curtains   ) {
   data = 
   (((   0.0301537   0.969846)   % curtains=0   lost_object=0   
   (   0.999139   0.000860585))   % curtains=1   lost_object=0   
   ((   0.999339   0.000660502)   % curtains=0   lost_object=1   
   (   0.996241   0.0037594)));   % curtains=1   lost_object=1   
}

potential ( target_object | know_object   ) {
   data = 
   ((   0.999353   0.000646831)   % know_object=0   
   (   0.517059   0.482941));   % know_object=1   
}

potential ( motive | target_object   curtains   ) {
   data = 
   (((   0.999762   0.00023753)   % curtains=0   target_object=0   
   (   0.999299   0.000701262))   % curtains=1   target_object=0   
   ((   0.000420521   0.999579)   % curtains=0   target_object=1   
   (   1   0)));   % curtains=1   target_object=1   
}

potential ( compromise_house | motive   target_object   ) {
   data = 
   (((   0.999823   0.000177494)   % target_object=0   motive=0   
   (   1   0))   % target_object=1   motive=0   
   ((   1   0)   % target_object=0   motive=1   
   (   0.686712   0.313288)));   % target_object=1   motive=1   
}

potential ( flees_startled | target_object   motive   ) {
   data = 
   (((   0.999823   0.000177494)   % motive=0   target_object=0   
   (   1   0))   % motive=1   target_object=0   
   ((   1   0)   % motive=0   target_object=1   
   (   0.518503   0.481497)));   % motive=1   target_object=1   
}

potential ( successful_stolen | compromise_house   flees_startled   ) {
   data = 
   (((   0.999845   0.000155231)   % flees_startled=0   compromise_house=0   
   (   0.998789   0.00121065))   % flees_startled=1   compromise_house=0   
   ((   0.00234742   0.997653)   % flees_startled=0   compromise_house=1   
   (   0.996894   0.00310559)));   % flees_startled=1   compromise_house=1   
}

potential (raining) {
   data = (  0.491517 0.508483);
}

potential (curtains) {
   data = (  0.821856 0.178144);
}

potential ( E_object_is_gone | lost_object   compromise_house   successful_stolen   ) {
   data = 
   ((((   0.999909   9.10913e-05)   % successful_stolen=0   compromise_house=0   lost_object=0   
   (   1   0))   % successful_stolen=1   compromise_house=0   lost_object=0   
   ((   0.450156   0.549844)   % successful_stolen=0   compromise_house=1   lost_object=0   
   (   0.00117647   0.998824)))   % successful_stolen=1   compromise_house=1   lost_object=0   
   (((   0.000281373   0.999719)   % successful_stolen=0   compromise_house=0   lost_object=1   
   (   1   0))   % successful_stolen=1   compromise_house=0   lost_object=1   
   ((   1   0)   % successful_stolen=0   compromise_house=1   lost_object=1   
   (   1   0))));   % successful_stolen=1   compromise_house=1   lost_object=1   
}

potential ( E_broken_lock | compromise_house   successful_stolen   ) {
   data = 
   (((   0.999862   0.000137627)   % successful_stolen=0   compromise_house=0   
   (   1   0))   % successful_stolen=1   compromise_house=0   
   ((   0.00310559   0.996894)   % successful_stolen=0   compromise_house=1   
   (   0.00234742   0.997653)));   % successful_stolen=1   compromise_house=1   
}

potential ( E_disturbed_house | compromise_house   successful_stolen   ) {
   data = 
   (((   0.999862   0.000137627)   % successful_stolen=0   compromise_house=0   
   (   1   0))   % successful_stolen=1   compromise_house=0   
   ((   0.00310559   0.996894)   % successful_stolen=0   compromise_house=1   
   (   0.00234742   0.997653)));   % successful_stolen=1   compromise_house=1   
}

potential ( E_s_spotted_by_house | target_object   curtains   ) {
   data = 
   (((   0.209264   0.790736)   % curtains=0   target_object=0   
   (   0.045582   0.954418))   % curtains=1   target_object=0   
   ((   0.000420521   0.999579)   % curtains=0   target_object=1   
   (   1   0)));   % curtains=1   target_object=1   
}

potential ( E_s_spotted_with_goodie | compromise_house   successful_stolen   ) {
   data = 
   (((   0.999862   0.000137627)   % successful_stolen=0   compromise_house=0   
   (   1   0))   % successful_stolen=1   compromise_house=0   
   ((   0.425466   0.574534)   % successful_stolen=0   compromise_house=1   
   (   0.00234742   0.997653)));   % successful_stolen=1   compromise_house=1   
}

potential ( E_private | successful_stolen   flees_startled   ) {
   data = 
   (((   0.999845   0.000155231)   % flees_startled=0   successful_stolen=0   
   (   0.0008726   0.999127))   % flees_startled=1   successful_stolen=0   
   ((   0.997653   0.00234742)   % flees_startled=0   successful_stolen=1   
   (   1   0)));   % flees_startled=1   successful_stolen=1   
}


