
net {
  name = K2BN.net;
  software = "aGrUM 0.22.5";
  node_size = (50 50);
}

node lost_object {
   states = (0 1 );
   label = "lost_object";
   ID = "lost_object";
}

node know_object {
   states = (0 1 );
   label = "know_object";
   ID = "know_object";
}

node target_object {
   states = (0 1 );
   label = "target_object";
   ID = "target_object";
}

node motive {
   states = (0 1 );
   label = "motive";
   ID = "motive";
}

node compromise_house {
   states = (0 1 );
   label = "compromise_house";
   ID = "compromise_house";
}

node flees_startled {
   states = (0 1 );
   label = "flees_startled";
   ID = "flees_startled";
}

node successful_stolen {
   states = (0 1 );
   label = "successful_stolen";
   ID = "successful_stolen";
}

node raining {
   states = (0 1 );
   label = "raining";
   ID = "raining";
}

node curtains {
   states = (0 1 );
   label = "curtains";
   ID = "curtains";
}

node E_object_is_gone {
   states = (0 1 );
   label = "E_object_is_gone";
   ID = "E_object_is_gone";
}

node E_broken_lock {
   states = (0 1 );
   label = "E_broken_lock";
   ID = "E_broken_lock";
}

node E_disturbed_house {
   states = (0 1 );
   label = "E_disturbed_house";
   ID = "E_disturbed_house";
}

node E_s_spotted_by_house {
   states = (0 1 );
   label = "E_s_spotted_by_house";
   ID = "E_s_spotted_by_house";
}

node E_s_spotted_with_goodie {
   states = (0 1 );
   label = "E_s_spotted_with_goodie";
   ID = "E_s_spotted_with_goodie";
}

node E_private {
   states = (0 1 );
   label = "E_private";
   ID = "E_private";
}

potential (lost_object) {
   data = (  0.807628 0.192372);
}

potential ( know_object | lost_object   curtains   ) {
   data = 
   (((   0.0476828   0.952317)   % curtains=0   lost_object=0   
   (   0.992103   0.00789712))   % curtains=1   lost_object=0   
   ((   0.989504   0.0104962)   % curtains=0   lost_object=1   
   (   0.968864   0.0311361)));   % curtains=1   lost_object=1   
}

potential ( target_object | know_object   ) {
   data = 
   ((   0.985197   0.0148027)   % know_object=0   
   (   0.524279   0.475721));   % know_object=1   
}

potential ( motive | lost_object   target_object   ) {
   data = 
   (((   0.99816   0.0018403)   % target_object=0   lost_object=0   
   (   0.00484692   0.995153))   % target_object=1   lost_object=0   
   ((   0.993573   0.00642718)   % target_object=0   lost_object=1   
   (   1   0)));   % target_object=1   lost_object=1   
}

potential ( compromise_house | target_object   motive   ) {
   data = 
   (((   1   0)   % motive=0   target_object=0   
   (   1   0))   % motive=1   target_object=0   
   ((   1   0)   % motive=0   target_object=1   
   (   0.541226   0.458774)));   % motive=1   target_object=1   
}

potential ( flees_startled | motive   target_object   ) {
   data = 
   (((   0.987288   0.0127127)   % target_object=0   motive=0   
   (   0.988994   0.0110062))   % target_object=1   motive=0   
   ((   0.988994   0.0110062)   % target_object=0   motive=1   
   (   0.453596   0.546404)));   % target_object=1   motive=1   
}

potential ( successful_stolen | flees_startled   compromise_house   ) {
   data = 
   (((   1   0)   % compromise_house=0   flees_startled=0   
   (   0.0314472   0.968553))   % compromise_house=1   flees_startled=0   
   ((   0.996295   0.00370426)   % compromise_house=0   flees_startled=1   
   (   0.994206   0.00579416)));   % compromise_house=1   flees_startled=1   
}

potential (raining) {
   data = (  0.513918 0.486082);
}

potential (curtains) {
   data = (  0.764829 0.235171);
}

potential ( E_object_is_gone | compromise_house   lost_object   ) {
   data = 
   (((   1   0)   % lost_object=0   compromise_house=0   
   (   0.0158579   0.984142))   % lost_object=1   compromise_house=0   
   ((   0.0184425   0.981557)   % lost_object=0   compromise_house=1   
   (   1   0)));   % lost_object=1   compromise_house=1   
}

potential ( E_broken_lock | successful_stolen   compromise_house   ) {
   data = 
   (((   0.991747   0.00825371)   % compromise_house=0   successful_stolen=0   
   (   0.0104041   0.989596))   % compromise_house=1   successful_stolen=0   
   ((   0.993163   0.00683728)   % compromise_house=0   successful_stolen=1   
   (   0.0131627   0.986837)));   % compromise_house=1   successful_stolen=1   
}

potential ( E_disturbed_house | successful_stolen   compromise_house   ) {
   data = 
   (((   0.997355   0.00264533)   % compromise_house=0   successful_stolen=0   
   (   0.0160125   0.983988))   % compromise_house=1   successful_stolen=0   
   ((   0.998771   0.0012289)   % compromise_house=0   successful_stolen=1   
   (   0.0187711   0.981229)));   % compromise_house=1   successful_stolen=1   
}

potential ( E_s_spotted_by_house | curtains   target_object   ) {
   data = 
   (((   0.358662   0.641338)   % target_object=0   curtains=0   
   (   0   1))   % target_object=1   curtains=0   
   ((   0   1)   % target_object=0   curtains=1   
   (   0.990642   0.00935769)));   % target_object=1   curtains=1   
}

potential ( E_s_spotted_with_goodie | successful_stolen   compromise_house   ) {
   data = 
   (((   0.995905   0.00409531)   % compromise_house=0   successful_stolen=0   
   (   0.0145625   0.985438))   % compromise_house=1   successful_stolen=0   
   ((   0.997321   0.00267888)   % compromise_house=0   successful_stolen=1   
   (   0.0173211   0.982679)));   % compromise_house=1   successful_stolen=1   
}

potential ( E_private | flees_startled   successful_stolen   ) {
   data = 
   (((   1   0)   % successful_stolen=0   flees_startled=0   
   (   0.985304   0.0146964))   % successful_stolen=1   flees_startled=0   
   ((   0.0135003   0.986499)   % successful_stolen=0   flees_startled=1   
   (   1   0)));   % successful_stolen=1   flees_startled=1   
}


