
net {
  name = K2BN.net;
  software = "aGrUM 0.22.5";
  node_size = (50 50);
}

node lost_object {
   states = (0 1 );
   label = "lost_object";
   ID = "lost_object";
}

node know_object {
   states = (0 1 );
   label = "know_object";
   ID = "know_object";
}

node target_object {
   states = (0 1 );
   label = "target_object";
   ID = "target_object";
}

node motive {
   states = (0 1 );
   label = "motive";
   ID = "motive";
}

node compromise_house {
   states = (0 1 );
   label = "compromise_house";
   ID = "compromise_house";
}

node flees_startled {
   states = (0 1 );
   label = "flees_startled";
   ID = "flees_startled";
}

node successful_stolen {
   states = (0 1 );
   label = "successful_stolen";
   ID = "successful_stolen";
}

node raining {
   states = (0 1 );
   label = "raining";
   ID = "raining";
}

node curtains {
   states = (0 1 );
   label = "curtains";
   ID = "curtains";
}

node E_object_is_gone {
   states = (0 1 );
   label = "E_object_is_gone";
   ID = "E_object_is_gone";
}

node E_broken_lock {
   states = (0 1 );
   label = "E_broken_lock";
   ID = "E_broken_lock";
}

node E_disturbed_house {
   states = (0 1 );
   label = "E_disturbed_house";
   ID = "E_disturbed_house";
}

node E_s_spotted_by_house {
   states = (0 1 );
   label = "E_s_spotted_by_house";
   ID = "E_s_spotted_by_house";
}

node E_s_spotted_with_goodie {
   states = (0 1 );
   label = "E_s_spotted_with_goodie";
   ID = "E_s_spotted_with_goodie";
}

node E_private {
   states = (0 1 );
   label = "E_private";
   ID = "E_private";
}

potential (lost_object) {
   data = (  0.80044 0.19956);
}

potential ( know_object | lost_object   curtains   ) {
   data = 
   (((   0.0242509   0.975749)   % curtains=0   lost_object=0   
   (   0.997817   0.00218342))   % curtains=1   lost_object=0   
   ((   0.997868   0.00213245)   % curtains=0   lost_object=1   
   (   0.996522   0.00347867)));   % curtains=1   lost_object=1   
}

potential ( target_object | know_object   ) {
   data = 
   ((   0.990856   0.00914381)   % know_object=0   
   (   0.502227   0.497773));   % know_object=1   
}

potential ( motive | curtains   target_object   ) {
   data = 
   (((   1   0)   % target_object=0   curtains=0   
   (   0.000616161   0.999384))   % target_object=1   curtains=0   
   ((   1   0)   % target_object=0   curtains=1   
   (   1   0)));   % target_object=1   curtains=1   
}

potential ( compromise_house | target_object   motive   ) {
   data = 
   (((   1   0)   % motive=0   target_object=0   
   (   1   0))   % motive=1   target_object=0   
   ((   1   0)   % motive=0   target_object=1   
   (   0.688987   0.311013)));   % motive=1   target_object=1   
}

potential ( flees_startled | target_object   motive   ) {
   data = 
   (((   0.988902   0.0110983)   % motive=0   target_object=0   
   (   0.988994   0.0110062))   % motive=1   target_object=0   
   ((   0.988994   0.0110062)   % motive=0   target_object=1   
   (   0.495203   0.504797)));   % motive=1   target_object=1   
}

potential ( successful_stolen | compromise_house   flees_startled   ) {
   data = 
   (((   1   0)   % flees_startled=0   compromise_house=0   
   (   1   0))   % flees_startled=1   compromise_house=0   
   ((   0.0126127   0.987387)   % flees_startled=0   compromise_house=1   
   (   1   0)));   % flees_startled=1   compromise_house=1   
}

potential (raining) {
   data = (  0.507767 0.492233);
}

potential (curtains) {
   data = (  0.833447 0.166553);
}

potential ( E_object_is_gone | lost_object   compromise_house   successful_stolen   ) {
   data = 
   ((((   1   0)   % successful_stolen=0   compromise_house=0   lost_object=0   
   (   1   0))   % successful_stolen=1   compromise_house=0   lost_object=0   
   ((   0.318533   0.681467)   % successful_stolen=0   compromise_house=1   lost_object=0   
   (   0.00959199   0.990408)))   % successful_stolen=1   compromise_house=1   lost_object=0   
   (((   0.00917429   0.990825)   % successful_stolen=0   compromise_house=0   lost_object=1   
   (   1   0))   % successful_stolen=1   compromise_house=0   lost_object=1   
   ((   1   0)   % successful_stolen=0   compromise_house=1   lost_object=1   
   (   1   0))));   % successful_stolen=1   compromise_house=1   lost_object=1   
}

potential ( E_broken_lock | successful_stolen   compromise_house   ) {
   data = 
   (((   0.993093   0.00690683)   % compromise_house=0   successful_stolen=0   
   (   0   1))   % compromise_house=1   successful_stolen=0   
   ((   0.993163   0.00683728)   % compromise_house=0   successful_stolen=1   
   (   0   1)));   % compromise_house=1   successful_stolen=1   
}

potential ( E_disturbed_house | compromise_house   successful_stolen   ) {
   data = 
   (((   0.998701   0.00129845)   % successful_stolen=0   compromise_house=0   
   (   0.998771   0.0012289))   % successful_stolen=1   compromise_house=0   
   ((   5.64477e-05   0.999944)   % successful_stolen=0   compromise_house=1   
   (   0   1)));   % successful_stolen=1   compromise_house=1   
}

potential ( E_s_spotted_by_house | target_object   motive   lost_object   curtains   know_object   ) {
   data = 
   ((((((   0.990196   0.00980372)   % know_object=0   curtains=0   lost_object=0   motive=0   target_object=0   
   (   0.157077   0.842923))   % know_object=1   curtains=0   lost_object=0   motive=0   target_object=0   
   ((   0.0311363   0.968864)   % know_object=0   curtains=1   lost_object=0   motive=0   target_object=0   
   (   0.990642   0.00935769)))   % know_object=1   curtains=1   lost_object=0   motive=0   target_object=0   
   (((   0.190019   0.809981)   % know_object=0   curtains=0   lost_object=1   motive=0   target_object=0   
   (   0.990642   0.00935769))   % know_object=1   curtains=0   lost_object=1   motive=0   target_object=0   
   ((   0.0330972   0.966903)   % know_object=0   curtains=1   lost_object=1   motive=0   target_object=0   
   (   0.990642   0.00935769))))   % know_object=1   curtains=1   lost_object=1   motive=0   target_object=0   
   ((((   0.990642   0.00935769)   % know_object=0   curtains=0   lost_object=0   motive=1   target_object=0   
   (   0.990642   0.00935769))   % know_object=1   curtains=0   lost_object=0   motive=1   target_object=0   
   ((   0.990642   0.00935769)   % know_object=0   curtains=1   lost_object=0   motive=1   target_object=0   
   (   0.990642   0.00935769)))   % know_object=1   curtains=1   lost_object=0   motive=1   target_object=0   
   (((   0.990642   0.00935769)   % know_object=0   curtains=0   lost_object=1   motive=1   target_object=0   
   (   0.990642   0.00935769))   % know_object=1   curtains=0   lost_object=1   motive=1   target_object=0   
   ((   0.990642   0.00935769)   % know_object=0   curtains=1   lost_object=1   motive=1   target_object=0   
   (   0.990642   0.00935769)))))   % know_object=1   curtains=1   lost_object=1   motive=1   target_object=0   
   (((((   0.990642   0.00935769)   % know_object=0   curtains=0   lost_object=0   motive=0   target_object=1   
   (   0.990642   0.00935769))   % know_object=1   curtains=0   lost_object=0   motive=0   target_object=1   
   ((   0.990642   0.00935769)   % know_object=0   curtains=1   lost_object=0   motive=0   target_object=1   
   (   0.990642   0.00935769)))   % know_object=1   curtains=1   lost_object=0   motive=0   target_object=1   
   (((   0.990642   0.00935769)   % know_object=0   curtains=0   lost_object=1   motive=0   target_object=1   
   (   0.990642   0.00935769))   % know_object=1   curtains=0   lost_object=1   motive=0   target_object=1   
   ((   0.990642   0.00935769)   % know_object=0   curtains=1   lost_object=1   motive=0   target_object=1   
   (   0.990642   0.00935769))))   % know_object=1   curtains=1   lost_object=1   motive=0   target_object=1   
   ((((   0.990642   0.00935769)   % know_object=0   curtains=0   lost_object=0   motive=1   target_object=1   
   (   0   1))   % know_object=1   curtains=0   lost_object=0   motive=1   target_object=1   
   ((   0.990642   0.00935769)   % know_object=0   curtains=1   lost_object=0   motive=1   target_object=1   
   (   0.990642   0.00935769)))   % know_object=1   curtains=1   lost_object=0   motive=1   target_object=1   
   (((   0.990642   0.00935769)   % know_object=0   curtains=0   lost_object=1   motive=1   target_object=1   
   (   0.990642   0.00935769))   % know_object=1   curtains=0   lost_object=1   motive=1   target_object=1   
   ((   0.990642   0.00935769)   % know_object=0   curtains=1   lost_object=1   motive=1   target_object=1   
   (   0.990642   0.00935769))))));   % know_object=1   curtains=1   lost_object=1   motive=1   target_object=1   
}

potential ( E_s_spotted_with_goodie | successful_stolen   compromise_house   ) {
   data = 
   (((   0.997251   0.00274843)   % compromise_house=0   successful_stolen=0   
   (   0.296807   0.703193))   % compromise_house=1   successful_stolen=0   
   ((   0.997321   0.00267888)   % compromise_house=0   successful_stolen=1   
   (   0   1)));   % compromise_house=1   successful_stolen=1   
}

potential ( E_private | flees_startled   successful_stolen   ) {
   data = 
   (((   1   0)   % successful_stolen=0   flees_startled=0   
   (   1   0))   % successful_stolen=1   flees_startled=0   
   ((   0.00569633   0.994303)   % successful_stolen=0   flees_startled=1   
   (   1   0)));   % successful_stolen=1   flees_startled=1   
}


