
net {
  name = K2BN.net;
  software = "aGrUM 0.22.5";
  node_size = (50 50);
}

node lost_object {
   states = (0 1 );
   label = "lost_object";
   ID = "lost_object";
}

node know_object {
   states = (0 1 );
   label = "know_object";
   ID = "know_object";
}

node target_object {
   states = (0 1 );
   label = "target_object";
   ID = "target_object";
}

node motive {
   states = (0 1 );
   label = "motive";
   ID = "motive";
}

node compromise_house {
   states = (0 1 );
   label = "compromise_house";
   ID = "compromise_house";
}

node flees_startled {
   states = (0 1 );
   label = "flees_startled";
   ID = "flees_startled";
}

node successful_stolen {
   states = (0 1 );
   label = "successful_stolen";
   ID = "successful_stolen";
}

node raining {
   states = (0 1 );
   label = "raining";
   ID = "raining";
}

node curtains {
   states = (0 1 );
   label = "curtains";
   ID = "curtains";
}

node E_object_is_gone {
   states = (0 1 );
   label = "E_object_is_gone";
   ID = "E_object_is_gone";
}

node E_broken_lock {
   states = (0 1 );
   label = "E_broken_lock";
   ID = "E_broken_lock";
}

node E_disturbed_house {
   states = (0 1 );
   label = "E_disturbed_house";
   ID = "E_disturbed_house";
}

node E_s_spotted_by_house {
   states = (0 1 );
   label = "E_s_spotted_by_house";
   ID = "E_s_spotted_by_house";
}

node E_s_spotted_with_goodie {
   states = (0 1 );
   label = "E_s_spotted_with_goodie";
   ID = "E_s_spotted_with_goodie";
}

node E_private {
   states = (0 1 );
   label = "E_private";
   ID = "E_private";
}

potential (lost_object) {
   data = (  0.749461 0.250539);
}

potential ( know_object | lost_object   curtains   ) {
   data = 
   (((   0.00973175   0.990268)   % curtains=0   lost_object=0   
   (   0.954152   0.0458482))   % curtains=1   lost_object=0   
   ((   0.951553   0.0484473)   % curtains=0   lost_object=1   
   (   0.930913   0.0690872)));   % curtains=1   lost_object=1   
}

potential ( target_object | know_object   ) {
   data = 
   ((   0.925259   0.0747414)   % know_object=0   
   (   0.464341   0.535659));   % know_object=1   
}

potential ( motive | lost_object   target_object   ) {
   data = 
   (((   0.913217   0.086783)   % target_object=0   lost_object=0   
   (   0   1))   % target_object=1   lost_object=0   
   ((   0.90863   0.0913699)   % target_object=0   lost_object=1   
   (   0.915479   0.0845206)));   % target_object=1   lost_object=1   
}

potential ( compromise_house | target_object   motive   ) {
   data = 
   (((   0.931169   0.0688311)   % motive=0   target_object=0   
   (   0.932875   0.0671246))   % motive=1   target_object=0   
   ((   0.932875   0.0671246)   % motive=0   target_object=1   
   (   0.468273   0.531727)));   % motive=1   target_object=1   
}

potential ( flees_startled | motive   target_object   ) {
   data = 
   (((   0.997028   0.00297294)   % target_object=0   motive=0   
   (   0.998734   0.00126646))   % target_object=1   motive=0   
   ((   0.998734   0.00126646)   % target_object=0   motive=1   
   (   0.463336   0.536664)));   % target_object=1   motive=1   
}

potential ( successful_stolen | flees_startled   compromise_house   ) {
   data = 
   (((   0.886711   0.113289)   % compromise_house=0   flees_startled=0   
   (   0   1))   % compromise_house=1   flees_startled=0   
   ((   0.873117   0.126883)   % compromise_house=0   flees_startled=1   
   (   0.871028   0.128972)));   % compromise_house=1   flees_startled=1   
}

potential (raining) {
   data = (  0.528344 0.471656);
}

potential (curtains) {
   data = (  0.925784 0.0742158);
}

potential ( E_object_is_gone | compromise_house   lost_object   ) {
   data = 
   (((   1   0)   % lost_object=0   compromise_house=0   
   (   0.0810537   0.918947))   % lost_object=1   compromise_house=0   
   ((   0.0836384   0.916362)   % lost_object=0   compromise_house=1   
   (   1   0)));   % lost_object=1   compromise_house=1   
}

potential ( E_broken_lock | successful_stolen   compromise_house   ) {
   data = 
   (((   0.9794   0.0206)   % compromise_house=0   successful_stolen=0   
   (   0   1))   % compromise_house=1   successful_stolen=0   
   ((   0.980816   0.0191836)   % compromise_house=0   successful_stolen=1   
   (   0.000816444   0.999184)));   % compromise_house=1   successful_stolen=1   
}

potential ( E_disturbed_house | successful_stolen   compromise_house   ) {
   data = 
   (((   0.909821   0.0901793)   % compromise_house=0   successful_stolen=0   
   (   0   1))   % compromise_house=1   successful_stolen=0   
   ((   0.911237   0.0887629)   % compromise_house=0   successful_stolen=1   
   (   0   1)));   % compromise_house=1   successful_stolen=1   
}

potential ( E_s_spotted_by_house | curtains   target_object   ) {
   data = 
   (((   0.293304   0.706696)   % target_object=0   curtains=0   
   (   0   1))   % target_object=1   curtains=0   
   ((   0   1)   % target_object=0   curtains=1   
   (   0.925284   0.0747158)));   % target_object=1   curtains=1   
}

potential ( E_s_spotted_with_goodie | successful_stolen   compromise_house   ) {
   data = 
   (((   1   0)   % compromise_house=0   successful_stolen=0   
   (   0.186487   0.813514))   % compromise_house=1   successful_stolen=0   
   ((   1   0)   % compromise_house=0   successful_stolen=1   
   (   0.189245   0.810755)));   % compromise_house=1   successful_stolen=1   
}

potential ( E_private | flees_startled   successful_stolen   ) {
   data = 
   (((   1   0)   % successful_stolen=0   flees_startled=0   
   (   0.985081   0.0149192))   % successful_stolen=1   flees_startled=0   
   ((   0.0132775   0.986722)   % successful_stolen=0   flees_startled=1   
   (   1   0)));   % successful_stolen=1   flees_startled=1   
}


