
net {
  name = K2BN.net;
  software = "aGrUM 0.22.5";
  node_size = (50 50);
}

node lost_object {
   states = (0 1 );
   label = "lost_object";
   ID = "lost_object";
}

node know_object {
   states = (0 1 );
   label = "know_object";
   ID = "know_object";
}

node target_object {
   states = (0 1 );
   label = "target_object";
   ID = "target_object";
}

node motive {
   states = (0 1 );
   label = "motive";
   ID = "motive";
}

node compromise_house {
   states = (0 1 );
   label = "compromise_house";
   ID = "compromise_house";
}

node flees_startled {
   states = (0 1 );
   label = "flees_startled";
   ID = "flees_startled";
}

node successful_stolen {
   states = (0 1 );
   label = "successful_stolen";
   ID = "successful_stolen";
}

node raining {
   states = (0 1 );
   label = "raining";
   ID = "raining";
}

node curtains {
   states = (0 1 );
   label = "curtains";
   ID = "curtains";
}

node E_object_is_gone {
   states = (0 1 );
   label = "E_object_is_gone";
   ID = "E_object_is_gone";
}

node E_broken_lock {
   states = (0 1 );
   label = "E_broken_lock";
   ID = "E_broken_lock";
}

node E_disturbed_house {
   states = (0 1 );
   label = "E_disturbed_house";
   ID = "E_disturbed_house";
}

node E_s_spotted_by_house {
   states = (0 1 );
   label = "E_s_spotted_by_house";
   ID = "E_s_spotted_by_house";
}

node E_s_spotted_with_goodie {
   states = (0 1 );
   label = "E_s_spotted_with_goodie";
   ID = "E_s_spotted_with_goodie";
}

node E_private {
   states = (0 1 );
   label = "E_private";
   ID = "E_private";
}

potential (lost_object) {
   data = (  0.802873 0.197127);
}

potential ( know_object | lost_object   curtains   ) {
   data = 
   (((   0.0353768   0.964623)   % curtains=0   lost_object=0   
   (   0.99752   0.00248071))   % curtains=1   lost_object=0   
   ((   0.997438   0.0025618)   % curtains=0   lost_object=1   
   (   0.99492   0.00507998)));   % curtains=1   lost_object=1   
}

potential ( target_object | know_object   ) {
   data = 
   ((   0.990555   0.00944436)   % know_object=0   
   (   0.505587   0.494413));   % know_object=1   
}

potential ( motive | lost_object   target_object   ) {
   data = 
   (((   1   0)   % target_object=0   lost_object=0   
   (   0.000832983   0.999167))   % target_object=1   lost_object=0   
   ((   0.999751   0.000249004)   % target_object=0   lost_object=1   
   (   1   0)));   % target_object=1   lost_object=1   
}

potential ( compromise_house | target_object   motive   ) {
   data = 
   (((   1   0)   % motive=0   target_object=0   
   (   1   0))   % motive=1   target_object=0   
   ((   1   0)   % motive=0   target_object=1   
   (   0.703034   0.296966)));   % motive=1   target_object=1   
}

potential ( flees_startled | motive   target_object   ) {
   data = 
   (((   0.988815   0.0111855)   % target_object=0   motive=0   
   (   0.988994   0.0110062))   % target_object=1   motive=0   
   ((   0.988994   0.0110062)   % target_object=0   motive=1   
   (   0.485707   0.514293)));   % target_object=1   motive=1   
}

potential ( successful_stolen | flees_startled   compromise_house   ) {
   data = 
   (((   1   0)   % compromise_house=0   flees_startled=0   
   (   0.0138863   0.986114))   % compromise_house=1   flees_startled=0   
   ((   1   0)   % compromise_house=0   flees_startled=1   
   (   1   0)));   % compromise_house=1   flees_startled=1   
}

potential (raining) {
   data = (  0.522489 0.477511);
}

potential (curtains) {
   data = (  0.802929 0.197071);
}

potential ( E_object_is_gone | successful_stolen   compromise_house   lost_object   ) {
   data = 
   ((((   1   0)   % lost_object=0   compromise_house=0   successful_stolen=0   
   (   0.00934436   0.990655))   % lost_object=1   compromise_house=0   successful_stolen=0   
   ((   0.350954   0.649046)   % lost_object=0   compromise_house=1   successful_stolen=0   
   (   1   0)))   % lost_object=1   compromise_house=1   successful_stolen=0   
   (((   1   0)   % lost_object=0   compromise_house=0   successful_stolen=1   
   (   1   0))   % lost_object=1   compromise_house=0   successful_stolen=1   
   ((   0.010231   0.989769)   % lost_object=0   compromise_house=1   successful_stolen=1   
   (   1   0))));   % lost_object=1   compromise_house=1   successful_stolen=1   
}

potential ( E_broken_lock | successful_stolen   compromise_house   ) {
   data = 
   (((   0.993026   0.00697475)   % compromise_house=0   successful_stolen=0   
   (   0   1))   % compromise_house=1   successful_stolen=0   
   ((   0.993163   0.00683728)   % compromise_house=0   successful_stolen=1   
   (   0   1)));   % compromise_house=1   successful_stolen=1   
}

potential ( E_disturbed_house | successful_stolen   compromise_house   ) {
   data = 
   (((   0.998634   0.00136638)   % compromise_house=0   successful_stolen=0   
   (   0.0018014   0.998199))   % compromise_house=1   successful_stolen=0   
   ((   0.998771   0.0012289)   % compromise_house=0   successful_stolen=1   
   (   0.00121012   0.99879)));   % compromise_house=1   successful_stolen=1   
}

potential ( E_s_spotted_by_house | curtains   target_object   ) {
   data = 
   (((   0.2231   0.7769)   % target_object=0   curtains=0   
   (   0   1))   % target_object=1   curtains=0   
   ((   0.0308154   0.969185)   % target_object=0   curtains=1   
   (   0.990642   0.00935769)));   % target_object=1   curtains=1   
}

potential ( E_s_spotted_with_goodie | successful_stolen   compromise_house   ) {
   data = 
   (((   0.997184   0.00281636)   % compromise_house=0   successful_stolen=0   
   (   0.315503   0.684497))   % compromise_house=1   successful_stolen=0   
   ((   0.997321   0.00267888)   % compromise_house=0   successful_stolen=1   
   (   0   1)));   % compromise_house=1   successful_stolen=1   
}

potential ( E_private | flees_startled   successful_stolen   ) {
   data = 
   (((   1   0)   % successful_stolen=0   flees_startled=0   
   (   1   0))   % successful_stolen=1   flees_startled=0   
   ((   0.00611922   0.99388)   % successful_stolen=0   flees_startled=1   
   (   1   0)));   % successful_stolen=1   flees_startled=1   
}


