
net {
  name = K2BN.net;
  software = "aGrUM 0.22.5";
  node_size = (50 50);
}

node lost_object {
   states = (0 1 );
   label = "lost_object";
   ID = "lost_object";
}

node know_object {
   states = (0 1 );
   label = "know_object";
   ID = "know_object";
}

node target_object {
   states = (0 1 );
   label = "target_object";
   ID = "target_object";
}

node motive {
   states = (0 1 );
   label = "motive";
   ID = "motive";
}

node compromise_house {
   states = (0 1 );
   label = "compromise_house";
   ID = "compromise_house";
}

node flees_startled {
   states = (0 1 );
   label = "flees_startled";
   ID = "flees_startled";
}

node successful_stolen {
   states = (0 1 );
   label = "successful_stolen";
   ID = "successful_stolen";
}

node raining {
   states = (0 1 );
   label = "raining";
   ID = "raining";
}

node curtains {
   states = (0 1 );
   label = "curtains";
   ID = "curtains";
}

node E_object_is_gone {
   states = (0 1 );
   label = "E_object_is_gone";
   ID = "E_object_is_gone";
}

node E_broken_lock {
   states = (0 1 );
   label = "E_broken_lock";
   ID = "E_broken_lock";
}

node E_disturbed_house {
   states = (0 1 );
   label = "E_disturbed_house";
   ID = "E_disturbed_house";
}

node E_s_spotted_by_house {
   states = (0 1 );
   label = "E_s_spotted_by_house";
   ID = "E_s_spotted_by_house";
}

node E_s_spotted_with_goodie {
   states = (0 1 );
   label = "E_s_spotted_with_goodie";
   ID = "E_s_spotted_with_goodie";
}

node E_private {
   states = (0 1 );
   label = "E_private";
   ID = "E_private";
}

potential (lost_object) {
   data = (  0.711772 0.288228);
}

potential ( know_object | curtains   lost_object   ) {
   data = 
   (((   0   1)   % lost_object=0   curtains=0   
   (   0.959657   0.0403429))   % lost_object=1   curtains=0   
   ((   0.959525   0.0404754)   % lost_object=0   curtains=1   
   (   0.956449   0.0435513)));   % lost_object=1   curtains=1   
}

potential ( target_object | know_object   ) {
   data = 
   ((   0.930631   0.0693692)   % know_object=0   
   (   0.419965   0.580035));   % know_object=1   
}

potential ( motive | curtains   target_object   ) {
   data = 
   (((   0.915228   0.0847719)   % target_object=0   curtains=0   
   (   0   1))   % target_object=1   curtains=0   
   ((   0.914815   0.0851846)   % target_object=0   curtains=1   
   (   0.915479   0.0845206)));   % target_object=1   curtains=1   
}

potential ( compromise_house | target_object   motive   ) {
   data = 
   (((   0.932693   0.067307)   % motive=0   target_object=0   
   (   0.932875   0.0671246))   % motive=1   target_object=0   
   ((   0.932875   0.0671246)   % motive=0   target_object=1   
   (   0.581492   0.418508)));   % motive=1   target_object=1   
}

potential ( flees_startled | motive   target_object   ) {
   data = 
   (((   0.998552   0.00144887)   % target_object=0   motive=0   
   (   0.998734   0.00126646))   % target_object=1   motive=0   
   ((   0.998734   0.00126646)   % target_object=0   motive=1   
   (   0.511382   0.488618)));   % target_object=1   motive=1   
}

potential ( successful_stolen | flees_startled   compromise_house   ) {
   data = 
   (((   0.888109   0.111891)   % compromise_house=0   flees_startled=0   
   (   0   1))   % compromise_house=1   flees_startled=0   
   ((   0.887114   0.112886)   % compromise_house=0   flees_startled=1   
   (   0.885566   0.114434)));   % compromise_house=1   flees_startled=1   
}

potential (raining) {
   data = (  0.518951 0.481049);
}

potential (curtains) {
   data = (  0.977856 0.0221438);
}

potential ( E_object_is_gone | successful_stolen   compromise_house   lost_object   ) {
   data = 
   ((((   1   0)   % lost_object=0   compromise_house=0   successful_stolen=0   
   (   0.0744896   0.925511))   % lost_object=1   compromise_house=0   successful_stolen=0   
   ((   0.400762   0.599238)   % lost_object=0   compromise_house=1   successful_stolen=0   
   (   1   0)))   % lost_object=1   compromise_house=1   successful_stolen=0   
   (((   1   0)   % lost_object=0   compromise_house=0   successful_stolen=1   
   (   1   0))   % lost_object=1   compromise_house=0   successful_stolen=1   
   ((   0.0751641   0.924836)   % lost_object=0   compromise_house=1   successful_stolen=1   
   (   1   0))));   % lost_object=1   compromise_house=1   successful_stolen=1   
}

potential ( E_broken_lock | successful_stolen   compromise_house   ) {
   data = 
   (((   0.980676   0.019324)   % compromise_house=0   successful_stolen=0   
   (   0   1))   % compromise_house=1   successful_stolen=0   
   ((   0.980816   0.0191836)   % compromise_house=0   successful_stolen=1   
   (   0   1)));   % compromise_house=1   successful_stolen=1   
}

potential ( E_disturbed_house | successful_stolen   compromise_house   ) {
   data = 
   (((   0.911097   0.0889033)   % compromise_house=0   successful_stolen=0   
   (   0   1))   % compromise_house=1   successful_stolen=0   
   ((   0.911237   0.0887629)   % compromise_house=0   successful_stolen=1   
   (   0   1)));   % compromise_house=1   successful_stolen=1   
}

potential ( E_s_spotted_by_house | curtains   target_object   ) {
   data = 
   (((   0.152785   0.847215)   % target_object=0   curtains=0   
   (   0   1))   % target_object=1   curtains=0   
   ((   0   1)   % target_object=0   curtains=1   
   (   0.925284   0.0747158)));   % target_object=1   curtains=1   
}

potential ( E_s_spotted_with_goodie | successful_stolen   compromise_house   ) {
   data = 
   (((   1   0)   % compromise_house=0   successful_stolen=0   
   (   0.496272   0.503728))   % compromise_house=1   successful_stolen=0   
   ((   1   0)   % compromise_house=0   successful_stolen=1   
   (   0.171161   0.828839)));   % compromise_house=1   successful_stolen=1   
}

potential ( E_private | flees_startled   successful_stolen   ) {
   data = 
   (((   1   0)   % successful_stolen=0   flees_startled=0   
   (   1   0))   % successful_stolen=1   flees_startled=0   
   ((   0.00589115   0.994109)   % successful_stolen=0   flees_startled=1   
   (   1   0)));   % successful_stolen=1   flees_startled=1   
}


