
net {
  name = K2BN.net;
  software = "aGrUM 0.22.5";
  node_size = (50 50);
}

node lost_object {
   states = (0 1 );
   label = "lost_object";
   ID = "lost_object";
}

node know_object {
   states = (0 1 );
   label = "know_object";
   ID = "know_object";
}

node target_object {
   states = (0 1 );
   label = "target_object";
   ID = "target_object";
}

node motive {
   states = (0 1 );
   label = "motive";
   ID = "motive";
}

node compromise_house {
   states = (0 1 );
   label = "compromise_house";
   ID = "compromise_house";
}

node flees_startled {
   states = (0 1 );
   label = "flees_startled";
   ID = "flees_startled";
}

node successful_stolen {
   states = (0 1 );
   label = "successful_stolen";
   ID = "successful_stolen";
}

node raining {
   states = (0 1 );
   label = "raining";
   ID = "raining";
}

node curtains {
   states = (0 1 );
   label = "curtains";
   ID = "curtains";
}

node E_object_is_gone {
   states = (0 1 );
   label = "E_object_is_gone";
   ID = "E_object_is_gone";
}

node E_broken_lock {
   states = (0 1 );
   label = "E_broken_lock";
   ID = "E_broken_lock";
}

node E_disturbed_house {
   states = (0 1 );
   label = "E_disturbed_house";
   ID = "E_disturbed_house";
}

node E_s_spotted_by_house {
   states = (0 1 );
   label = "E_s_spotted_by_house";
   ID = "E_s_spotted_by_house";
}

node E_s_spotted_with_goodie {
   states = (0 1 );
   label = "E_s_spotted_with_goodie";
   ID = "E_s_spotted_with_goodie";
}

node E_private {
   states = (0 1 );
   label = "E_private";
   ID = "E_private";
}

potential (lost_object) {
   data = (  0.592308 0.407692);
}

potential ( know_object | lost_object   curtains   ) {
   data = 
   (((   0.425268   0.574733)   % curtains=0   lost_object=0   
   (   1   0))   % curtains=1   lost_object=0   
   ((   1   0)   % curtains=0   lost_object=1   
   (   1   0)));   % curtains=1   lost_object=1   
}

potential ( target_object | know_object   ) {
   data = 
   ((   1   0)   % know_object=0   
   (   0.686937   0.313063));   % know_object=1   
}

potential ( motive | lost_object   target_object   ) {
   data = 
   (((   0.90831   0.0916903)   % target_object=0   lost_object=0   
   (   0   1))   % target_object=1   lost_object=0   
   ((   0.903723   0.0962772)   % target_object=0   lost_object=1   
   (   0.910572   0.0894279)));   % target_object=1   lost_object=1   
}

potential ( compromise_house | target_object   motive   ) {
   data = 
   (((   1   0)   % motive=0   target_object=0   
   (   1   0))   % motive=1   target_object=0   
   ((   1   0)   % motive=0   target_object=1   
   (   0.681953   0.318047)));   % motive=1   target_object=1   
}

potential ( flees_startled | motive   target_object   ) {
   data = 
   (((   0.975622   0.024378)   % target_object=0   motive=0   
   (   0.977328   0.0226715))   % target_object=1   motive=0   
   ((   0.977328   0.0226715)   % target_object=0   motive=1   
   (   0.44193   0.55807)));   % target_object=1   motive=1   
}

potential ( successful_stolen | flees_startled   compromise_house   ) {
   data = 
   (((   1   0)   % compromise_house=0   flees_startled=0   
   (   0.359489   0.640511))   % compromise_house=1   flees_startled=0   
   ((   1   0)   % compromise_house=0   flees_startled=1   
   (   1   0)));   % compromise_house=1   flees_startled=1   
}

potential (raining) {
   data = (  0.960847 0.0391529);
}

potential (curtains) {
   data = (  1 0);
}

potential ( E_object_is_gone | compromise_house   lost_object   ) {
   data = 
   (((   0.579272   0.420728)   % lost_object=0   compromise_house=0   
   (   0   1))   % lost_object=1   compromise_house=0   
   ((   0   1)   % lost_object=0   compromise_house=1   
   (   0.581051   0.418949)));   % lost_object=1   compromise_house=1   
}

potential ( E_broken_lock | successful_stolen   compromise_house   ) {
   data = 
   (((   0.56535   0.434651)   % compromise_house=0   successful_stolen=0   
   (   0   1))   % compromise_house=1   successful_stolen=0   
   ((   0.566766   0.433234)   % compromise_house=0   successful_stolen=1   
   (   0   1)));   % compromise_house=1   successful_stolen=1   
}

potential ( E_disturbed_house | successful_stolen   compromise_house   ) {
   data = 
   (((   0.847244   0.152756)   % compromise_house=0   successful_stolen=0   
   (   0   1))   % compromise_house=1   successful_stolen=0   
   ((   0.84866   0.15134)   % compromise_house=0   successful_stolen=1   
   (   0   1)));   % compromise_house=1   successful_stolen=1   
}

potential ( E_s_spotted_by_house | curtains   target_object   ) {
   data = 
   (((   0.416031   0.583969)   % target_object=0   curtains=0   
   (   0.0524359   0.947564))   % target_object=1   curtains=0   
   ((   0.0531658   0.946834)   % target_object=0   curtains=1   
   (   1   0)));   % target_object=1   curtains=1   
}

potential ( E_s_spotted_with_goodie | successful_stolen   compromise_house   ) {
   data = 
   (((   1   0)   % compromise_house=0   successful_stolen=0   
   (   0.280092   0.719908))   % compromise_house=1   successful_stolen=0   
   ((   1   0)   % compromise_house=0   successful_stolen=1   
   (   0.282851   0.717149)));   % compromise_house=1   successful_stolen=1   
}

potential ( E_private | flees_startled   successful_stolen   ) {
   data = 
   (((   1   0)   % successful_stolen=0   flees_startled=0   
   (   1   0))   % successful_stolen=1   flees_startled=0   
   ((   0.102887   0.897113)   % successful_stolen=0   flees_startled=1   
   (   1   0)));   % successful_stolen=1   flees_startled=1   
}


