
net {
  name = K2BN.net;
  software = "aGrUM 0.22.5";
  node_size = (50 50);
}

node lost_object {
   states = (0 1 );
   label = "lost_object";
   ID = "lost_object";
}

node know_object {
   states = (0 1 );
   label = "know_object";
   ID = "know_object";
}

node target_object {
   states = (0 1 );
   label = "target_object";
   ID = "target_object";
}

node motive {
   states = (0 1 );
   label = "motive";
   ID = "motive";
}

node compromise_house {
   states = (0 1 );
   label = "compromise_house";
   ID = "compromise_house";
}

node flees_startled {
   states = (0 1 );
   label = "flees_startled";
   ID = "flees_startled";
}

node successful_stolen {
   states = (0 1 );
   label = "successful_stolen";
   ID = "successful_stolen";
}

node raining {
   states = (0 1 );
   label = "raining";
   ID = "raining";
}

node curtains {
   states = (0 1 );
   label = "curtains";
   ID = "curtains";
}

node E_object_is_gone {
   states = (0 1 );
   label = "E_object_is_gone";
   ID = "E_object_is_gone";
}

node E_broken_lock {
   states = (0 1 );
   label = "E_broken_lock";
   ID = "E_broken_lock";
}

node E_disturbed_house {
   states = (0 1 );
   label = "E_disturbed_house";
   ID = "E_disturbed_house";
}

node E_s_spotted_by_house {
   states = (0 1 );
   label = "E_s_spotted_by_house";
   ID = "E_s_spotted_by_house";
}

node E_s_spotted_with_goodie {
   states = (0 1 );
   label = "E_s_spotted_with_goodie";
   ID = "E_s_spotted_with_goodie";
}

node E_private {
   states = (0 1 );
   label = "E_private";
   ID = "E_private";
}

potential (lost_object) {
   data = (  0.815496 0.184504);
}

potential ( know_object | lost_object   curtains   ) {
   data = 
   (((   0.0364893   0.963511)   % curtains=0   lost_object=0   
   (   0.998632   0.00136819))   % curtains=1   lost_object=0   
   ((   0.99855   0.00144928)   % curtains=0   lost_object=1   
   (   0.996032   0.00396746)));   % curtains=1   lost_object=1   
}

potential ( target_object | know_object   ) {
   data = 
   ((   0.998806   0.00119395)   % know_object=0   
   (   0.513838   0.486162));   % know_object=1   
}

potential ( motive | lost_object   target_object   ) {
   data = 
   (((   0.998683   0.00131747)   % target_object=0   lost_object=0   
   (   0   1))   % target_object=1   lost_object=0   
   ((   0.998256   0.00174411)   % target_object=0   lost_object=1   
   (   0.998927   0.00107297)));   % target_object=1   lost_object=1   
}

potential ( compromise_house | target_object   motive   ) {
   data = 
   (((   1   0)   % motive=0   target_object=0   
   (   1   0))   % motive=1   target_object=0   
   ((   1   0)   % motive=0   target_object=1   
   (   0.698071   0.301929)));   % motive=1   target_object=1   
}

potential ( flees_startled | motive   target_object   ) {
   data = 
   (((   0.997519   0.00248081)   % target_object=0   motive=0   
   (   0.997698   0.00230154))   % target_object=1   motive=0   
   ((   0.997698   0.00230154)   % target_object=0   motive=1   
   (   0.494411   0.505589)));   % target_object=1   motive=1   
}

potential ( successful_stolen | flees_startled   compromise_house   ) {
   data = 
   (((   1   0)   % compromise_house=0   flees_startled=0   
   (   0.00418383   0.995816))   % compromise_house=1   flees_startled=0   
   ((   1   0)   % compromise_house=0   flees_startled=1   
   (   0.998715   0.00128549)));   % compromise_house=1   flees_startled=1   
}

potential (raining) {
   data = (  0.512712 0.487288);
}

potential (curtains) {
   data = (  0.798223 0.201777);
}

potential ( E_object_is_gone | successful_stolen   compromise_house   lost_object   ) {
   data = 
   ((((   0.999665   0.000335801)   % lost_object=0   compromise_house=0   successful_stolen=0   
   (   8.64256e-05   0.999913))   % lost_object=1   compromise_house=0   successful_stolen=0   
   ((   0.341696   0.658304)   % lost_object=0   compromise_house=1   successful_stolen=0   
   (   0.999751   0.00024937)))   % lost_object=1   compromise_house=1   successful_stolen=0   
   (((   0.999751   0.00024937)   % lost_object=0   compromise_house=0   successful_stolen=1   
   (   0.999751   0.00024937))   % lost_object=1   compromise_house=0   successful_stolen=1   
   ((   0.00097312   0.999027)   % lost_object=0   compromise_house=1   successful_stolen=1   
   (   0.999751   0.00024937))));   % lost_object=1   compromise_house=1   successful_stolen=1   
}

potential ( E_broken_lock | successful_stolen   compromise_house   ) {
   data = 
   (((   1   0)   % compromise_house=0   successful_stolen=0   
   (   0.00449241   0.995508))   % compromise_house=1   successful_stolen=0   
   ((   1   0)   % compromise_house=0   successful_stolen=1   
   (   0.00390113   0.996099)));   % compromise_house=1   successful_stolen=1   
}

potential ( E_disturbed_house | successful_stolen   compromise_house   ) {
   data = 
   (((   0.997803   0.00219762)   % compromise_house=0   successful_stolen=0   
   (   0.000970159   0.99903))   % compromise_house=1   successful_stolen=0   
   ((   0.99794   0.00206014)   % compromise_house=0   successful_stolen=1   
   (   0.000378879   0.999621)));   % compromise_house=1   successful_stolen=1   
}

potential ( E_s_spotted_by_house | curtains   target_object   ) {
   data = 
   (((   0.232136   0.767864)   % target_object=0   curtains=0   
   (   8.84288e-05   0.999911))   % target_object=1   curtains=0   
   ((   0.0398507   0.960149)   % target_object=0   curtains=1   
   (   0.999678   0.000322417)));   % target_object=1   curtains=1   
}

potential ( E_s_spotted_with_goodie | successful_stolen   compromise_house   ) {
   data = 
   (((   0.999479   0.00052153)   % compromise_house=0   successful_stolen=0   
   (   0.317798   0.682202))   % compromise_house=1   successful_stolen=0   
   ((   0.999616   0.000384054)   % compromise_house=0   successful_stolen=1   
   (   0.00205497   0.997945)));   % compromise_house=1   successful_stolen=1   
}

potential ( E_private | flees_startled   successful_stolen   ) {
   data = 
   (((   1   0)   % successful_stolen=0   flees_startled=0   
   (   0.998695   0.00130525))   % successful_stolen=1   flees_startled=0   
   ((   0.00194943   0.99805)   % successful_stolen=0   flees_startled=1   
   (   1   0)));   % successful_stolen=1   flees_startled=1   
}


