
net {
  name = K2BN.net;
  software = "aGrUM 0.22.5";
  node_size = (50 50);
}

node lost_object {
   states = (0 1 );
   label = "lost_object";
   ID = "lost_object";
}

node know_object {
   states = (0 1 );
   label = "know_object";
   ID = "know_object";
}

node target_object {
   states = (0 1 );
   label = "target_object";
   ID = "target_object";
}

node motive {
   states = (0 1 );
   label = "motive";
   ID = "motive";
}

node compromise_house {
   states = (0 1 );
   label = "compromise_house";
   ID = "compromise_house";
}

node flees_startled {
   states = (0 1 );
   label = "flees_startled";
   ID = "flees_startled";
}

node successful_stolen {
   states = (0 1 );
   label = "successful_stolen";
   ID = "successful_stolen";
}

node raining {
   states = (0 1 );
   label = "raining";
   ID = "raining";
}

node curtains {
   states = (0 1 );
   label = "curtains";
   ID = "curtains";
}

node E_object_is_gone {
   states = (0 1 );
   label = "E_object_is_gone";
   ID = "E_object_is_gone";
}

node E_broken_lock {
   states = (0 1 );
   label = "E_broken_lock";
   ID = "E_broken_lock";
}

node E_disturbed_house {
   states = (0 1 );
   label = "E_disturbed_house";
   ID = "E_disturbed_house";
}

node E_s_spotted_by_house {
   states = (0 1 );
   label = "E_s_spotted_by_house";
   ID = "E_s_spotted_by_house";
}

node E_s_spotted_with_goodie {
   states = (0 1 );
   label = "E_s_spotted_with_goodie";
   ID = "E_s_spotted_with_goodie";
}

node E_private {
   states = (0 1 );
   label = "E_private";
   ID = "E_private";
}

potential (lost_object) {
   data = (  0.813063 0.186937);
}

potential ( know_object | lost_object   curtains   ) {
   data = 
   (((   0.0253634   0.974637)   % curtains=0   lost_object=0   
   (   0.998929   0.00107089))   % curtains=1   lost_object=0   
   ((   0.99898   0.00101992)   % curtains=0   lost_object=1   
   (   0.997634   0.00236615)));   % curtains=1   lost_object=1   
}

potential ( target_object | know_object   ) {
   data = 
   ((   0.999107   0.000893402)   % know_object=0   
   (   0.510478   0.489522));   % know_object=1   
}

potential ( motive | curtains   target_object   ) {
   data = 
   (((   0.998804   0.00119621)   % target_object=0   curtains=0   
   (   0   1))   % target_object=1   curtains=0   
   ((   0.998563   0.00143713)   % target_object=0   curtains=1   
   (   0.998927   0.00107297)));   % target_object=1   curtains=1   
}

potential ( compromise_house | target_object   motive   ) {
   data = 
   (((   1   0)   % motive=0   target_object=0   
   (   1   0))   % motive=1   target_object=0   
   ((   1   0)   % motive=0   target_object=1   
   (   0.684024   0.315976)));   % motive=1   target_object=1   
}

potential ( flees_startled | target_object   motive   ) {
   data = 
   (((   0.997606   0.00239364)   % motive=0   target_object=0   
   (   0.997698   0.00230154))   % motive=1   target_object=0   
   ((   0.997698   0.00230154)   % motive=0   target_object=1   
   (   0.503907   0.496093)));   % motive=1   target_object=1   
}

potential ( successful_stolen | compromise_house   flees_startled   ) {
   data = 
   (((   1   0)   % flees_startled=0   compromise_house=0   
   (   1   0))   % flees_startled=1   compromise_house=0   
   ((   0.00291031   0.997089)   % flees_startled=0   compromise_house=1   
   (   1   0)));   % flees_startled=1   compromise_house=1   
}

potential (raining) {
   data = (  0.49799 0.50201);
}

potential (curtains) {
   data = (  0.828741 0.171259);
}

potential ( E_object_is_gone | lost_object   compromise_house   successful_stolen   ) {
   data = 
   ((((   0.999707   0.000293381)   % successful_stolen=0   compromise_house=0   lost_object=0   
   (   0.999751   0.00024937))   % successful_stolen=1   compromise_house=0   lost_object=0   
   ((   0.309275   0.690725)   % successful_stolen=0   compromise_house=1   lost_object=0   
   (   0.000334061   0.999666)))   % successful_stolen=1   compromise_house=1   lost_object=0   
   (((   0   1)   % successful_stolen=0   compromise_house=0   lost_object=1   
   (   0.999751   0.00024937))   % successful_stolen=1   compromise_house=0   lost_object=1   
   ((   0.999751   0.00024937)   % successful_stolen=0   compromise_house=1   lost_object=1   
   (   0.999751   0.00024937))));   % successful_stolen=1   compromise_house=1   lost_object=1   
}

potential ( E_broken_lock | successful_stolen   compromise_house   ) {
   data = 
   (((   1   0)   % compromise_house=0   successful_stolen=0   
   (   0.00274746   0.997253))   % compromise_house=1   successful_stolen=0   
   ((   1   0)   % compromise_house=0   successful_stolen=1   
   (   0.00262761   0.997372)));   % compromise_house=1   successful_stolen=1   
}

potential ( E_disturbed_house | compromise_house   successful_stolen   ) {
   data = 
   (((   0.99787   0.00212969)   % successful_stolen=0   compromise_house=0   
   (   0.99794   0.00206014))   % successful_stolen=1   compromise_house=0   
   ((   0   1)   % successful_stolen=0   compromise_house=1   
   (   0   1)));   % successful_stolen=1   compromise_house=1   
}

potential ( E_s_spotted_by_house | target_object   motive   lost_object   curtains   know_object   ) {
   data = 
   ((((((   0.999232   0.000768447)   % know_object=0   curtains=0   lost_object=0   motive=0   target_object=0   
   (   0.166113   0.833887))   % know_object=1   curtains=0   lost_object=0   motive=0   target_object=0   
   ((   0.0401716   0.959828)   % know_object=0   curtains=1   lost_object=0   motive=0   target_object=0   
   (   0.999678   0.000322417)))   % know_object=1   curtains=1   lost_object=0   motive=0   target_object=0   
   (((   0.199055   0.800945)   % know_object=0   curtains=0   lost_object=1   motive=0   target_object=0   
   (   0.999678   0.000322417))   % know_object=1   curtains=0   lost_object=1   motive=0   target_object=0   
   ((   0.0421325   0.957867)   % know_object=0   curtains=1   lost_object=1   motive=0   target_object=0   
   (   0.999678   0.000322417))))   % know_object=1   curtains=1   lost_object=1   motive=0   target_object=0   
   ((((   0.999678   0.000322417)   % know_object=0   curtains=0   lost_object=0   motive=1   target_object=0   
   (   0.999678   0.000322417))   % know_object=1   curtains=0   lost_object=0   motive=1   target_object=0   
   ((   0.999678   0.000322417)   % know_object=0   curtains=1   lost_object=0   motive=1   target_object=0   
   (   0.999678   0.000322417)))   % know_object=1   curtains=1   lost_object=0   motive=1   target_object=0   
   (((   0.999678   0.000322417)   % know_object=0   curtains=0   lost_object=1   motive=1   target_object=0   
   (   0.999678   0.000322417))   % know_object=1   curtains=0   lost_object=1   motive=1   target_object=0   
   ((   0.999678   0.000322417)   % know_object=0   curtains=1   lost_object=1   motive=1   target_object=0   
   (   0.999678   0.000322417)))))   % know_object=1   curtains=1   lost_object=1   motive=1   target_object=0   
   (((((   0.999678   0.000322417)   % know_object=0   curtains=0   lost_object=0   motive=0   target_object=1   
   (   0.999678   0.000322417))   % know_object=1   curtains=0   lost_object=0   motive=0   target_object=1   
   ((   0.999678   0.000322417)   % know_object=0   curtains=1   lost_object=0   motive=0   target_object=1   
   (   0.999678   0.000322417)))   % know_object=1   curtains=1   lost_object=0   motive=0   target_object=1   
   (((   0.999678   0.000322417)   % know_object=0   curtains=0   lost_object=1   motive=0   target_object=1   
   (   0.999678   0.000322417))   % know_object=1   curtains=0   lost_object=1   motive=0   target_object=1   
   ((   0.999678   0.000322417)   % know_object=0   curtains=1   lost_object=1   motive=0   target_object=1   
   (   0.999678   0.000322417))))   % know_object=1   curtains=1   lost_object=1   motive=0   target_object=1   
   ((((   0.999678   0.000322417)   % know_object=0   curtains=0   lost_object=0   motive=1   target_object=1   
   (   0   1))   % know_object=1   curtains=0   lost_object=0   motive=1   target_object=1   
   ((   0.999678   0.000322417)   % know_object=0   curtains=1   lost_object=0   motive=1   target_object=1   
   (   0.999678   0.000322417)))   % know_object=1   curtains=1   lost_object=0   motive=1   target_object=1   
   (((   0.999678   0.000322417)   % know_object=0   curtains=0   lost_object=1   motive=1   target_object=1   
   (   0.999678   0.000322417))   % know_object=1   curtains=0   lost_object=1   motive=1   target_object=1   
   ((   0.999678   0.000322417)   % know_object=0   curtains=1   lost_object=1   motive=1   target_object=1   
   (   0.999678   0.000322417))))));   % know_object=1   curtains=1   lost_object=1   motive=1   target_object=1   
}

potential ( E_s_spotted_with_goodie | successful_stolen   compromise_house   ) {
   data = 
   (((   0.999546   0.000453605)   % compromise_house=0   successful_stolen=0   
   (   0.299102   0.700898))   % compromise_house=1   successful_stolen=0   
   ((   0.999616   0.000384054)   % compromise_house=0   successful_stolen=1   
   (   0.000781446   0.999218)));   % compromise_house=1   successful_stolen=1   
}

potential ( E_private | flees_startled   successful_stolen   ) {
   data = 
   (((   1   0)   % successful_stolen=0   flees_startled=0   
   (   0.999968   3.17306e-05))   % successful_stolen=1   flees_startled=0   
   ((   0.00152654   0.998473)   % successful_stolen=0   flees_startled=1   
   (   1   0)));   % successful_stolen=1   flees_startled=1   
}


