
net {
  name = K2BN.net;
  software = "aGrUM 0.22.5";
  node_size = (50 50);
}

node lost_object {
   states = (0 1 );
   label = "lost_object";
   ID = "lost_object";
}

node know_object {
   states = (0 1 );
   label = "know_object";
   ID = "know_object";
}

node target_object {
   states = (0 1 );
   label = "target_object";
   ID = "target_object";
}

node motive {
   states = (0 1 );
   label = "motive";
   ID = "motive";
}

node compromise_house {
   states = (0 1 );
   label = "compromise_house";
   ID = "compromise_house";
}

node flees_startled {
   states = (0 1 );
   label = "flees_startled";
   ID = "flees_startled";
}

node successful_stolen {
   states = (0 1 );
   label = "successful_stolen";
   ID = "successful_stolen";
}

node raining {
   states = (0 1 );
   label = "raining";
   ID = "raining";
}

node curtains {
   states = (0 1 );
   label = "curtains";
   ID = "curtains";
}

node E_object_is_gone {
   states = (0 1 );
   label = "E_object_is_gone";
   ID = "E_object_is_gone";
}

node E_broken_lock {
   states = (0 1 );
   label = "E_broken_lock";
   ID = "E_broken_lock";
}

node E_disturbed_house {
   states = (0 1 );
   label = "E_disturbed_house";
   ID = "E_disturbed_house";
}

node E_s_spotted_by_house {
   states = (0 1 );
   label = "E_s_spotted_by_house";
   ID = "E_s_spotted_by_house";
}

node E_s_spotted_with_goodie {
   states = (0 1 );
   label = "E_s_spotted_with_goodie";
   ID = "E_s_spotted_with_goodie";
}

node E_private {
   states = (0 1 );
   label = "E_private";
   ID = "E_private";
}

potential (lost_object) {
   data = (  0.81863 0.18137);
}

potential ( know_object | lost_object   curtains   ) {
   data = 
   (((   0.04941   0.95059)   % curtains=0   lost_object=0   
   (   0.99383   0.00617))   % curtains=1   lost_object=0   
   ((   0.99123   0.00877)   % curtains=0   lost_object=1   
   (   0.97059   0.02941)));   % curtains=1   lost_object=1   
}

potential ( target_object | know_object   ) {
   data = 
   ((   0.99398   0.00602)   % know_object=0   
   (   0.53306   0.46694));   % know_object=1   
}

potential ( motive | lost_object   target_object   ) {
   data = 
   (((   0.99774   0.00226)   % target_object=0   lost_object=0   
   (   0.00442   0.99558))   % target_object=1   lost_object=0   
   ((   0.99315   0.00685)   % target_object=0   lost_object=1   
   (   1   0)));   % target_object=1   lost_object=1   
}

potential ( compromise_house | target_object   motive   ) {
   data = 
   (((   0.99829   0.00171)   % motive=0   target_object=0   
   (   1   0))   % motive=1   target_object=0   
   ((   1   0)   % motive=0   target_object=1   
   (   0.5354   0.4646)));   % motive=1   target_object=1   
}

potential ( flees_startled | motive   target_object   ) {
   data = 
   (((   0.99829   0.00171)   % target_object=0   motive=0   
   (   1   0))   % target_object=1   motive=0   
   ((   1   0)   % target_object=0   motive=1   
   (   0.4646   0.5354)));   % target_object=1   motive=1   
}

potential ( successful_stolen | flees_startled   compromise_house   ) {
   data = 
   (((   0.99844   0.00156)   % compromise_house=0   flees_startled=0   
   (   0.02   0.98))   % compromise_house=1   flees_startled=0   
   ((   0.98485   0.01515)   % compromise_house=0   flees_startled=1   
   (   0.98276   0.01724)));   % compromise_house=1   flees_startled=1   
}

potential (raining) {
   data = (  0.5049 0.4951);
}

potential (curtains) {
   data = (  0.7598 0.2402);
}

potential ( E_object_is_gone | compromise_house   lost_object   ) {
   data = 
   (((   0.99822   0.00178)   % lost_object=0   compromise_house=0   
   (   0.00685   0.99315))   % lost_object=1   compromise_house=0   
   ((   0.00943   0.99057)   % lost_object=0   compromise_house=1   
   (   1   0)));   % lost_object=1   compromise_house=1   
}

potential ( E_broken_lock | successful_stolen   compromise_house   ) {
   data = 
   (((   0.99858   0.00142)   % compromise_house=0   successful_stolen=0   
   (   0.01724   0.98276))   % compromise_house=1   successful_stolen=0   
   ((   1   0)   % compromise_house=0   successful_stolen=1   
   (   0.02   0.98)));   % compromise_house=1   successful_stolen=1   
}

potential ( E_disturbed_house | successful_stolen   compromise_house   ) {
   data = 
   (((   0.99858   0.00142)   % compromise_house=0   successful_stolen=0   
   (   0.01724   0.98276))   % compromise_house=1   successful_stolen=0   
   ((   1   0)   % compromise_house=0   successful_stolen=1   
   (   0.02   0.98)));   % compromise_house=1   successful_stolen=1   
}

potential ( E_s_spotted_by_house | curtains   target_object   ) {
   data = 
   (((   0.36802   0.63198)   % target_object=0   curtains=0   
   (   0.00442   0.99558))   % target_object=1   curtains=0   
   ((   0.00515   0.99484)   % target_object=0   curtains=1   
   (   1   0)));   % target_object=1   curtains=1   
}

potential ( E_s_spotted_with_goodie | successful_stolen   compromise_house   ) {
   data = 
   (((   0.99858   0.00142)   % compromise_house=0   successful_stolen=0   
   (   0.01724   0.98276))   % compromise_house=1   successful_stolen=0   
   ((   1   0)   % compromise_house=0   successful_stolen=1   
   (   0.02   0.98)));   % compromise_house=1   successful_stolen=1   
}

potential ( E_private | flees_startled   successful_stolen   ) {
   data = 
   (((   0.99844   0.00156)   % successful_stolen=0   flees_startled=0   
   (   0.98   0.02))   % successful_stolen=1   flees_startled=0   
   ((   0.0082   0.9918)   % successful_stolen=0   flees_startled=1   
   (   1   0)));   % successful_stolen=1   flees_startled=1   
}


