
net {
  name = K2BN.net;
  software = "aGrUM 0.22.5";
  node_size = (50 50);
}

node lost_object {
   states = (0 1 );
   label = "lost_object";
   ID = "lost_object";
}

node know_object {
   states = (0 1 );
   label = "know_object";
   ID = "know_object";
}

node target_object {
   states = (0 1 );
   label = "target_object";
   ID = "target_object";
}

node motive {
   states = (0 1 );
   label = "motive";
   ID = "motive";
}

node compromise_house {
   states = (0 1 );
   label = "compromise_house";
   ID = "compromise_house";
}

node flees_startled {
   states = (0 1 );
   label = "flees_startled";
   ID = "flees_startled";
}

node successful_stolen {
   states = (0 1 );
   label = "successful_stolen";
   ID = "successful_stolen";
}

node raining {
   states = (0 1 );
   label = "raining";
   ID = "raining";
}

node curtains {
   states = (0 1 );
   label = "curtains";
   ID = "curtains";
}

node E_object_is_gone {
   states = (0 1 );
   label = "E_object_is_gone";
   ID = "E_object_is_gone";
}

node E_broken_lock {
   states = (0 1 );
   label = "E_broken_lock";
   ID = "E_broken_lock";
}

node E_disturbed_house {
   states = (0 1 );
   label = "E_disturbed_house";
   ID = "E_disturbed_house";
}

node E_s_spotted_by_house {
   states = (0 1 );
   label = "E_s_spotted_by_house";
   ID = "E_s_spotted_by_house";
}

node E_s_spotted_with_goodie {
   states = (0 1 );
   label = "E_s_spotted_with_goodie";
   ID = "E_s_spotted_with_goodie";
}

node E_private {
   states = (0 1 );
   label = "E_private";
   ID = "E_private";
}

potential (lost_object) {
   data = (  0.8114 0.1886);
}

potential ( know_object | lost_object   curtains   ) {
   data = 
   (((   0.026   0.974)   % curtains=0   lost_object=0   
   (   0.9995   0.0005))   % curtains=1   lost_object=0   
   ((   0.9996   0.0004)   % curtains=0   lost_object=1   
   (   0.9982   0.0018)));   % curtains=1   lost_object=1   
}

potential ( target_object | know_object   ) {
   data = 
   ((   0.9996   0.0004)   % know_object=0   
   (   0.511   0.489));   % know_object=1   
}

potential ( motive | curtains   target_object   ) {
   data = 
   (((   0.9999   0.0001)   % target_object=0   curtains=0   
   (   0.0002   0.9998))   % target_object=1   curtains=0   
   ((   0.9996   0.0004)   % target_object=0   curtains=1   
   (   1   0)));   % target_object=1   curtains=1   
}

potential ( compromise_house | target_object   motive   ) {
   data = 
   (((   0.9999   0.0001)   % motive=0   target_object=0   
   (   1   0))   % motive=1   target_object=0   
   ((   1   0)   % motive=0   target_object=1   
   (   0.6832   0.3168)));   % motive=1   target_object=1   
}

potential ( flees_startled | target_object   motive   ) {
   data = 
   (((   0.9999   0.0001)   % motive=0   target_object=0   
   (   1   0))   % motive=1   target_object=0   
   ((   1   0)   % motive=0   target_object=1   
   (   0.5062   0.4938)));   % motive=1   target_object=1   
}

potential ( successful_stolen | compromise_house   flees_startled   ) {
   data = 
   (((   0.9999   0.0001)   % flees_startled=0   compromise_house=0   
   (   0.9994   0.0006))   % flees_startled=1   compromise_house=0   
   ((   0.0012   0.9988)   % flees_startled=0   compromise_house=1   
   (   0.9987   0.0013)));   % flees_startled=1   compromise_house=1   
}

potential (raining) {
   data = (  0.4988 0.5012);
}

potential (curtains) {
   data = (  0.8284 0.1716);
}

potential ( E_object_is_gone | lost_object   compromise_house   successful_stolen   ) {
   data = 
   ((((   1   0)   % successful_stolen=0   compromise_house=0   lost_object=0   
   (   1   0))   % successful_stolen=1   compromise_house=0   lost_object=0   
   ((   0.3095   0.6905)   % successful_stolen=0   compromise_house=1   lost_object=0   
   (   0.0006   0.9994)))   % successful_stolen=1   compromise_house=1   lost_object=0   
   (((   0.0002   0.9998)   % successful_stolen=0   compromise_house=0   lost_object=1   
   (   1   0))   % successful_stolen=1   compromise_house=0   lost_object=1   
   ((   1   0)   % successful_stolen=0   compromise_house=1   lost_object=1   
   (   1   0))));   % successful_stolen=1   compromise_house=1   lost_object=1   
}

potential ( E_broken_lock | successful_stolen   compromise_house   ) {
   data = 
   (((   0.9999   0.0001)   % compromise_house=0   successful_stolen=0   
   (   0.0013   0.9987))   % compromise_house=1   successful_stolen=0   
   ((   1   0)   % compromise_house=0   successful_stolen=1   
   (   0.0012   0.9988)));   % compromise_house=1   successful_stolen=1   
}

potential ( E_disturbed_house | compromise_house   successful_stolen   ) {
   data = 
   (((   0.9999   0.0001)   % successful_stolen=0   compromise_house=0   
   (   1   0))   % successful_stolen=1   compromise_house=0   
   ((   0.0013   0.9987)   % successful_stolen=0   compromise_house=1   
   (   0.0012   0.9988)));   % successful_stolen=1   compromise_house=1   
}

potential ( E_s_spotted_by_house | target_object   motive   lost_object   curtains   know_object   ) {
   data = 
   ((((((   0.9996   0.0004)   % know_object=0   curtains=0   lost_object=0   motive=0   target_object=0   
   (   0.1664   0.8336))   % know_object=1   curtains=0   lost_object=0   motive=0   target_object=0   
   ((   0.0405   0.9595)   % know_object=0   curtains=1   lost_object=0   motive=0   target_object=0   
   (   1   0)))   % know_object=1   curtains=1   lost_object=0   motive=0   target_object=0   
   (((   0.1994   0.8006)   % know_object=0   curtains=0   lost_object=1   motive=0   target_object=0   
   (   1   0))   % know_object=1   curtains=0   lost_object=1   motive=0   target_object=0   
   ((   0.0425   0.9575)   % know_object=0   curtains=1   lost_object=1   motive=0   target_object=0   
   (   1   0))))   % know_object=1   curtains=1   lost_object=1   motive=0   target_object=0   
   ((((   1   0)   % know_object=0   curtains=0   lost_object=0   motive=1   target_object=0   
   (   1   0))   % know_object=1   curtains=0   lost_object=0   motive=1   target_object=0   
   ((   1   0)   % know_object=0   curtains=1   lost_object=0   motive=1   target_object=0   
   (   1   0)))   % know_object=1   curtains=1   lost_object=0   motive=1   target_object=0   
   (((   1   0)   % know_object=0   curtains=0   lost_object=1   motive=1   target_object=0   
   (   1   0))   % know_object=1   curtains=0   lost_object=1   motive=1   target_object=0   
   ((   1   0)   % know_object=0   curtains=1   lost_object=1   motive=1   target_object=0   
   (   1   0)))))   % know_object=1   curtains=1   lost_object=1   motive=1   target_object=0   
   (((((   1   0)   % know_object=0   curtains=0   lost_object=0   motive=0   target_object=1   
   (   1   0))   % know_object=1   curtains=0   lost_object=0   motive=0   target_object=1   
   ((   1   0)   % know_object=0   curtains=1   lost_object=0   motive=0   target_object=1   
   (   1   0)))   % know_object=1   curtains=1   lost_object=0   motive=0   target_object=1   
   (((   1   0)   % know_object=0   curtains=0   lost_object=1   motive=0   target_object=1   
   (   1   0))   % know_object=1   curtains=0   lost_object=1   motive=0   target_object=1   
   ((   1   0)   % know_object=0   curtains=1   lost_object=1   motive=0   target_object=1   
   (   1   0))))   % know_object=1   curtains=1   lost_object=1   motive=0   target_object=1   
   ((((   1   0)   % know_object=0   curtains=0   lost_object=0   motive=1   target_object=1   
   (   0   1))   % know_object=1   curtains=0   lost_object=0   motive=1   target_object=1   
   ((   1   0)   % know_object=0   curtains=1   lost_object=0   motive=1   target_object=1   
   (   1   0)))   % know_object=1   curtains=1   lost_object=0   motive=1   target_object=1   
   (((   1   0)   % know_object=0   curtains=0   lost_object=1   motive=1   target_object=1   
   (   1   0))   % know_object=1   curtains=0   lost_object=1   motive=1   target_object=1   
   ((   1   0)   % know_object=0   curtains=1   lost_object=1   motive=1   target_object=1   
   (   1   0))))));   % know_object=1   curtains=1   lost_object=1   motive=1   target_object=1   
}

potential ( E_s_spotted_with_goodie | successful_stolen   compromise_house   ) {
   data = 
   (((   0.9999   0.0001)   % compromise_house=0   successful_stolen=0   
   (   0.2995   0.7005))   % compromise_house=1   successful_stolen=0   
   ((   1   0)   % compromise_house=0   successful_stolen=1   
   (   0.0012   0.9988)));   % compromise_house=1   successful_stolen=1   
}

potential ( E_private | flees_startled   successful_stolen   ) {
   data = 
   (((   0.9999   0.0001)   % successful_stolen=0   flees_startled=0   
   (   0.9988   0.0012))   % successful_stolen=1   flees_startled=0   
   ((   0.0004   0.9996)   % successful_stolen=0   flees_startled=1   
   (   1   0)));   % successful_stolen=1   flees_startled=1   
}


