
net {
  name = K2BN.net;
  software = "aGrUM 0.22.5";
  node_size = (50 50);
}

node lost_object {
   states = (0 1 );
   label = "lost_object";
   ID = "lost_object";
}

node know_object {
   states = (0 1 );
   label = "know_object";
   ID = "know_object";
}

node target_object {
   states = (0 1 );
   label = "target_object";
   ID = "target_object";
}

node motive {
   states = (0 1 );
   label = "motive";
   ID = "motive";
}

node compromise_house {
   states = (0 1 );
   label = "compromise_house";
   ID = "compromise_house";
}

node flees_startled {
   states = (0 1 );
   label = "flees_startled";
   ID = "flees_startled";
}

node successful_stolen {
   states = (0 1 );
   label = "successful_stolen";
   ID = "successful_stolen";
}

node raining {
   states = (0 1 );
   label = "raining";
   ID = "raining";
}

node curtains {
   states = (0 1 );
   label = "curtains";
   ID = "curtains";
}

node E_object_is_gone {
   states = (0 1 );
   label = "E_object_is_gone";
   ID = "E_object_is_gone";
}

node E_broken_lock {
   states = (0 1 );
   label = "E_broken_lock";
   ID = "E_broken_lock";
}

node E_disturbed_house {
   states = (0 1 );
   label = "E_disturbed_house";
   ID = "E_disturbed_house";
}

node E_s_spotted_by_house {
   states = (0 1 );
   label = "E_s_spotted_by_house";
   ID = "E_s_spotted_by_house";
}

node E_s_spotted_with_goodie {
   states = (0 1 );
   label = "E_s_spotted_with_goodie";
   ID = "E_s_spotted_with_goodie";
}

node E_private {
   states = (0 1 );
   label = "E_private";
   ID = "E_private";
}

potential (lost_object) {
   data = (  0.80489 0.19511);
}

potential ( know_object | curtains   lost_object   ) {
   data = 
   (((   0.03195   0.96805)   % lost_object=0   curtains=0   
   (   0.99918   0.00082))   % lost_object=1   curtains=0   
   ((   0.99914   0.00086)   % lost_object=0   curtains=1   
   (   0.99711   0.00289)));   % lost_object=1   curtains=1   
}

potential ( target_object | know_object   ) {
   data = 
   ((   0.99931   0.00069)   % know_object=0   
   (   0.50781   0.49219));   % know_object=1   
}

potential ( motive | curtains   target_object   ) {
   data = 
   (((   0.99975   0.00025)   % target_object=0   curtains=0   
   (   0.0004   0.9996))   % target_object=1   curtains=0   
   ((   0.99934   0.00066)   % target_object=0   curtains=1   
   (   1   0)));   % target_object=1   curtains=1   
}

potential ( compromise_house | target_object   motive   ) {
   data = 
   (((   0.99982   0.00018)   % motive=0   target_object=0   
   (   1   0))   % motive=1   target_object=0   
   ((   1   0)   % motive=0   target_object=1   
   (   0.64433   0.35567)));   % motive=1   target_object=1   
}

potential ( flees_startled | motive   target_object   ) {
   data = 
   (((   0.99982   0.00018)   % target_object=0   motive=0   
   (   1   0))   % target_object=1   motive=0   
   ((   1   0)   % target_object=0   motive=1   
   (   0.51745   0.48255)));   % target_object=1   motive=1   
}

potential ( successful_stolen | flees_startled   compromise_house   ) {
   data = 
   (((   0.99984   0.00016)   % compromise_house=0   flees_startled=0   
   (   0.00211   0.99789))   % compromise_house=1   flees_startled=0   
   ((   0.99874   0.00126)   % compromise_house=0   flees_startled=1   
   (   0.99765   0.00235)));   % compromise_house=1   flees_startled=1   
}

potential (raining) {
   data = (  0.50249 0.49751);
}

potential (curtains) {
   data = (  0.81188 0.18812);
}

potential ( E_object_is_gone | successful_stolen   compromise_house   lost_object   ) {
   data = 
   ((((   0.99991   9e-05)   % lost_object=0   compromise_house=0   successful_stolen=0   
   (   0.00032   0.99968))   % lost_object=1   compromise_house=0   successful_stolen=0   
   ((   0.34   0.66)   % lost_object=0   compromise_house=1   successful_stolen=0   
   (   1   0)))   % lost_object=1   compromise_house=1   successful_stolen=0   
   (((   1   0)   % lost_object=0   compromise_house=0   successful_stolen=1   
   (   1   0))   % lost_object=1   compromise_house=0   successful_stolen=1   
   ((   0.00106   0.99894)   % lost_object=0   compromise_house=1   successful_stolen=1   
   (   1   0))));   % lost_object=1   compromise_house=1   successful_stolen=1   
}

potential ( E_broken_lock | successful_stolen   compromise_house   ) {
   data = 
   (((   0.99986   0.00014)   % compromise_house=0   successful_stolen=0   
   (   0.00235   0.99765))   % compromise_house=1   successful_stolen=0   
   ((   1   0)   % compromise_house=0   successful_stolen=1   
   (   0.00211   0.99789)));   % compromise_house=1   successful_stolen=1   
}

potential ( E_disturbed_house | successful_stolen   compromise_house   ) {
   data = 
   (((   0.99986   0.00014)   % compromise_house=0   successful_stolen=0   
   (   0.00235   0.99765))   % compromise_house=1   successful_stolen=0   
   ((   1   0)   % compromise_house=0   successful_stolen=1   
   (   0.00211   0.99789)));   % compromise_house=1   successful_stolen=1   
}

potential ( E_s_spotted_by_house | curtains   target_object   ) {
   data = 
   (((   0.20697   0.79303)   % target_object=0   curtains=0   
   (   0.0004   0.9996))   % target_object=1   curtains=0   
   ((   0.03785   0.96215)   % target_object=0   curtains=1   
   (   1   0)));   % target_object=1   curtains=1   
}

potential ( E_s_spotted_with_goodie | successful_stolen   compromise_house   ) {
   data = 
   (((   0.99986   0.00014)   % compromise_house=0   successful_stolen=0   
   (   0.34038   0.65962))   % compromise_house=1   successful_stolen=0   
   ((   1   0)   % compromise_house=0   successful_stolen=1   
   (   0.00211   0.99789)));   % compromise_house=1   successful_stolen=1   
}

potential ( E_private | flees_startled   successful_stolen   ) {
   data = 
   (((   0.99984   0.00016)   % successful_stolen=0   flees_startled=0   
   (   0.99789   0.00211))   % successful_stolen=1   flees_startled=0   
   ((   0.00082   0.99918)   % successful_stolen=0   flees_startled=1   
   (   1   0)));   % successful_stolen=1   flees_startled=1   
}


