
net {
  name = unnamedBN;
  software = "aGrUM 0.22.5";
  node_size = (50 50);
}

node jane_and_mark_fight {
   states = (0 1 );
   label = "jane_and_mark_fight";
   ID = "jane_and_mark_fight";
}

node jane_has_knife {
   states = (0 1 );
   label = "jane_has_knife";
   ID = "jane_has_knife";
}

node jane_threatens_mark_with_knife {
   states = (0 1 );
   label = "jane_threatens_mark_with_knife";
   ID = "jane_threatens_mark_with_knife";
}

node mark_hits_jane {
   states = (0 1 );
   label = "mark_hits_jane";
   ID = "mark_hits_jane";
}

node jane_drops_knife {
   states = (0 1 );
   label = "jane_drops_knife";
   ID = "jane_drops_knife";
}

node mark_falls_on_knife {
   states = (0 1 );
   label = "mark_falls_on_knife";
   ID = "mark_falls_on_knife";
}

node mark_dies_by_accident {
   states = (0 1 );
   label = "mark_dies_by_accident";
   ID = "mark_dies_by_accident";
}

node mark_dies {
   states = (0 1 );
   label = "mark_dies";
   ID = "mark_dies";
}

potential (jane_and_mark_fight) {
   data = (  0.791345 0.208655);
}

potential (jane_has_knife) {
   data = (  0.296606 0.703394);
}

potential ( jane_threatens_mark_with_knife | jane_and_mark_fight   jane_has_knife   ) {
   data = 
   (((   0.999999   1.06373e-06)   % jane_has_knife=0   jane_and_mark_fight=0   
   (   1   4.49378e-07))   % jane_has_knife=1   jane_and_mark_fight=0   
   ((   0.999996   4.05946e-06)   % jane_has_knife=0   jane_and_mark_fight=1   
   (   0.960779   0.039221)));   % jane_has_knife=1   jane_and_mark_fight=1   
}

potential ( mark_hits_jane | jane_threatens_mark_with_knife   ) {
   data = 
   ((   0.999999   5.029e-07)   % jane_threatens_mark_with_knife=0   
   (   0.091957   0.908043));   % jane_threatens_mark_with_knife=1   
}

potential ( jane_drops_knife | mark_hits_jane   ) {
   data = 
   ((   0.999999   5.02632e-07)   % mark_hits_jane=0   
   (   0.507444   0.492556));   % mark_hits_jane=1   
}

potential ( mark_falls_on_knife | jane_drops_knife   ) {
   data = 
   ((   0.999999   5.01293e-07)   % jane_drops_knife=0   
   (   0.883572   0.116428));   % jane_drops_knife=1   
}

potential ( mark_dies_by_accident | mark_falls_on_knife   ) {
   data = 
   ((   0.999999   5.0015e-07)   % mark_falls_on_knife=0   
   (   0.347176   0.652824));   % mark_falls_on_knife=1   
}

potential ( mark_dies | mark_dies_by_accident   mark_falls_on_knife   ) {
   data = 
   (((   1   2.50075e-07)   % mark_falls_on_knife=0   mark_dies_by_accident=0   
   (   0.997608   0.00239234))   % mark_falls_on_knife=1   mark_dies_by_accident=0   
   ((   1   0)   % mark_falls_on_knife=0   mark_dies_by_accident=1   
   (   0.00127226   0.998728)));   % mark_falls_on_knife=1   mark_dies_by_accident=1   
}


