
net {
  name = unnamedBN;
  software = "aGrUM 0.22.5";
  node_size = (50 50);
}

node object_dropped_accidentally_0 {
   states = (0 1 );
   label = "object_dropped_accidentally_0";
   ID = "object_dropped_accidentally_0";
}

node motive_1_0 {
   states = (0 1 );
   label = "motive_1_0";
   ID = "motive_1_0";
}

node sneak_1_0 {
   states = (0 1 );
   label = "sneak_1_0";
   ID = "sneak_1_0";
}

node stealing_1_0 {
   states = (0 1 );
   label = "stealing_1_0";
   ID = "stealing_1_0";
}

node E_psych_report_1_0 {
   states = (0 1 );
   label = "E_psych_report_1_0";
   ID = "E_psych_report_1_0";
}

node E_camera_1 {
   states = (0 1 );
   label = "E_camera_1";
   ID = "E_camera_1";
}

node E_camera_seen_stealing_1_0 {
   states = (0 1 );
   label = "E_camera_seen_stealing_1_0";
   ID = "E_camera_seen_stealing_1_0";
}

node E_object_gone_0 {
   states = (0 1 );
   label = "E_object_gone_0";
   ID = "E_object_gone_0";
}

potential (object_dropped_accidentally_0) {
   data = (  0.666113 0.333887);
}

potential (motive_1_0) {
   data = (  0.945183 0.0548173);
}

potential ( sneak_1_0 | motive_1_0   ) {
   data = 
   ((   0.999121   0.000878735)   % motive_1_0=0   
   (   0.0151515   0.984848));   % motive_1_0=1   
}

potential ( stealing_1_0 | motive_1_0   object_dropped_accidentally_0   sneak_1_0   ) {
   data = 
   ((((   0.999668   0.000332226)   % sneak_1_0=0   object_dropped_accidentally_0=0   motive_1_0=0   
   (   0.5   0.5))   % sneak_1_0=1   object_dropped_accidentally_0=0   motive_1_0=0   
   ((   0.99935   0.000650195)   % sneak_1_0=0   object_dropped_accidentally_0=1   motive_1_0=0   
   (   0.5   0.5)))   % sneak_1_0=1   object_dropped_accidentally_0=1   motive_1_0=0   
   (((   0.5   0.5)   % sneak_1_0=0   object_dropped_accidentally_0=0   motive_1_0=1   
   (   0.00515464   0.994845))   % sneak_1_0=1   object_dropped_accidentally_0=0   motive_1_0=1   
   ((   0.5   0.5)   % sneak_1_0=0   object_dropped_accidentally_0=1   motive_1_0=1   
   (   0.984848   0.0151515))));   % sneak_1_0=1   object_dropped_accidentally_0=1   motive_1_0=1   
}

potential ( E_psych_report_1_0 | motive_1_0   stealing_1_0   ) {
   data = 
   (((   0.99956   0.000439754)   % stealing_1_0=0   motive_1_0=0   
   (   0.5   0.5))   % stealing_1_0=1   motive_1_0=0   
   ((   0.0294118   0.970588)   % stealing_1_0=0   motive_1_0=1   
   (   0.336735   0.663265)));   % stealing_1_0=1   motive_1_0=1   
}

potential (E_camera_1) {
   data = (  0.842193 0.157807);
}

potential ( E_camera_seen_stealing_1_0 | E_psych_report_1_0   E_camera_1   ) {
   data = 
   (((   0.99949   0.000509684)   % E_camera_1=0   E_psych_report_1_0=0   
   (   0.99711   0.00289017))   % E_camera_1=1   E_psych_report_1_0=0   
   ((   0.984848   0.0151515)   % E_camera_1=0   E_psych_report_1_0=1   
   (   0.5   0.5)));   % E_camera_1=1   E_psych_report_1_0=1   
}

potential ( E_object_gone_0 | object_dropped_accidentally_0   stealing_1_0   ) {
   data = 
   (((   0.999336   0.000664011)   % stealing_1_0=0   object_dropped_accidentally_0=0   
   (   0.0102041   0.989796))   % stealing_1_0=1   object_dropped_accidentally_0=0   
   ((   0.00124688   0.998753)   % stealing_1_0=0   object_dropped_accidentally_0=1   
   (   0.5   0.5)));   % stealing_1_0=1   object_dropped_accidentally_0=1   
}


