
net {
  name = unnamedBN;
  software = "aGrUM 0.22.5";
  node_size = (50 50);
}

node object_dropped_accidentally_0 {
   states = (0 1 );
   label = "object_dropped_accidentally_0";
   ID = "object_dropped_accidentally_0";
}

node motive_1_0 {
   states = (0 1 );
   label = "motive_1_0";
   ID = "motive_1_0";
}

node sneak_1_0 {
   states = (0 1 );
   label = "sneak_1_0";
   ID = "sneak_1_0";
}

node stealing_1_0 {
   states = (0 1 );
   label = "stealing_1_0";
   ID = "stealing_1_0";
}

node E_psych_report_1_0 {
   states = (0 1 );
   label = "E_psych_report_1_0";
   ID = "E_psych_report_1_0";
}

node E_camera_1 {
   states = (0 1 );
   label = "E_camera_1";
   ID = "E_camera_1";
}

node E_camera_seen_stealing_1_0 {
   states = (0 1 );
   label = "E_camera_seen_stealing_1_0";
   ID = "E_camera_seen_stealing_1_0";
}

node E_object_gone_0 {
   states = (0 1 );
   label = "E_object_gone_0";
   ID = "E_object_gone_0";
}

potential (object_dropped_accidentally_0) {
   data = (  0.701065 0.298935);
}

potential ( motive_1_0 | object_dropped_accidentally_0   ) {
   data = 
   ((   0.934948   0.0650522)   % object_dropped_accidentally_0=0   
   (   0.981069   0.018931));   % object_dropped_accidentally_0=1   
}

potential ( sneak_1_0 | motive_1_0   ) {
   data = 
   ((   0.999649   0.000350877)   % motive_1_0=0   
   (   0.00649351   0.993506));   % motive_1_0=1   
}

potential ( stealing_1_0 | motive_1_0   object_dropped_accidentally_0   ) {
   data = 
   (((   0.999746   0.000253936)   % object_dropped_accidentally_0=0   motive_1_0=0   
   (   0.999432   0.000567537))   % object_dropped_accidentally_0=1   motive_1_0=0   
   ((   0.0328467   0.967153)   % object_dropped_accidentally_0=0   motive_1_0=1   
   (   0.970588   0.0294118)));   % object_dropped_accidentally_0=1   motive_1_0=1   
}

potential ( E_psych_report_1_0 | motive_1_0   sneak_1_0   ) {
   data = 
   (((   0.999824   0.0001755)   % sneak_1_0=0   motive_1_0=0   
   (   0.5   0.5))   % sneak_1_0=1   motive_1_0=0   
   ((   0.5   0.5)   % sneak_1_0=0   motive_1_0=1   
   (   0.447712   0.552288)));   % sneak_1_0=1   motive_1_0=1   
}

potential ( E_camera_1 | stealing_1_0   ) {
   data = 
   ((   0.849129   0.150871)   % stealing_1_0=0   
   (   0.664179   0.335821));   % stealing_1_0=1   
}

potential ( E_camera_seen_stealing_1_0 | sneak_1_0   E_camera_1   ) {
   data = 
   (((   0.999793   0.000206526)   % E_camera_1=0   sneak_1_0=0   
   (   0.998834   0.0011655))   % E_camera_1=1   sneak_1_0=0   
   ((   0.995238   0.0047619)   % E_camera_1=0   sneak_1_0=1   
   (   0.663265   0.336735)));   % E_camera_1=1   sneak_1_0=1   
}

potential ( E_object_gone_0 | object_dropped_accidentally_0   stealing_1_0   ) {
   data = 
   (((   0.999747   0.000253421)   % stealing_1_0=0   object_dropped_accidentally_0=0   
   (   0.0037594   0.996241))   % stealing_1_0=1   object_dropped_accidentally_0=0   
   ((   0.000557414   0.999443)   % stealing_1_0=0   object_dropped_accidentally_0=1   
   (   0.5   0.5)));   % stealing_1_0=1   object_dropped_accidentally_0=1   
}


