
net {
  name = unnamedBN;
  software = "aGrUM 0.22.5";
  node_size = (50 50);
}

node object_dropped_accidentally_0 {
   states = (0 1 );
   label = "object_dropped_accidentally_0";
   ID = "object_dropped_accidentally_0";
}

node motive_1_0 {
   states = (0 1 );
   label = "motive_1_0";
   ID = "motive_1_0";
}

node sneak_1_0 {
   states = (0 1 );
   label = "sneak_1_0";
   ID = "sneak_1_0";
}

node stealing_1_0 {
   states = (0 1 );
   label = "stealing_1_0";
   ID = "stealing_1_0";
}

node E_psych_report_1_0 {
   states = (0 1 );
   label = "E_psych_report_1_0";
   ID = "E_psych_report_1_0";
}

node E_camera_1 {
   states = (0 1 );
   label = "E_camera_1";
   ID = "E_camera_1";
}

node E_camera_seen_stealing_1_0 {
   states = (0 1 );
   label = "E_camera_seen_stealing_1_0";
   ID = "E_camera_seen_stealing_1_0";
}

node E_object_gone_0 {
   states = (0 1 );
   label = "E_object_gone_0";
   ID = "E_object_gone_0";
}

potential (object_dropped_accidentally_0) {
   data = (  0.689621 0.310379);
}

potential ( motive_1_0 | object_dropped_accidentally_0   ) {
   data = 
   ((   0.912446   0.0875543)   % object_dropped_accidentally_0=0   
   (   0.991961   0.00803859));   % object_dropped_accidentally_0=1   
}

potential ( sneak_1_0 | motive_1_0   ) {
   data = 
   ((   0.999468   0.000532481)   % motive_1_0=0   
   (   0.0396825   0.960317));   % motive_1_0=1   
}

potential ( stealing_1_0 | motive_1_0   object_dropped_accidentally_0   ) {
   data = 
   (((   0.999603   0.000396511)   % object_dropped_accidentally_0=0   motive_1_0=0   
   (   0.99919   0.000810373))   % object_dropped_accidentally_0=1   motive_1_0=0   
   ((   0.00413223   0.995868)   % object_dropped_accidentally_0=0   motive_1_0=1   
   (   0.9   0.1)));   % object_dropped_accidentally_0=1   motive_1_0=1   
}

potential ( E_psych_report_1_0 | stealing_1_0   ) {
   data = 
   ((   0.999469   0.00053135)   % stealing_1_0=0   
   (   0.401639   0.598361));   % stealing_1_0=1   
}

potential (E_camera_1) {
   data = (  0.865269 0.134731);
}

potential ( E_camera_seen_stealing_1_0 | sneak_1_0   E_camera_1   ) {
   data = 
   (((   0.999696   0.000303951)   % E_camera_1=0   sneak_1_0=0   
   (   0.99789   0.0021097))   % E_camera_1=1   sneak_1_0=0   
   ((   0.994382   0.00561798)   % E_camera_1=0   sneak_1_0=1   
   (   0.621212   0.378788)));   % E_camera_1=1   sneak_1_0=1   
}

potential ( E_object_gone_0 | object_dropped_accidentally_0   stealing_1_0   ) {
   data = 
   (((   0.999603   0.000396511)   % stealing_1_0=0   object_dropped_accidentally_0=0   
   (   0.00413223   0.995868))   % stealing_1_0=1   object_dropped_accidentally_0=0   
   ((   0.000805153   0.999195)   % stealing_1_0=0   object_dropped_accidentally_0=1   
   (   0.5   0.5)));   % stealing_1_0=1   object_dropped_accidentally_0=1   
}


