
net {
  name = unnamedBN;
  software = "aGrUM 0.22.5";
  node_size = (50 50);
}

node lost_object {
   states = (0 1 );
   label = "lost_object";
   ID = "lost_object";
}

node know_object {
   states = (0 1 );
   label = "know_object";
   ID = "know_object";
}

node target_object {
   states = (0 1 );
   label = "target_object";
   ID = "target_object";
}

node motive {
   states = (0 1 );
   label = "motive";
   ID = "motive";
}

node compromise_house {
   states = (0 1 );
   label = "compromise_house";
   ID = "compromise_house";
}

node flees_startled {
   states = (0 1 );
   label = "flees_startled";
   ID = "flees_startled";
}

node successful_stolen {
   states = (0 1 );
   label = "successful_stolen";
   ID = "successful_stolen";
}

node raining {
   states = (0 1 );
   label = "raining";
   ID = "raining";
}

node curtains {
   states = (0 1 );
   label = "curtains";
   ID = "curtains";
}

node E_object_is_gone {
   states = (0 1 );
   label = "E_object_is_gone";
   ID = "E_object_is_gone";
}

node E_broken_lock {
   states = (0 1 );
   label = "E_broken_lock";
   ID = "E_broken_lock";
}

node E_disturbed_house {
   states = (0 1 );
   label = "E_disturbed_house";
   ID = "E_disturbed_house";
}

node E_s_spotted_by_house {
   states = (0 1 );
   label = "E_s_spotted_by_house";
   ID = "E_s_spotted_by_house";
}

node E_s_spotted_with_goodie {
   states = (0 1 );
   label = "E_s_spotted_with_goodie";
   ID = "E_s_spotted_with_goodie";
}

node E_private {
   states = (0 1 );
   label = "E_private";
   ID = "E_private";
}

potential (lost_object) {
   data = (  0.698161 0.301839);
}

potential ( know_object | curtains   lost_object   ) {
   data = 
   (((   0.0413523   0.958647)   % lost_object=0   curtains=0   
   (   0.953079   0.0469217))   % lost_object=1   curtains=0   
   ((   0.951553   0.0484473)   % lost_object=0   curtains=1   
   (   0.940325   0.0596754)));   % lost_object=1   curtains=1   
}

potential ( target_object | know_object   ) {
   data = 
   ((   0.925401   0.0745996)   % know_object=0   
   (   0.328719   0.671281));   % know_object=1   
}

potential ( motive | curtains   target_object   ) {
   data = 
   (((   0.912717   0.087283)   % target_object=0   curtains=0   
   (   0   1))   % target_object=1   curtains=0   
   ((   0.909306   0.0906934)   % target_object=0   curtains=1   
   (   0.915479   0.0845206)));   % target_object=1   curtains=1   
}

potential ( compromise_house | target_object   motive   ) {
   data = 
   (((   0.930959   0.0690403)   % motive=0   target_object=0   
   (   0.932875   0.0671246))   % motive=1   target_object=0   
   ((   0.932875   0.0671246)   % motive=0   target_object=1   
   (   0.617272   0.382728)));   % motive=1   target_object=1   
}

potential ( flees_startled | motive   target_object   ) {
   data = 
   (((   0.996818   0.00318217)   % target_object=0   motive=0   
   (   0.998734   0.00126646))   % target_object=1   motive=0   
   ((   0.998734   0.00126646)   % target_object=0   motive=1   
   (   0.399443   0.600557)));   % target_object=1   motive=1   
}

potential ( successful_stolen | flees_startled   compromise_house   ) {
   data = 
   (((   0.88663   0.11337)   % compromise_house=0   flees_startled=0   
   (   0   1))   % compromise_house=1   flees_startled=0   
   ((   0.878835   0.121165)   % compromise_house=0   flees_startled=1   
   (   0.873117   0.126883)));   % compromise_house=1   flees_startled=1   
}

potential (raining) {
   data = (  0.513541 0.486459);
}

potential (curtains) {
   data = (  0.96301 0.0369898);
}

potential ( E_object_is_gone | compromise_house   lost_object   ) {
   data = 
   (((   1   0)   % lost_object=0   compromise_house=0   
   (   0.0795808   0.92042))   % lost_object=1   compromise_house=0   
   ((   0.263093   0.736907)   % lost_object=0   compromise_house=1   
   (   1   0)));   % lost_object=1   compromise_house=1   
}

potential ( E_broken_lock | successful_stolen   compromise_house   ) {
   data = 
   (((   0.979415   0.0205841)   % compromise_house=0   successful_stolen=0   
   (   0   1))   % compromise_house=1   successful_stolen=0   
   ((   0.980816   0.0191836)   % compromise_house=0   successful_stolen=1   
   (   0.0192779   0.980722)));   % compromise_house=1   successful_stolen=1   
}

potential ( E_disturbed_house | compromise_house   ) {
   data = 
   ((   0.908444   0.0915562)   % compromise_house=0   
   (   0.454715   0.545285));   % compromise_house=1   
}

potential ( E_s_spotted_by_house | lost_object   curtains   know_object   ) {
   data = 
   ((((   0.913089   0.0869109)   % know_object=0   curtains=0   lost_object=0   
   (   0   1))   % know_object=1   curtains=0   lost_object=0   
   ((   0.000505374   0.999495)   % know_object=0   curtains=1   lost_object=0   
   (   0.925284   0.0747158)))   % know_object=1   curtains=1   lost_object=0   
   (((   0.16251   0.83749)   % know_object=0   curtains=0   lost_object=1   
   (   0.925284   0.0747158))   % know_object=1   curtains=0   lost_object=1   
   ((   0   1)   % know_object=0   curtains=1   lost_object=1   
   (   0.925284   0.0747158))));   % know_object=1   curtains=1   lost_object=1   
}

potential ( E_s_spotted_with_goodie | successful_stolen   compromise_house   ) {
   data = 
   (((   1   0)   % compromise_house=0   successful_stolen=0   
   (   0.426821   0.573179))   % compromise_house=1   successful_stolen=0   
   ((   1   0)   % compromise_house=0   successful_stolen=1   
   (   0.207707   0.792293)));   % compromise_house=1   successful_stolen=1   
}

potential ( E_private | flees_startled   successful_stolen   ) {
   data = 
   (((   1   0)   % successful_stolen=0   flees_startled=0   
   (   0.966619   0.0333807))   % successful_stolen=1   flees_startled=0   
   ((   0.0109631   0.989037)   % successful_stolen=0   flees_startled=1   
   (   1   0)));   % successful_stolen=1   flees_startled=1   
}


