
net {
  name = unnamedBN;
  software = "aGrUM 0.22.5";
  node_size = (50 50);
}

node lost_object {
   states = (0 1 );
   label = "lost_object";
   ID = "lost_object";
}

node know_object {
   states = (0 1 );
   label = "know_object";
   ID = "know_object";
}

node target_object {
   states = (0 1 );
   label = "target_object";
   ID = "target_object";
}

node motive {
   states = (0 1 );
   label = "motive";
   ID = "motive";
}

node compromise_house {
   states = (0 1 );
   label = "compromise_house";
   ID = "compromise_house";
}

node flees_startled {
   states = (0 1 );
   label = "flees_startled";
   ID = "flees_startled";
}

node successful_stolen {
   states = (0 1 );
   label = "successful_stolen";
   ID = "successful_stolen";
}

node raining {
   states = (0 1 );
   label = "raining";
   ID = "raining";
}

node curtains {
   states = (0 1 );
   label = "curtains";
   ID = "curtains";
}

node E_object_is_gone {
   states = (0 1 );
   label = "E_object_is_gone";
   ID = "E_object_is_gone";
}

node E_broken_lock {
   states = (0 1 );
   label = "E_broken_lock";
   ID = "E_broken_lock";
}

node E_disturbed_house {
   states = (0 1 );
   label = "E_disturbed_house";
   ID = "E_disturbed_house";
}

node E_s_spotted_by_house {
   states = (0 1 );
   label = "E_s_spotted_by_house";
   ID = "E_s_spotted_by_house";
}

node E_s_spotted_with_goodie {
   states = (0 1 );
   label = "E_s_spotted_with_goodie";
   ID = "E_s_spotted_with_goodie";
}

node E_private {
   states = (0 1 );
   label = "E_private";
   ID = "E_private";
}

potential (lost_object) {
   data = (  0.541008 0.458992);
}

potential ( know_object | curtains   lost_object   ) {
   data = 
   (((   0.456888   0.543112)   % lost_object=0   curtains=0   
   (   1   0))   % lost_object=1   curtains=0   
   ((   1   0)   % lost_object=0   curtains=1   
   (   1   0)));   % lost_object=1   curtains=1   
}

potential ( target_object | know_object   ) {
   data = 
   ((   1   0)   % know_object=0   
   (   0.551315   0.448685));   % know_object=1   
}

potential ( motive | curtains   target_object   ) {
   data = 
   (((   0.90781   0.0921903)   % target_object=0   curtains=0   
   (   0   1))   % target_object=1   curtains=0   
   ((   0.904399   0.0956007)   % target_object=0   curtains=1   
   (   0.910572   0.0894279)));   % target_object=1   curtains=1   
}

potential ( compromise_house | target_object   motive   ) {
   data = 
   (((   1   0)   % motive=0   target_object=0   
   (   1   0))   % motive=1   target_object=0   
   ((   1   0)   % motive=0   target_object=1   
   (   0.830952   0.169048)));   % motive=1   target_object=1   
}

potential ( flees_startled | motive   target_object   ) {
   data = 
   (((   0.975412   0.0245872)   % target_object=0   motive=0   
   (   0.977328   0.0226715))   % target_object=1   motive=0   
   ((   0.977328   0.0226715)   % target_object=0   motive=1   
   (   0.378037   0.621963)));   % target_object=1   motive=1   
}

potential ( successful_stolen | flees_startled   compromise_house   ) {
   data = 
   (((   1   0)   % compromise_house=0   flees_startled=0   
   (   0.37795   0.622049))   % compromise_house=1   flees_startled=0   
   ((   1   0)   % compromise_house=0   flees_startled=1   
   (   1   0)));   % compromise_house=1   flees_startled=1   
}

potential (raining) {
   data = (  0.946044 0.0539559);
}

potential (curtains) {
   data = (  1 0);
}

potential ( E_object_is_gone | compromise_house   lost_object   ) {
   data = 
   (((   0.579164   0.420836)   % lost_object=0   compromise_house=0   
   (   0   1))   % lost_object=1   compromise_house=0   
   ((   0   1)   % lost_object=0   compromise_house=1   
   (   0.581051   0.418949)));   % lost_object=1   compromise_house=1   
}

potential ( E_broken_lock | successful_stolen   compromise_house   ) {
   data = 
   (((   0.565365   0.434635)   % compromise_house=0   successful_stolen=0   
   (   0   1))   % compromise_house=1   successful_stolen=0   
   ((   0.566766   0.433234)   % compromise_house=0   successful_stolen=1   
   (   0   1)));   % compromise_house=1   successful_stolen=1   
}

potential ( E_disturbed_house | compromise_house   ) {
   data = 
   ((   0.845867   0.154133)   % compromise_house=0   
   (   0.392138   0.607862));   % compromise_house=1   
}

potential ( E_s_spotted_by_house | lost_object   curtains   know_object   ) {
   data = 
   ((((   1   0)   % know_object=0   curtains=0   lost_object=0   
   (   0.0662907   0.933709))   % know_object=1   curtains=0   lost_object=0   
   ((   0.123232   0.876768)   % know_object=0   curtains=1   lost_object=0   
   (   1   0)))   % know_object=1   curtains=1   lost_object=0   
   (((   0.285237   0.714763)   % know_object=0   curtains=0   lost_object=1   
   (   1   0))   % know_object=1   curtains=0   lost_object=1   
   ((   0.0582152   0.941785)   % know_object=0   curtains=1   lost_object=1   
   (   1   0))));   % know_object=1   curtains=1   lost_object=1   
}

potential ( E_s_spotted_with_goodie | successful_stolen   compromise_house   ) {
   data = 
   (((   1   0)   % compromise_house=0   successful_stolen=0   
   (   0.520427   0.479573))   % compromise_house=1   successful_stolen=0   
   ((   1   0)   % compromise_house=0   successful_stolen=1   
   (   0.301312   0.698687)));   % compromise_house=1   successful_stolen=1   
}

potential ( E_private | flees_startled   successful_stolen   ) {
   data = 
   (((   1   0)   % successful_stolen=0   flees_startled=0   
   (   1   0))   % successful_stolen=1   flees_startled=0   
   ((   0.100573   0.899427)   % successful_stolen=0   flees_startled=1   
   (   1   0)));   % successful_stolen=1   flees_startled=1   
}


