
net {
}

node jane_and_mark_fight {
states = ("0" "1");
   label = "jane_and_mark_fight";
   ID = "jane_and_mark_fight";
}

node jane_has_knife {
states = ("0" "1");
   label = "jane_has_knife";
   ID = "jane_has_knife";
}

node jane_stabs_mark_with_knife {
states = ("0" "1");
   label = "jane_stabs_mark_with_knife";
   ID = "jane_stabs_mark_with_knife";
}

node mark_dies {
states = ("0" "1");
   label = "mark_dies";
   ID = "mark_dies";
}

node E_neighbor {
states = ("0" "1");
   label = "E_neighbor";
   ID = "E_neighbor";
}

node E_prints {
states = ("0" "1");
   label = "E_prints";
   ID = "E_prints";
}

node E_stab_wounds {
states = ("0" "1");
   label = "E_stab_wounds";
   ID = "E_stab_wounds";
}

node E_forensic {
states = ("0" "1");
   label = "E_forensic";
   ID = "E_forensic";
}

potential (jane_and_mark_fight) {
   data = (  0.26024 0.73976);
}

potential ( jane_has_knife | jane_and_mark_fight   ) {
   data = 
   ((   0.853167   0.146833)   % jane_and_mark_fight=0   
   (   0.240716   0.759284));   % jane_and_mark_fight=1   
}

potential ( jane_stabs_mark_with_knife | jane_has_knife   ) {
   data = 
   ((   0.999376   0.00062422)   % jane_has_knife=0   
   (   0.0287261   0.971274));   % jane_has_knife=1   
}

potential ( mark_dies | jane_stabs_mark_with_knife   ) {
   data = 
   ((   0.999401   0.000598802)   % jane_stabs_mark_with_knife=0   
   (   0.595116   0.404884));   % jane_stabs_mark_with_knife=1   
}

potential ( E_neighbor | jane_and_mark_fight   jane_has_knife   ) {
   data = 
   (((   0.495501   0.504499)   % jane_has_knife=0   jane_and_mark_fight=0   
   (   0.00326797   0.996732))   % jane_has_knife=1   jane_and_mark_fight=0   
   ((   0.000701262   0.999299)   % jane_has_knife=0   jane_and_mark_fight=1   
   (   0.000222321   0.999778)));   % jane_has_knife=1   jane_and_mark_fight=1   
}

potential ( E_prints | jane_has_knife   jane_stabs_mark_with_knife   ) {
   data = 
   (((   0.999688   0.000312305)   % jane_stabs_mark_with_knife=0   jane_has_knife=0   
   (   1   0))   % jane_stabs_mark_with_knife=1   jane_has_knife=0   
   ((   0.00724638   0.992754)   % jane_stabs_mark_with_knife=0   jane_has_knife=1   
   (   0.000214316   0.999786)));   % jane_stabs_mark_with_knife=1   jane_has_knife=1   
}

potential ( E_stab_wounds | jane_stabs_mark_with_knife   E_prints   jane_has_knife   ) {
   data = 
   ((((   0.999844   0.000156201)   % jane_has_knife=0   E_prints=0   jane_stabs_mark_with_knife=0   
   (   1   0))   % jane_has_knife=1   E_prints=0   jane_stabs_mark_with_knife=0   
   ((   1   0)   % jane_has_knife=0   E_prints=1   jane_stabs_mark_with_knife=0   
   (   0.99635   0.00364964)))   % jane_has_knife=1   E_prints=1   jane_stabs_mark_with_knife=0   
   (((   1   0)   % jane_has_knife=0   E_prints=0   jane_stabs_mark_with_knife=1   
   (   1   0))   % jane_has_knife=1   E_prints=0   jane_stabs_mark_with_knife=1   
   ((   1   0)   % jane_has_knife=0   E_prints=1   jane_stabs_mark_with_knife=1   
   (   0.000107181   0.999893))));   % jane_has_knife=1   E_prints=1   jane_stabs_mark_with_knife=1   
}

potential ( E_forensic | mark_dies   E_neighbor   ) {
   data = 
   (((   0.998866   0.00113379)   % E_neighbor=0   mark_dies=0   
   (   0.999809   0.000191058))   % E_neighbor=1   mark_dies=0   
   ((   1   0)   % E_neighbor=0   mark_dies=1   
   (   0.000529101   0.999471)));   % E_neighbor=1   mark_dies=1   
}


