
net {
  name = unnamedBN;
  software = "aGrUM 0.22.5";
  node_size = (50 50);
}

node object_dropped_accidentally_0 {
   states = (0 1 );
   label = "object_dropped_accidentally_0";
   ID = "object_dropped_accidentally_0";
}

node motive_1_0 {
   states = (0 1 );
   label = "motive_1_0";
   ID = "motive_1_0";
}

node sneak_1_0 {
   states = (0 1 );
   label = "sneak_1_0";
   ID = "sneak_1_0";
}

node stealing_1_0 {
   states = (0 1 );
   label = "stealing_1_0";
   ID = "stealing_1_0";
}

node E_psych_report_1_0 {
   states = (0 1 );
   label = "E_psych_report_1_0";
   ID = "E_psych_report_1_0";
}

node E_camera_1 {
   states = (0 1 );
   label = "E_camera_1";
   ID = "E_camera_1";
}

node E_camera_seen_stealing_1_0 {
   states = (0 1 );
   label = "E_camera_seen_stealing_1_0";
   ID = "E_camera_seen_stealing_1_0";
}

node E_object_gone_0 {
   states = (0 1 );
   label = "E_object_gone_0";
   ID = "E_object_gone_0";
}

potential (object_dropped_accidentally_0) {
   data = (  0.693076 0.306924);
}

potential ( motive_1_0 | object_dropped_accidentally_0   ) {
   data = 
   ((   0.939962   0.0600384)   % object_dropped_accidentally_0=0   
   (   0.981562   0.0184382));   % object_dropped_accidentally_0=1   
}

potential ( sneak_1_0 | motive_1_0   ) {
   data = 
   ((   0.999651   0.000349406)   % motive_1_0=0   
   (   0.00704225   0.992958));   % motive_1_0=1   
}

potential ( stealing_1_0 | motive_1_0   object_dropped_accidentally_0   ) {
   data = 
   (((   0.999745   0.000255493)   % object_dropped_accidentally_0=0   motive_1_0=0   
   (   0.999448   0.000552486))   % object_dropped_accidentally_0=1   motive_1_0=0   
   ((   0.068   0.932)   % object_dropped_accidentally_0=0   motive_1_0=1   
   (   0.970588   0.0294118)));   % object_dropped_accidentally_0=1   motive_1_0=1   
}

potential ( E_psych_report_1_0 | motive_1_0   sneak_1_0   ) {
   data = 
   (((   0.999825   0.000174764)   % sneak_1_0=0   motive_1_0=0   
   (   0.5   0.5))   % sneak_1_0=1   motive_1_0=0   
   ((   0.5   0.5)   % sneak_1_0=0   motive_1_0=1   
   (   0.14539   0.85461)));   % sneak_1_0=1   motive_1_0=1   
}

potential (E_camera_1) {
   data = (  0.856858 0.143142);
}

potential ( E_camera_seen_stealing_1_0 | stealing_1_0   ) {
   data = 
   ((   0.999653   0.0003465)   % stealing_1_0=0   
   (   0.957627   0.0423729));   % stealing_1_0=1   
}

potential ( E_object_gone_0 | object_dropped_accidentally_0   stealing_1_0   ) {
   data = 
   (((   0.999746   0.000254453)   % stealing_1_0=0   object_dropped_accidentally_0=0   
   (   0.0042735   0.995726))   % stealing_1_0=1   object_dropped_accidentally_0=0   
   ((   0.000542888   0.999457)   % stealing_1_0=0   object_dropped_accidentally_0=1   
   (   0.5   0.5)));   % stealing_1_0=1   object_dropped_accidentally_0=1   
}


