
net {
  name = unnamedBN;
  software = "aGrUM 0.22.5";
  node_size = (50 50);
}

node object_dropped_accidentally_0 {
   states = (0 1 );
   label = "object_dropped_accidentally_0";
   ID = "object_dropped_accidentally_0";
}

node motive_1_0 {
   states = (0 1 );
   label = "motive_1_0";
   ID = "motive_1_0";
}

node sneak_1_0 {
   states = (0 1 );
   label = "sneak_1_0";
   ID = "sneak_1_0";
}

node stealing_1_0 {
   states = (0 1 );
   label = "stealing_1_0";
   ID = "stealing_1_0";
}

node E_psych_report_1_0 {
   states = (0 1 );
   label = "E_psych_report_1_0";
   ID = "E_psych_report_1_0";
}

node E_camera_1 {
   states = (0 1 );
   label = "E_camera_1";
   ID = "E_camera_1";
}

node E_camera_seen_stealing_1_0 {
   states = (0 1 );
   label = "E_camera_seen_stealing_1_0";
   ID = "E_camera_seen_stealing_1_0";
}

node E_object_gone_0 {
   states = (0 1 );
   label = "E_object_gone_0";
   ID = "E_object_gone_0";
}

potential (object_dropped_accidentally_0) {
   data = (  0.679641 0.320359);
}

potential ( motive_1_0 | object_dropped_accidentally_0   ) {
   data = 
   ((   0.928781   0.0712188)   % object_dropped_accidentally_0=0   
   (   0.979751   0.0202492));   % object_dropped_accidentally_0=1   
}

potential ( sneak_1_0 | motive_1_0   ) {
   data = 
   ((   0.999472   0.000527983)   % motive_1_0=0   
   (   0.00909091   0.990909));   % motive_1_0=1   
}

potential ( stealing_1_0 | motive_1_0   object_dropped_accidentally_0   sneak_1_0   ) {
   data = 
   ((((   0.999802   0.000197707)   % sneak_1_0=0   object_dropped_accidentally_0=0   motive_1_0=0   
   (   0.5   0.5))   % sneak_1_0=1   object_dropped_accidentally_0=0   motive_1_0=0   
   ((   0.999602   0.000397772)   % sneak_1_0=0   object_dropped_accidentally_0=1   motive_1_0=0   
   (   0.5   0.5)))   % sneak_1_0=1   object_dropped_accidentally_0=1   motive_1_0=0   
   (((   0.5   0.5)   % sneak_1_0=0   object_dropped_accidentally_0=0   motive_1_0=1   
   (   0.00259067   0.997409))   % sneak_1_0=1   object_dropped_accidentally_0=0   motive_1_0=1   
   ((   0.5   0.5)   % sneak_1_0=0   object_dropped_accidentally_0=1   motive_1_0=1   
   (   0.98   0.02))));   % sneak_1_0=1   object_dropped_accidentally_0=1   motive_1_0=1   
}

potential ( E_psych_report_1_0 | motive_1_0   sneak_1_0   ) {
   data = 
   (((   0.999736   0.000264131)   % sneak_1_0=0   motive_1_0=0   
   (   0.5   0.5))   % sneak_1_0=1   motive_1_0=0   
   ((   0.5   0.5)   % sneak_1_0=0   motive_1_0=1   
   (   0.188073   0.811927)));   % sneak_1_0=1   motive_1_0=1   
}

potential (E_camera_1) {
   data = (  0.827345 0.172655);
}

potential ( E_camera_seen_stealing_1_0 | E_psych_report_1_0   E_camera_1   ) {
   data = 
   (((   0.999685   0.000315457)   % E_camera_1=0   E_psych_report_1_0=0   
   (   0.99848   0.00151976))   % E_camera_1=1   E_psych_report_1_0=0   
   ((   0.993151   0.00684932)   % E_camera_1=0   E_psych_report_1_0=1   
   (   0.264706   0.735294)));   % E_camera_1=1   E_psych_report_1_0=1   
}

potential ( E_object_gone_0 | object_dropped_accidentally_0   stealing_1_0   ) {
   data = 
   (((   0.999605   0.000395257)   % stealing_1_0=0   object_dropped_accidentally_0=0   
   (   0.00515464   0.994845))   % stealing_1_0=1   object_dropped_accidentally_0=0   
   ((   0.000780031   0.99922)   % stealing_1_0=0   object_dropped_accidentally_0=1   
   (   0.5   0.5)));   % stealing_1_0=1   object_dropped_accidentally_0=1   
}


