
net {
  name = unnamedBN;
  software = "aGrUM 0.22.5";
  node_size = (50 50);
}

node object_dropped_accidentally_0 {
   states = (0 1 );
   label = "object_dropped_accidentally_0";
   ID = "object_dropped_accidentally_0";
}

node motive_1_0 {
   states = (0 1 );
   label = "motive_1_0";
   ID = "motive_1_0";
}

node sneak_1_0 {
   states = (0 1 );
   label = "sneak_1_0";
   ID = "sneak_1_0";
}

node stealing_1_0 {
   states = (0 1 );
   label = "stealing_1_0";
   ID = "stealing_1_0";
}

node E_psych_report_1_0 {
   states = (0 1 );
   label = "E_psych_report_1_0";
   ID = "E_psych_report_1_0";
}

node E_camera_1 {
   states = (0 1 );
   label = "E_camera_1";
   ID = "E_camera_1";
}

node E_camera_seen_stealing_1_0 {
   states = (0 1 );
   label = "E_camera_seen_stealing_1_0";
   ID = "E_camera_seen_stealing_1_0";
}

node E_object_gone_0 {
   states = (0 1 );
   label = "E_object_gone_0";
   ID = "E_object_gone_0";
}

potential (object_dropped_accidentally_0) {
   data = (  0.692691 0.307309);
}

potential (motive_1_0) {
   data = (  0.951827 0.0481728);
}

potential ( sneak_1_0 | motive_1_0   ) {
   data = 
   ((   0.999127   0.0008726)   % motive_1_0=0   
   (   0.0172414   0.982759));   % motive_1_0=1   
}

potential ( stealing_1_0 | motive_1_0   object_dropped_accidentally_0   sneak_1_0   ) {
   data = 
   ((((   0.999681   0.000318674)   % sneak_1_0=0   object_dropped_accidentally_0=0   motive_1_0=0   
   (   0.5   0.5))   % sneak_1_0=1   object_dropped_accidentally_0=0   motive_1_0=0   
   ((   0.999307   0.000693481)   % sneak_1_0=0   object_dropped_accidentally_0=1   motive_1_0=0   
   (   0.5   0.5)))   % sneak_1_0=1   object_dropped_accidentally_0=1   motive_1_0=0   
   (((   0.5   0.5)   % sneak_1_0=0   object_dropped_accidentally_0=0   motive_1_0=1   
   (   0.00515464   0.994845))   % sneak_1_0=1   object_dropped_accidentally_0=0   motive_1_0=1   
   ((   0.5   0.5)   % sneak_1_0=0   object_dropped_accidentally_0=1   motive_1_0=1   
   (   0.970588   0.0294118))));   % sneak_1_0=1   object_dropped_accidentally_0=1   motive_1_0=1   
}

potential ( E_psych_report_1_0 | motive_1_0   sneak_1_0   ) {
   data = 
   (((   0.999563   0.000436681)   % sneak_1_0=0   motive_1_0=0   
   (   0.5   0.5))   % sneak_1_0=1   motive_1_0=0   
   ((   0.5   0.5)   % sneak_1_0=0   motive_1_0=1   
   (   0.00877193   0.991228)));   % sneak_1_0=1   motive_1_0=1   
}

potential ( E_camera_1 | motive_1_0   ) {
   data = 
   ((   0.835079   0.164921)   % motive_1_0=0   
   (   0.568966   0.431034));   % motive_1_0=1   
}

potential ( E_camera_seen_stealing_1_0 | stealing_1_0   E_camera_1   ) {
   data = 
   (((   0.99948   0.000520291)   % E_camera_1=0   stealing_1_0=0   
   (   0.997409   0.00259067))   % E_camera_1=1   stealing_1_0=0   
   ((   0.982759   0.0172414)   % E_camera_1=0   stealing_1_0=1   
   (   0.595238   0.404762)));   % E_camera_1=1   stealing_1_0=1   
}

potential ( E_object_gone_0 | object_dropped_accidentally_0   stealing_1_0   ) {
   data = 
   (((   0.999363   0.000636943)   % stealing_1_0=0   object_dropped_accidentally_0=0   
   (   0.0102041   0.989796))   % stealing_1_0=1   object_dropped_accidentally_0=0   
   ((   0.00135501   0.998645)   % stealing_1_0=0   object_dropped_accidentally_0=1   
   (   0.5   0.5)));   % stealing_1_0=1   object_dropped_accidentally_0=1   
}


