
net {
  name = unnamedBN;
  software = "aGrUM 0.22.5";
  node_size = (50 50);
}

node object_dropped_accidentally_0 {
   states = (0 1 );
   label = "object_dropped_accidentally_0";
   ID = "object_dropped_accidentally_0";
}

node motive_1_0 {
   states = (0 1 );
   label = "motive_1_0";
   ID = "motive_1_0";
}

node sneak_1_0 {
   states = (0 1 );
   label = "sneak_1_0";
   ID = "sneak_1_0";
}

node stealing_1_0 {
   states = (0 1 );
   label = "stealing_1_0";
   ID = "stealing_1_0";
}

node E_psych_report_1_0 {
   states = (0 1 );
   label = "E_psych_report_1_0";
   ID = "E_psych_report_1_0";
}

node E_camera_1 {
   states = (0 1 );
   label = "E_camera_1";
   ID = "E_camera_1";
}

node E_camera_seen_stealing_1_0 {
   states = (0 1 );
   label = "E_camera_seen_stealing_1_0";
   ID = "E_camera_seen_stealing_1_0";
}

node E_object_gone_0 {
   states = (0 1 );
   label = "E_object_gone_0";
   ID = "E_object_gone_0";
}

potential (object_dropped_accidentally_0) {
   data = (  0.656863 0.343137);
}

potential (motive_1_0) {
   data = (  0.931373 0.0686275);
}

potential ( sneak_1_0 | motive_1_0   ) {
   data = 
   ((   0.994737   0.00526316)   % motive_1_0=0   
   (   0.0714286   0.928571));   % motive_1_0=1   
}

potential ( stealing_1_0 | motive_1_0   sneak_1_0   ) {
   data = 
   (((   0.997354   0.0026455)   % sneak_1_0=0   motive_1_0=0   
   (   0.5   0.5))   % sneak_1_0=1   motive_1_0=0   
   ((   0.5   0.5)   % sneak_1_0=0   motive_1_0=1   
   (   0.0384615   0.961538)));   % sneak_1_0=1   motive_1_0=1   
}

potential ( E_psych_report_1_0 | stealing_1_0   sneak_1_0   ) {
   data = 
   (((   0.997354   0.0026455)   % sneak_1_0=0   stealing_1_0=0   
   (   0.5   0.5))   % sneak_1_0=1   stealing_1_0=0   
   ((   0.5   0.5)   % sneak_1_0=0   stealing_1_0=1   
   (   0.346154   0.653846)));   % sneak_1_0=1   stealing_1_0=1   
}

potential (E_camera_1) {
   data = (  0.813725 0.186275);
}

potential ( E_camera_seen_stealing_1_0 | E_psych_report_1_0   E_camera_1   ) {
   data = 
   (((   0.996894   0.00310559)   % E_camera_1=0   E_psych_report_1_0=0   
   (   0.984848   0.0151515))   % E_camera_1=1   E_psych_report_1_0=0   
   ((   0.9   0.1)   % E_camera_1=0   E_psych_report_1_0=1   
   (   0.1   0.9)));   % E_camera_1=1   E_psych_report_1_0=1   
}

potential ( E_object_gone_0 | object_dropped_accidentally_0   stealing_1_0   sneak_1_0   motive_1_0   E_camera_seen_stealing_1_0   ) {
   data = 
   ((((((   0.99948   0.000520291)   % E_camera_seen_stealing_1_0=0   motive_1_0=0   sneak_1_0=0   stealing_1_0=0   object_dropped_accidentally_0=0   
   (   0.5   0.5))   % E_camera_seen_stealing_1_0=1   motive_1_0=0   sneak_1_0=0   stealing_1_0=0   object_dropped_accidentally_0=0   
   ((   0.5   0.5)   % E_camera_seen_stealing_1_0=0   motive_1_0=1   sneak_1_0=0   stealing_1_0=0   object_dropped_accidentally_0=0   
   (   0.5   0.5)))   % E_camera_seen_stealing_1_0=1   motive_1_0=1   sneak_1_0=0   stealing_1_0=0   object_dropped_accidentally_0=0   
   (((   0.5   0.5)   % E_camera_seen_stealing_1_0=0   motive_1_0=0   sneak_1_0=1   stealing_1_0=0   object_dropped_accidentally_0=0   
   (   0.5   0.5))   % E_camera_seen_stealing_1_0=1   motive_1_0=0   sneak_1_0=1   stealing_1_0=0   object_dropped_accidentally_0=0   
   ((   0.5   0.5)   % E_camera_seen_stealing_1_0=0   motive_1_0=1   sneak_1_0=1   stealing_1_0=0   object_dropped_accidentally_0=0   
   (   0.5   0.5))))   % E_camera_seen_stealing_1_0=1   motive_1_0=1   sneak_1_0=1   stealing_1_0=0   object_dropped_accidentally_0=0   
   ((((   0.5   0.5)   % E_camera_seen_stealing_1_0=0   motive_1_0=0   sneak_1_0=0   stealing_1_0=1   object_dropped_accidentally_0=0   
   (   0.5   0.5))   % E_camera_seen_stealing_1_0=1   motive_1_0=0   sneak_1_0=0   stealing_1_0=1   object_dropped_accidentally_0=0   
   ((   0.5   0.5)   % E_camera_seen_stealing_1_0=0   motive_1_0=1   sneak_1_0=0   stealing_1_0=1   object_dropped_accidentally_0=0   
   (   0.5   0.5)))   % E_camera_seen_stealing_1_0=1   motive_1_0=1   sneak_1_0=0   stealing_1_0=1   object_dropped_accidentally_0=0   
   (((   0.5   0.5)   % E_camera_seen_stealing_1_0=0   motive_1_0=0   sneak_1_0=1   stealing_1_0=1   object_dropped_accidentally_0=0   
   (   0.5   0.5))   % E_camera_seen_stealing_1_0=1   motive_1_0=0   sneak_1_0=1   stealing_1_0=1   object_dropped_accidentally_0=0   
   ((   0.00769231   0.992308)   % E_camera_seen_stealing_1_0=0   motive_1_0=1   sneak_1_0=1   stealing_1_0=1   object_dropped_accidentally_0=0   
   (   0.0151515   0.984848)))))   % E_camera_seen_stealing_1_0=1   motive_1_0=1   sneak_1_0=1   stealing_1_0=1   object_dropped_accidentally_0=0   
   (((((   0.000917431   0.999083)   % E_camera_seen_stealing_1_0=0   motive_1_0=0   sneak_1_0=0   stealing_1_0=0   object_dropped_accidentally_0=1   
   (   0.5   0.5))   % E_camera_seen_stealing_1_0=1   motive_1_0=0   sneak_1_0=0   stealing_1_0=0   object_dropped_accidentally_0=1   
   ((   0.5   0.5)   % E_camera_seen_stealing_1_0=0   motive_1_0=1   sneak_1_0=0   stealing_1_0=0   object_dropped_accidentally_0=1   
   (   0.5   0.5)))   % E_camera_seen_stealing_1_0=1   motive_1_0=1   sneak_1_0=0   stealing_1_0=0   object_dropped_accidentally_0=1   
   (((   0.5   0.5)   % E_camera_seen_stealing_1_0=0   motive_1_0=0   sneak_1_0=1   stealing_1_0=0   object_dropped_accidentally_0=1   
   (   0.5   0.5))   % E_camera_seen_stealing_1_0=1   motive_1_0=0   sneak_1_0=1   stealing_1_0=0   object_dropped_accidentally_0=1   
   ((   0.5   0.5)   % E_camera_seen_stealing_1_0=0   motive_1_0=1   sneak_1_0=1   stealing_1_0=0   object_dropped_accidentally_0=1   
   (   0.5   0.5))))   % E_camera_seen_stealing_1_0=1   motive_1_0=1   sneak_1_0=1   stealing_1_0=0   object_dropped_accidentally_0=1   
   ((((   0.5   0.5)   % E_camera_seen_stealing_1_0=0   motive_1_0=0   sneak_1_0=0   stealing_1_0=1   object_dropped_accidentally_0=1   
   (   0.5   0.5))   % E_camera_seen_stealing_1_0=1   motive_1_0=0   sneak_1_0=0   stealing_1_0=1   object_dropped_accidentally_0=1   
   ((   0.5   0.5)   % E_camera_seen_stealing_1_0=0   motive_1_0=1   sneak_1_0=0   stealing_1_0=1   object_dropped_accidentally_0=1   
   (   0.5   0.5)))   % E_camera_seen_stealing_1_0=1   motive_1_0=1   sneak_1_0=0   stealing_1_0=1   object_dropped_accidentally_0=1   
   (((   0.5   0.5)   % E_camera_seen_stealing_1_0=0   motive_1_0=0   sneak_1_0=1   stealing_1_0=1   object_dropped_accidentally_0=1   
   (   0.5   0.5))   % E_camera_seen_stealing_1_0=1   motive_1_0=0   sneak_1_0=1   stealing_1_0=1   object_dropped_accidentally_0=1   
   ((   0.5   0.5)   % E_camera_seen_stealing_1_0=0   motive_1_0=1   sneak_1_0=1   stealing_1_0=1   object_dropped_accidentally_0=1   
   (   0.5   0.5))))));   % E_camera_seen_stealing_1_0=1   motive_1_0=1   sneak_1_0=1   stealing_1_0=1   object_dropped_accidentally_0=1   
}


