
net {
  name = unnamedBN;
  software = "aGrUM 0.22.5";
  node_size = (50 50);
}

node object_dropped_accidentally_0 {
   states = (0 1 );
   label = "object_dropped_accidentally_0";
   ID = "object_dropped_accidentally_0";
}

node motive_1_0 {
   states = (0 1 );
   label = "motive_1_0";
   ID = "motive_1_0";
}

node sneak_1_0 {
   states = (0 1 );
   label = "sneak_1_0";
   ID = "sneak_1_0";
}

node stealing_1_0 {
   states = (0 );
   label = "stealing_1_0";
   ID = "stealing_1_0";
}

node E_psych_report_1_0 {
   states = (0 1 );
   label = "E_psych_report_1_0";
   ID = "E_psych_report_1_0";
}

node E_camera_1 {
   states = (0 1 );
   label = "E_camera_1";
   ID = "E_camera_1";
}

node E_camera_seen_stealing_1_0 {
   states = (0 1 );
   label = "E_camera_seen_stealing_1_0";
   ID = "E_camera_seen_stealing_1_0";
}

node E_object_gone_0 {
   states = (0 1 );
   label = "E_object_gone_0";
   ID = "E_object_gone_0";
}

potential (object_dropped_accidentally_0) {
   data = (  0.75 0.25);
}

potential ( motive_1_0 | object_dropped_accidentally_0   ) {
   data = 
   ((   0.944444   0.0555556)   % object_dropped_accidentally_0=0   
   (   0.166667   0.833333));   % object_dropped_accidentally_0=1   
}

potential ( sneak_1_0 | object_dropped_accidentally_0   motive_1_0   ) {
   data = 
   (((   0.970588   0.0294118)   % motive_1_0=0   object_dropped_accidentally_0=0   
   (   0.5   0.5))   % motive_1_0=1   object_dropped_accidentally_0=0   
   ((   0.5   0.5)   % motive_1_0=0   object_dropped_accidentally_0=1   
   (   0.1   0.9)));   % motive_1_0=1   object_dropped_accidentally_0=1   
}

potential ( stealing_1_0 | motive_1_0   object_dropped_accidentally_0   ) {
   data = 
   (((   1)   % object_dropped_accidentally_0=0   motive_1_0=0   
   (   1))   % object_dropped_accidentally_0=1   motive_1_0=0   
   ((   1)   % object_dropped_accidentally_0=0   motive_1_0=1   
   (   1)));   % object_dropped_accidentally_0=1   motive_1_0=1   
}

potential ( E_psych_report_1_0 | motive_1_0   sneak_1_0   ) {
   data = 
   (((   0.970588   0.0294118)   % sneak_1_0=0   motive_1_0=0   
   (   0.5   0.5))   % sneak_1_0=1   motive_1_0=0   
   ((   0.5   0.5)   % sneak_1_0=0   motive_1_0=1   
   (   0.1   0.9)));   % sneak_1_0=1   motive_1_0=1   
}

potential ( E_camera_1 | sneak_1_0   object_dropped_accidentally_0   ) {
   data = 
   (((   0.970588   0.0294118)   % object_dropped_accidentally_0=0   sneak_1_0=0   
   (   0.5   0.5))   % object_dropped_accidentally_0=1   sneak_1_0=0   
   ((   0.5   0.5)   % object_dropped_accidentally_0=0   sneak_1_0=1   
   (   0.1   0.9)));   % object_dropped_accidentally_0=1   sneak_1_0=1   
}

potential ( E_camera_seen_stealing_1_0 | sneak_1_0   E_camera_1   ) {
   data = 
   (((   0.970588   0.0294118)   % E_camera_1=0   sneak_1_0=0   
   (   0.5   0.5))   % E_camera_1=1   sneak_1_0=0   
   ((   0.5   0.5)   % E_camera_1=0   sneak_1_0=1   
   (   0.1   0.9)));   % E_camera_1=1   sneak_1_0=1   
}

potential ( E_object_gone_0 | object_dropped_accidentally_0   E_psych_report_1_0   ) {
   data = 
   (((   0.970588   0.0294118)   % E_psych_report_1_0=0   object_dropped_accidentally_0=0   
   (   0.5   0.5))   % E_psych_report_1_0=1   object_dropped_accidentally_0=0   
   ((   0.5   0.5)   % E_psych_report_1_0=0   object_dropped_accidentally_0=1   
   (   0.1   0.9)));   % E_psych_report_1_0=1   object_dropped_accidentally_0=1   
}


