
net {
}

node lost_object {
states = ("0" "1");
   label = "lost_object";
   ID = "lost_object";
}

node know_object {
states = ("0" "1");
   label = "know_object";
   ID = "know_object";
}

node target_object {
states = ("0" "1");
   label = "target_object";
   ID = "target_object";
}

node motive {
states = ("0" "1");
   label = "motive";
   ID = "motive";
}

node compromise_house {
states = ("0" "1");
   label = "compromise_house";
   ID = "compromise_house";
}

node flees_startled {
states = ("0" "1");
   label = "flees_startled";
   ID = "flees_startled";
}

node successful_stolen {
states = ("0" "1");
   label = "successful_stolen";
   ID = "successful_stolen";
}

node raining {
states = ("0" "1");
   label = "raining";
   ID = "raining";
}

node curtains {
states = ("0" "1");
   label = "curtains";
   ID = "curtains";
}

node E_object_is_gone {
states = ("0" "1");
   label = "E_object_is_gone";
   ID = "E_object_is_gone";
}

node E_broken_lock {
states = ("0" "1");
   label = "E_broken_lock";
   ID = "E_broken_lock";
}

node E_disturbed_house {
states = ("0" "1");
   label = "E_disturbed_house";
   ID = "E_disturbed_house";
}

node E_s_spotted_by_house {
states = ("0" "1");
   label = "E_s_spotted_by_house";
   ID = "E_s_spotted_by_house";
}

node E_s_spotted_with_goodie {
states = ("0" "1");
   label = "E_s_spotted_with_goodie";
   ID = "E_s_spotted_with_goodie";
}

node E_private {
states = ("0" "1");
   label = "E_private";
   ID = "E_private";
}

potential (lost_object) {
   data = (  0.791708 0.208292);
}

potential ( know_object | curtains   lost_object   ) {
   data = 
   (((   0.0269155   0.973084)   % lost_object=0   curtains=0   
   (   0.999257   0.000742942))   % lost_object=1   curtains=0   
   ((   0.9992   0.0008)   % lost_object=0   curtains=1   
   (   0.996894   0.00310559)));   % lost_object=1   curtains=1   
}

potential ( target_object | know_object   ) {
   data = 
   ((   0.999345   0.000655308)   % know_object=0   
   (   0.518563   0.481437));   % know_object=1   
}

potential ( motive | target_object   curtains   ) {
   data = 
   (((   0.999753   0.000246914)   % curtains=0   target_object=0   
   (   0.999363   0.000636943))   % curtains=1   target_object=0   
   ((   0.000419111   0.999581)   % curtains=0   target_object=1   
   (   1   0)));   % curtains=1   target_object=1   
}

potential ( compromise_house | motive   target_object   ) {
   data = 
   (((   0.999822   0.000177999)   % target_object=0   motive=0   
   (   1   0))   % target_object=1   motive=0   
   ((   1   0)   % target_object=0   motive=1   
   (   0.687762   0.312238)));   % target_object=1   motive=1   
}

potential ( flees_startled | target_object   motive   ) {
   data = 
   (((   0.999822   0.000177999)   % motive=0   target_object=0   
   (   1   0))   % motive=1   target_object=0   
   ((   1   0)   % motive=0   target_object=1   
   (   0.486588   0.513412)));   % motive=1   target_object=1   
}

potential ( successful_stolen | compromise_house   flees_startled   ) {
   data = 
   (((   0.999844   0.000156397)   % flees_startled=0   compromise_house=0   
   (   0.998845   0.00115473))   % flees_startled=1   compromise_house=0   
   ((   0.00259067   0.997409)   % flees_startled=0   compromise_house=1   
   (   0.997238   0.00276243)));   % flees_startled=1   compromise_house=1   
}

potential (raining) {
   data = (  0.520979 0.479021);
}

potential (curtains) {
   data = (  0.803696 0.196304);
}

potential ( E_object_is_gone | lost_object   compromise_house   successful_stolen   ) {
   data = 
   ((((   0.999911   8.93975e-05)   % successful_stolen=0   compromise_house=0   lost_object=0   
   (   1   0))   % successful_stolen=1   compromise_house=0   lost_object=0   
   ((   0.422438   0.577562)   % successful_stolen=0   compromise_house=1   lost_object=0   
   (   0.0012987   0.998701)))   % successful_stolen=1   compromise_house=1   lost_object=0   
   (((   0.0003003   0.9997)   % successful_stolen=0   compromise_house=0   lost_object=1   
   (   1   0))   % successful_stolen=1   compromise_house=0   lost_object=1   
   ((   1   0)   % successful_stolen=0   compromise_house=1   lost_object=1   
   (   1   0))));   % successful_stolen=1   compromise_house=1   lost_object=1   
}

potential ( E_broken_lock | compromise_house   successful_stolen   ) {
   data = 
   (((   0.999862   0.000137779)   % successful_stolen=0   compromise_house=0   
   (   1   0))   % successful_stolen=1   compromise_house=0   
   ((   0.00276243   0.997238)   % successful_stolen=0   compromise_house=1   
   (   0.00259067   0.997409)));   % successful_stolen=1   compromise_house=1   
}

potential ( E_disturbed_house | compromise_house   ) {
   data = 
   ((   0.999725   0.000275482)   % compromise_house=0   
   (   0.323529   0.676471));   % compromise_house=1   
}

potential (E_s_spotted_by_house) {
   data = (  0.0014985 0.998501);
}

potential ( E_s_spotted_with_goodie | compromise_house   successful_stolen   ) {
   data = 
   (((   0.999862   0.000137779)   % successful_stolen=0   compromise_house=0   
   (   1   0))   % successful_stolen=1   compromise_house=0   
   ((   0.422652   0.577348)   % successful_stolen=0   compromise_house=1   
   (   0.00259067   0.997409)));   % successful_stolen=1   compromise_house=1   
}

potential ( E_private | successful_stolen   flees_startled   ) {
   data = 
   (((   0.999844   0.000156397)   % flees_startled=0   successful_stolen=0   
   (   0.000815661   0.999184))   % flees_startled=1   successful_stolen=0   
   ((   0.997409   0.00259067)   % flees_startled=0   successful_stolen=1   
   (   1   0)));   % flees_startled=1   successful_stolen=1   
}


