
net {
}

node lost_object {
states = ("0" "1");
   label = "lost_object";
   ID = "lost_object";
}

node know_object {
states = ("0" "1");
   label = "know_object";
   ID = "know_object";
}

node target_object {
states = ("0" "1");
   label = "target_object";
   ID = "target_object";
}

node motive {
states = ("0" "1");
   label = "motive";
   ID = "motive";
}

node compromise_house {
states = ("0" "1");
   label = "compromise_house";
   ID = "compromise_house";
}

node flees_startled {
states = ("0" "1");
   label = "flees_startled";
   ID = "flees_startled";
}

node successful_stolen {
states = ("0" "1");
   label = "successful_stolen";
   ID = "successful_stolen";
}

node raining {
states = ("0" "1");
   label = "raining";
   ID = "raining";
}

node curtains {
states = ("0" "1");
   label = "curtains";
   ID = "curtains";
}

node E_object_is_gone {
states = ("0" "1");
   label = "E_object_is_gone";
   ID = "E_object_is_gone";
}

node E_broken_lock {
states = ("0" "1");
   label = "E_broken_lock";
   ID = "E_broken_lock";
}

node E_disturbed_house {
states = ("0" "1");
   label = "E_disturbed_house";
   ID = "E_disturbed_house";
}

node E_s_spotted_by_house {
states = ("0" "1");
   label = "E_s_spotted_by_house";
   ID = "E_s_spotted_by_house";
}

node E_s_spotted_with_goodie {
states = ("0" "1");
   label = "E_s_spotted_with_goodie";
   ID = "E_s_spotted_with_goodie";
}

node E_private {
states = ("0" "1");
   label = "E_private";
   ID = "E_private";
}

potential (lost_object) {
   data = (  0.7997 0.2003);
}

potential ( know_object | lost_object   curtains   ) {
   data = 
   (((   0.0300589   0.969941)   % curtains=0   lost_object=0   
   (   0.999239   0.000761035))   % curtains=1   lost_object=0   
   ((   0.999215   0.000784929)   % curtains=0   lost_object=1   
   (   0.99697   0.0030303)));   % curtains=1   lost_object=1   
}

potential ( target_object | know_object   ) {
   data = 
   ((   0.999348   0.00065189)   % know_object=0   
   (   0.44251   0.55749));   % know_object=1   
}

potential ( motive | target_object   lost_object   ) {
   data = 
   (((   0.999726   0.000273973)   % lost_object=0   target_object=0   
   (   0.999376   0.00062422))   % lost_object=1   target_object=0   
   ((   0.000363108   0.999637)   % lost_object=0   target_object=1   
   (   1   0)));   % lost_object=1   target_object=1   
}

potential ( compromise_house | motive   target_object   ) {
   data = 
   (((   0.99981   0.000190476)   % target_object=0   motive=0   
   (   1   0))   % target_object=1   motive=0   
   ((   1   0)   % target_object=0   motive=1   
   (   0.659768   0.340232)));   % target_object=1   motive=1   
}

potential ( flees_startled | target_object   motive   ) {
   data = 
   (((   0.99981   0.000190476)   % motive=0   target_object=0   
   (   1   0))   % motive=1   target_object=0   
   ((   1   0)   % motive=0   target_object=1   
   (   0.526144   0.473856)));   % motive=1   target_object=1   
}

potential ( successful_stolen | compromise_house   flees_startled   ) {
   data = 
   (((   0.999837   0.000162707)   % flees_startled=0   compromise_house=0   
   (   0.998915   0.0010846))   % flees_startled=1   compromise_house=0   
   ((   0.00180505   0.998195)   % flees_startled=0   compromise_house=1   
   (   0.997409   0.00259067)));   % flees_startled=1   compromise_house=1   
}

potential (raining) {
   data = (  0.511988 0.488012);
}

potential (curtains) {
   data = (  0.794705 0.205295);
}

potential ( E_object_is_gone | lost_object   compromise_house   successful_stolen   ) {
   data = 
   ((((   0.999909   9.14913e-05)   % successful_stolen=0   compromise_house=0   lost_object=0   
   (   1   0))   % successful_stolen=1   compromise_house=0   lost_object=0   
   ((   0.167532   0.832468)   % successful_stolen=0   compromise_house=1   lost_object=0   
   (   0.000904159   0.999096)))   % successful_stolen=1   compromise_house=1   lost_object=0   
   (((   0.000312305   0.999688)   % successful_stolen=0   compromise_house=0   lost_object=1   
   (   1   0))   % successful_stolen=1   compromise_house=0   lost_object=1   
   ((   1   0)   % successful_stolen=0   compromise_house=1   lost_object=1   
   (   1   0))));   % successful_stolen=1   compromise_house=1   lost_object=1   
}

potential ( E_broken_lock | compromise_house   successful_stolen   ) {
   data = 
   (((   0.999858   0.000141523)   % successful_stolen=0   compromise_house=0   
   (   1   0))   % successful_stolen=1   compromise_house=0   
   ((   0.00259067   0.997409)   % successful_stolen=0   compromise_house=1   
   (   0.00180505   0.998195)));   % successful_stolen=1   compromise_house=1   
}

potential ( E_disturbed_house | compromise_house   ) {
   data = 
   ((   0.999717   0.000282965)   % compromise_house=0   
   (   0.282979   0.717021));   % compromise_house=1   
}

potential (E_s_spotted_by_house) {
   data = (  0.0014985 0.998501);
}

potential ( E_s_spotted_with_goodie | compromise_house   successful_stolen   ) {
   data = 
   (((   0.999858   0.000141523)   % successful_stolen=0   compromise_house=0   
   (   1   0))   % successful_stolen=1   compromise_house=0   
   ((   0.147668   0.852332)   % successful_stolen=0   compromise_house=1   
   (   0.00180505   0.998195)));   % successful_stolen=1   compromise_house=1   
}

potential ( E_private | successful_stolen   flees_startled   ) {
   data = 
   (((   0.999837   0.000162707)   % flees_startled=0   successful_stolen=0   
   (   0.000765697   0.999234))   % flees_startled=1   successful_stolen=0   
   ((   0.998195   0.00180505)   % flees_startled=0   successful_stolen=1   
   (   1   0)));   % flees_startled=1   successful_stolen=1   
}


