
net {
}

node jane_and_mark_fight {
states = ("0" "1");
   label = "jane_and_mark_fight";
   ID = "jane_and_mark_fight";
}

node jane_has_knife {
states = ("0" "1");
   label = "jane_has_knife";
   ID = "jane_has_knife";
}

node jane_stabs_mark_with_knife {
states = ("0" "1");
   label = "jane_stabs_mark_with_knife";
   ID = "jane_stabs_mark_with_knife";
}

node mark_dies {
states = ("0" "1");
   label = "mark_dies";
   ID = "mark_dies";
}

node jane_threatens_mark_with_knife {
states = ("0" "1");
   label = "jane_threatens_mark_with_knife";
   ID = "jane_threatens_mark_with_knife";
}

node mark_hits_jane {
states = ("0" "1");
   label = "mark_hits_jane";
   ID = "mark_hits_jane";
}

node jane_drops_knife {
states = ("0" "1");
   label = "jane_drops_knife";
   ID = "jane_drops_knife";
}

node mark_falls_on_knife {
states = ("0" "1");
   label = "mark_falls_on_knife";
   ID = "mark_falls_on_knife";
}

node mark_dies_by_accident {
states = ("0" "1");
   label = "mark_dies_by_accident";
   ID = "mark_dies_by_accident";
}

potential (jane_and_mark_fight) {
   data = (  0.792265 0.207735);
}

potential (jane_has_knife) {
   data = (  0.296886 0.703114);
}

potential ( jane_stabs_mark_with_knife | jane_and_mark_fight   jane_has_knife   ) {
   data = 
   (((   0.999999   1.06134e-06)   % jane_has_knife=0   jane_and_mark_fight=0   
   (   1   4.49062e-07))   % jane_has_knife=1   jane_and_mark_fight=0   
   ((   0.999996   4.07588e-06)   % jane_has_knife=0   jane_and_mark_fight=1   
   (   0.979861   0.0201385)));   % jane_has_knife=1   jane_and_mark_fight=1   
}

potential ( mark_dies | jane_has_knife   jane_and_mark_fight   jane_stabs_mark_with_knife   ) {
   data = 
   ((((   0.999999   5.30672e-07)   % jane_stabs_mark_with_knife=0   jane_and_mark_fight=0   jane_has_knife=0   
   (   1   0))   % jane_stabs_mark_with_knife=1   jane_and_mark_fight=0   jane_has_knife=0   
   ((   0.999998   2.03795e-06)   % jane_stabs_mark_with_knife=0   jane_and_mark_fight=1   jane_has_knife=0   
   (   1   0)))   % jane_stabs_mark_with_knife=1   jane_and_mark_fight=1   jane_has_knife=0   
   (((   1   2.24531e-07)   % jane_stabs_mark_with_knife=0   jane_and_mark_fight=0   jane_has_knife=1   
   (   1   0))   % jane_stabs_mark_with_knife=1   jane_and_mark_fight=0   jane_has_knife=1   
   ((   0.998926   0.00107441)   % jane_stabs_mark_with_knife=0   jane_and_mark_fight=1   jane_has_knife=1   
   (   0.317519   0.682481))));   % jane_stabs_mark_with_knife=1   jane_and_mark_fight=1   jane_has_knife=1   
}

potential ( jane_threatens_mark_with_knife | jane_has_knife   mark_dies   jane_and_mark_fight   jane_stabs_mark_with_knife   ) {
   data = 
   (((((   1   2.65336e-07)   % jane_stabs_mark_with_knife=0   jane_and_mark_fight=0   mark_dies=0   jane_has_knife=0   
   (   1   0))   % jane_stabs_mark_with_knife=1   jane_and_mark_fight=0   mark_dies=0   jane_has_knife=0   
   ((   0.999999   1.01898e-06)   % jane_stabs_mark_with_knife=0   jane_and_mark_fight=1   mark_dies=0   jane_has_knife=0   
   (   1   0)))   % jane_stabs_mark_with_knife=1   jane_and_mark_fight=1   mark_dies=0   jane_has_knife=0   
   (((   1   0)   % jane_stabs_mark_with_knife=0   jane_and_mark_fight=0   mark_dies=1   jane_has_knife=0   
   (   1   0))   % jane_stabs_mark_with_knife=1   jane_and_mark_fight=0   mark_dies=1   jane_has_knife=0   
   ((   1   0)   % jane_stabs_mark_with_knife=0   jane_and_mark_fight=1   mark_dies=1   jane_has_knife=0   
   (   1   0))))   % jane_stabs_mark_with_knife=1   jane_and_mark_fight=1   mark_dies=1   jane_has_knife=0   
   ((((   1   1.12265e-07)   % jane_stabs_mark_with_knife=0   jane_and_mark_fight=0   mark_dies=0   jane_has_knife=1   
   (   1   0))   % jane_stabs_mark_with_knife=1   jane_and_mark_fight=0   mark_dies=0   jane_has_knife=1   
   ((   0.960599   0.0394014)   % jane_stabs_mark_with_knife=0   jane_and_mark_fight=1   mark_dies=0   jane_has_knife=1   
   (   0.999933   6.67646e-05)))   % jane_stabs_mark_with_knife=1   jane_and_mark_fight=1   mark_dies=0   jane_has_knife=1   
   (((   1   0)   % jane_stabs_mark_with_knife=0   jane_and_mark_fight=0   mark_dies=1   jane_has_knife=1   
   (   1   0))   % jane_stabs_mark_with_knife=1   jane_and_mark_fight=0   mark_dies=1   jane_has_knife=1   
   ((   0.000405515   0.999594)   % jane_stabs_mark_with_knife=0   jane_and_mark_fight=1   mark_dies=1   jane_has_knife=1   
   (   0.999969   3.10617e-05)))));   % jane_stabs_mark_with_knife=1   jane_and_mark_fight=1   mark_dies=1   jane_has_knife=1   
}

potential ( mark_hits_jane | jane_threatens_mark_with_knife   mark_dies   ) {
   data = 
   (((   1   2.51968e-07)   % mark_dies=0   jane_threatens_mark_with_knife=0   
   (   0.999876   0.000124224))   % mark_dies=1   jane_threatens_mark_with_knife=0   
   ((   0.100283   0.899717)   % mark_dies=0   jane_threatens_mark_with_knife=1   
   (   0.00161812   0.998382)));   % mark_dies=1   jane_threatens_mark_with_knife=1   
}

potential ( jane_drops_knife | mark_hits_jane   mark_dies   ) {
   data = 
   (((   1   2.51825e-07)   % mark_dies=0   mark_hits_jane=0   
   (   0.999876   0.000124224))   % mark_dies=1   mark_hits_jane=0   
   ((   0.518896   0.481104)   % mark_dies=0   mark_hits_jane=1   
   (   0.00161812   0.998382)));   % mark_dies=1   mark_hits_jane=1   
}

potential ( mark_falls_on_knife | mark_dies   jane_drops_knife   ) {
   data = 
   (((   1   2.51158e-07)   % jane_drops_knife=0   mark_dies=0   
   (   0.953262   0.0467376))   % jane_drops_knife=1   mark_dies=0   
   ((   0.999876   0.000124224)   % jane_drops_knife=0   mark_dies=1   
   (   0.00161812   0.998382)));   % jane_drops_knife=1   mark_dies=1   
}

potential ( mark_dies_by_accident | mark_dies   mark_falls_on_knife   mark_hits_jane   jane_stabs_mark_with_knife   jane_drops_knife   ) {
   data = 
   ((((((   1   3.15078e-08)   % jane_drops_knife=0   jane_stabs_mark_with_knife=0   mark_hits_jane=0   mark_falls_on_knife=0   mark_dies=0   
   (   1   0))   % jane_drops_knife=1   jane_stabs_mark_with_knife=0   mark_hits_jane=0   mark_falls_on_knife=0   mark_dies=0   
   ((   0.999967   3.33845e-05)   % jane_drops_knife=0   jane_stabs_mark_with_knife=1   mark_hits_jane=0   mark_falls_on_knife=0   mark_dies=0   
   (   1   0)))   % jane_drops_knife=1   jane_stabs_mark_with_knife=1   mark_hits_jane=0   mark_falls_on_knife=0   mark_dies=0   
   (((   0.999988   1.18548e-05)   % jane_drops_knife=0   jane_stabs_mark_with_knife=0   mark_hits_jane=1   mark_falls_on_knife=0   mark_dies=0   
   (   0.999987   1.34117e-05))   % jane_drops_knife=1   jane_stabs_mark_with_knife=0   mark_hits_jane=1   mark_falls_on_knife=0   mark_dies=0   
   ((   1   0)   % jane_drops_knife=0   jane_stabs_mark_with_knife=1   mark_hits_jane=1   mark_falls_on_knife=0   mark_dies=0   
   (   1   0))))   % jane_drops_knife=1   jane_stabs_mark_with_knife=1   mark_hits_jane=1   mark_falls_on_knife=0   mark_dies=0   
   ((((   1   0)   % jane_drops_knife=0   jane_stabs_mark_with_knife=0   mark_hits_jane=0   mark_falls_on_knife=1   mark_dies=0   
   (   1   0))   % jane_drops_knife=1   jane_stabs_mark_with_knife=0   mark_hits_jane=0   mark_falls_on_knife=1   mark_dies=0   
   ((   1   0)   % jane_drops_knife=0   jane_stabs_mark_with_knife=1   mark_hits_jane=0   mark_falls_on_knife=1   mark_dies=0   
   (   1   0)))   % jane_drops_knife=1   jane_stabs_mark_with_knife=1   mark_hits_jane=0   mark_falls_on_knife=1   mark_dies=0   
   (((   1   0)   % jane_drops_knife=0   jane_stabs_mark_with_knife=0   mark_hits_jane=1   mark_falls_on_knife=1   mark_dies=0   
   (   0.999726   0.000273973))   % jane_drops_knife=1   jane_stabs_mark_with_knife=0   mark_hits_jane=1   mark_falls_on_knife=1   mark_dies=0   
   ((   1   0)   % jane_drops_knife=0   jane_stabs_mark_with_knife=1   mark_hits_jane=1   mark_falls_on_knife=1   mark_dies=0   
   (   1   0)))))   % jane_drops_knife=1   jane_stabs_mark_with_knife=1   mark_hits_jane=1   mark_falls_on_knife=1   mark_dies=0   
   (((((   1   0)   % jane_drops_knife=0   jane_stabs_mark_with_knife=0   mark_hits_jane=0   mark_falls_on_knife=0   mark_dies=1   
   (   1   0))   % jane_drops_knife=1   jane_stabs_mark_with_knife=0   mark_hits_jane=0   mark_falls_on_knife=0   mark_dies=1   
   ((   0.999984   1.55313e-05)   % jane_drops_knife=0   jane_stabs_mark_with_knife=1   mark_hits_jane=0   mark_falls_on_knife=0   mark_dies=1   
   (   1   0)))   % jane_drops_knife=1   jane_stabs_mark_with_knife=1   mark_hits_jane=0   mark_falls_on_knife=0   mark_dies=1   
   (((   1   0)   % jane_drops_knife=0   jane_stabs_mark_with_knife=0   mark_hits_jane=1   mark_falls_on_knife=0   mark_dies=1   
   (   1   0))   % jane_drops_knife=1   jane_stabs_mark_with_knife=0   mark_hits_jane=1   mark_falls_on_knife=0   mark_dies=1   
   ((   1   0)   % jane_drops_knife=0   jane_stabs_mark_with_knife=1   mark_hits_jane=1   mark_falls_on_knife=0   mark_dies=1   
   (   1   0))))   % jane_drops_knife=1   jane_stabs_mark_with_knife=1   mark_hits_jane=1   mark_falls_on_knife=0   mark_dies=1   
   ((((   1   0)   % jane_drops_knife=0   jane_stabs_mark_with_knife=0   mark_hits_jane=0   mark_falls_on_knife=1   mark_dies=1   
   (   1   0))   % jane_drops_knife=1   jane_stabs_mark_with_knife=0   mark_hits_jane=0   mark_falls_on_knife=1   mark_dies=1   
   ((   1   0)   % jane_drops_knife=0   jane_stabs_mark_with_knife=1   mark_hits_jane=0   mark_falls_on_knife=1   mark_dies=1   
   (   1   0)))   % jane_drops_knife=1   jane_stabs_mark_with_knife=1   mark_hits_jane=0   mark_falls_on_knife=1   mark_dies=1   
   (((   1   0)   % jane_drops_knife=0   jane_stabs_mark_with_knife=0   mark_hits_jane=1   mark_falls_on_knife=1   mark_dies=1   
   (   0.00020284   0.999797))   % jane_drops_knife=1   jane_stabs_mark_with_knife=0   mark_hits_jane=1   mark_falls_on_knife=1   mark_dies=1   
   ((   1   0)   % jane_drops_knife=0   jane_stabs_mark_with_knife=1   mark_hits_jane=1   mark_falls_on_knife=1   mark_dies=1   
   (   1   0))))));   % jane_drops_knife=1   jane_stabs_mark_with_knife=1   mark_hits_jane=1   mark_falls_on_knife=1   mark_dies=1   
}


