
net {
  name = unnamedBN;
  software = "aGrUM 0.22.5";
  node_size = (50 50);
}

node motive_1_0 {
   states = (0 1 );
   label = "motive_1_0";
   ID = "motive_1_0";
}

node sneak_1_0 {
   states = (0 1 );
   label = "sneak_1_0";
   ID = "sneak_1_0";
}

node stealing_1_0 {
   states = (0 1 );
   label = "stealing_1_0";
   ID = "stealing_1_0";
}

node motive_2_0 {
   states = (0 1 );
   label = "motive_2_0";
   ID = "motive_2_0";
}

node sneak_2_0 {
   states = (0 1 );
   label = "sneak_2_0";
   ID = "sneak_2_0";
}

node stealing_2_0 {
   states = (0 1 );
   label = "stealing_2_0";
   ID = "stealing_2_0";
}

node motive_3_0 {
   states = (0 1 );
   label = "motive_3_0";
   ID = "motive_3_0";
}

node sneak_3_0 {
   states = (0 1 );
   label = "sneak_3_0";
   ID = "sneak_3_0";
}

node stealing_3_0 {
   states = (0 1 );
   label = "stealing_3_0";
   ID = "stealing_3_0";
}

node motive_4_0 {
   states = (0 1 );
   label = "motive_4_0";
   ID = "motive_4_0";
}

node sneak_4_0 {
   states = (0 1 );
   label = "sneak_4_0";
   ID = "sneak_4_0";
}

node stealing_4_0 {
   states = (0 1 );
   label = "stealing_4_0";
   ID = "stealing_4_0";
}

node motive_5_0 {
   states = (0 1 );
   label = "motive_5_0";
   ID = "motive_5_0";
}

node sneak_5_0 {
   states = (0 1 );
   label = "sneak_5_0";
   ID = "sneak_5_0";
}

node stealing_5_0 {
   states = (0 1 );
   label = "stealing_5_0";
   ID = "stealing_5_0";
}

potential (motive_1_0) {
   data = (  0.211289 0.788711);
}

potential ( sneak_1_0 | motive_1_0   ) {
   data = 
   ((   0.998818   0.00118203)   % motive_1_0=0   
   (   0.000316656   0.999683));   % motive_1_0=1   
}

potential ( stealing_1_0 | motive_1_0   sneak_1_0   ) {
   data = 
   (((   0.999408   0.000591716)   % sneak_1_0=0   motive_1_0=0   
   (   1   0))   % sneak_1_0=1   motive_1_0=0   
   ((   1   0)   % sneak_1_0=0   motive_1_0=1   
   (   0.367596   0.632404)));   % sneak_1_0=1   motive_1_0=1   
}

potential ( motive_2_0 | stealing_1_0   ) {
   data = 
   ((   0.58674   0.41326)   % stealing_1_0=0   
   (   0.765265   0.234735));   % stealing_1_0=1   
}

potential ( sneak_2_0 | motive_2_0   ) {
   data = 
   ((   0.99963   0.000369549)   % motive_2_0=0   
   (   0.000770416   0.99923));   % motive_2_0=1   
}

potential ( stealing_2_0 | motive_2_0   stealing_1_0   ) {
   data = 
   (((   0.999575   0.000424809)   % stealing_1_0=0   motive_2_0=0   
   (   0.999673   0.000327011))   % stealing_1_0=1   motive_2_0=0   
   ((   0.391435   0.608565)   % stealing_1_0=0   motive_2_0=1   
   (   0.74307   0.25693)));   % stealing_1_0=1   motive_2_0=1   
}

potential (motive_3_0) {
   data = (  0.684815 0.315185);
}

potential ( sneak_3_0 | motive_3_0   ) {
   data = 
   ((   0.999635   0.000364697)   % motive_3_0=0   
   (   0.000792393   0.999208));   % motive_3_0=1   
}

potential ( stealing_3_0 | sneak_3_0   stealing_1_0   motive_3_0   stealing_2_0   ) {
   data = 
   (((((   0.999865   0.000134662)   % stealing_2_0=0   motive_3_0=0   stealing_1_0=0   sneak_3_0=0   
   (   0.999685   0.000315457))   % stealing_2_0=1   motive_3_0=0   stealing_1_0=0   sneak_3_0=0   
   ((   1   0)   % stealing_2_0=0   motive_3_0=1   stealing_1_0=0   sneak_3_0=0   
   (   1   0)))   % stealing_2_0=1   motive_3_0=1   stealing_1_0=0   sneak_3_0=0   
   (((   0.999907   9.32662e-05)   % stealing_2_0=0   motive_3_0=0   stealing_1_0=1   sneak_3_0=0   
   (   0.998361   0.00163934))   % stealing_2_0=1   motive_3_0=0   stealing_1_0=1   sneak_3_0=0   
   ((   1   0)   % stealing_2_0=0   motive_3_0=1   stealing_1_0=1   sneak_3_0=0   
   (   1   0))))   % stealing_2_0=1   motive_3_0=1   stealing_1_0=1   sneak_3_0=0   
   ((((   1   0)   % stealing_2_0=0   motive_3_0=0   stealing_1_0=0   sneak_3_0=1   
   (   1   0))   % stealing_2_0=1   motive_3_0=0   stealing_1_0=0   sneak_3_0=1   
   ((   0.258847   0.741153)   % stealing_2_0=0   motive_3_0=1   stealing_1_0=0   sneak_3_0=1   
   (   0.998845   0.00115473)))   % stealing_2_0=1   motive_3_0=1   stealing_1_0=0   sneak_3_0=1   
   (((   1   0)   % stealing_2_0=0   motive_3_0=0   stealing_1_0=1   sneak_3_0=1   
   (   1   0))   % stealing_2_0=1   motive_3_0=0   stealing_1_0=1   sneak_3_0=1   
   ((   0.679021   0.320979)   % stealing_2_0=0   motive_3_0=1   stealing_1_0=1   sneak_3_0=1   
   (   0.997175   0.00282486)))));   % stealing_2_0=1   motive_3_0=1   stealing_1_0=1   sneak_3_0=1   
}

potential ( motive_4_0 | stealing_1_0   stealing_2_0   stealing_3_0   ) {
   data = 
   ((((   0.468416   0.531584)   % stealing_3_0=0   stealing_2_0=0   stealing_1_0=0   
   (   0.754417   0.245583))   % stealing_3_0=1   stealing_2_0=0   stealing_1_0=0   
   ((   0.79336   0.20664)   % stealing_3_0=0   stealing_2_0=1   stealing_1_0=0   
   (   1   0)))   % stealing_3_0=1   stealing_2_0=1   stealing_1_0=0   
   (((   0.701819   0.298181)   % stealing_3_0=0   stealing_2_0=0   stealing_1_0=1   
   (   0.72029   0.27971))   % stealing_3_0=1   stealing_2_0=0   stealing_1_0=1   
   ((   0.732365   0.267635)   % stealing_3_0=0   stealing_2_0=1   stealing_1_0=1   
   (   1   0))));   % stealing_3_0=1   stealing_2_0=1   stealing_1_0=1   
}

potential ( sneak_4_0 | motive_4_0   ) {
   data = 
   ((   0.99962   0.000379651)   % motive_4_0=0   
   (   0.000729927   0.99927));   % motive_4_0=1   
}

potential ( stealing_4_0 | sneak_4_0   stealing_1_0   stealing_2_0   motive_4_0   stealing_3_0   ) {
   data = 
   ((((((   0.999876   0.000123977)   % stealing_3_0=0   motive_4_0=0   stealing_2_0=0   stealing_1_0=0   sneak_4_0=0   
   (   0.999805   0.000195236))   % stealing_3_0=1   motive_4_0=0   stealing_2_0=0   stealing_1_0=0   sneak_4_0=0   
   ((   1   0)   % stealing_3_0=0   motive_4_0=1   stealing_2_0=0   stealing_1_0=0   sneak_4_0=0   
   (   1   0)))   % stealing_3_0=1   motive_4_0=1   stealing_2_0=0   stealing_1_0=0   sneak_4_0=0   
   (((   0.999844   0.000156201)   % stealing_3_0=0   motive_4_0=0   stealing_2_0=1   stealing_1_0=0   sneak_4_0=0   
   (   1   0))   % stealing_3_0=1   motive_4_0=0   stealing_2_0=1   stealing_1_0=0   sneak_4_0=0   
   ((   1   0)   % stealing_3_0=0   motive_4_0=1   stealing_2_0=1   stealing_1_0=0   sneak_4_0=0   
   (   1   0))))   % stealing_3_0=1   motive_4_0=1   stealing_2_0=1   stealing_1_0=0   sneak_4_0=0   
   ((((   0.999948   5.22521e-05)   % stealing_3_0=0   motive_4_0=0   stealing_2_0=0   stealing_1_0=1   sneak_4_0=0   
   (   0.999496   0.000503525))   % stealing_3_0=1   motive_4_0=0   stealing_2_0=0   stealing_1_0=1   sneak_4_0=0   
   ((   1   0)   % stealing_3_0=0   motive_4_0=1   stealing_2_0=0   stealing_1_0=1   sneak_4_0=0   
   (   1   0)))   % stealing_3_0=1   motive_4_0=1   stealing_2_0=0   stealing_1_0=1   sneak_4_0=0   
   (((   0.999291   0.00070922)   % stealing_3_0=0   motive_4_0=0   stealing_2_0=1   stealing_1_0=1   sneak_4_0=0   
   (   1   0))   % stealing_3_0=1   motive_4_0=0   stealing_2_0=1   stealing_1_0=1   sneak_4_0=0   
   ((   1   0)   % stealing_3_0=0   motive_4_0=1   stealing_2_0=1   stealing_1_0=1   sneak_4_0=0   
   (   1   0)))))   % stealing_3_0=1   motive_4_0=1   stealing_2_0=1   stealing_1_0=1   sneak_4_0=0   
   (((((   1   0)   % stealing_3_0=0   motive_4_0=0   stealing_2_0=0   stealing_1_0=0   sneak_4_0=1   
   (   1   0))   % stealing_3_0=1   motive_4_0=0   stealing_2_0=0   stealing_1_0=0   sneak_4_0=1   
   ((   0.139939   0.860061)   % stealing_3_0=0   motive_4_0=1   stealing_2_0=0   stealing_1_0=0   sneak_4_0=1   
   (   0.9994   0.00060024)))   % stealing_3_0=1   motive_4_0=1   stealing_2_0=0   stealing_1_0=0   sneak_4_0=1   
   (((   1   0)   % stealing_3_0=0   motive_4_0=0   stealing_2_0=1   stealing_1_0=0   sneak_4_0=1   
   (   1   0))   % stealing_3_0=1   motive_4_0=0   stealing_2_0=1   stealing_1_0=0   sneak_4_0=1   
   ((   0.960984   0.0390156)   % stealing_3_0=0   motive_4_0=1   stealing_2_0=1   stealing_1_0=0   sneak_4_0=1   
   (   1   0))))   % stealing_3_0=1   motive_4_0=1   stealing_2_0=1   stealing_1_0=0   sneak_4_0=1   
   ((((   1   0)   % stealing_3_0=0   motive_4_0=0   stealing_2_0=0   stealing_1_0=1   sneak_4_0=1   
   (   1   0))   % stealing_3_0=1   motive_4_0=0   stealing_2_0=0   stealing_1_0=1   sneak_4_0=1   
   ((   0.661378   0.338622)   % stealing_3_0=0   motive_4_0=1   stealing_2_0=0   stealing_1_0=1   sneak_4_0=1   
   (   0.998701   0.0012987)))   % stealing_3_0=1   motive_4_0=1   stealing_2_0=0   stealing_1_0=1   sneak_4_0=1   
   (((   1   0)   % stealing_3_0=0   motive_4_0=0   stealing_2_0=1   stealing_1_0=1   sneak_4_0=1   
   (   1   0))   % stealing_3_0=1   motive_4_0=0   stealing_2_0=1   stealing_1_0=1   sneak_4_0=1   
   ((   0.998054   0.00194553)   % stealing_3_0=0   motive_4_0=1   stealing_2_0=1   stealing_1_0=1   sneak_4_0=1   
   (   1   0))))));   % stealing_3_0=1   motive_4_0=1   stealing_2_0=1   stealing_1_0=1   sneak_4_0=1   
}

potential ( motive_5_0 | stealing_2_0   sneak_1_0   stealing_3_0   stealing_4_0   stealing_1_0   ) {
   data = 
   ((((((   0.536215   0.463785)   % stealing_1_0=0   stealing_4_0=0   stealing_3_0=0   sneak_1_0=0   stealing_2_0=0   
   (   1   0))   % stealing_1_0=1   stealing_4_0=0   stealing_3_0=0   sneak_1_0=0   stealing_2_0=0   
   ((   0.809294   0.190706)   % stealing_1_0=0   stealing_4_0=1   stealing_3_0=0   sneak_1_0=0   stealing_2_0=0   
   (   1   0)))   % stealing_1_0=1   stealing_4_0=1   stealing_3_0=0   sneak_1_0=0   stealing_2_0=0   
   (((   0.790487   0.209513)   % stealing_1_0=0   stealing_4_0=0   stealing_3_0=1   sneak_1_0=0   stealing_2_0=0   
   (   1   0))   % stealing_1_0=1   stealing_4_0=0   stealing_3_0=1   sneak_1_0=0   stealing_2_0=0   
   ((   1   0)   % stealing_1_0=0   stealing_4_0=1   stealing_3_0=1   sneak_1_0=0   stealing_2_0=0   
   (   1   0))))   % stealing_1_0=1   stealing_4_0=1   stealing_3_0=1   sneak_1_0=0   stealing_2_0=0   
   ((((   0.104057   0.895943)   % stealing_1_0=0   stealing_4_0=0   stealing_3_0=0   sneak_1_0=1   stealing_2_0=0   
   (   0.738884   0.261116))   % stealing_1_0=1   stealing_4_0=0   stealing_3_0=0   sneak_1_0=1   stealing_2_0=0   
   ((   0.851716   0.148284)   % stealing_1_0=0   stealing_4_0=1   stealing_3_0=0   sneak_1_0=1   stealing_2_0=0   
   (   0.767248   0.232752)))   % stealing_1_0=1   stealing_4_0=1   stealing_3_0=0   sneak_1_0=1   stealing_2_0=0   
   (((   0.714179   0.285821)   % stealing_1_0=0   stealing_4_0=0   stealing_3_0=1   sneak_1_0=1   stealing_2_0=0   
   (   0.697531   0.302469))   % stealing_1_0=1   stealing_4_0=0   stealing_3_0=1   sneak_1_0=1   stealing_2_0=0   
   ((   1   0)   % stealing_1_0=0   stealing_4_0=1   stealing_3_0=1   sneak_1_0=1   stealing_2_0=0   
   (   1   0)))))   % stealing_1_0=1   stealing_4_0=1   stealing_3_0=1   sneak_1_0=1   stealing_2_0=0   
   (((((   0.785555   0.214445)   % stealing_1_0=0   stealing_4_0=0   stealing_3_0=0   sneak_1_0=0   stealing_2_0=1   
   (   1   0))   % stealing_1_0=1   stealing_4_0=0   stealing_3_0=0   sneak_1_0=0   stealing_2_0=1   
   ((   0.984848   0.0151515)   % stealing_1_0=0   stealing_4_0=1   stealing_3_0=0   sneak_1_0=0   stealing_2_0=1   
   (   1   0)))   % stealing_1_0=1   stealing_4_0=1   stealing_3_0=0   sneak_1_0=0   stealing_2_0=1   
   (((   1   0)   % stealing_1_0=0   stealing_4_0=0   stealing_3_0=1   sneak_1_0=0   stealing_2_0=1   
   (   1   0))   % stealing_1_0=1   stealing_4_0=0   stealing_3_0=1   sneak_1_0=0   stealing_2_0=1   
   ((   1   0)   % stealing_1_0=0   stealing_4_0=1   stealing_3_0=1   sneak_1_0=0   stealing_2_0=1   
   (   1   0))))   % stealing_1_0=1   stealing_4_0=1   stealing_3_0=1   sneak_1_0=0   stealing_2_0=1   
   ((((   0.854912   0.145088)   % stealing_1_0=0   stealing_4_0=0   stealing_3_0=0   sneak_1_0=1   stealing_2_0=1   
   (   0.766389   0.233611))   % stealing_1_0=1   stealing_4_0=0   stealing_3_0=0   sneak_1_0=1   stealing_2_0=1   
   ((   1   0)   % stealing_1_0=0   stealing_4_0=1   stealing_3_0=0   sneak_1_0=1   stealing_2_0=1   
   (   1   0)))   % stealing_1_0=1   stealing_4_0=1   stealing_3_0=0   sneak_1_0=1   stealing_2_0=1   
   (((   1   0)   % stealing_1_0=0   stealing_4_0=0   stealing_3_0=1   sneak_1_0=1   stealing_2_0=1   
   (   1   0))   % stealing_1_0=1   stealing_4_0=0   stealing_3_0=1   sneak_1_0=1   stealing_2_0=1   
   ((   1   0)   % stealing_1_0=0   stealing_4_0=1   stealing_3_0=1   sneak_1_0=1   stealing_2_0=1   
   (   1   0))))));   % stealing_1_0=1   stealing_4_0=1   stealing_3_0=1   sneak_1_0=1   stealing_2_0=1   
}

potential ( sneak_5_0 | motive_5_0   ) {
   data = 
   ((   0.999643   0.000356888)   % motive_5_0=0   
   (   0.000831947   0.999168));   % motive_5_0=1   
}

potential ( stealing_5_0 | stealing_1_0   stealing_2_0   stealing_3_0   motive_5_0   stealing_4_0   ) {
   data = 
   ((((((   0.999653   0.000346981)   % stealing_4_0=0   motive_5_0=0   stealing_3_0=0   stealing_2_0=0   stealing_1_0=0   
   (   0.999848   0.000151653))   % stealing_4_0=1   motive_5_0=0   stealing_3_0=0   stealing_2_0=0   stealing_1_0=0   
   ((   0.0100526   0.989947)   % stealing_4_0=0   motive_5_0=1   stealing_3_0=0   stealing_2_0=0   stealing_1_0=0   
   (   0.99922   0.000780031)))   % stealing_4_0=1   motive_5_0=1   stealing_3_0=0   stealing_2_0=0   stealing_1_0=0   
   (((   0.999802   0.000197707)   % stealing_4_0=0   motive_5_0=0   stealing_3_0=1   stealing_2_0=0   stealing_1_0=0   
   (   1   0))   % stealing_4_0=1   motive_5_0=0   stealing_3_0=1   stealing_2_0=0   stealing_1_0=0   
   ((   0.999422   0.000578035)   % stealing_4_0=0   motive_5_0=1   stealing_3_0=1   stealing_2_0=0   stealing_1_0=0   
   (   1   0))))   % stealing_4_0=1   motive_5_0=1   stealing_3_0=1   stealing_2_0=0   stealing_1_0=0   
   ((((   0.999848   0.000151653)   % stealing_4_0=0   motive_5_0=0   stealing_3_0=0   stealing_2_0=1   stealing_1_0=0   
   (   0.984848   0.0151515))   % stealing_4_0=1   motive_5_0=0   stealing_3_0=0   stealing_2_0=1   stealing_1_0=0   
   ((   0.999291   0.00070922)   % stealing_4_0=0   motive_5_0=1   stealing_3_0=0   stealing_2_0=1   stealing_1_0=0   
   (   1   0)))   % stealing_4_0=1   motive_5_0=1   stealing_3_0=0   stealing_2_0=1   stealing_1_0=0   
   (((   1   0)   % stealing_4_0=0   motive_5_0=0   stealing_3_0=1   stealing_2_0=1   stealing_1_0=0   
   (   1   0))   % stealing_4_0=1   motive_5_0=0   stealing_3_0=1   stealing_2_0=1   stealing_1_0=0   
   ((   1   0)   % stealing_4_0=0   motive_5_0=1   stealing_3_0=1   stealing_2_0=1   stealing_1_0=0   
   (   1   0)))))   % stealing_4_0=1   motive_5_0=1   stealing_3_0=1   stealing_2_0=1   stealing_1_0=0   
   (((((   0.999945   5.52059e-05)   % stealing_4_0=0   motive_5_0=0   stealing_3_0=0   stealing_2_0=0   stealing_1_0=1   
   (   0.999527   0.000473037))   % stealing_4_0=1   motive_5_0=0   stealing_3_0=0   stealing_2_0=0   stealing_1_0=1   
   ((   0.709934   0.290066)   % stealing_4_0=0   motive_5_0=1   stealing_3_0=0   stealing_2_0=0   stealing_1_0=1   
   (   0.998442   0.00155763)))   % stealing_4_0=1   motive_5_0=1   stealing_3_0=0   stealing_2_0=0   stealing_1_0=1   
   (((   0.99948   0.000520291)   % stealing_4_0=0   motive_5_0=0   stealing_3_0=1   stealing_2_0=0   stealing_1_0=1   
   (   1   0))   % stealing_4_0=1   motive_5_0=0   stealing_3_0=1   stealing_2_0=0   stealing_1_0=1   
   ((   0.998801   0.00119904)   % stealing_4_0=0   motive_5_0=1   stealing_3_0=1   stealing_2_0=0   stealing_1_0=1   
   (   1   0))))   % stealing_4_0=1   motive_5_0=1   stealing_3_0=1   stealing_2_0=0   stealing_1_0=1   
   ((((   0.999322   0.000678426)   % stealing_4_0=0   motive_5_0=0   stealing_3_0=0   stealing_2_0=1   stealing_1_0=1   
   (   1   0))   % stealing_4_0=1   motive_5_0=0   stealing_3_0=0   stealing_2_0=1   stealing_1_0=1   
   ((   0.997778   0.00222222)   % stealing_4_0=0   motive_5_0=1   stealing_3_0=0   stealing_2_0=1   stealing_1_0=1   
   (   1   0)))   % stealing_4_0=1   motive_5_0=1   stealing_3_0=0   stealing_2_0=1   stealing_1_0=1   
   (((   1   0)   % stealing_4_0=0   motive_5_0=0   stealing_3_0=1   stealing_2_0=1   stealing_1_0=1   
   (   1   0))   % stealing_4_0=1   motive_5_0=0   stealing_3_0=1   stealing_2_0=1   stealing_1_0=1   
   ((   1   0)   % stealing_4_0=0   motive_5_0=1   stealing_3_0=1   stealing_2_0=1   stealing_1_0=1   
   (   1   0))))));   % stealing_4_0=1   motive_5_0=1   stealing_3_0=1   stealing_2_0=1   stealing_1_0=1   
}


