
net {
  name = unnamedBN;
  software = "aGrUM 0.22.5";
  node_size = (50 50);
}

node motive_1_0 {
   states = (0 1 );
   label = "motive_1_0";
   ID = "motive_1_0";
}

node sneak_1_0 {
   states = (0 1 );
   label = "sneak_1_0";
   ID = "sneak_1_0";
}

node stealing_1_0 {
   states = (0 1 );
   label = "stealing_1_0";
   ID = "stealing_1_0";
}

potential (motive_1_0) {
   data = (  0.18032 0.81968);
}

potential ( sneak_1_0 | motive_1_0   ) {
   data = 
   ((   0.998615   0.00138504)   % motive_1_0=0   
   (   0.000304692   0.999695));   % motive_1_0=1   
}

potential ( stealing_1_0 | motive_1_0   sneak_1_0   ) {
   data = 
   (((   0.999307   0.000693481)   % sneak_1_0=0   motive_1_0=0   
   (   1   0))   % sneak_1_0=1   motive_1_0=0   
   ((   1   0)   % sneak_1_0=0   motive_1_0=1   
   (   0.0379457   0.962054)));   % sneak_1_0=1   motive_1_0=1   
}


