
net {
  name = unnamedBN;
  software = "aGrUM 0.22.5";
  node_size = (50 50);
}

node agent_steals {
   states = (0 1 );
   label = "agent_steals";
   ID = "agent_steals";
}

node E_0_says_stolen {
   states = (0 1 );
   label = "E_0_says_stolen";
   ID = "E_0_says_stolen";
}

node E_1_says_stolen {
   states = (0 1 );
   label = "E_1_says_stolen";
   ID = "E_1_says_stolen";
}

node E_2_says_stolen {
   states = (0 1 );
   label = "E_2_says_stolen";
   ID = "E_2_says_stolen";
}

node E_3_says_stolen {
   states = (0 1 );
   label = "E_3_says_stolen";
   ID = "E_3_says_stolen";
}

node E_4_says_stolen {
   states = (0 1 );
   label = "E_4_says_stolen";
   ID = "E_4_says_stolen";
}

node E_5_says_stolen {
   states = (0 1 );
   label = "E_5_says_stolen";
   ID = "E_5_says_stolen";
}

node E_6_says_stolen {
   states = (0 1 );
   label = "E_6_says_stolen";
   ID = "E_6_says_stolen";
}

node E_7_says_stolen {
   states = (0 1 );
   label = "E_7_says_stolen";
   ID = "E_7_says_stolen";
}

node E_8_says_stolen {
   states = (0 1 );
   label = "E_8_says_stolen";
   ID = "E_8_says_stolen";
}

potential (agent_steals) {
   data = (  0.486007 0.513993);
}

potential ( E_0_says_stolen | agent_steals   ) {
   data = 
   ((   0.0958869   0.904113)   % agent_steals=0   
   (   0.914195   0.0858046));   % agent_steals=1   
}

potential (E_1_says_stolen) {
   data = (  0.493003 0.506997);
}

potential ( E_2_says_stolen | agent_steals   ) {
   data = 
   ((   0.116452   0.883548)   % agent_steals=0   
   (   0.885027   0.114973));   % agent_steals=1   
}

potential (E_3_says_stolen) {
   data = (  0.483008 0.516992);
}

potential ( E_4_says_stolen | agent_steals   ) {
   data = 
   ((   0.108226   0.891774)   % agent_steals=0   
   (   0.913223   0.0867769));   % agent_steals=1   
}

potential (E_5_says_stolen) {
   data = (  0.485007 0.514993);
}

potential ( E_6_says_stolen | agent_steals   ) {
   data = 
   ((   0.105141   0.894859)   % agent_steals=0   
   (   0.904473   0.0955275));   % agent_steals=1   
}

potential (E_7_says_stolen) {
   data = (  0.495502 0.504498);
}

potential ( E_8_says_stolen | agent_steals   ) {
   data = 
   ((   0.101028   0.898972)   % agent_steals=0   
   (   0.908362   0.0916383));   % agent_steals=1   
}


