
net {
  name = unnamedBN;
  software = "aGrUM 0.22.5";
  node_size = (50 50);
}

node agent_steals {
   states = (0 1 );
   label = "agent_steals";
   ID = "agent_steals";
}

node E_0_says_stolen {
   states = (0 1 );
   label = "E_0_says_stolen";
   ID = "E_0_says_stolen";
}

node E_1_says_stolen {
   states = (0 1 );
   label = "E_1_says_stolen";
   ID = "E_1_says_stolen";
}

node E_2_says_stolen {
   states = (0 1 );
   label = "E_2_says_stolen";
   ID = "E_2_says_stolen";
}

node E_3_says_stolen {
   states = (0 1 );
   label = "E_3_says_stolen";
   ID = "E_3_says_stolen";
}

node E_4_says_stolen {
   states = (0 1 );
   label = "E_4_says_stolen";
   ID = "E_4_says_stolen";
}

node E_5_says_stolen {
   states = (0 1 );
   label = "E_5_says_stolen";
   ID = "E_5_says_stolen";
}

node E_6_says_stolen {
   states = (0 1 );
   label = "E_6_says_stolen";
   ID = "E_6_says_stolen";
}

node E_7_says_stolen {
   states = (0 1 );
   label = "E_7_says_stolen";
   ID = "E_7_says_stolen";
}

node E_8_says_stolen {
   states = (0 1 );
   label = "E_8_says_stolen";
   ID = "E_8_says_stolen";
}

potential (agent_steals) {
   data = (  0.507748 0.492252);
}

potential ( E_0_says_stolen | agent_steals   ) {
   data = 
   ((   0.100049   0.899951)   % agent_steals=0   
   (   0.901371   0.0986291));   % agent_steals=1   
}

potential (E_1_says_stolen) {
   data = (  0.5005 0.4995);
}

potential ( E_2_says_stolen | agent_steals   ) {
   data = 
   ((   0.116786   0.883214)   % agent_steals=0   
   (   0.891724   0.108276));   % agent_steals=1   
}

potential (E_3_says_stolen) {
   data = (  0.49825 0.50175);
}

potential ( E_4_says_stolen | agent_steals   ) {
   data = 
   ((   0.103987   0.896013)   % agent_steals=0   
   (   0.899848   0.100152));   % agent_steals=1   
}

potential (E_5_says_stolen) {
   data = (  0.491002 0.508998);
}

potential ( E_6_says_stolen | agent_steals   ) {
   data = 
   ((   0.117278   0.882722)   % agent_steals=0   
   (   0.898324   0.101676));   % agent_steals=1   
}

potential (E_7_says_stolen) {
   data = (  0.502999 0.497001);
}

potential ( E_8_says_stolen | agent_steals   ) {
   data = 
   ((   0.0951268   0.904873)   % agent_steals=0   
   (   0.894263   0.105737));   % agent_steals=1   
}


