
net {
  name = unnamedBN;
  software = "aGrUM 0.22.5";
  node_size = (50 50);
}

node agent_steals {
   states = (0 1 );
   label = "agent_steals";
   ID = "agent_steals";
}

node E_0_says_stolen {
   states = (0 1 );
   label = "E_0_says_stolen";
   ID = "E_0_says_stolen";
}

node E_1_says_stolen {
   states = (0 1 );
   label = "E_1_says_stolen";
   ID = "E_1_says_stolen";
}

node E_2_says_stolen {
   states = (0 1 );
   label = "E_2_says_stolen";
   ID = "E_2_says_stolen";
}

node E_3_says_stolen {
   states = (0 1 );
   label = "E_3_says_stolen";
   ID = "E_3_says_stolen";
}

node E_4_says_stolen {
   states = (0 1 );
   label = "E_4_says_stolen";
   ID = "E_4_says_stolen";
}

node E_5_says_stolen {
   states = (0 1 );
   label = "E_5_says_stolen";
   ID = "E_5_says_stolen";
}

node E_6_says_stolen {
   states = (0 1 );
   label = "E_6_says_stolen";
   ID = "E_6_says_stolen";
}

node E_7_says_stolen {
   states = (0 1 );
   label = "E_7_says_stolen";
   ID = "E_7_says_stolen";
}

node E_8_says_stolen {
   states = (0 1 );
   label = "E_8_says_stolen";
   ID = "E_8_says_stolen";
}

potential (agent_steals) {
   data = (  0.486507 0.513493);
}

potential ( E_0_says_stolen | agent_steals   ) {
   data = 
   ((   0.108115   0.891885)   % agent_steals=0   
   (   0.90146   0.0985401));   % agent_steals=1   
}

potential (E_1_says_stolen) {
   data = (  0.494003 0.505997);
}

potential ( E_2_says_stolen | agent_steals   ) {
   data = 
   ((   0.0947612   0.905239)   % agent_steals=0   
   (   0.886861   0.113139));   % agent_steals=1   
}

potential (E_3_says_stolen) {
   data = (  0.501 0.499);
}

potential ( E_4_says_stolen | agent_steals   ) {
   data = 
   ((   0.0968156   0.903184)   % agent_steals=0   
   (   0.906326   0.093674));   % agent_steals=1   
}

potential (E_5_says_stolen) {
   data = (  0.51999 0.48001);
}

potential ( E_6_says_stolen | agent_steals   ) {
   data = 
   ((   0.110169   0.889831)   % agent_steals=0   
   (   0.906326   0.093674));   % agent_steals=1   
}

potential (E_7_says_stolen) {
   data = (  0.496502 0.503498);
}

potential ( E_8_says_stolen | agent_steals   ) {
   data = 
   ((   0.120442   0.879558)   % agent_steals=0   
   (   0.905353   0.0946472));   % agent_steals=1   
}


