net
{
    node_size = (80 40);
    HR_realname_mark_dies_by_accident = "mark_dies_by_accident";
    HR_realname_mark_falls_on_knife = "mark_falls_on_knife";
    HR_realname_jane_drops_knife = "jane_drops_knife";
    HR_realname_mark_hits_jane = "mark_hits_jane";
    HR_realname_jane_threatens_mark_with_knife = "jane_threatens_mark_with_knife";
    HR_realname_mark_dies = "mark_dies";
    HR_realname_jane_stabs_mark_with_knife = "jane_stabs_mark_with_knife";
    HR_realname_jane_has_knife = "jane_has_knife";
    HR_realname_jane_and_mark_fight = "jane_and_mark_fight";
    HR_DBN_Num_Slices = "5";
    HR_Desc = "";
    HR_OOBN_CheckConsistency = "1";
    HR_OOBN_FitExpand = "1";
    HR_Zoom_ZoomFactor = "100";
    HR_Groups_GroupColors = "";
    HR_Groups_GroupNames = "";
    HR_Groups_UserGroupsNo = "0";
    HR_Utility_Link = "63";
    HR_Probabilistic_Link = "63";
    HR_Functional_Link = "63";
    HR_Binding_Link = "63";
    HR_Information_Arc = "63";
    HR_Color_Interface = "21";
    HR_Color_Instance = "0";
    HR_Color_DiscreteFunction = "5";
    HR_Color_Function = "4";
    HR_Color_Utility = "36";
    HR_Color_Decision = "17";
    HR_Color_ContinuousChance = "48";
    HR_Color_DiscreteChance = "16";
    HR_Monitor_InitSD = "2";
    HR_Monitor_Utility_Arrange = "0";
    HR_Monitor_Mean_Variance = "1";
    HR_Monitor_Chance_Utility = "1";
    HR_Monitor_InitStates = "5";
    HR_Monitor_OpenGraph = "0";
    HR_Monitor_GraphPrecision = "100";
    HR_Monitor_AutoUpdGraph = "0";
    HR_Compile_MaxMinimalSeparators = "100000";
    HR_Compile_ApproxEpsilon = "1.0E-5";
    HR_Compile_Approximate = "0";
    HR_Compile_SaveToMemory = "0";
    HR_Compile_Compress = "0";
    HR_Compile_TriangMethod = "0";
    HR_Propagate_AutoNormal = "1";
    HR_Propagate_AutoSum = "1";
    HR_Propagate_Auto = "1";
    HR_Font_Italic = "0";
    HR_Font_Weight = "400";
    HR_Font_Size = "-12";
    HR_Font_Name = "com.apple.laf.AquaFonts$DerivedUIResourceFont[family=Lucida Grande,name=Lucida Grande,style=plain,size=13]";
    HR_Grid_GridShow = "0";
    HR_Grid_GridSnap = "0";
    HR_Grid_Y = "40";
    HR_Grid_X = "40";
}

node jane_and_mark_fight
{
    label = "jane_and_mark_fight";
    position = (446 504);
    states = ("0" "1");
    HR_NodeSize = "(180, 75)";
    HR_LinkGroup = "[jane_threatens_mark_with_knife:0][mark_dies:0][jane_stabs_mark_with_knife:0]";
    HR_LinkMode = "[jane_threatens_mark_with_knife:0][mark_dies:0][jane_stabs_mark_with_knife:0]";
    ID = "jane_and_mark_fight";
}

node jane_has_knife
{
    label = "jane_has_knife";
    position = (197 476);
    states = ("0" "1");
    HR_NodeSize = "(173, 59)";
    HR_LinkGroup = "[jane_threatens_mark_with_knife:0][mark_dies:0][jane_stabs_mark_with_knife:0]";
    HR_LinkMode = "[jane_threatens_mark_with_knife:0][mark_dies:0][jane_stabs_mark_with_knife:0]";
    ID = "jane_has_knife";
}

node jane_stabs_mark_with_knife
{
    label = "jane_stabs_mark_with_knife";
    position = (165 282);
    states = ("0" "1");
    HR_NodeSize = "(216, 58)";
    HR_LinkGroup = "[jane_threatens_mark_with_knife:0][mark_dies:0]";
    HR_LinkMode = "[jane_threatens_mark_with_knife:0][mark_dies:0]";
    ID = "jane_stabs_mark_with_knife";
}

node mark_dies
{
    label = "mark_dies";
    position = (362 120);
    states = ("0" "1");
    HR_LinkGroup = "[mark_dies_by_accident:0][mark_falls_on_knife:0][jane_drops_knife:0][mark_hits_jane:0][jane_threatens_mark_with_knife:0]";
    HR_LinkMode = "[mark_dies_by_accident:0][mark_falls_on_knife:0][jane_drops_knife:0][mark_hits_jane:0][jane_threatens_mark_with_knife:0]";
    ID = "mark_dies";
}

node jane_threatens_mark_with_knife
{
    label = "jane_threatens_mark_with_knife";
    position = (648 396);
    states = ("0" "1");
    HR_NodeSize = "(229, 67)";
    HR_LinkGroup = "[mark_hits_jane:0]";
    HR_LinkMode = "[mark_hits_jane:0]";
    ID = "jane_threatens_mark_with_knife";
}

node mark_hits_jane
{
    label = "mark_hits_jane";
    position = (704 307);
    states = ("0" "1");
    HR_NodeSize = "(202, 55)";
    HR_LinkGroup = "[jane_drops_knife:0]";
    HR_LinkMode = "[jane_drops_knife:0]";
    ID = "mark_hits_jane";
}

node jane_drops_knife
{
    label = "jane_drops_knife";
    position = (777 214);
    states = ("0" "1");
    HR_NodeSize = "(177, 70)";
    HR_LinkGroup = "[mark_falls_on_knife:0]";
    HR_LinkMode = "[mark_falls_on_knife:0]";
    ID = "jane_drops_knife";
}

node mark_falls_on_knife
{
    label = "mark_falls_on_knife";
    position = (698 123);
    states = ("0" "1");
    HR_NodeSize = "(188, 68)";
    HR_LinkGroup = "[mark_dies_by_accident:0]";
    HR_LinkMode = "[mark_dies_by_accident:0]";
    ID = "mark_falls_on_knife";
}

node mark_dies_by_accident
{
    label = "mark_dies_by_accident";
    position = (596 47);
    states = ("0" "1");
    HR_NodeSize = "(221, 47)";
    ID = "mark_dies_by_accident";
}

potential (jane_and_mark_fight)
{
    data = ( 0.791837 0.208163 );
}

potential (jane_has_knife)
{
    data = ( 0.298312 0.701688 );
}

potential (jane_stabs_mark_with_knife | jane_and_mark_fight jane_has_knife)
{
    data
     = ((( 0.999995 5.29364E-06 )	%  jane_and_mark_fight=0  jane_has_knife=0
	 ( 0.999998 2.24936E-06 ))	%  jane_and_mark_fight=0  jane_has_knife=1
	(( 0.99998 2.01021E-05 )	%  jane_and_mark_fight=1  jane_has_knife=0
	 ( 0.979373 0.0206275 )));	%  jane_and_mark_fight=1  jane_has_knife=1
}

potential (mark_dies | jane_has_knife jane_and_mark_fight jane_stabs_mark_with_knife)
{
    data
     = (((( 0.999997 2.64683E-06 )	%  jane_has_knife=0  jane_and_mark_fight=0  jane_stabs_mark_with_knife=0
	  ( 1 0 ))	%  jane_has_knife=0  jane_and_mark_fight=0  jane_stabs_mark_with_knife=1
	 (( 0.99999 1.00513E-05 )	%  jane_has_knife=0  jane_and_mark_fight=1  jane_stabs_mark_with_knife=0
	  ( 1 0 )))	%  jane_has_knife=0  jane_and_mark_fight=1  jane_stabs_mark_with_knife=1
	((( 0.999999 1.12468E-06 )	%  jane_has_knife=1  jane_and_mark_fight=0  jane_stabs_mark_with_knife=0
	  ( 1 0 ))	%  jane_has_knife=1  jane_and_mark_fight=0  jane_stabs_mark_with_knife=1
	 (( 0.998597 0.00140325 )	%  jane_has_knife=1  jane_and_mark_fight=1  jane_stabs_mark_with_knife=0
	  ( 0.31237 0.68763 ))));	%  jane_has_knife=1  jane_and_mark_fight=1  jane_stabs_mark_with_knife=1
}

potential (jane_threatens_mark_with_knife | jane_has_knife mark_dies jane_and_mark_fight jane_stabs_mark_with_knife)
{
    data
     = ((((( 0.999999 1.32342E-06 )	%  jane_has_knife=0  mark_dies=0  jane_and_mark_fight=0  jane_stabs_mark_with_knife=0
	   ( 1 0 ))	%  jane_has_knife=0  mark_dies=0  jane_and_mark_fight=0  jane_stabs_mark_with_knife=1
	  (( 0.999995 5.02568E-06 )	%  jane_has_knife=0  mark_dies=0  jane_and_mark_fight=1  jane_stabs_mark_with_knife=0
	   ( 1 0 )))	%  jane_has_knife=0  mark_dies=0  jane_and_mark_fight=1  jane_stabs_mark_with_knife=1
	 ((( 1 0 )	%  jane_has_knife=0  mark_dies=1  jane_and_mark_fight=0  jane_stabs_mark_with_knife=0
	   ( 1 0 ))	%  jane_has_knife=0  mark_dies=1  jane_and_mark_fight=0  jane_stabs_mark_with_knife=1
	  (( 1 0 )	%  jane_has_knife=0  mark_dies=1  jane_and_mark_fight=1  jane_stabs_mark_with_knife=0
	   ( 1 0 ))))	%  jane_has_knife=0  mark_dies=1  jane_and_mark_fight=1  jane_stabs_mark_with_knife=1
	(((( 0.999999 5.62343E-07 )	%  jane_has_knife=1  mark_dies=0  jane_and_mark_fight=0  jane_stabs_mark_with_knife=0
	   ( 1 0 ))	%  jane_has_knife=1  mark_dies=0  jane_and_mark_fight=0  jane_stabs_mark_with_knife=1
	  (( 0.961685 0.0383154 )	%  jane_has_knife=1  mark_dies=0  jane_and_mark_fight=1  jane_stabs_mark_with_knife=0
	   ( 0.999668 0.000332226 )))	%  jane_has_knife=1  mark_dies=0  jane_and_mark_fight=1  jane_stabs_mark_with_knife=1
	 ((( 1 0 )	%  jane_has_knife=1  mark_dies=1  jane_and_mark_fight=0  jane_stabs_mark_with_knife=0
	   ( 1 0 ))	%  jane_has_knife=1  mark_dies=1  jane_and_mark_fight=0  jane_stabs_mark_with_knife=1
	  (( 0.00155763 0.998442 )	%  jane_has_knife=1  mark_dies=1  jane_and_mark_fight=1  jane_stabs_mark_with_knife=0
	   ( 0.999849 0.000150921 )))));	%  jane_has_knife=1  mark_dies=1  jane_and_mark_fight=1  jane_stabs_mark_with_knife=1
}

potential (mark_hits_jane | jane_threatens_mark_with_knife mark_dies)
{
    data
     = ((( 0.999999 1.25975E-06 )	%  jane_threatens_mark_with_knife=0  mark_dies=0
	 ( 0.999397 0.000603136 ))	%  jane_threatens_mark_with_knife=0  mark_dies=1
	(( 0.0879397 0.91206 )	%  jane_threatens_mark_with_knife=1  mark_dies=0
	 ( 0.00617284 0.993827 )));	%  jane_threatens_mark_with_knife=1  mark_dies=1
}

potential (jane_drops_knife | mark_hits_jane mark_dies)
{
    data
     = ((( 0.999999 1.25914E-06 )	%  mark_hits_jane=0  mark_dies=0
	 ( 0.999397 0.000603136 ))	%  mark_hits_jane=0  mark_dies=1
	(( 0.488983 0.511017 )	%  mark_hits_jane=1  mark_dies=0
	 ( 0.00617284 0.993827 )));	%  mark_hits_jane=1  mark_dies=1
}

potential (mark_falls_on_knife | mark_dies jane_drops_knife)
{
    data
     = ((( 1 0 )	%  mark_dies=0  jane_drops_knife=0
	 ( 0.960333 0.039667 ))	%  mark_dies=0  jane_drops_knife=1
	(( 1 0 )	%  mark_dies=1  jane_drops_knife=0
	 ( 0.00617284 0.993827 )));	%  mark_dies=1  jane_drops_knife=1
}

potential (mark_dies_by_accident | mark_dies mark_falls_on_knife)
{
    data
     = ((( 0.999999 1.25297E-06 )	%  mark_dies=0  mark_falls_on_knife=0
	 ( 0.987805 0.0121951 ))	%  mark_dies=0  mark_falls_on_knife=1
	(( 0.999397 0.000603136 )	%  mark_dies=1  mark_falls_on_knife=0
	 ( 0.00617284 0.993827 )));	%  mark_dies=1  mark_falls_on_knife=1
}
