
net {
  name = unnamedBN;
  software = "aGrUM 0.22.5";
  node_size = (50 50);
}

node object_dropped_accidentally_0 {
   states = (0 1 );
   label = "object_dropped_accidentally_0";
   ID = "object_dropped_accidentally_0";
}

node motive_1_0 {
   states = (0 1 );
   label = "motive_1_0";
   ID = "motive_1_0";
}

node sneak_1_0 {
   states = (0 1 );
   label = "sneak_1_0";
   ID = "sneak_1_0";
}

node stealing_1_0 {
   states = (0 1 );
   label = "stealing_1_0";
   ID = "stealing_1_0";
}

node E_psych_report_1_0 {
   states = (0 1 );
   label = "E_psych_report_1_0";
   ID = "E_psych_report_1_0";
}

node E_camera_1 {
   states = (0 1 );
   label = "E_camera_1";
   ID = "E_camera_1";
}

node E_camera_seen_stealing_1_0 {
   states = (0 1 );
   label = "E_camera_seen_stealing_1_0";
   ID = "E_camera_seen_stealing_1_0";
}

node E_object_gone_0 {
   states = (0 1 );
   label = "E_object_gone_0";
   ID = "E_object_gone_0";
}

potential (object_dropped_accidentally_0) {
   data = (  0.682817 0.317183);
}

potential ( motive_1_0 | object_dropped_accidentally_0   ) {
   data = 
   ((   0.932334   0.0676664)   % object_dropped_accidentally_0=0   
   (   0.992913   0.00708661));   % object_dropped_accidentally_0=1   
}

potential ( sneak_1_0 | motive_1_0   ) {
   data = 
   ((   0.999738   0.000262467)   % motive_1_0=0   
   (   0.00515464   0.994845));   % motive_1_0=1   
}

potential ( stealing_1_0 | motive_1_0   object_dropped_accidentally_0   ) {
   data = 
   (((   0.999804   0.000196155)   % object_dropped_accidentally_0=0   motive_1_0=0   
   (   0.999603   0.000396511))   % object_dropped_accidentally_0=1   motive_1_0=0   
   ((   0.0243243   0.975676)   % object_dropped_accidentally_0=0   motive_1_0=1   
   (   0.944444   0.0555556)));   % object_dropped_accidentally_0=1   motive_1_0=1   
}

potential ( E_psych_report_1_0 | motive_1_0   sneak_1_0   ) {
   data = 
   (((   0.999869   0.000131268)   % sneak_1_0=0   motive_1_0=0   
   (   0.5   0.5))   % sneak_1_0=1   motive_1_0=0   
   ((   0.5   0.5)   % sneak_1_0=0   motive_1_0=1   
   (   0.126943   0.873057)));   % sneak_1_0=1   motive_1_0=1   
}

potential ( E_camera_1 | stealing_1_0   ) {
   data = 
   ((   0.830194   0.169806)   % stealing_1_0=0   
   (   0.642857   0.357143));   % stealing_1_0=1   
}

potential ( E_camera_seen_stealing_1_0 | stealing_1_0   E_camera_1   ) {
   data = 
   (((   0.999842   0.00015758)   % E_camera_1=0   stealing_1_0=0   
   (   0.99923   0.000770416))   % E_camera_1=1   stealing_1_0=0   
   ((   0.995726   0.0042735)   % E_camera_1=0   stealing_1_0=1   
   (   0.623077   0.376923)));   % E_camera_1=1   stealing_1_0=1   
}

potential ( E_object_gone_0 | object_dropped_accidentally_0   stealing_1_0   ) {
   data = 
   (((   0.999804   0.000195848)   % stealing_1_0=0   object_dropped_accidentally_0=0   
   (   0.00276243   0.997238))   % stealing_1_0=1   object_dropped_accidentally_0=0   
   ((   0.000394011   0.999606)   % stealing_1_0=0   object_dropped_accidentally_0=1   
   (   0.5   0.5)));   % stealing_1_0=1   object_dropped_accidentally_0=1   
}


