
net {
  name = unnamedBN;
  software = "aGrUM 0.22.5";
  node_size = (50 50);
}

node object_dropped_accidentally_0 {
   states = (0 1 );
   label = "object_dropped_accidentally_0";
   ID = "object_dropped_accidentally_0";
}

node motive_1_0 {
   states = (0 1 );
   label = "motive_1_0";
   ID = "motive_1_0";
}

node sneak_1_0 {
   states = (0 1 );
   label = "sneak_1_0";
   ID = "sneak_1_0";
}

node stealing_1_0 {
   states = (0 1 );
   label = "stealing_1_0";
   ID = "stealing_1_0";
}

node E_psych_report_1_0 {
   states = (0 1 );
   label = "E_psych_report_1_0";
   ID = "E_psych_report_1_0";
}

node E_camera_1 {
   states = (0 1 );
   label = "E_camera_1";
   ID = "E_camera_1";
}

node E_camera_seen_stealing_1_0 {
   states = (0 1 );
   label = "E_camera_seen_stealing_1_0";
   ID = "E_camera_seen_stealing_1_0";
}

node E_object_gone_0 {
   states = (0 1 );
   label = "E_object_gone_0";
   ID = "E_object_gone_0";
}

potential (object_dropped_accidentally_0) {
   data = (  0.665669 0.334331);
}

potential ( motive_1_0 | object_dropped_accidentally_0   ) {
   data = 
   ((   0.930285   0.0697151)   % object_dropped_accidentally_0=0   
   (   0.992537   0.00746269));   % object_dropped_accidentally_0=1   
}

potential ( sneak_1_0 | motive_1_0   ) {
   data = 
   ((   0.999475   0.000524659)   % motive_1_0=0   
   (   0.0102041   0.989796));   % motive_1_0=1   
}

potential ( stealing_1_0 | motive_1_0   object_dropped_accidentally_0   sneak_1_0   ) {
   data = 
   ((((   0.999798   0.000201532)   % sneak_1_0=0   object_dropped_accidentally_0=0   motive_1_0=0   
   (   0.5   0.5))   % sneak_1_0=1   object_dropped_accidentally_0=0   motive_1_0=0   
   ((   0.999624   0.000376223)   % sneak_1_0=0   object_dropped_accidentally_0=1   motive_1_0=0   
   (   0.5   0.5)))   % sneak_1_0=1   object_dropped_accidentally_0=1   motive_1_0=0   
   (((   0.5   0.5)   % sneak_1_0=0   object_dropped_accidentally_0=0   motive_1_0=1   
   (   0.0027027   0.997297))   % sneak_1_0=1   object_dropped_accidentally_0=0   motive_1_0=1   
   ((   0.5   0.5)   % sneak_1_0=0   object_dropped_accidentally_0=1   motive_1_0=1   
   (   0.944444   0.0555556))));   % sneak_1_0=1   object_dropped_accidentally_0=1   motive_1_0=1   
}

potential ( E_psych_report_1_0 | motive_1_0   sneak_1_0   ) {
   data = 
   (((   0.999738   0.000262467)   % sneak_1_0=0   motive_1_0=0   
   (   0.5   0.5))   % sneak_1_0=1   motive_1_0=0   
   ((   0.5   0.5)   % sneak_1_0=0   motive_1_0=1   
   (   0.0876289   0.912371)));   % sneak_1_0=1   motive_1_0=1   
}

potential (E_camera_1) {
   data = (  0.825349 0.174651);
}

potential ( E_camera_seen_stealing_1_0 | stealing_1_0   E_camera_1   ) {
   data = 
   (((   0.999684   0.000316256)   % E_camera_1=0   stealing_1_0=0   
   (   0.99848   0.00151976))   % E_camera_1=1   stealing_1_0=0   
   ((   0.993151   0.00684932)   % E_camera_1=0   stealing_1_0=1   
   (   0.404762   0.595238)));   % E_camera_1=1   stealing_1_0=1   
}

potential ( E_object_gone_0 | object_dropped_accidentally_0   stealing_1_0   ) {
   data = 
   (((   0.999597   0.000402901)   % stealing_1_0=0   object_dropped_accidentally_0=0   
   (   0.00537634   0.994624))   % stealing_1_0=1   object_dropped_accidentally_0=0   
   ((   0.000747384   0.999253)   % stealing_1_0=0   object_dropped_accidentally_0=1   
   (   0.5   0.5)));   % stealing_1_0=1   object_dropped_accidentally_0=1   
}


