
net {
  name = unnamedBN;
  software = "aGrUM 0.22.5";
  node_size = (50 50);
}

node object_dropped_accidentally_0 {
   states = (0 1 );
   label = "object_dropped_accidentally_0";
   ID = "object_dropped_accidentally_0";
}

node motive_1_0 {
   states = (0 1 );
   label = "motive_1_0";
   ID = "motive_1_0";
}

node sneak_1_0 {
   states = (0 1 );
   label = "sneak_1_0";
   ID = "sneak_1_0";
}

node stealing_1_0 {
   states = (0 1 );
   label = "stealing_1_0";
   ID = "stealing_1_0";
}

node E_psych_report_1_0 {
   states = (0 1 );
   label = "E_psych_report_1_0";
   ID = "E_psych_report_1_0";
}

node E_camera_1 {
   states = (0 1 );
   label = "E_camera_1";
   ID = "E_camera_1";
}

node E_camera_seen_stealing_1_0 {
   states = (0 1 );
   label = "E_camera_seen_stealing_1_0";
   ID = "E_camera_seen_stealing_1_0";
}

node E_object_gone_0 {
   states = (0 1 );
   label = "E_object_gone_0";
   ID = "E_object_gone_0";
}

potential (object_dropped_accidentally_0) {
   data = (  0.690413 0.309587);
}

potential ( motive_1_0 | object_dropped_accidentally_0   ) {
   data = 
   ((   0.945516   0.0544841)   % object_dropped_accidentally_0=0   
   (   0.994624   0.00537634));   % object_dropped_accidentally_0=1   
}

potential ( sneak_1_0 | motive_1_0   ) {
   data = 
   ((   0.999653   0.0003465)   % motive_1_0=0   
   (   0.00847458   0.991525));   % motive_1_0=1   
}

potential ( stealing_1_0 | motive_1_0   object_dropped_accidentally_0   sneak_1_0   ) {
   data = 
   ((((   0.999872   0.000127518)   % sneak_1_0=0   object_dropped_accidentally_0=0   motive_1_0=0   
   (   0.5   0.5))   % sneak_1_0=1   object_dropped_accidentally_0=0   motive_1_0=0   
   ((   0.99973   0.000270416)   % sneak_1_0=0   object_dropped_accidentally_0=1   motive_1_0=0   
   (   0.5   0.5)))   % sneak_1_0=1   object_dropped_accidentally_0=1   motive_1_0=0   
   (((   0.5   0.5)   % sneak_1_0=0   object_dropped_accidentally_0=0   motive_1_0=1   
   (   0.00222222   0.997778))   % sneak_1_0=1   object_dropped_accidentally_0=0   motive_1_0=1   
   ((   0.5   0.5)   % sneak_1_0=0   object_dropped_accidentally_0=1   motive_1_0=1   
   (   0.944444   0.0555556))));   % sneak_1_0=1   object_dropped_accidentally_0=1   motive_1_0=1   
}

potential ( E_psych_report_1_0 | motive_1_0   sneak_1_0   ) {
   data = 
   (((   0.999827   0.00017331)   % sneak_1_0=0   motive_1_0=0   
   (   0.5   0.5))   % sneak_1_0=1   motive_1_0=0   
   ((   0.5   0.5)   % sneak_1_0=0   motive_1_0=1   
   (   0.0384615   0.961538)));   % sneak_1_0=1   motive_1_0=1   
}

potential (E_camera_1) {
   data = (  0.828895 0.171105);
}

potential ( E_camera_seen_stealing_1_0 | stealing_1_0   E_camera_1   ) {
   data = 
   (((   0.999792   0.0002079)   % E_camera_1=0   stealing_1_0=0   
   (   0.998969   0.00103093))   % E_camera_1=1   stealing_1_0=0   
   ((   0.994118   0.00588235)   % E_camera_1=0   stealing_1_0=1   
   (   0.293103   0.706897)));   % E_camera_1=1   stealing_1_0=1   
}

potential ( E_object_gone_0 | object_dropped_accidentally_0   stealing_1_0   ) {
   data = 
   (((   0.999745   0.000254972)   % stealing_1_0=0   object_dropped_accidentally_0=0   
   (   0.00442478   0.995575))   % stealing_1_0=1   object_dropped_accidentally_0=0   
   ((   0.000538213   0.999462)   % stealing_1_0=0   object_dropped_accidentally_0=1   
   (   0.5   0.5)));   % stealing_1_0=1   object_dropped_accidentally_0=1   
}


