
net {
  name = unnamedBN;
  software = "aGrUM 0.22.5";
  node_size = (50 50);
}

node object_dropped_accidentally_0 {
   states = (0 1 );
   label = "object_dropped_accidentally_0";
   ID = "object_dropped_accidentally_0";
}

node motive_1_0 {
   states = (0 1 );
   label = "motive_1_0";
   ID = "motive_1_0";
}

node sneak_1_0 {
   states = (0 1 );
   label = "sneak_1_0";
   ID = "sneak_1_0";
}

node stealing_1_0 {
   states = (0 1 );
   label = "stealing_1_0";
   ID = "stealing_1_0";
}

node E_psych_report_1_0 {
   states = (0 1 );
   label = "E_psych_report_1_0";
   ID = "E_psych_report_1_0";
}

node E_camera_1 {
   states = (0 1 );
   label = "E_camera_1";
   ID = "E_camera_1";
}

node E_camera_seen_stealing_1_0 {
   states = (0 1 );
   label = "E_camera_seen_stealing_1_0";
   ID = "E_camera_seen_stealing_1_0";
}

node E_object_gone_0 {
   states = (0 1 );
   label = "E_object_gone_0";
   ID = "E_object_gone_0";
}

potential (object_dropped_accidentally_0) {
   data = (  0.668317 0.331683);
}

potential ( motive_1_0 | object_dropped_accidentally_0   ) {
   data = 
   ((   0.907407   0.0925926)   % object_dropped_accidentally_0=0   
   (   0.992537   0.00746269));   % object_dropped_accidentally_0=1   
}

potential ( sneak_1_0 | motive_1_0   ) {
   data = 
   ((   0.997354   0.0026455)   % motive_1_0=0   
   (   0.0384615   0.961538));   % motive_1_0=1   
}

potential ( stealing_1_0 | motive_1_0   sneak_1_0   ) {
   data = 
   (((   0.998674   0.00132626)   % sneak_1_0=0   motive_1_0=0   
   (   0.5   0.5))   % sneak_1_0=1   motive_1_0=0   
   ((   0.5   0.5)   % sneak_1_0=0   motive_1_0=1   
   (   0.02   0.98)));   % sneak_1_0=1   motive_1_0=1   
}

potential ( E_psych_report_1_0 | stealing_1_0   sneak_1_0   ) {
   data = 
   (((   0.998674   0.00132626)   % sneak_1_0=0   stealing_1_0=0   
   (   0.5   0.5))   % sneak_1_0=1   stealing_1_0=0   
   ((   0.5   0.5)   % sneak_1_0=0   stealing_1_0=1   
   (   0.34   0.66)));   % sneak_1_0=1   stealing_1_0=1   
}

potential ( E_camera_1 | E_psych_report_1_0   stealing_1_0   ) {
   data = 
   (((   0.881963   0.118037)   % stealing_1_0=0   E_psych_report_1_0=0   
   (   0.0555556   0.944444))   % stealing_1_0=1   E_psych_report_1_0=0   
   ((   0.5   0.5)   % stealing_1_0=0   E_psych_report_1_0=1   
   (   0.735294   0.264706)));   % stealing_1_0=1   E_psych_report_1_0=1   
}

potential ( E_camera_seen_stealing_1_0 | E_psych_report_1_0   sneak_1_0   object_dropped_accidentally_0   motive_1_0   stealing_1_0   ) {
   data = 
   ((((((   0.999744   0.000256016)   % stealing_1_0=0   motive_1_0=0   object_dropped_accidentally_0=0   sneak_1_0=0   E_psych_report_1_0=0   
   (   0.5   0.5))   % stealing_1_0=1   motive_1_0=0   object_dropped_accidentally_0=0   sneak_1_0=0   E_psych_report_1_0=0   
   ((   0.5   0.5)   % stealing_1_0=0   motive_1_0=1   object_dropped_accidentally_0=0   sneak_1_0=0   E_psych_report_1_0=0   
   (   0.5   0.5)))   % stealing_1_0=1   motive_1_0=1   object_dropped_accidentally_0=0   sneak_1_0=0   E_psych_report_1_0=0   
   (((   0.999527   0.000473037)   % stealing_1_0=0   motive_1_0=0   object_dropped_accidentally_0=1   sneak_1_0=0   E_psych_report_1_0=0   
   (   0.5   0.5))   % stealing_1_0=1   motive_1_0=0   object_dropped_accidentally_0=1   sneak_1_0=0   E_psych_report_1_0=0   
   ((   0.5   0.5)   % stealing_1_0=0   motive_1_0=1   object_dropped_accidentally_0=1   sneak_1_0=0   E_psych_report_1_0=0   
   (   0.5   0.5))))   % stealing_1_0=1   motive_1_0=1   object_dropped_accidentally_0=1   sneak_1_0=0   E_psych_report_1_0=0   
   ((((   0.5   0.5)   % stealing_1_0=0   motive_1_0=0   object_dropped_accidentally_0=0   sneak_1_0=1   E_psych_report_1_0=0   
   (   0.5   0.5))   % stealing_1_0=1   motive_1_0=0   object_dropped_accidentally_0=0   sneak_1_0=1   E_psych_report_1_0=0   
   ((   0.5   0.5)   % stealing_1_0=0   motive_1_0=1   object_dropped_accidentally_0=0   sneak_1_0=1   E_psych_report_1_0=0   
   (   0.00769231   0.992308)))   % stealing_1_0=1   motive_1_0=1   object_dropped_accidentally_0=0   sneak_1_0=1   E_psych_report_1_0=0   
   (((   0.5   0.5)   % stealing_1_0=0   motive_1_0=0   object_dropped_accidentally_0=1   sneak_1_0=1   E_psych_report_1_0=0   
   (   0.5   0.5))   % stealing_1_0=1   motive_1_0=0   object_dropped_accidentally_0=1   sneak_1_0=1   E_psych_report_1_0=0   
   ((   0.5   0.5)   % stealing_1_0=0   motive_1_0=1   object_dropped_accidentally_0=1   sneak_1_0=1   E_psych_report_1_0=0   
   (   0.5   0.5)))))   % stealing_1_0=1   motive_1_0=1   object_dropped_accidentally_0=1   sneak_1_0=1   E_psych_report_1_0=0   
   (((((   0.5   0.5)   % stealing_1_0=0   motive_1_0=0   object_dropped_accidentally_0=0   sneak_1_0=0   E_psych_report_1_0=1   
   (   0.5   0.5))   % stealing_1_0=1   motive_1_0=0   object_dropped_accidentally_0=0   sneak_1_0=0   E_psych_report_1_0=1   
   ((   0.5   0.5)   % stealing_1_0=0   motive_1_0=1   object_dropped_accidentally_0=0   sneak_1_0=0   E_psych_report_1_0=1   
   (   0.5   0.5)))   % stealing_1_0=1   motive_1_0=1   object_dropped_accidentally_0=0   sneak_1_0=0   E_psych_report_1_0=1   
   (((   0.5   0.5)   % stealing_1_0=0   motive_1_0=0   object_dropped_accidentally_0=1   sneak_1_0=0   E_psych_report_1_0=1   
   (   0.5   0.5))   % stealing_1_0=1   motive_1_0=0   object_dropped_accidentally_0=1   sneak_1_0=0   E_psych_report_1_0=1   
   ((   0.5   0.5)   % stealing_1_0=0   motive_1_0=1   object_dropped_accidentally_0=1   sneak_1_0=0   E_psych_report_1_0=1   
   (   0.5   0.5))))   % stealing_1_0=1   motive_1_0=1   object_dropped_accidentally_0=1   sneak_1_0=0   E_psych_report_1_0=1   
   ((((   0.5   0.5)   % stealing_1_0=0   motive_1_0=0   object_dropped_accidentally_0=0   sneak_1_0=1   E_psych_report_1_0=1   
   (   0.5   0.5))   % stealing_1_0=1   motive_1_0=0   object_dropped_accidentally_0=0   sneak_1_0=1   E_psych_report_1_0=1   
   ((   0.5   0.5)   % stealing_1_0=0   motive_1_0=1   object_dropped_accidentally_0=0   sneak_1_0=1   E_psych_report_1_0=1   
   (   0.996124   0.00387597)))   % stealing_1_0=1   motive_1_0=1   object_dropped_accidentally_0=0   sneak_1_0=1   E_psych_report_1_0=1   
   (((   0.5   0.5)   % stealing_1_0=0   motive_1_0=0   object_dropped_accidentally_0=1   sneak_1_0=1   E_psych_report_1_0=1   
   (   0.5   0.5))   % stealing_1_0=1   motive_1_0=0   object_dropped_accidentally_0=1   sneak_1_0=1   E_psych_report_1_0=1   
   ((   0.5   0.5)   % stealing_1_0=0   motive_1_0=1   object_dropped_accidentally_0=1   sneak_1_0=1   E_psych_report_1_0=1   
   (   0.5   0.5))))));   % stealing_1_0=1   motive_1_0=1   object_dropped_accidentally_0=1   sneak_1_0=1   E_psych_report_1_0=1   
}

potential ( E_object_gone_0 | stealing_1_0   motive_1_0   object_dropped_accidentally_0   sneak_1_0   E_camera_seen_stealing_1_0   ) {
   data = 
   ((((((   0.999744   0.000256016)   % E_camera_seen_stealing_1_0=0   sneak_1_0=0   object_dropped_accidentally_0=0   motive_1_0=0   stealing_1_0=0   
   (   0.5   0.5))   % E_camera_seen_stealing_1_0=1   sneak_1_0=0   object_dropped_accidentally_0=0   motive_1_0=0   stealing_1_0=0   
   ((   0.5   0.5)   % E_camera_seen_stealing_1_0=0   sneak_1_0=1   object_dropped_accidentally_0=0   motive_1_0=0   stealing_1_0=0   
   (   0.5   0.5)))   % E_camera_seen_stealing_1_0=1   sneak_1_0=1   object_dropped_accidentally_0=0   motive_1_0=0   stealing_1_0=0   
   (((   0.000473037   0.999527)   % E_camera_seen_stealing_1_0=0   sneak_1_0=0   object_dropped_accidentally_0=1   motive_1_0=0   stealing_1_0=0   
   (   0.5   0.5))   % E_camera_seen_stealing_1_0=1   sneak_1_0=0   object_dropped_accidentally_0=1   motive_1_0=0   stealing_1_0=0   
   ((   0.5   0.5)   % E_camera_seen_stealing_1_0=0   sneak_1_0=1   object_dropped_accidentally_0=1   motive_1_0=0   stealing_1_0=0   
   (   0.5   0.5))))   % E_camera_seen_stealing_1_0=1   sneak_1_0=1   object_dropped_accidentally_0=1   motive_1_0=0   stealing_1_0=0   
   ((((   0.5   0.5)   % E_camera_seen_stealing_1_0=0   sneak_1_0=0   object_dropped_accidentally_0=0   motive_1_0=1   stealing_1_0=0   
   (   0.5   0.5))   % E_camera_seen_stealing_1_0=1   sneak_1_0=0   object_dropped_accidentally_0=0   motive_1_0=1   stealing_1_0=0   
   ((   0.5   0.5)   % E_camera_seen_stealing_1_0=0   sneak_1_0=1   object_dropped_accidentally_0=0   motive_1_0=1   stealing_1_0=0   
   (   0.5   0.5)))   % E_camera_seen_stealing_1_0=1   sneak_1_0=1   object_dropped_accidentally_0=0   motive_1_0=1   stealing_1_0=0   
   (((   0.5   0.5)   % E_camera_seen_stealing_1_0=0   sneak_1_0=0   object_dropped_accidentally_0=1   motive_1_0=1   stealing_1_0=0   
   (   0.5   0.5))   % E_camera_seen_stealing_1_0=1   sneak_1_0=0   object_dropped_accidentally_0=1   motive_1_0=1   stealing_1_0=0   
   ((   0.5   0.5)   % E_camera_seen_stealing_1_0=0   sneak_1_0=1   object_dropped_accidentally_0=1   motive_1_0=1   stealing_1_0=0   
   (   0.5   0.5)))))   % E_camera_seen_stealing_1_0=1   sneak_1_0=1   object_dropped_accidentally_0=1   motive_1_0=1   stealing_1_0=0   
   (((((   0.5   0.5)   % E_camera_seen_stealing_1_0=0   sneak_1_0=0   object_dropped_accidentally_0=0   motive_1_0=0   stealing_1_0=1   
   (   0.5   0.5))   % E_camera_seen_stealing_1_0=1   sneak_1_0=0   object_dropped_accidentally_0=0   motive_1_0=0   stealing_1_0=1   
   ((   0.5   0.5)   % E_camera_seen_stealing_1_0=0   sneak_1_0=1   object_dropped_accidentally_0=0   motive_1_0=0   stealing_1_0=1   
   (   0.5   0.5)))   % E_camera_seen_stealing_1_0=1   sneak_1_0=1   object_dropped_accidentally_0=0   motive_1_0=0   stealing_1_0=1   
   (((   0.5   0.5)   % E_camera_seen_stealing_1_0=0   sneak_1_0=0   object_dropped_accidentally_0=1   motive_1_0=0   stealing_1_0=1   
   (   0.5   0.5))   % E_camera_seen_stealing_1_0=1   sneak_1_0=0   object_dropped_accidentally_0=1   motive_1_0=0   stealing_1_0=1   
   ((   0.5   0.5)   % E_camera_seen_stealing_1_0=0   sneak_1_0=1   object_dropped_accidentally_0=1   motive_1_0=0   stealing_1_0=1   
   (   0.5   0.5))))   % E_camera_seen_stealing_1_0=1   sneak_1_0=1   object_dropped_accidentally_0=1   motive_1_0=0   stealing_1_0=1   
   ((((   0.5   0.5)   % E_camera_seen_stealing_1_0=0   sneak_1_0=0   object_dropped_accidentally_0=0   motive_1_0=1   stealing_1_0=1   
   (   0.5   0.5))   % E_camera_seen_stealing_1_0=1   sneak_1_0=0   object_dropped_accidentally_0=0   motive_1_0=1   stealing_1_0=1   
   ((   0.00387597   0.996124)   % E_camera_seen_stealing_1_0=0   sneak_1_0=1   object_dropped_accidentally_0=0   motive_1_0=1   stealing_1_0=1   
   (   0.00769231   0.992308)))   % E_camera_seen_stealing_1_0=1   sneak_1_0=1   object_dropped_accidentally_0=0   motive_1_0=1   stealing_1_0=1   
   (((   0.5   0.5)   % E_camera_seen_stealing_1_0=0   sneak_1_0=0   object_dropped_accidentally_0=1   motive_1_0=1   stealing_1_0=1   
   (   0.5   0.5))   % E_camera_seen_stealing_1_0=1   sneak_1_0=0   object_dropped_accidentally_0=1   motive_1_0=1   stealing_1_0=1   
   ((   0.5   0.5)   % E_camera_seen_stealing_1_0=0   sneak_1_0=1   object_dropped_accidentally_0=1   motive_1_0=1   stealing_1_0=1   
   (   0.5   0.5))))));   % E_camera_seen_stealing_1_0=1   sneak_1_0=1   object_dropped_accidentally_0=1   motive_1_0=1   stealing_1_0=1   
}


