
net {
  name = noiseBN.net;
  software = "aGrUM 0.22.5";
  node_size = (50 50);
}

node lost_object {
   states = (0 1 );
   label = "lost_object";
   ID = "lost_object";
}

node know_object {
   states = (0 1 );
   label = "know_object";
   ID = "know_object";
}

node target_object {
   states = (0 1 );
   label = "target_object";
   ID = "target_object";
}

node motive {
   states = (0 1 );
   label = "motive";
   ID = "motive";
}

node compromise_house {
   states = (0 1 );
   label = "compromise_house";
   ID = "compromise_house";
}

node flees_startled {
   states = (0 1 );
   label = "flees_startled";
   ID = "flees_startled";
}

node successful_stolen {
   states = (0 1 );
   label = "successful_stolen";
   ID = "successful_stolen";
}

node raining {
   states = (0 1 );
   label = "raining";
   ID = "raining";
}

node curtains {
   states = (0 1 );
   label = "curtains";
   ID = "curtains";
}

node E_object_is_gone {
   states = (0 1 );
   label = "E_object_is_gone";
   ID = "E_object_is_gone";
}

node E_broken_lock {
   states = (0 1 );
   label = "E_broken_lock";
   ID = "E_broken_lock";
}

node E_disturbed_house {
   states = (0 1 );
   label = "E_disturbed_house";
   ID = "E_disturbed_house";
}

node E_s_spotted_by_house {
   states = (0 1 );
   label = "E_s_spotted_by_house";
   ID = "E_s_spotted_by_house";
}

node E_s_spotted_with_goodie {
   states = (0 1 );
   label = "E_s_spotted_with_goodie";
   ID = "E_s_spotted_with_goodie";
}

node E_private {
   states = (0 1 );
   label = "E_private";
   ID = "E_private";
}

potential (lost_object) {
   data = (  0.801292 0.198708);
}

potential ( know_object | curtains   lost_object   ) {
   data = 
   (((   0.0254479   0.974552)   % lost_object=0   curtains=0   
   (   0.99986   0.000140144))   % lost_object=1   curtains=0   
   ((   0.999829   0.000171273)   % lost_object=0   curtains=1   
   (   0.99762   0.00238056)));   % lost_object=1   curtains=1   
}

potential ( target_object | know_object   ) {
   data = 
   ((   0.998972   0.00102843)   % know_object=0   
   (   0.516988   0.483012));   % know_object=1   
}

potential ( motive | curtains   target_object   ) {
   data = 
   (((   1   0)   % target_object=0   curtains=0   
   (   0.00107673   0.998923))   % target_object=1   curtains=0   
   ((   1   0)   % target_object=0   curtains=1   
   (   1   0)));   % target_object=1   curtains=1   
}

potential ( compromise_house | target_object   motive   ) {
   data = 
   (((   0.999532   0.000467367)   % motive=0   target_object=0   
   (   0.999712   0.000287576))   % motive=1   target_object=0   
   ((   0.999712   0.000287576)   % motive=0   target_object=1   
   (   0.698896   0.301104)));   % motive=1   target_object=1   
}

potential ( flees_startled | motive   target_object   ) {
   data = 
   (((   1   0)   % target_object=0   motive=0   
   (   1   0))   % target_object=1   motive=0   
   ((   1   0)   % target_object=0   motive=1   
   (   0.513746   0.486254)));   % target_object=1   motive=1   
}

potential ( successful_stolen | flees_startled   compromise_house   ) {
   data = 
   (((   1   0)   % compromise_house=0   flees_startled=0   
   (   0.00366501   0.996335))   % compromise_house=1   flees_startled=0   
   ((   1   0)   % compromise_house=0   flees_startled=1   
   (   0.998218   0.00178113)));   % compromise_house=1   flees_startled=1   
}

potential (raining) {
   data = (  0.494676 0.505324);
}

potential (curtains) {
   data = (  0.807119 0.192881);
}

potential ( E_object_is_gone | successful_stolen   compromise_house   lost_object   ) {
   data = 
   ((((   0.998109   0.00189073)   % lost_object=0   compromise_house=0   successful_stolen=0   
   (   0   1))   % lost_object=1   compromise_house=0   successful_stolen=0   
   ((   0.403242   0.596758)   % lost_object=0   compromise_house=1   successful_stolen=0   
   (   0.998197   0.00180272)))   % lost_object=1   compromise_house=1   successful_stolen=0   
   (((   0.998197   0.00180272)   % lost_object=0   compromise_house=0   successful_stolen=1   
   (   0.998197   0.00180272))   % lost_object=1   compromise_house=0   successful_stolen=1   
   ((   0   1)   % lost_object=0   compromise_house=1   successful_stolen=1   
   (   0.998197   0.00180272))));   % lost_object=1   compromise_house=1   successful_stolen=1   
}

potential ( E_broken_lock | successful_stolen   compromise_house   ) {
   data = 
   (((   0.999091   0.000909366)   % compromise_house=0   successful_stolen=0   
   (   0.00218669   0.997813))   % compromise_house=1   successful_stolen=0   
   ((   0.999228   0.00077189)   % compromise_house=0   successful_stolen=1   
   (   0.00171567   0.998284)));   % compromise_house=1   successful_stolen=1   
}

potential ( E_disturbed_house | successful_stolen   compromise_house   ) {
   data = 
   (((   0.99924   0.000760133)   % compromise_house=0   successful_stolen=0   
   (   0.00233592   0.997664))   % compromise_house=1   successful_stolen=0   
   ((   0.999377   0.000622657)   % compromise_house=0   successful_stolen=1   
   (   0.0018649   0.998135)));   % compromise_house=1   successful_stolen=1   
}

potential ( E_s_spotted_by_house | curtains   target_object   ) {
   data = 
   (((   0.19522   0.80478)   % target_object=0   curtains=0   
   (   0.000257503   0.999743))   % target_object=1   curtains=0   
   ((   0.0574172   0.942583)   % target_object=0   curtains=1   
   (   0.999849   0.00015066)));   % target_object=1   curtains=1   
}

potential ( E_s_spotted_with_goodie | successful_stolen   compromise_house   ) {
   data = 
   (((   0.998463   0.0015375)   % compromise_house=0   successful_stolen=0   
   (   0.403925   0.596075))   % compromise_house=1   successful_stolen=0   
   ((   0.9986   0.00140002)   % compromise_house=0   successful_stolen=1   
   (   0.00108754   0.998912)));   % compromise_house=1   successful_stolen=1   
}

potential ( E_private | flees_startled   successful_stolen   ) {
   data = 
   (((   0.998543   0.00145688)   % successful_stolen=0   flees_startled=0   
   (   0.996211   0.00378863))   % successful_stolen=1   flees_startled=0   
   ((   0   1)   % successful_stolen=0   flees_startled=1   
   (   0.998699   0.00130107)));   % successful_stolen=1   flees_startled=1   
}


