
net {
  name = noiseBN.net;
  software = "aGrUM 0.22.5";
  node_size = (50 50);
}

node lost_object {
   states = (0 1 );
   label = "lost_object";
   ID = "lost_object";
}

node know_object {
   states = (0 1 );
   label = "know_object";
   ID = "know_object";
}

node target_object {
   states = (0 1 );
   label = "target_object";
   ID = "target_object";
}

node motive {
   states = (0 1 );
   label = "motive";
   ID = "motive";
}

node compromise_house {
   states = (0 1 );
   label = "compromise_house";
   ID = "compromise_house";
}

node flees_startled {
   states = (0 1 );
   label = "flees_startled";
   ID = "flees_startled";
}

node successful_stolen {
   states = (0 1 );
   label = "successful_stolen";
   ID = "successful_stolen";
}

node raining {
   states = (0 1 );
   label = "raining";
   ID = "raining";
}

node curtains {
   states = (0 1 );
   label = "curtains";
   ID = "curtains";
}

node E_object_is_gone {
   states = (0 1 );
   label = "E_object_is_gone";
   ID = "E_object_is_gone";
}

node E_broken_lock {
   states = (0 1 );
   label = "E_broken_lock";
   ID = "E_broken_lock";
}

node E_disturbed_house {
   states = (0 1 );
   label = "E_disturbed_house";
   ID = "E_disturbed_house";
}

node E_s_spotted_by_house {
   states = (0 1 );
   label = "E_s_spotted_by_house";
   ID = "E_s_spotted_by_house";
}

node E_s_spotted_with_goodie {
   states = (0 1 );
   label = "E_s_spotted_with_goodie";
   ID = "E_s_spotted_with_goodie";
}

node E_private {
   states = (0 1 );
   label = "E_private";
   ID = "E_private";
}

potential (lost_object) {
   data = (  0.409376 0.590624);
}

potential ( know_object | curtains   lost_object   ) {
   data = 
   (((   0.467876   0.532124)   % lost_object=0   curtains=0   
   (   1   0))   % lost_object=1   curtains=0   
   ((   1   0)   % lost_object=0   curtains=1   
   (   1   0)));   % lost_object=1   curtains=1   
}

potential ( target_object | know_object   ) {
   data = 
   ((   1   0)   % know_object=0   
   (   0.731092   0.268908));   % know_object=1   
}

potential ( motive | curtains   target_object   ) {
   data = 
   (((   0.934373   0.0656271)   % target_object=0   curtains=0   
   (   0   1))   % target_object=1   curtains=0   
   ((   0.933975   0.0660251)   % target_object=0   curtains=1   
   (   0.934622   0.0653783)));   % target_object=1   curtains=1   
}

potential ( compromise_house | target_object   motive   ) {
   data = 
   (((   1   0)   % motive=0   target_object=0   
   (   1   0))   % motive=1   target_object=0   
   ((   1   0)   % motive=0   target_object=1   
   (   1   0)));   % motive=1   target_object=1   
}

potential ( flees_startled | motive   target_object   ) {
   data = 
   (((   0.780073   0.219927)   % target_object=0   motive=0   
   (   0.780253   0.219747))   % target_object=1   motive=0   
   ((   0.780253   0.219747)   % target_object=0   motive=1   
   (   0.293314   0.706686)));   % target_object=1   motive=1   
}

potential ( successful_stolen | flees_startled   compromise_house   ) {
   data = 
   (((   1   0)   % compromise_house=0   flees_startled=0   
   (   0.476209   0.52379))   % compromise_house=1   flees_startled=0   
   ((   1   0)   % compromise_house=0   flees_startled=1   
   (   1   0)));   % compromise_house=1   flees_startled=1   
}

potential (raining) {
   data = (  1 0);
}

potential (curtains) {
   data = (  0.914519 0.0854806);
}

potential ( E_object_is_gone | successful_stolen   compromise_house   lost_object   ) {
   data = 
   ((((   0.920237   0.0797626)   % lost_object=0   compromise_house=0   successful_stolen=0   
   (   0   1))   % lost_object=1   compromise_house=0   successful_stolen=0   
   ((   0.32537   0.67463)   % lost_object=0   compromise_house=1   successful_stolen=0   
   (   0.920325   0.0796746)))   % lost_object=1   compromise_house=1   successful_stolen=0   
   (((   0.920325   0.0796746)   % lost_object=0   compromise_house=0   successful_stolen=1   
   (   0.920325   0.0796746))   % lost_object=1   compromise_house=0   successful_stolen=1   
   ((   0   1)   % lost_object=0   compromise_house=1   successful_stolen=1   
   (   0.920325   0.0796746))));   % lost_object=1   compromise_house=1   successful_stolen=1   
}

potential ( E_broken_lock | successful_stolen   compromise_house   ) {
   data = 
   (((   0.871804   0.128196)   % compromise_house=0   successful_stolen=0   
   (   0   1))   % compromise_house=1   successful_stolen=0   
   ((   0.871941   0.128059)   % compromise_house=0   successful_stolen=1   
   (   0   1)));   % compromise_house=1   successful_stolen=1   
}

potential ( E_disturbed_house | successful_stolen   compromise_house   ) {
   data = 
   (((   1   0)   % compromise_house=0   successful_stolen=0   
   (   0.617817   0.382182))   % compromise_house=1   successful_stolen=0   
   ((   1   0)   % compromise_house=0   successful_stolen=1   
   (   0.617346   0.382653)));   % compromise_house=1   successful_stolen=1   
}

potential ( E_s_spotted_by_house | curtains   target_object   ) {
   data = 
   (((   0   1)   % target_object=0   curtains=0   
   (   0   1))   % target_object=1   curtains=0   
   ((   0   1)   % target_object=0   curtains=1   
   (   0.794263   0.205737)));   % target_object=1   curtains=1   
}

potential ( E_s_spotted_with_goodie | successful_stolen   compromise_house   ) {
   data = 
   (((   1   0)   % compromise_house=0   successful_stolen=0   
   (   0.672389   0.327611))   % compromise_house=1   successful_stolen=0   
   ((   1   0)   % compromise_house=0   successful_stolen=1   
   (   0.269552   0.730448)));   % compromise_house=1   successful_stolen=1   
}

potential ( E_private | flees_startled   successful_stolen   ) {
   data = 
   (((   0.928606   0.0713935)   % successful_stolen=0   flees_startled=0   
   (   0.926274   0.0737253))   % successful_stolen=1   flees_startled=0   
   ((   0   1)   % successful_stolen=0   flees_startled=1   
   (   0.928762   0.0712377)));   % successful_stolen=1   flees_startled=1   
}


