
net {
  name = noiseBN.net;
  software = "aGrUM 0.22.5";
  node_size = (50 50);
}

node lost_object {
   states = (0 1 );
   label = "lost_object";
   ID = "lost_object";
}

node know_object {
   states = (0 1 );
   label = "know_object";
   ID = "know_object";
}

node target_object {
   states = (0 1 );
   label = "target_object";
   ID = "target_object";
}

node motive {
   states = (0 1 );
   label = "motive";
   ID = "motive";
}

node compromise_house {
   states = (0 1 );
   label = "compromise_house";
   ID = "compromise_house";
}

node flees_startled {
   states = (0 1 );
   label = "flees_startled";
   ID = "flees_startled";
}

node successful_stolen {
   states = (0 1 );
   label = "successful_stolen";
   ID = "successful_stolen";
}

node raining {
   states = (0 1 );
   label = "raining";
   ID = "raining";
}

node curtains {
   states = (0 1 );
   label = "curtains";
   ID = "curtains";
}

node E_object_is_gone {
   states = (0 1 );
   label = "E_object_is_gone";
   ID = "E_object_is_gone";
}

node E_broken_lock {
   states = (0 1 );
   label = "E_broken_lock";
   ID = "E_broken_lock";
}

node E_disturbed_house {
   states = (0 1 );
   label = "E_disturbed_house";
   ID = "E_disturbed_house";
}

node E_s_spotted_by_house {
   states = (0 1 );
   label = "E_s_spotted_by_house";
   ID = "E_s_spotted_by_house";
}

node E_s_spotted_with_goodie {
   states = (0 1 );
   label = "E_s_spotted_with_goodie";
   ID = "E_s_spotted_with_goodie";
}

node E_private {
   states = (0 1 );
   label = "E_private";
   ID = "E_private";
}

potential (lost_object) {
   data = (  0.8209 0.1791);
}

potential ( know_object | lost_object   curtains   ) {
   data = 
   (((   0.0182   0.9818)   % curtains=0   lost_object=0   
   (   0.9992   0.0008))   % curtains=1   lost_object=0   
   ((   0.9992   0.0008)   % curtains=0   lost_object=1   
   (   0.9954   0.0046)));   % curtains=1   lost_object=1   
}

potential ( target_object | know_object   ) {
   data = 
   ((   0.9993   0.0007)   % know_object=0   
   (   0.4924   0.5076));   % know_object=1   
}

potential ( motive | lost_object   target_object   ) {
   data = 
   (((   0.9997   0.0003)   % target_object=0   lost_object=0   
   (   0.0004   0.9996))   % target_object=1   lost_object=0   
   ((   0.9993   0.0007)   % target_object=0   lost_object=1   
   (   1   0)));   % target_object=1   lost_object=1   
}

potential ( compromise_house | target_object   motive   ) {
   data = 
   (((   0.9998   0.0002)   % motive=0   target_object=0   
   (   1   0))   % motive=1   target_object=0   
   ((   1   0)   % motive=0   target_object=1   
   (   0.6836   0.3164)));   % motive=1   target_object=1   
}

potential ( flees_startled | motive   target_object   ) {
   data = 
   (((   0.9998   0.0002)   % target_object=0   motive=0   
   (   1   0))   % target_object=1   motive=0   
   ((   1   0)   % target_object=0   motive=1   
   (   0.5391   0.4609)));   % target_object=1   motive=1   
}

potential ( successful_stolen | flees_startled   compromise_house   ) {
   data = 
   (((   0.9998   0.0002)   % compromise_house=0   flees_startled=0   
   (   0.0019   0.9981))   % compromise_house=1   flees_startled=0   
   ((   0.9989   0.0011)   % compromise_house=0   flees_startled=1   
   (   0.9969   0.0031)));   % compromise_house=1   flees_startled=1   
}

potential (raining) {
   data = (  0.4955 0.5045);
}

potential (curtains) {
   data = (  0.8169 0.1831);
}

potential ( E_object_is_gone | successful_stolen   compromise_house   lost_object   ) {
   data = 
   ((((   0.9999   0.0001)   % lost_object=0   compromise_house=0   successful_stolen=0   
   (   0.0003   0.9997))   % lost_object=1   compromise_house=0   successful_stolen=0   
   ((   0.2259   0.7741)   % lost_object=0   compromise_house=1   successful_stolen=0   
   (   1   0)))   % lost_object=1   compromise_house=1   successful_stolen=0   
   (((   1   0)   % lost_object=0   compromise_house=0   successful_stolen=1   
   (   1   0))   % lost_object=1   compromise_house=0   successful_stolen=1   
   ((   0.001   0.999)   % lost_object=0   compromise_house=1   successful_stolen=1   
   (   1   0))));   % lost_object=1   compromise_house=1   successful_stolen=1   
}

potential ( E_broken_lock | successful_stolen   compromise_house   ) {
   data = 
   (((   0.9999   0.0001)   % compromise_house=0   successful_stolen=0   
   (   0.0031   0.9969))   % compromise_house=1   successful_stolen=0   
   ((   1   0)   % compromise_house=0   successful_stolen=1   
   (   0.0019   0.9981)));   % compromise_house=1   successful_stolen=1   
}

potential ( E_disturbed_house | successful_stolen   compromise_house   ) {
   data = 
   (((   0.9999   0.0001)   % compromise_house=0   successful_stolen=0   
   (   0.0031   0.9969))   % compromise_house=1   successful_stolen=0   
   ((   1   0)   % compromise_house=0   successful_stolen=1   
   (   0.0019   0.9981)));   % compromise_house=1   successful_stolen=1   
}

potential ( E_s_spotted_by_house | curtains   target_object   ) {
   data = 
   (((   0.1956   0.8044)   % target_object=0   curtains=0   
   (   0.0004   0.9996))   % target_object=1   curtains=0   
   ((   0.0334   0.9666)   % target_object=0   curtains=1   
   (   1   0)));   % target_object=1   curtains=1   
}

potential ( E_s_spotted_with_goodie | successful_stolen   compromise_house   ) {
   data = 
   (((   0.9999   0.0001)   % compromise_house=0   successful_stolen=0   
   (   0.2267   0.7733))   % compromise_house=1   successful_stolen=0   
   ((   1   0)   % compromise_house=0   successful_stolen=1   
   (   0.0019   0.9981)));   % compromise_house=1   successful_stolen=1   
}

potential ( E_private | flees_startled   successful_stolen   ) {
   data = 
   (((   0.9998   0.0002)   % successful_stolen=0   flees_startled=0   
   (   0.9981   0.0019))   % successful_stolen=1   flees_startled=0   
   ((   0.0008   0.9992)   % successful_stolen=0   flees_startled=1   
   (   1   0)));   % successful_stolen=1   flees_startled=1   
}


