
net {
  name = unnamedBN;
  software = "aGrUM 0.22.5";
  node_size = (50 50);
}

node lost_object {
   states = (0 1 );
   label = "lost_object";
   ID = "lost_object";
}

node successful_stolen {
   states = (0 1 );
   label = "successful_stolen";
   ID = "successful_stolen";
}

node E_object_is_gone {
   states = (0 1 );
   label = "E_object_is_gone";
   ID = "E_object_is_gone";
}

node E_broken_lock {
   states = (0 1 );
   label = "E_broken_lock";
   ID = "E_broken_lock";
}

node E_disturbed_house {
   states = (0 1 );
   label = "E_disturbed_house";
   ID = "E_disturbed_house";
}

node E_s_spotted_by_house {
   states = (0 1 );
   label = "E_s_spotted_by_house";
   ID = "E_s_spotted_by_house";
}

node E_s_spotted_with_goodie {
   states = (0 1 );
   label = "E_s_spotted_with_goodie";
   ID = "E_s_spotted_with_goodie";
}

node E_private {
   states = (0 1 );
   label = "E_private";
   ID = "E_private";
}

potential (lost_object) {
   data = (  0.813872 0.186128);
}

potential ( successful_stolen | lost_object   ) {
   data = 
   ((   0.933476   0.0665236)   % lost_object=0   
   (   0.99866   0.00134048));   % lost_object=1   
}

potential ( E_object_is_gone | lost_object   successful_stolen   ) {
   data = 
   (((   0.956486   0.043514)   % successful_stolen=0   lost_object=0   
   (   0.00230415   0.997696))   % successful_stolen=1   lost_object=0   
   ((   0.000671141   0.999329)   % successful_stolen=0   lost_object=1   
   (   1   0)));   % successful_stolen=1   lost_object=1   
}

potential ( E_broken_lock | successful_stolen   E_object_is_gone   lost_object   ) {
   data = 
   ((((   0.979313   0.0206867)   % lost_object=0   E_object_is_gone=0   successful_stolen=0   
   (   1   0))   % lost_object=1   E_object_is_gone=0   successful_stolen=0   
   ((   0.00188679   0.998113)   % lost_object=0   E_object_is_gone=1   successful_stolen=0   
   (   0.999664   0.000335796)))   % lost_object=1   E_object_is_gone=1   successful_stolen=0   
   (((   1   0)   % lost_object=0   E_object_is_gone=0   successful_stolen=1   
   (   1   0))   % lost_object=1   E_object_is_gone=0   successful_stolen=1   
   ((   0.00115473   0.998845)   % lost_object=0   E_object_is_gone=1   successful_stolen=1   
   (   1   0))));   % lost_object=1   E_object_is_gone=1   successful_stolen=1   
}

potential ( E_disturbed_house | successful_stolen   E_broken_lock   ) {
   data = 
   (((   0.999861   0.000139005)   % E_broken_lock=0   successful_stolen=0   
   (   0.00259067   0.997409))   % E_broken_lock=1   successful_stolen=0   
   ((   1   0)   % E_broken_lock=0   successful_stolen=1   
   (   0.00230415   0.997696)));   % E_broken_lock=1   successful_stolen=1   
}

potential ( E_s_spotted_by_house | E_disturbed_house   E_broken_lock   ) {
   data = 
   (((   0.102446   0.897554)   % E_broken_lock=0   E_disturbed_house=0   
   (   1   0))   % E_broken_lock=1   E_disturbed_house=0   
   ((   1   0)   % E_broken_lock=0   E_disturbed_house=1   
   (   0.00122249   0.998778)));   % E_broken_lock=1   E_disturbed_house=1   
}

potential ( E_s_spotted_with_goodie | E_object_is_gone   lost_object   E_disturbed_house   E_broken_lock   successful_stolen   ) {
   data = 
   ((((((   0.999978   2.19135e-05)   % successful_stolen=0   E_broken_lock=0   E_disturbed_house=0   lost_object=0   E_object_is_gone=0   
   (   1   0))   % successful_stolen=1   E_broken_lock=0   E_disturbed_house=0   lost_object=0   E_object_is_gone=0   
   ((   1   0)   % successful_stolen=0   E_broken_lock=1   E_disturbed_house=0   lost_object=0   E_object_is_gone=0   
   (   1   0)))   % successful_stolen=1   E_broken_lock=1   E_disturbed_house=0   lost_object=0   E_object_is_gone=0   
   (((   1   0)   % successful_stolen=0   E_broken_lock=0   E_disturbed_house=1   lost_object=0   E_object_is_gone=0   
   (   1   0))   % successful_stolen=1   E_broken_lock=0   E_disturbed_house=1   lost_object=0   E_object_is_gone=0   
   ((   0.99896   0.0010395)   % successful_stolen=0   E_broken_lock=1   E_disturbed_house=1   lost_object=0   E_object_is_gone=0   
   (   1   0))))   % successful_stolen=1   E_broken_lock=1   E_disturbed_house=1   lost_object=0   E_object_is_gone=0   
   ((((   1   0)   % successful_stolen=0   E_broken_lock=0   E_disturbed_house=0   lost_object=1   E_object_is_gone=0   
   (   1   0))   % successful_stolen=1   E_broken_lock=0   E_disturbed_house=0   lost_object=1   E_object_is_gone=0   
   ((   1   0)   % successful_stolen=0   E_broken_lock=1   E_disturbed_house=0   lost_object=1   E_object_is_gone=0   
   (   1   0)))   % successful_stolen=1   E_broken_lock=1   E_disturbed_house=0   lost_object=1   E_object_is_gone=0   
   (((   1   0)   % successful_stolen=0   E_broken_lock=0   E_disturbed_house=1   lost_object=1   E_object_is_gone=0   
   (   1   0))   % successful_stolen=1   E_broken_lock=0   E_disturbed_house=1   lost_object=1   E_object_is_gone=0   
   ((   1   0)   % successful_stolen=0   E_broken_lock=1   E_disturbed_house=1   lost_object=1   E_object_is_gone=0   
   (   1   0)))))   % successful_stolen=1   E_broken_lock=1   E_disturbed_house=1   lost_object=1   E_object_is_gone=0   
   (((((   1   0)   % successful_stolen=0   E_broken_lock=0   E_disturbed_house=0   lost_object=0   E_object_is_gone=1   
   (   1   0))   % successful_stolen=1   E_broken_lock=0   E_disturbed_house=0   lost_object=0   E_object_is_gone=1   
   ((   1   0)   % successful_stolen=0   E_broken_lock=1   E_disturbed_house=0   lost_object=0   E_object_is_gone=1   
   (   1   0)))   % successful_stolen=1   E_broken_lock=1   E_disturbed_house=0   lost_object=0   E_object_is_gone=1   
   (((   1   0)   % successful_stolen=0   E_broken_lock=0   E_disturbed_house=1   lost_object=0   E_object_is_gone=1   
   (   1   0))   % successful_stolen=1   E_broken_lock=0   E_disturbed_house=1   lost_object=0   E_object_is_gone=1   
   ((   0.000473037   0.999527)   % successful_stolen=0   E_broken_lock=1   E_disturbed_house=1   lost_object=0   E_object_is_gone=1   
   (   0.000289184   0.999711))))   % successful_stolen=1   E_broken_lock=1   E_disturbed_house=1   lost_object=0   E_object_is_gone=1   
   ((((   0.999916   8.39913e-05)   % successful_stolen=0   E_broken_lock=0   E_disturbed_house=0   lost_object=1   E_object_is_gone=1   
   (   1   0))   % successful_stolen=1   E_broken_lock=0   E_disturbed_house=0   lost_object=1   E_object_is_gone=1   
   ((   1   0)   % successful_stolen=0   E_broken_lock=1   E_disturbed_house=0   lost_object=1   E_object_is_gone=1   
   (   1   0)))   % successful_stolen=1   E_broken_lock=1   E_disturbed_house=0   lost_object=1   E_object_is_gone=1   
   (((   1   0)   % successful_stolen=0   E_broken_lock=0   E_disturbed_house=1   lost_object=1   E_object_is_gone=1   
   (   1   0))   % successful_stolen=1   E_broken_lock=0   E_disturbed_house=1   lost_object=1   E_object_is_gone=1   
   ((   1   0)   % successful_stolen=0   E_broken_lock=1   E_disturbed_house=1   lost_object=1   E_object_is_gone=1   
   (   1   0))))));   % successful_stolen=1   E_broken_lock=1   E_disturbed_house=1   lost_object=1   E_object_is_gone=1   
}

potential ( E_private | E_broken_lock   successful_stolen   E_s_spotted_by_house   lost_object   E_disturbed_house   ) {
   data = 
   ((((((   0.99978   0.000219974)   % E_disturbed_house=0   lost_object=0   E_s_spotted_by_house=0   successful_stolen=0   E_broken_lock=0   
   (   1   0))   % E_disturbed_house=1   lost_object=0   E_s_spotted_by_house=0   successful_stolen=0   E_broken_lock=0   
   ((   0.999257   0.000742942)   % E_disturbed_house=0   lost_object=1   E_s_spotted_by_house=0   successful_stolen=0   E_broken_lock=0   
   (   1   0)))   % E_disturbed_house=1   lost_object=1   E_s_spotted_by_house=0   successful_stolen=0   E_broken_lock=0   
   (((   0.833317   0.166683)   % E_disturbed_house=0   lost_object=0   E_s_spotted_by_house=1   successful_stolen=0   E_broken_lock=0   
   (   1   0))   % E_disturbed_house=1   lost_object=0   E_s_spotted_by_house=1   successful_stolen=0   E_broken_lock=0   
   ((   0.999905   9.4679e-05)   % E_disturbed_house=0   lost_object=1   E_s_spotted_by_house=1   successful_stolen=0   E_broken_lock=0   
   (   1   0))))   % E_disturbed_house=1   lost_object=1   E_s_spotted_by_house=1   successful_stolen=0   E_broken_lock=0   
   ((((   1   0)   % E_disturbed_house=0   lost_object=0   E_s_spotted_by_house=0   successful_stolen=1   E_broken_lock=0   
   (   1   0))   % E_disturbed_house=1   lost_object=0   E_s_spotted_by_house=0   successful_stolen=1   E_broken_lock=0   
   ((   1   0)   % E_disturbed_house=0   lost_object=1   E_s_spotted_by_house=0   successful_stolen=1   E_broken_lock=0   
   (   1   0)))   % E_disturbed_house=1   lost_object=1   E_s_spotted_by_house=0   successful_stolen=1   E_broken_lock=0   
   (((   1   0)   % E_disturbed_house=0   lost_object=0   E_s_spotted_by_house=1   successful_stolen=1   E_broken_lock=0   
   (   1   0))   % E_disturbed_house=1   lost_object=0   E_s_spotted_by_house=1   successful_stolen=1   E_broken_lock=0   
   ((   1   0)   % E_disturbed_house=0   lost_object=1   E_s_spotted_by_house=1   successful_stolen=1   E_broken_lock=0   
   (   1   0)))))   % E_disturbed_house=1   lost_object=1   E_s_spotted_by_house=1   successful_stolen=1   E_broken_lock=0   
   (((((   1   0)   % E_disturbed_house=0   lost_object=0   E_s_spotted_by_house=0   successful_stolen=0   E_broken_lock=1   
   (   1   0))   % E_disturbed_house=1   lost_object=0   E_s_spotted_by_house=0   successful_stolen=0   E_broken_lock=1   
   ((   1   0)   % E_disturbed_house=0   lost_object=1   E_s_spotted_by_house=0   successful_stolen=0   E_broken_lock=1   
   (   1   0)))   % E_disturbed_house=1   lost_object=1   E_s_spotted_by_house=0   successful_stolen=0   E_broken_lock=1   
   (((   1   0)   % E_disturbed_house=0   lost_object=0   E_s_spotted_by_house=1   successful_stolen=0   E_broken_lock=1   
   (   0.000325309   0.999675))   % E_disturbed_house=1   lost_object=0   E_s_spotted_by_house=1   successful_stolen=0   E_broken_lock=1   
   ((   1   0)   % E_disturbed_house=0   lost_object=1   E_s_spotted_by_house=1   successful_stolen=0   E_broken_lock=1   
   (   1   0))))   % E_disturbed_house=1   lost_object=1   E_s_spotted_by_house=1   successful_stolen=0   E_broken_lock=1   
   ((((   1   0)   % E_disturbed_house=0   lost_object=0   E_s_spotted_by_house=0   successful_stolen=1   E_broken_lock=1   
   (   1   0))   % E_disturbed_house=1   lost_object=0   E_s_spotted_by_house=0   successful_stolen=1   E_broken_lock=1   
   ((   1   0)   % E_disturbed_house=0   lost_object=1   E_s_spotted_by_house=0   successful_stolen=1   E_broken_lock=1   
   (   1   0)))   % E_disturbed_house=1   lost_object=1   E_s_spotted_by_house=0   successful_stolen=1   E_broken_lock=1   
   (((   1   0)   % E_disturbed_house=0   lost_object=0   E_s_spotted_by_house=1   successful_stolen=1   E_broken_lock=1   
   (   0.999711   0.000289184))   % E_disturbed_house=1   lost_object=0   E_s_spotted_by_house=1   successful_stolen=1   E_broken_lock=1   
   ((   1   0)   % E_disturbed_house=0   lost_object=1   E_s_spotted_by_house=1   successful_stolen=1   E_broken_lock=1   
   (   1   0))))));   % E_disturbed_house=1   lost_object=1   E_s_spotted_by_house=1   successful_stolen=1   E_broken_lock=1   
}


