
net {
  name = unnamedBN;
  software = "aGrUM 0.22.5";
  node_size = (50 50);
}

node lost_object {
   states = (0 1 );
   label = "lost_object";
   ID = "lost_object";
}

node successful_stolen {
   states = (0 1 );
   label = "successful_stolen";
   ID = "successful_stolen";
}

node E_object_is_gone {
   states = (0 1 );
   label = "E_object_is_gone";
   ID = "E_object_is_gone";
}

node E_broken_lock {
   states = (0 1 );
   label = "E_broken_lock";
   ID = "E_broken_lock";
}

node E_disturbed_house {
   states = (0 1 );
   label = "E_disturbed_house";
   ID = "E_disturbed_house";
}

node E_s_spotted_by_house {
   states = (0 1 );
   label = "E_s_spotted_by_house";
   ID = "E_s_spotted_by_house";
}

node E_s_spotted_with_goodie {
   states = (0 1 );
   label = "E_s_spotted_with_goodie";
   ID = "E_s_spotted_with_goodie";
}

node E_private {
   states = (0 1 );
   label = "E_private";
   ID = "E_private";
}

potential (lost_object) {
   data = (  0.783233 0.216767);
}

potential ( successful_stolen | lost_object   ) {
   data = 
   ((   0.931329   0.0686712)   % lost_object=0   
   (   0.999712   0.000288184));   % lost_object=1   
}

potential ( E_object_is_gone | lost_object   successful_stolen   ) {
   data = 
   (((   0.966729   0.0332705)   % successful_stolen=0   lost_object=0   
   (   0.00058072   0.999419))   % successful_stolen=1   lost_object=0   
   ((   0.000144134   0.999856)   % successful_stolen=0   lost_object=1   
   (   1   0)));   % successful_stolen=1   lost_object=1   
}

potential ( E_broken_lock | successful_stolen   E_object_is_gone   lost_object   ) {
   data = 
   ((((   0.980843   0.0191567)   % lost_object=0   E_object_is_gone=0   successful_stolen=0   
   (   1   0))   % lost_object=1   E_object_is_gone=0   successful_stolen=0   
   ((   0.000643501   0.999356)   % lost_object=0   E_object_is_gone=1   successful_stolen=0   
   (   0.999928   7.20773e-05)))   % lost_object=1   E_object_is_gone=1   successful_stolen=0   
   (((   1   0)   % lost_object=0   E_object_is_gone=0   successful_stolen=1   
   (   1   0))   % lost_object=1   E_object_is_gone=0   successful_stolen=1   
   ((   0.000290529   0.999709)   % lost_object=0   E_object_is_gone=1   successful_stolen=1   
   (   1   0))));   % lost_object=1   E_object_is_gone=1   successful_stolen=1   
}

potential ( E_disturbed_house | E_broken_lock   successful_stolen   ) {
   data = 
   (((   0.999966   3.43855e-05)   % successful_stolen=0   E_broken_lock=0   
   (   1   0))   % successful_stolen=1   E_broken_lock=0   
   ((   0.000826446   0.999174)   % successful_stolen=0   E_broken_lock=1   
   (   0.00058072   0.999419)));   % successful_stolen=1   E_broken_lock=1   
}

potential ( E_s_spotted_by_house | lost_object   E_broken_lock   ) {
   data = 
   (((   0.0993859   0.900614)   % E_broken_lock=0   lost_object=0   
   (   0.000341297   0.999659))   % E_broken_lock=1   lost_object=0   
   ((   0.169645   0.830355)   % E_broken_lock=0   lost_object=1   
   (   1   0)));   % E_broken_lock=1   lost_object=1   
}

potential ( E_s_spotted_with_goodie | E_object_is_gone   E_disturbed_house   lost_object   E_broken_lock   successful_stolen   ) {
   data = 
   ((((((   0.999994   5.64481e-06)   % successful_stolen=0   E_broken_lock=0   lost_object=0   E_disturbed_house=0   E_object_is_gone=0   
   (   1   0))   % successful_stolen=1   E_broken_lock=0   lost_object=0   E_disturbed_house=0   E_object_is_gone=0   
   ((   1   0)   % successful_stolen=0   E_broken_lock=1   lost_object=0   E_disturbed_house=0   E_object_is_gone=0   
   (   1   0)))   % successful_stolen=1   E_broken_lock=1   lost_object=0   E_disturbed_house=0   E_object_is_gone=0   
   (((   1   0)   % successful_stolen=0   E_broken_lock=0   lost_object=1   E_disturbed_house=0   E_object_is_gone=0   
   (   1   0))   % successful_stolen=1   E_broken_lock=0   lost_object=1   E_disturbed_house=0   E_object_is_gone=0   
   ((   1   0)   % successful_stolen=0   E_broken_lock=1   lost_object=1   E_disturbed_house=0   E_object_is_gone=0   
   (   1   0))))   % successful_stolen=1   E_broken_lock=1   lost_object=1   E_disturbed_house=0   E_object_is_gone=0   
   ((((   1   0)   % successful_stolen=0   E_broken_lock=0   lost_object=0   E_disturbed_house=1   E_object_is_gone=0   
   (   1   0))   % successful_stolen=1   E_broken_lock=0   lost_object=0   E_disturbed_house=1   E_object_is_gone=0   
   ((   0.944187   0.0558126)   % successful_stolen=0   E_broken_lock=1   lost_object=0   E_disturbed_house=1   E_object_is_gone=0   
   (   1   0)))   % successful_stolen=1   E_broken_lock=1   lost_object=0   E_disturbed_house=1   E_object_is_gone=0   
   (((   1   0)   % successful_stolen=0   E_broken_lock=0   lost_object=1   E_disturbed_house=1   E_object_is_gone=0   
   (   1   0))   % successful_stolen=1   E_broken_lock=0   lost_object=1   E_disturbed_house=1   E_object_is_gone=0   
   ((   1   0)   % successful_stolen=0   E_broken_lock=1   lost_object=1   E_disturbed_house=1   E_object_is_gone=0   
   (   1   0)))))   % successful_stolen=1   E_broken_lock=1   lost_object=1   E_disturbed_house=1   E_object_is_gone=0   
   (((((   1   0)   % successful_stolen=0   E_broken_lock=0   lost_object=0   E_disturbed_house=0   E_object_is_gone=1   
   (   1   0))   % successful_stolen=1   E_broken_lock=0   lost_object=0   E_disturbed_house=0   E_object_is_gone=1   
   ((   1   0)   % successful_stolen=0   E_broken_lock=1   lost_object=0   E_disturbed_house=0   E_object_is_gone=1   
   (   1   0)))   % successful_stolen=1   E_broken_lock=1   lost_object=0   E_disturbed_house=0   E_object_is_gone=1   
   (((   0.999982   1.80213e-05)   % successful_stolen=0   E_broken_lock=0   lost_object=1   E_disturbed_house=0   E_object_is_gone=1   
   (   1   0))   % successful_stolen=1   E_broken_lock=0   lost_object=1   E_disturbed_house=0   E_object_is_gone=1   
   ((   1   0)   % successful_stolen=0   E_broken_lock=1   lost_object=1   E_disturbed_house=0   E_object_is_gone=1   
   (   1   0))))   % successful_stolen=1   E_broken_lock=1   lost_object=1   E_disturbed_house=0   E_object_is_gone=1   
   ((((   1   0)   % successful_stolen=0   E_broken_lock=0   lost_object=0   E_disturbed_house=1   E_object_is_gone=1   
   (   1   0))   % successful_stolen=1   E_broken_lock=0   lost_object=0   E_disturbed_house=1   E_object_is_gone=1   
   ((   0.000161031   0.999839)   % successful_stolen=0   E_broken_lock=1   lost_object=0   E_disturbed_house=1   E_object_is_gone=1   
   (   7.26639e-05   0.999927)))   % successful_stolen=1   E_broken_lock=1   lost_object=0   E_disturbed_house=1   E_object_is_gone=1   
   (((   1   0)   % successful_stolen=0   E_broken_lock=0   lost_object=1   E_disturbed_house=1   E_object_is_gone=1   
   (   1   0))   % successful_stolen=1   E_broken_lock=0   lost_object=1   E_disturbed_house=1   E_object_is_gone=1   
   ((   1   0)   % successful_stolen=0   E_broken_lock=1   lost_object=1   E_disturbed_house=1   E_object_is_gone=1   
   (   1   0))))));   % successful_stolen=1   E_broken_lock=1   lost_object=1   E_disturbed_house=1   E_object_is_gone=1   
}

potential ( E_private | E_s_spotted_by_house   successful_stolen   E_broken_lock   lost_object   E_disturbed_house   ) {
   data = 
   ((((((   0.999943   5.68117e-05)   % E_disturbed_house=0   lost_object=0   E_broken_lock=0   successful_stolen=0   E_s_spotted_by_house=0   
   (   1   0))   % E_disturbed_house=1   lost_object=0   E_broken_lock=0   successful_stolen=0   E_s_spotted_by_house=0   
   ((   0.999894   0.00010627)   % E_disturbed_house=0   lost_object=1   E_broken_lock=0   successful_stolen=0   E_s_spotted_by_house=0   
   (   1   0)))   % E_disturbed_house=1   lost_object=1   E_broken_lock=0   successful_stolen=0   E_s_spotted_by_house=0   
   (((   1   0)   % E_disturbed_house=0   lost_object=0   E_broken_lock=1   successful_stolen=0   E_s_spotted_by_house=0   
   (   1   0))   % E_disturbed_house=1   lost_object=0   E_broken_lock=1   successful_stolen=0   E_s_spotted_by_house=0   
   ((   1   0)   % E_disturbed_house=0   lost_object=1   E_broken_lock=1   successful_stolen=0   E_s_spotted_by_house=0   
   (   1   0))))   % E_disturbed_house=1   lost_object=1   E_broken_lock=1   successful_stolen=0   E_s_spotted_by_house=0   
   ((((   1   0)   % E_disturbed_house=0   lost_object=0   E_broken_lock=0   successful_stolen=1   E_s_spotted_by_house=0   
   (   1   0))   % E_disturbed_house=1   lost_object=0   E_broken_lock=0   successful_stolen=1   E_s_spotted_by_house=0   
   ((   1   0)   % E_disturbed_house=0   lost_object=1   E_broken_lock=0   successful_stolen=1   E_s_spotted_by_house=0   
   (   1   0)))   % E_disturbed_house=1   lost_object=1   E_broken_lock=0   successful_stolen=1   E_s_spotted_by_house=0   
   (((   1   0)   % E_disturbed_house=0   lost_object=0   E_broken_lock=1   successful_stolen=1   E_s_spotted_by_house=0   
   (   1   0))   % E_disturbed_house=1   lost_object=0   E_broken_lock=1   successful_stolen=1   E_s_spotted_by_house=0   
   ((   1   0)   % E_disturbed_house=0   lost_object=1   E_broken_lock=1   successful_stolen=1   E_s_spotted_by_house=0   
   (   1   0)))))   % E_disturbed_house=1   lost_object=1   E_broken_lock=1   successful_stolen=1   E_s_spotted_by_house=0   
   (((((   0.824304   0.175696)   % E_disturbed_house=0   lost_object=0   E_broken_lock=0   successful_stolen=0   E_s_spotted_by_house=1   
   (   1   0))   % E_disturbed_house=1   lost_object=0   E_broken_lock=0   successful_stolen=0   E_s_spotted_by_house=1   
   ((   0.999978   2.17004e-05)   % E_disturbed_house=0   lost_object=1   E_broken_lock=0   successful_stolen=0   E_s_spotted_by_house=1   
   (   1   0)))   % E_disturbed_house=1   lost_object=1   E_broken_lock=0   successful_stolen=0   E_s_spotted_by_house=1   
   (((   1   0)   % E_disturbed_house=0   lost_object=0   E_broken_lock=1   successful_stolen=0   E_s_spotted_by_house=1   
   (   0.000103455   0.999897))   % E_disturbed_house=1   lost_object=0   E_broken_lock=1   successful_stolen=0   E_s_spotted_by_house=1   
   ((   1   0)   % E_disturbed_house=0   lost_object=1   E_broken_lock=1   successful_stolen=0   E_s_spotted_by_house=1   
   (   1   0))))   % E_disturbed_house=1   lost_object=1   E_broken_lock=1   successful_stolen=0   E_s_spotted_by_house=1   
   ((((   1   0)   % E_disturbed_house=0   lost_object=0   E_broken_lock=0   successful_stolen=1   E_s_spotted_by_house=1   
   (   1   0))   % E_disturbed_house=1   lost_object=0   E_broken_lock=0   successful_stolen=1   E_s_spotted_by_house=1   
   ((   1   0)   % E_disturbed_house=0   lost_object=1   E_broken_lock=0   successful_stolen=1   E_s_spotted_by_house=1   
   (   1   0)))   % E_disturbed_house=1   lost_object=1   E_broken_lock=0   successful_stolen=1   E_s_spotted_by_house=1   
   (((   1   0)   % E_disturbed_house=0   lost_object=0   E_broken_lock=1   successful_stolen=1   E_s_spotted_by_house=1   
   (   0.999927   7.26639e-05))   % E_disturbed_house=1   lost_object=0   E_broken_lock=1   successful_stolen=1   E_s_spotted_by_house=1   
   ((   1   0)   % E_disturbed_house=0   lost_object=1   E_broken_lock=1   successful_stolen=1   E_s_spotted_by_house=1   
   (   1   0))))));   % E_disturbed_house=1   lost_object=1   E_broken_lock=1   successful_stolen=1   E_s_spotted_by_house=1   
}


