
net {
  name = unnamedBN;
  software = "aGrUM 0.22.5";
  node_size = (50 50);
}

node lost_object {
   states = (0 1 );
   label = "lost_object";
   ID = "lost_object";
}

node know_object {
   states = (0 1 );
   label = "know_object";
   ID = "know_object";
}

node target_object {
   states = (0 1 );
   label = "target_object";
   ID = "target_object";
}

node motive {
   states = (0 1 );
   label = "motive";
   ID = "motive";
}

node compromise_house {
   states = (0 1 );
   label = "compromise_house";
   ID = "compromise_house";
}

node flees_startled {
   states = (0 1 );
   label = "flees_startled";
   ID = "flees_startled";
}

node successful_stolen {
   states = (0 1 );
   label = "successful_stolen";
   ID = "successful_stolen";
}

node raining {
   states = (0 1 );
   label = "raining";
   ID = "raining";
}

node curtains {
   states = (0 1 );
   label = "curtains";
   ID = "curtains";
}

node E_object_is_gone {
   states = (0 1 );
   label = "E_object_is_gone";
   ID = "E_object_is_gone";
}

node E_broken_lock {
   states = (0 1 );
   label = "E_broken_lock";
   ID = "E_broken_lock";
}

node E_disturbed_house {
   states = (0 1 );
   label = "E_disturbed_house";
   ID = "E_disturbed_house";
}

node E_s_spotted_by_house {
   states = (0 1 );
   label = "E_s_spotted_by_house";
   ID = "E_s_spotted_by_house";
}

node E_s_spotted_with_goodie {
   states = (0 1 );
   label = "E_s_spotted_with_goodie";
   ID = "E_s_spotted_with_goodie";
}

node E_private {
   states = (0 1 );
   label = "E_private";
   ID = "E_private";
}

potential (lost_object) {
   data = (  0.701923 0.298077);
}

potential ( know_object | lost_object   curtains   ) {
   data = 
   (((   0.0348837   0.965116)   % curtains=0   lost_object=0   
   (   0.970588   0.0294118))   % curtains=1   lost_object=0   
   ((   0.991228   0.00877193)   % curtains=0   lost_object=1   
   (   0.9   0.1)));   % curtains=1   lost_object=1   
}

potential ( target_object | know_object   ) {
   data = 
   ((   0.987805   0.0121951)   % know_object=0   
   (   0.611111   0.388889));   % know_object=1   
}

potential ( motive | target_object   ) {
   data = 
   ((   0.993671   0.00632911)   % target_object=0   
   (   0.02   0.98));   % target_object=1   
}

potential ( compromise_house | motive   target_object   ) {
   data = 
   (((   0.996815   0.00318471)   % target_object=0   motive=0   
   (   1   0))   % target_object=1   motive=0   
   ((   1   0)   % target_object=0   motive=1   
   (   0.744898   0.255102)));   % target_object=1   motive=1   
}

potential ( flees_startled | target_object   motive   ) {
   data = 
   (((   0.996815   0.00318471)   % motive=0   target_object=0   
   (   1   0))   % motive=1   target_object=0   
   ((   1   0)   % motive=0   target_object=1   
   (   0.418367   0.581633)));   % motive=1   target_object=1   
}

potential ( successful_stolen | compromise_house   flees_startled   ) {
   data = 
   (((   0.99711   0.00289017)   % flees_startled=0   compromise_house=0   
   (   0.97619   0.0238095))   % flees_startled=1   compromise_house=0   
   ((   0.1   0.9)   % flees_startled=0   compromise_house=1   
   (   0.944444   0.0555556)));   % flees_startled=1   compromise_house=1   
}

potential (raining) {
   data = (  0.548077 0.451923);
}

potential (curtains) {
   data = (  0.894231 0.105769);
}

potential ( E_object_is_gone | lost_object   compromise_house   ) {
   data = 
   (((   0.996241   0.0037594)   % compromise_house=0   lost_object=0   
   (   0.0384615   0.961538))   % compromise_house=1   lost_object=0   
   ((   0.00819672   0.991803)   % compromise_house=0   lost_object=1   
   (   1   0)));   % compromise_house=1   lost_object=1   
}

potential ( E_broken_lock | compromise_house   successful_stolen   ) {
   data = 
   (((   0.997409   0.00259067)   % successful_stolen=0   compromise_house=0   
   (   1   0))   % successful_stolen=1   compromise_house=0   
   ((   0.0555556   0.944444)   % successful_stolen=0   compromise_house=1   
   (   0.1   0.9)));   % successful_stolen=1   compromise_house=1   
}

potential ( E_disturbed_house | compromise_house   successful_stolen   ) {
   data = 
   (((   0.997409   0.00259067)   % successful_stolen=0   compromise_house=0   
   (   1   0))   % successful_stolen=1   compromise_house=0   
   ((   0.0555556   0.944444)   % successful_stolen=0   compromise_house=1   
   (   0.1   0.9)));   % successful_stolen=1   compromise_house=1   
}

potential ( E_s_spotted_by_house | target_object   curtains   ) {
   data = 
   (((   0.29562   0.70438)   % curtains=0   target_object=0   
   (   0.0238095   0.97619))   % curtains=1   target_object=0   
   ((   0.0102041   0.989796)   % curtains=0   target_object=1   
   (   1   0)));   % curtains=1   target_object=1   
}

potential ( E_s_spotted_with_goodie | compromise_house   successful_stolen   ) {
   data = 
   (((   0.997409   0.00259067)   % successful_stolen=0   compromise_house=0   
   (   1   0))   % successful_stolen=1   compromise_house=0   
   ((   0.0555556   0.944444)   % successful_stolen=0   compromise_house=1   
   (   0.1   0.9)));   % successful_stolen=1   compromise_house=1   
}

potential ( E_private | successful_stolen   flees_startled   ) {
   data = 
   (((   0.99711   0.00289017)   % flees_startled=0   successful_stolen=0   
   (   0.0172414   0.982759))   % flees_startled=1   successful_stolen=0   
   ((   0.9   0.1)   % flees_startled=0   successful_stolen=1   
   (   1   0)));   % flees_startled=1   successful_stolen=1   
}


