
net {
  name = K2BN.net;
  software = "aGrUM 0.22.5";
  node_size = (50 50);
}

node lost_object {
   states = (0 1 );
   label = "lost_object";
   ID = "lost_object";
}

node know_object {
   states = (0 1 );
   label = "know_object";
   ID = "know_object";
}

node target_object {
   states = (0 1 );
   label = "target_object";
   ID = "target_object";
}

node motive {
   states = (0 1 );
   label = "motive";
   ID = "motive";
}

node compromise_house {
   states = (0 1 );
   label = "compromise_house";
   ID = "compromise_house";
}

node flees_startled {
   states = (0 1 );
   label = "flees_startled";
   ID = "flees_startled";
}

node successful_stolen {
   states = (0 1 );
   label = "successful_stolen";
   ID = "successful_stolen";
}

node raining {
   states = (0 1 );
   label = "raining";
   ID = "raining";
}

node curtains {
   states = (0 1 );
   label = "curtains";
   ID = "curtains";
}

node E_object_is_gone {
   states = (0 1 );
   label = "E_object_is_gone";
   ID = "E_object_is_gone";
}

node E_broken_lock {
   states = (0 1 );
   label = "E_broken_lock";
   ID = "E_broken_lock";
}

node E_disturbed_house {
   states = (0 1 );
   label = "E_disturbed_house";
   ID = "E_disturbed_house";
}

node E_s_spotted_by_house {
   states = (0 1 );
   label = "E_s_spotted_by_house";
   ID = "E_s_spotted_by_house";
}

node E_s_spotted_with_goodie {
   states = (0 1 );
   label = "E_s_spotted_with_goodie";
   ID = "E_s_spotted_with_goodie";
}

node E_private {
   states = (0 1 );
   label = "E_private";
   ID = "E_private";
}

potential (lost_object) {
   data = (  0.714067 0.285933);
}

potential ( know_object | lost_object   curtains   ) {
   data = 
   (((   0   1)   % curtains=0   lost_object=0   
   (   0.960118   0.0398826))   % curtains=1   lost_object=0   
   ((   0.960152   0.0398484)   % curtains=0   lost_object=1   
   (   0.959464   0.0405359)));   % curtains=1   lost_object=1   
}

potential ( target_object | know_object   ) {
   data = 
   ((   0.93112   0.06888)   % know_object=0   
   (   0.43108   0.56892));   % know_object=1   
}

potential ( motive | curtains   target_object   ) {
   data = 
   (((   0.915417   0.0845824)   % target_object=0   curtains=0   
   (   0   1))   % target_object=1   curtains=0   
   ((   0.915312   0.0846876)   % target_object=0   curtains=1   
   (   0.915479   0.0845206)));   % target_object=1   curtains=1   
}

potential ( compromise_house | target_object   motive   ) {
   data = 
   (((   0.93283   0.0671698)   % motive=0   target_object=0   
   (   0.932875   0.0671246))   % motive=1   target_object=0   
   ((   0.932875   0.0671246)   % motive=0   target_object=1   
   (   0.635997   0.364003)));   % motive=1   target_object=1   
}

potential ( flees_startled | motive   compromise_house   ) {
   data = 
   (((   0.998689   0.00131161)   % compromise_house=0   motive=0   
   (   0.998734   0.00126646))   % compromise_house=1   motive=0   
   ((   0.493545   0.506455)   % compromise_house=0   motive=1   
   (   0.586106   0.413894)));   % compromise_house=1   motive=1   
}

potential ( successful_stolen | compromise_house   flees_startled   ) {
   data = 
   (((   0.88823   0.11177)   % flees_startled=0   compromise_house=0   
   (   0.887984   0.112016))   % flees_startled=1   compromise_house=0   
   ((   0   1)   % flees_startled=0   compromise_house=1   
   (   0.887443   0.112557)));   % flees_startled=1   compromise_house=1   
}

potential (raining) {
   data = (  0.526815 0.473185);
}

potential (curtains) {
   data = (  0.978949 0.0210508);
}

potential ( E_object_is_gone | lost_object   compromise_house   successful_stolen   ) {
   data = 
   ((((   1   0)   % successful_stolen=0   compromise_house=0   lost_object=0   
   (   1   0))   % successful_stolen=1   compromise_house=0   lost_object=0   
   ((   0.431938   0.568062)   % successful_stolen=0   compromise_house=1   lost_object=0   
   (   0.0744949   0.925505)))   % successful_stolen=1   compromise_house=1   lost_object=0   
   (((   0.0742765   0.925724)   % successful_stolen=0   compromise_house=0   lost_object=1   
   (   1   0))   % successful_stolen=1   compromise_house=0   lost_object=1   
   ((   1   0)   % successful_stolen=0   compromise_house=1   lost_object=1   
   (   1   0))));   % successful_stolen=1   compromise_house=1   lost_object=1   
}

potential ( E_broken_lock | successful_stolen   compromise_house   ) {
   data = 
   (((   0.980782   0.0192179)   % compromise_house=0   successful_stolen=0   
   (   0   1))   % compromise_house=1   successful_stolen=0   
   ((   0.980816   0.0191836)   % compromise_house=0   successful_stolen=1   
   (   0   1)));   % compromise_house=1   successful_stolen=1   
}

potential ( E_disturbed_house | compromise_house   successful_stolen   ) {
   data = 
   (((   0.911203   0.0887973)   % successful_stolen=0   compromise_house=0   
   (   0.911237   0.0887629))   % successful_stolen=1   compromise_house=0   
   ((   0   1)   % successful_stolen=0   compromise_house=1   
   (   0   1)));   % successful_stolen=1   compromise_house=1   
}

potential ( E_s_spotted_by_house | target_object   motive   lost_object   curtains   know_object   ) {
   data = 
   ((((((   0.925047   0.0749525)   % know_object=0   curtains=0   lost_object=0   motive=0   target_object=0   
   (   0.0787022   0.921298))   % know_object=1   curtains=0   lost_object=0   motive=0   target_object=0   
   ((   0   1)   % know_object=0   curtains=1   lost_object=0   motive=0   target_object=0   
   (   0.925284   0.0747158)))   % know_object=1   curtains=1   lost_object=0   motive=0   target_object=0   
   (((   0.124743   0.875257)   % know_object=0   curtains=0   lost_object=1   motive=0   target_object=0   
   (   0.925284   0.0747158))   % know_object=1   curtains=0   lost_object=1   motive=0   target_object=0   
   ((   0   1)   % know_object=0   curtains=1   lost_object=1   motive=0   target_object=0   
   (   0.925284   0.0747158))))   % know_object=1   curtains=1   lost_object=1   motive=0   target_object=0   
   ((((   0.925284   0.0747158)   % know_object=0   curtains=0   lost_object=0   motive=1   target_object=0   
   (   0.925284   0.0747158))   % know_object=1   curtains=0   lost_object=0   motive=1   target_object=0   
   ((   0.925284   0.0747158)   % know_object=0   curtains=1   lost_object=0   motive=1   target_object=0   
   (   0.925284   0.0747158)))   % know_object=1   curtains=1   lost_object=0   motive=1   target_object=0   
   (((   0.925284   0.0747158)   % know_object=0   curtains=0   lost_object=1   motive=1   target_object=0   
   (   0.925284   0.0747158))   % know_object=1   curtains=0   lost_object=1   motive=1   target_object=0   
   ((   0.925284   0.0747158)   % know_object=0   curtains=1   lost_object=1   motive=1   target_object=0   
   (   0.925284   0.0747158)))))   % know_object=1   curtains=1   lost_object=1   motive=1   target_object=0   
   (((((   0.925284   0.0747158)   % know_object=0   curtains=0   lost_object=0   motive=0   target_object=1   
   (   0.925284   0.0747158))   % know_object=1   curtains=0   lost_object=0   motive=0   target_object=1   
   ((   0.925284   0.0747158)   % know_object=0   curtains=1   lost_object=0   motive=0   target_object=1   
   (   0.925284   0.0747158)))   % know_object=1   curtains=1   lost_object=0   motive=0   target_object=1   
   (((   0.925284   0.0747158)   % know_object=0   curtains=0   lost_object=1   motive=0   target_object=1   
   (   0.925284   0.0747158))   % know_object=1   curtains=0   lost_object=1   motive=0   target_object=1   
   ((   0.925284   0.0747158)   % know_object=0   curtains=1   lost_object=1   motive=0   target_object=1   
   (   0.925284   0.0747158))))   % know_object=1   curtains=1   lost_object=1   motive=0   target_object=1   
   ((((   0.925284   0.0747158)   % know_object=0   curtains=0   lost_object=0   motive=1   target_object=1   
   (   0   1))   % know_object=1   curtains=0   lost_object=0   motive=1   target_object=1   
   ((   0.925284   0.0747158)   % know_object=0   curtains=1   lost_object=0   motive=1   target_object=1   
   (   0.925284   0.0747158)))   % know_object=1   curtains=1   lost_object=0   motive=1   target_object=1   
   (((   0.925284   0.0747158)   % know_object=0   curtains=0   lost_object=1   motive=1   target_object=1   
   (   0.925284   0.0747158))   % know_object=1   curtains=0   lost_object=1   motive=1   target_object=1   
   ((   0.925284   0.0747158)   % know_object=0   curtains=1   lost_object=1   motive=1   target_object=1   
   (   0.925284   0.0747158))))));   % know_object=1   curtains=1   lost_object=1   motive=1   target_object=1   
}

potential ( E_s_spotted_with_goodie | successful_stolen   compromise_house   ) {
   data = 
   (((   1   0)   % compromise_house=0   successful_stolen=0   
   (   0.507262   0.492738))   % compromise_house=1   successful_stolen=0   
   ((   1   0)   % compromise_house=0   successful_stolen=1   
   (   0.169826   0.830174)));   % compromise_house=1   successful_stolen=1   
}

potential ( E_private | flees_startled   successful_stolen   ) {
   data = 
   (((   1   0)   % successful_stolen=0   flees_startled=0   
   (   1   0))   % successful_stolen=1   flees_startled=0   
   ((   0.00529291   0.994707)   % successful_stolen=0   flees_startled=1   
   (   1   0)));   % successful_stolen=1   flees_startled=1   
}


