
net {
  name = noiseBN.net;
  software = "aGrUM 0.22.5";
  node_size = (50 50);
}

node lost_object {
   states = (0 1 );
   label = "lost_object";
   ID = "lost_object";
}

node know_object {
   states = (0 1 );
   label = "know_object";
   ID = "know_object";
}

node target_object {
   states = (0 1 );
   label = "target_object";
   ID = "target_object";
}

node motive {
   states = (0 1 );
   label = "motive";
   ID = "motive";
}

node compromise_house {
   states = (0 1 );
   label = "compromise_house";
   ID = "compromise_house";
}

node flees_startled {
   states = (0 1 );
   label = "flees_startled";
   ID = "flees_startled";
}

node successful_stolen {
   states = (0 1 );
   label = "successful_stolen";
   ID = "successful_stolen";
}

node raining {
   states = (0 1 );
   label = "raining";
   ID = "raining";
}

node curtains {
   states = (0 1 );
   label = "curtains";
   ID = "curtains";
}

node E_object_is_gone {
   states = (0 1 );
   label = "E_object_is_gone";
   ID = "E_object_is_gone";
}

node E_broken_lock {
   states = (0 1 );
   label = "E_broken_lock";
   ID = "E_broken_lock";
}

node E_disturbed_house {
   states = (0 1 );
   label = "E_disturbed_house";
   ID = "E_disturbed_house";
}

node E_s_spotted_by_house {
   states = (0 1 );
   label = "E_s_spotted_by_house";
   ID = "E_s_spotted_by_house";
}

node E_s_spotted_with_goodie {
   states = (0 1 );
   label = "E_s_spotted_with_goodie";
   ID = "E_s_spotted_with_goodie";
}

node E_private {
   states = (0 1 );
   label = "E_private";
   ID = "E_private";
}

potential (lost_object) {
   data = (  0.82086 0.17914);
}

potential ( know_object | lost_object   curtains   ) {
   data = 
   (((   0.0182   0.9818)   % curtains=0   lost_object=0   
   (   0.9992   0.0008))   % curtains=1   lost_object=0   
   ((   0.99918   0.00082)   % curtains=0   lost_object=1   
   (   0.99541   0.00459)));   % curtains=1   lost_object=1   
}

potential ( target_object | know_object   ) {
   data = 
   ((   0.99928   0.00072)   % know_object=0   
   (   0.49236   0.50764));   % know_object=1   
}

potential ( motive | lost_object   target_object   ) {
   data = 
   (((   0.99975   0.00025)   % target_object=0   lost_object=0   
   (   0.00038   0.99962))   % target_object=1   lost_object=0   
   ((   0.9993   0.0007)   % target_object=0   lost_object=1   
   (   1   0)));   % target_object=1   lost_object=1   
}

potential ( compromise_house | target_object   motive   ) {
   data = 
   (((   0.99981   0.00019)   % motive=0   target_object=0   
   (   1   0))   % motive=1   target_object=0   
   ((   1   0)   % motive=0   target_object=1   
   (   0.6836   0.3164)));   % motive=1   target_object=1   
}

potential ( flees_startled | motive   target_object   ) {
   data = 
   (((   0.99981   0.00019)   % target_object=0   motive=0   
   (   1   0))   % target_object=1   motive=0   
   ((   1   0)   % target_object=0   motive=1   
   (   0.53913   0.46087)));   % target_object=1   motive=1   
}

potential ( successful_stolen | flees_startled   compromise_house   ) {
   data = 
   (((   0.99984   0.00016)   % compromise_house=0   flees_startled=0   
   (   0.00192   0.99808))   % compromise_house=1   flees_startled=0   
   ((   0.9989   0.0011)   % compromise_house=0   flees_startled=1   
   (   0.99689   0.00311)));   % compromise_house=1   flees_startled=1   
}

potential (raining) {
   data = (  0.49551 0.50449);
}

potential (curtains) {
   data = (  0.81687 0.18313);
}

potential ( E_object_is_gone | successful_stolen   compromise_house   lost_object   ) {
   data = 
   ((((   0.99991   9e-05)   % lost_object=0   compromise_house=0   successful_stolen=0   
   (   0.00035   0.99965))   % lost_object=1   compromise_house=0   successful_stolen=0   
   ((   0.22586   0.77414)   % lost_object=0   compromise_house=1   successful_stolen=0   
   (   1   0)))   % lost_object=1   compromise_house=1   successful_stolen=0   
   (((   1   0)   % lost_object=0   compromise_house=0   successful_stolen=1   
   (   1   0))   % lost_object=1   compromise_house=0   successful_stolen=1   
   ((   0.00096   0.99904)   % lost_object=0   compromise_house=1   successful_stolen=1   
   (   1   0))));   % lost_object=1   compromise_house=1   successful_stolen=1   
}

potential ( E_broken_lock | successful_stolen   compromise_house   ) {
   data = 
   (((   0.99986   0.00014)   % compromise_house=0   successful_stolen=0   
   (   0.00311   0.99689))   % compromise_house=1   successful_stolen=0   
   ((   1   0)   % compromise_house=0   successful_stolen=1   
   (   0.00192   0.99808)));   % compromise_house=1   successful_stolen=1   
}

potential ( E_disturbed_house | successful_stolen   compromise_house   ) {
   data = 
   (((   0.99986   0.00014)   % compromise_house=0   successful_stolen=0   
   (   0.00311   0.99689))   % compromise_house=1   successful_stolen=0   
   ((   1   0)   % compromise_house=0   successful_stolen=1   
   (   0.00192   0.99808)));   % compromise_house=1   successful_stolen=1   
}

potential ( E_s_spotted_by_house | curtains   target_object   ) {
   data = 
   (((   0.19563   0.80437)   % target_object=0   curtains=0   
   (   0.00038   0.99962))   % target_object=1   curtains=0   
   ((   0.03342   0.96658)   % target_object=0   curtains=1   
   (   1   0)));   % target_object=1   curtains=1   
}

potential ( E_s_spotted_with_goodie | successful_stolen   compromise_house   ) {
   data = 
   (((   0.99986   0.00014)   % compromise_house=0   successful_stolen=0   
   (   0.22671   0.77329))   % compromise_house=1   successful_stolen=0   
   ((   1   0)   % compromise_house=0   successful_stolen=1   
   (   0.00192   0.99808)));   % compromise_house=1   successful_stolen=1   
}

potential ( E_private | flees_startled   successful_stolen   ) {
   data = 
   (((   0.99984   0.00016)   % successful_stolen=0   flees_startled=0   
   (   0.99808   0.00192))   % successful_stolen=1   flees_startled=0   
   ((   0.00082   0.99918)   % successful_stolen=0   flees_startled=1   
   (   1   0)));   % successful_stolen=1   flees_startled=1   
}


