
net {
  name = unnamedBN;
  software = "aGrUM 0.22.5";
  node_size = (50 50);
}

node jane_and_mark_fight {
   states = (0 1 );
   label = "jane_and_mark_fight";
   ID = "jane_and_mark_fight";
}

node jane_has_knife {
   states = (0 1 );
   label = "jane_has_knife";
   ID = "jane_has_knife";
}

node jane_stabs_mark_with_knife {
   states = (0 );
   label = "jane_stabs_mark_with_knife";
   ID = "jane_stabs_mark_with_knife";
}

node mark_dies {
   states = (0 );
   label = "mark_dies";
   ID = "mark_dies";
}

node jane_threatens_mark_with_knife {
   states = (0 1 );
   label = "jane_threatens_mark_with_knife";
   ID = "jane_threatens_mark_with_knife";
}

node mark_hits_jane {
   states = (0 1 );
   label = "mark_hits_jane";
   ID = "mark_hits_jane";
}

node jane_drops_knife {
   states = (0 );
   label = "jane_drops_knife";
   ID = "jane_drops_knife";
}

node mark_falls_on_knife {
   states = (0 );
   label = "mark_falls_on_knife";
   ID = "mark_falls_on_knife";
}

node mark_dies_by_accident {
   states = (0 );
   label = "mark_dies_by_accident";
   ID = "mark_dies_by_accident";
}

potential (jane_and_mark_fight) {
   data = (  0.723881 0.276119);
}

potential (jane_has_knife) {
   data = (  0.256219 0.743781);
}

potential (jane_stabs_mark_with_knife) {
   data = (  1);
}

potential (mark_dies) {
   data = (  1);
}

potential ( jane_threatens_mark_with_knife | jane_and_mark_fight   ) {
   data = 
   ((   0.998282   0.00171821)   % jane_and_mark_fight=0   
   (   0.959459   0.0405405));   % jane_and_mark_fight=1   
}

potential ( mark_hits_jane | jane_threatens_mark_with_knife   ) {
   data = 
   ((   0.998741   0.00125945)   % jane_threatens_mark_with_knife=0   
   (   0.1   0.9));   % jane_threatens_mark_with_knife=1   
}

potential ( jane_drops_knife | mark_hits_jane   jane_and_mark_fight   jane_threatens_mark_with_knife   ) {
   data = 
   ((((   1)   % jane_threatens_mark_with_knife=0   jane_and_mark_fight=0   mark_hits_jane=0   
   (   1))   % jane_threatens_mark_with_knife=1   jane_and_mark_fight=0   mark_hits_jane=0   
   ((   1)   % jane_threatens_mark_with_knife=0   jane_and_mark_fight=1   mark_hits_jane=0   
   (   1)))   % jane_threatens_mark_with_knife=1   jane_and_mark_fight=1   mark_hits_jane=0   
   (((   1)   % jane_threatens_mark_with_knife=0   jane_and_mark_fight=0   mark_hits_jane=1   
   (   1))   % jane_threatens_mark_with_knife=1   jane_and_mark_fight=0   mark_hits_jane=1   
   ((   1)   % jane_threatens_mark_with_knife=0   jane_and_mark_fight=1   mark_hits_jane=1   
   (   1))));   % jane_threatens_mark_with_knife=1   jane_and_mark_fight=1   mark_hits_jane=1   
}

potential ( mark_falls_on_knife | jane_threatens_mark_with_knife   jane_and_mark_fight   mark_hits_jane   ) {
   data = 
   ((((   1)   % mark_hits_jane=0   jane_and_mark_fight=0   jane_threatens_mark_with_knife=0   
   (   1))   % mark_hits_jane=1   jane_and_mark_fight=0   jane_threatens_mark_with_knife=0   
   ((   1)   % mark_hits_jane=0   jane_and_mark_fight=1   jane_threatens_mark_with_knife=0   
   (   1)))   % mark_hits_jane=1   jane_and_mark_fight=1   jane_threatens_mark_with_knife=0   
   (((   1)   % mark_hits_jane=0   jane_and_mark_fight=0   jane_threatens_mark_with_knife=1   
   (   1))   % mark_hits_jane=1   jane_and_mark_fight=0   jane_threatens_mark_with_knife=1   
   ((   1)   % mark_hits_jane=0   jane_and_mark_fight=1   jane_threatens_mark_with_knife=1   
   (   1))));   % mark_hits_jane=1   jane_and_mark_fight=1   jane_threatens_mark_with_knife=1   
}

potential ( mark_dies_by_accident | jane_threatens_mark_with_knife   jane_and_mark_fight   mark_hits_jane   ) {
   data = 
   ((((   1)   % mark_hits_jane=0   jane_and_mark_fight=0   jane_threatens_mark_with_knife=0   
   (   1))   % mark_hits_jane=1   jane_and_mark_fight=0   jane_threatens_mark_with_knife=0   
   ((   1)   % mark_hits_jane=0   jane_and_mark_fight=1   jane_threatens_mark_with_knife=0   
   (   1)))   % mark_hits_jane=1   jane_and_mark_fight=1   jane_threatens_mark_with_knife=0   
   (((   1)   % mark_hits_jane=0   jane_and_mark_fight=0   jane_threatens_mark_with_knife=1   
   (   1))   % mark_hits_jane=1   jane_and_mark_fight=0   jane_threatens_mark_with_knife=1   
   ((   1)   % mark_hits_jane=0   jane_and_mark_fight=1   jane_threatens_mark_with_knife=1   
   (   1))));   % mark_hits_jane=1   jane_and_mark_fight=1   jane_threatens_mark_with_knife=1   
}


