
net {
  name = GodBN;
  software = "aGrUM 0.22.5";
  node_size = (50 50);
}

node know_object {
   states = (0 1 );
   label = "know_object";
   ID = "know_object";
}

node target_object {
   states = (0 1 );
   label = "target_object";
   ID = "target_object";
}

node motive {
   states = (0 1 );
   label = "motive";
   ID = "motive";
}

node compromise_house {
   states = (0 1 );
   label = "compromise_house";
   ID = "compromise_house";
}

node observed {
   states = (0 1 );
   label = "observed";
   ID = "observed";
}

node successful_stolen {
   states = (0 1 );
   label = "successful_stolen";
   ID = "successful_stolen";
}

node raining {
   states = (0 1 );
   label = "raining";
   ID = "raining";
}

node E_s_spotted_by_house {
   states = (0 1 );
   label = "E_s_spotted_by_house";
   ID = "E_s_spotted_by_house";
}

node E_s_spotted_with_goodie {
   states = (0 1 );
   label = "E_s_spotted_with_goodie";
   ID = "E_s_spotted_with_goodie";
}

node E_object_is_gone {
   states = (0 1 );
   label = "E_object_is_gone";
   ID = "E_object_is_gone";
}

node E_broken_lock {
   states = (0 1 );
   label = "E_broken_lock";
   ID = "E_broken_lock";
}

potential (know_object) {
   data = (  0.322 0.678);
}

potential ( target_object | know_object   ) {
   data = 
   ((   1   0)   % know_object=0   
   (   0.460177   0.539823));   % know_object=1   
}

potential ( motive | know_object   target_object   ) {
   data = 
   (((   1   0)   % target_object=0   know_object=0   
   (   1   0))   % target_object=1   know_object=0   
   ((   1   0)   % target_object=0   know_object=1   
   (   0   1)));   % target_object=1   know_object=1   
}

potential ( compromise_house | know_object   target_object   motive   ) {
   data = 
   ((((   1   0)   % motive=0   target_object=0   know_object=0   
   (   1   0))   % motive=1   target_object=0   know_object=0   
   ((   1   0)   % motive=0   target_object=1   know_object=0   
   (   1   0)))   % motive=1   target_object=1   know_object=0   
   (((   1   0)   % motive=0   target_object=0   know_object=1   
   (   1   0))   % motive=1   target_object=0   know_object=1   
   ((   1   0)   % motive=0   target_object=1   know_object=1   
   (   0.743169   0.256831))));   % motive=1   target_object=1   know_object=1   
}

potential ( observed | know_object   target_object   motive   compromise_house   ) {
   data = 
   (((((   1   0)   % compromise_house=0   motive=0   target_object=0   know_object=0   
   (   1   0))   % compromise_house=1   motive=0   target_object=0   know_object=0   
   ((   1   0)   % compromise_house=0   motive=1   target_object=0   know_object=0   
   (   1   0)))   % compromise_house=1   motive=1   target_object=0   know_object=0   
   (((   1   0)   % compromise_house=0   motive=0   target_object=1   know_object=0   
   (   1   0))   % compromise_house=1   motive=0   target_object=1   know_object=0   
   ((   1   0)   % compromise_house=0   motive=1   target_object=1   know_object=0   
   (   1   0))))   % compromise_house=1   motive=1   target_object=1   know_object=0   
   ((((   1   0)   % compromise_house=0   motive=0   target_object=0   know_object=1   
   (   1   0))   % compromise_house=1   motive=0   target_object=0   know_object=1   
   ((   1   0)   % compromise_house=0   motive=1   target_object=0   know_object=1   
   (   1   0)))   % compromise_house=1   motive=1   target_object=0   know_object=1   
   (((   1   0)   % compromise_house=0   motive=0   target_object=1   know_object=1   
   (   1   0))   % compromise_house=1   motive=0   target_object=1   know_object=1   
   ((   0.529412   0.470588)   % compromise_house=0   motive=1   target_object=1   know_object=1   
   (   0.531915   0.468085)))));   % compromise_house=1   motive=1   target_object=1   know_object=1   
}

potential ( successful_stolen | know_object   target_object   motive   compromise_house   observed   ) {
   data = 
   ((((((   1   0)   % observed=0   compromise_house=0   motive=0   target_object=0   know_object=0   
   (   1   0))   % observed=1   compromise_house=0   motive=0   target_object=0   know_object=0   
   ((   1   0)   % observed=0   compromise_house=1   motive=0   target_object=0   know_object=0   
   (   1   0)))   % observed=1   compromise_house=1   motive=0   target_object=0   know_object=0   
   (((   1   0)   % observed=0   compromise_house=0   motive=1   target_object=0   know_object=0   
   (   1   0))   % observed=1   compromise_house=0   motive=1   target_object=0   know_object=0   
   ((   1   0)   % observed=0   compromise_house=1   motive=1   target_object=0   know_object=0   
   (   1   0))))   % observed=1   compromise_house=1   motive=1   target_object=0   know_object=0   
   ((((   1   0)   % observed=0   compromise_house=0   motive=0   target_object=1   know_object=0   
   (   1   0))   % observed=1   compromise_house=0   motive=0   target_object=1   know_object=0   
   ((   1   0)   % observed=0   compromise_house=1   motive=0   target_object=1   know_object=0   
   (   1   0)))   % observed=1   compromise_house=1   motive=0   target_object=1   know_object=0   
   (((   1   0)   % observed=0   compromise_house=0   motive=1   target_object=1   know_object=0   
   (   1   0))   % observed=1   compromise_house=0   motive=1   target_object=1   know_object=0   
   ((   1   0)   % observed=0   compromise_house=1   motive=1   target_object=1   know_object=0   
   (   1   0)))))   % observed=1   compromise_house=1   motive=1   target_object=1   know_object=0   
   (((((   1   0)   % observed=0   compromise_house=0   motive=0   target_object=0   know_object=1   
   (   1   0))   % observed=1   compromise_house=0   motive=0   target_object=0   know_object=1   
   ((   1   0)   % observed=0   compromise_house=1   motive=0   target_object=0   know_object=1   
   (   1   0)))   % observed=1   compromise_house=1   motive=0   target_object=0   know_object=1   
   (((   1   0)   % observed=0   compromise_house=0   motive=1   target_object=0   know_object=1   
   (   1   0))   % observed=1   compromise_house=0   motive=1   target_object=0   know_object=1   
   ((   1   0)   % observed=0   compromise_house=1   motive=1   target_object=0   know_object=1   
   (   1   0))))   % observed=1   compromise_house=1   motive=1   target_object=0   know_object=1   
   ((((   1   0)   % observed=0   compromise_house=0   motive=0   target_object=1   know_object=1   
   (   1   0))   % observed=1   compromise_house=0   motive=0   target_object=1   know_object=1   
   ((   1   0)   % observed=0   compromise_house=1   motive=0   target_object=1   know_object=1   
   (   1   0)))   % observed=1   compromise_house=1   motive=0   target_object=1   know_object=1   
   (((   1   0)   % observed=0   compromise_house=0   motive=1   target_object=1   know_object=1   
   (   1   0))   % observed=1   compromise_house=0   motive=1   target_object=1   know_object=1   
   ((   0   1)   % observed=0   compromise_house=1   motive=1   target_object=1   know_object=1   
   (   1   0))))));   % observed=1   compromise_house=1   motive=1   target_object=1   know_object=1   
}

potential ( raining | know_object   target_object   motive   compromise_house   observed   successful_stolen   ) {
   data = 
   (((((((   0.465839   0.534161)   % successful_stolen=0   observed=0   compromise_house=0   motive=0   target_object=0   know_object=0   
   (   1   0))   % successful_stolen=1   observed=0   compromise_house=0   motive=0   target_object=0   know_object=0   
   ((   1   0)   % successful_stolen=0   observed=1   compromise_house=0   motive=0   target_object=0   know_object=0   
   (   1   0)))   % successful_stolen=1   observed=1   compromise_house=0   motive=0   target_object=0   know_object=0   
   (((   1   0)   % successful_stolen=0   observed=0   compromise_house=1   motive=0   target_object=0   know_object=0   
   (   1   0))   % successful_stolen=1   observed=0   compromise_house=1   motive=0   target_object=0   know_object=0   
   ((   1   0)   % successful_stolen=0   observed=1   compromise_house=1   motive=0   target_object=0   know_object=0   
   (   1   0))))   % successful_stolen=1   observed=1   compromise_house=1   motive=0   target_object=0   know_object=0   
   ((((   1   0)   % successful_stolen=0   observed=0   compromise_house=0   motive=1   target_object=0   know_object=0   
   (   1   0))   % successful_stolen=1   observed=0   compromise_house=0   motive=1   target_object=0   know_object=0   
   ((   1   0)   % successful_stolen=0   observed=1   compromise_house=0   motive=1   target_object=0   know_object=0   
   (   1   0)))   % successful_stolen=1   observed=1   compromise_house=0   motive=1   target_object=0   know_object=0   
   (((   1   0)   % successful_stolen=0   observed=0   compromise_house=1   motive=1   target_object=0   know_object=0   
   (   1   0))   % successful_stolen=1   observed=0   compromise_house=1   motive=1   target_object=0   know_object=0   
   ((   1   0)   % successful_stolen=0   observed=1   compromise_house=1   motive=1   target_object=0   know_object=0   
   (   1   0)))))   % successful_stolen=1   observed=1   compromise_house=1   motive=1   target_object=0   know_object=0   
   (((((   1   0)   % successful_stolen=0   observed=0   compromise_house=0   motive=0   target_object=1   know_object=0   
   (   1   0))   % successful_stolen=1   observed=0   compromise_house=0   motive=0   target_object=1   know_object=0   
   ((   1   0)   % successful_stolen=0   observed=1   compromise_house=0   motive=0   target_object=1   know_object=0   
   (   1   0)))   % successful_stolen=1   observed=1   compromise_house=0   motive=0   target_object=1   know_object=0   
   (((   1   0)   % successful_stolen=0   observed=0   compromise_house=1   motive=0   target_object=1   know_object=0   
   (   1   0))   % successful_stolen=1   observed=0   compromise_house=1   motive=0   target_object=1   know_object=0   
   ((   1   0)   % successful_stolen=0   observed=1   compromise_house=1   motive=0   target_object=1   know_object=0   
   (   1   0))))   % successful_stolen=1   observed=1   compromise_house=1   motive=0   target_object=1   know_object=0   
   ((((   1   0)   % successful_stolen=0   observed=0   compromise_house=0   motive=1   target_object=1   know_object=0   
   (   1   0))   % successful_stolen=1   observed=0   compromise_house=0   motive=1   target_object=1   know_object=0   
   ((   1   0)   % successful_stolen=0   observed=1   compromise_house=0   motive=1   target_object=1   know_object=0   
   (   1   0)))   % successful_stolen=1   observed=1   compromise_house=0   motive=1   target_object=1   know_object=0   
   (((   1   0)   % successful_stolen=0   observed=0   compromise_house=1   motive=1   target_object=1   know_object=0   
   (   1   0))   % successful_stolen=1   observed=0   compromise_house=1   motive=1   target_object=1   know_object=0   
   ((   1   0)   % successful_stolen=0   observed=1   compromise_house=1   motive=1   target_object=1   know_object=0   
   (   1   0))))))   % successful_stolen=1   observed=1   compromise_house=1   motive=1   target_object=1   know_object=0   
   ((((((   0.589744   0.410256)   % successful_stolen=0   observed=0   compromise_house=0   motive=0   target_object=0   know_object=1   
   (   1   0))   % successful_stolen=1   observed=0   compromise_house=0   motive=0   target_object=0   know_object=1   
   ((   1   0)   % successful_stolen=0   observed=1   compromise_house=0   motive=0   target_object=0   know_object=1   
   (   1   0)))   % successful_stolen=1   observed=1   compromise_house=0   motive=0   target_object=0   know_object=1   
   (((   1   0)   % successful_stolen=0   observed=0   compromise_house=1   motive=0   target_object=0   know_object=1   
   (   1   0))   % successful_stolen=1   observed=0   compromise_house=1   motive=0   target_object=0   know_object=1   
   ((   1   0)   % successful_stolen=0   observed=1   compromise_house=1   motive=0   target_object=0   know_object=1   
   (   1   0))))   % successful_stolen=1   observed=1   compromise_house=1   motive=0   target_object=0   know_object=1   
   ((((   1   0)   % successful_stolen=0   observed=0   compromise_house=0   motive=1   target_object=0   know_object=1   
   (   1   0))   % successful_stolen=1   observed=0   compromise_house=0   motive=1   target_object=0   know_object=1   
   ((   1   0)   % successful_stolen=0   observed=1   compromise_house=0   motive=1   target_object=0   know_object=1   
   (   1   0)))   % successful_stolen=1   observed=1   compromise_house=0   motive=1   target_object=0   know_object=1   
   (((   1   0)   % successful_stolen=0   observed=0   compromise_house=1   motive=1   target_object=0   know_object=1   
   (   1   0))   % successful_stolen=1   observed=0   compromise_house=1   motive=1   target_object=0   know_object=1   
   ((   1   0)   % successful_stolen=0   observed=1   compromise_house=1   motive=1   target_object=0   know_object=1   
   (   1   0)))))   % successful_stolen=1   observed=1   compromise_house=1   motive=1   target_object=0   know_object=1   
   (((((   1   0)   % successful_stolen=0   observed=0   compromise_house=0   motive=0   target_object=1   know_object=1   
   (   1   0))   % successful_stolen=1   observed=0   compromise_house=0   motive=0   target_object=1   know_object=1   
   ((   1   0)   % successful_stolen=0   observed=1   compromise_house=0   motive=0   target_object=1   know_object=1   
   (   1   0)))   % successful_stolen=1   observed=1   compromise_house=0   motive=0   target_object=1   know_object=1   
   (((   1   0)   % successful_stolen=0   observed=0   compromise_house=1   motive=0   target_object=1   know_object=1   
   (   1   0))   % successful_stolen=1   observed=0   compromise_house=1   motive=0   target_object=1   know_object=1   
   ((   1   0)   % successful_stolen=0   observed=1   compromise_house=1   motive=0   target_object=1   know_object=1   
   (   1   0))))   % successful_stolen=1   observed=1   compromise_house=1   motive=0   target_object=1   know_object=1   
   ((((   0.541667   0.458333)   % successful_stolen=0   observed=0   compromise_house=0   motive=1   target_object=1   know_object=1   
   (   1   0))   % successful_stolen=1   observed=0   compromise_house=0   motive=1   target_object=1   know_object=1   
   ((   0.515625   0.484375)   % successful_stolen=0   observed=1   compromise_house=0   motive=1   target_object=1   know_object=1   
   (   1   0)))   % successful_stolen=1   observed=1   compromise_house=0   motive=1   target_object=1   know_object=1   
   (((   1   0)   % successful_stolen=0   observed=0   compromise_house=1   motive=1   target_object=1   know_object=1   
   (   0.4   0.6))   % successful_stolen=1   observed=0   compromise_house=1   motive=1   target_object=1   know_object=1   
   ((   0.318182   0.681818)   % successful_stolen=0   observed=1   compromise_house=1   motive=1   target_object=1   know_object=1   
   (   1   0)))))));   % successful_stolen=1   observed=1   compromise_house=1   motive=1   target_object=1   know_object=1   
}

potential ( E_s_spotted_by_house | know_object   target_object   motive   compromise_house   observed   successful_stolen   raining   ) {
   data = 
   ((((((((   0   1)   % raining=0   successful_stolen=0   observed=0   compromise_house=0   motive=0   target_object=0   know_object=0   
   (   0   1))   % raining=1   successful_stolen=0   observed=0   compromise_house=0   motive=0   target_object=0   know_object=0   
   ((   1   0)   % raining=0   successful_stolen=1   observed=0   compromise_house=0   motive=0   target_object=0   know_object=0   
   (   1   0)))   % raining=1   successful_stolen=1   observed=0   compromise_house=0   motive=0   target_object=0   know_object=0   
   (((   1   0)   % raining=0   successful_stolen=0   observed=1   compromise_house=0   motive=0   target_object=0   know_object=0   
   (   1   0))   % raining=1   successful_stolen=0   observed=1   compromise_house=0   motive=0   target_object=0   know_object=0   
   ((   1   0)   % raining=0   successful_stolen=1   observed=1   compromise_house=0   motive=0   target_object=0   know_object=0   
   (   1   0))))   % raining=1   successful_stolen=1   observed=1   compromise_house=0   motive=0   target_object=0   know_object=0   
   ((((   1   0)   % raining=0   successful_stolen=0   observed=0   compromise_house=1   motive=0   target_object=0   know_object=0   
   (   1   0))   % raining=1   successful_stolen=0   observed=0   compromise_house=1   motive=0   target_object=0   know_object=0   
   ((   1   0)   % raining=0   successful_stolen=1   observed=0   compromise_house=1   motive=0   target_object=0   know_object=0   
   (   1   0)))   % raining=1   successful_stolen=1   observed=0   compromise_house=1   motive=0   target_object=0   know_object=0   
   (((   1   0)   % raining=0   successful_stolen=0   observed=1   compromise_house=1   motive=0   target_object=0   know_object=0   
   (   1   0))   % raining=1   successful_stolen=0   observed=1   compromise_house=1   motive=0   target_object=0   know_object=0   
   ((   1   0)   % raining=0   successful_stolen=1   observed=1   compromise_house=1   motive=0   target_object=0   know_object=0   
   (   1   0)))))   % raining=1   successful_stolen=1   observed=1   compromise_house=1   motive=0   target_object=0   know_object=0   
   (((((   1   0)   % raining=0   successful_stolen=0   observed=0   compromise_house=0   motive=1   target_object=0   know_object=0   
   (   1   0))   % raining=1   successful_stolen=0   observed=0   compromise_house=0   motive=1   target_object=0   know_object=0   
   ((   1   0)   % raining=0   successful_stolen=1   observed=0   compromise_house=0   motive=1   target_object=0   know_object=0   
   (   1   0)))   % raining=1   successful_stolen=1   observed=0   compromise_house=0   motive=1   target_object=0   know_object=0   
   (((   1   0)   % raining=0   successful_stolen=0   observed=1   compromise_house=0   motive=1   target_object=0   know_object=0   
   (   1   0))   % raining=1   successful_stolen=0   observed=1   compromise_house=0   motive=1   target_object=0   know_object=0   
   ((   1   0)   % raining=0   successful_stolen=1   observed=1   compromise_house=0   motive=1   target_object=0   know_object=0   
   (   1   0))))   % raining=1   successful_stolen=1   observed=1   compromise_house=0   motive=1   target_object=0   know_object=0   
   ((((   1   0)   % raining=0   successful_stolen=0   observed=0   compromise_house=1   motive=1   target_object=0   know_object=0   
   (   1   0))   % raining=1   successful_stolen=0   observed=0   compromise_house=1   motive=1   target_object=0   know_object=0   
   ((   1   0)   % raining=0   successful_stolen=1   observed=0   compromise_house=1   motive=1   target_object=0   know_object=0   
   (   1   0)))   % raining=1   successful_stolen=1   observed=0   compromise_house=1   motive=1   target_object=0   know_object=0   
   (((   1   0)   % raining=0   successful_stolen=0   observed=1   compromise_house=1   motive=1   target_object=0   know_object=0   
   (   1   0))   % raining=1   successful_stolen=0   observed=1   compromise_house=1   motive=1   target_object=0   know_object=0   
   ((   1   0)   % raining=0   successful_stolen=1   observed=1   compromise_house=1   motive=1   target_object=0   know_object=0   
   (   1   0))))))   % raining=1   successful_stolen=1   observed=1   compromise_house=1   motive=1   target_object=0   know_object=0   
   ((((((   1   0)   % raining=0   successful_stolen=0   observed=0   compromise_house=0   motive=0   target_object=1   know_object=0   
   (   1   0))   % raining=1   successful_stolen=0   observed=0   compromise_house=0   motive=0   target_object=1   know_object=0   
   ((   1   0)   % raining=0   successful_stolen=1   observed=0   compromise_house=0   motive=0   target_object=1   know_object=0   
   (   1   0)))   % raining=1   successful_stolen=1   observed=0   compromise_house=0   motive=0   target_object=1   know_object=0   
   (((   1   0)   % raining=0   successful_stolen=0   observed=1   compromise_house=0   motive=0   target_object=1   know_object=0   
   (   1   0))   % raining=1   successful_stolen=0   observed=1   compromise_house=0   motive=0   target_object=1   know_object=0   
   ((   1   0)   % raining=0   successful_stolen=1   observed=1   compromise_house=0   motive=0   target_object=1   know_object=0   
   (   1   0))))   % raining=1   successful_stolen=1   observed=1   compromise_house=0   motive=0   target_object=1   know_object=0   
   ((((   1   0)   % raining=0   successful_stolen=0   observed=0   compromise_house=1   motive=0   target_object=1   know_object=0   
   (   1   0))   % raining=1   successful_stolen=0   observed=0   compromise_house=1   motive=0   target_object=1   know_object=0   
   ((   1   0)   % raining=0   successful_stolen=1   observed=0   compromise_house=1   motive=0   target_object=1   know_object=0   
   (   1   0)))   % raining=1   successful_stolen=1   observed=0   compromise_house=1   motive=0   target_object=1   know_object=0   
   (((   1   0)   % raining=0   successful_stolen=0   observed=1   compromise_house=1   motive=0   target_object=1   know_object=0   
   (   1   0))   % raining=1   successful_stolen=0   observed=1   compromise_house=1   motive=0   target_object=1   know_object=0   
   ((   1   0)   % raining=0   successful_stolen=1   observed=1   compromise_house=1   motive=0   target_object=1   know_object=0   
   (   1   0)))))   % raining=1   successful_stolen=1   observed=1   compromise_house=1   motive=0   target_object=1   know_object=0   
   (((((   1   0)   % raining=0   successful_stolen=0   observed=0   compromise_house=0   motive=1   target_object=1   know_object=0   
   (   1   0))   % raining=1   successful_stolen=0   observed=0   compromise_house=0   motive=1   target_object=1   know_object=0   
   ((   1   0)   % raining=0   successful_stolen=1   observed=0   compromise_house=0   motive=1   target_object=1   know_object=0   
   (   1   0)))   % raining=1   successful_stolen=1   observed=0   compromise_house=0   motive=1   target_object=1   know_object=0   
   (((   1   0)   % raining=0   successful_stolen=0   observed=1   compromise_house=0   motive=1   target_object=1   know_object=0   
   (   1   0))   % raining=1   successful_stolen=0   observed=1   compromise_house=0   motive=1   target_object=1   know_object=0   
   ((   1   0)   % raining=0   successful_stolen=1   observed=1   compromise_house=0   motive=1   target_object=1   know_object=0   
   (   1   0))))   % raining=1   successful_stolen=1   observed=1   compromise_house=0   motive=1   target_object=1   know_object=0   
   ((((   1   0)   % raining=0   successful_stolen=0   observed=0   compromise_house=1   motive=1   target_object=1   know_object=0   
   (   1   0))   % raining=1   successful_stolen=0   observed=0   compromise_house=1   motive=1   target_object=1   know_object=0   
   ((   1   0)   % raining=0   successful_stolen=1   observed=0   compromise_house=1   motive=1   target_object=1   know_object=0   
   (   1   0)))   % raining=1   successful_stolen=1   observed=0   compromise_house=1   motive=1   target_object=1   know_object=0   
   (((   1   0)   % raining=0   successful_stolen=0   observed=1   compromise_house=1   motive=1   target_object=1   know_object=0   
   (   1   0))   % raining=1   successful_stolen=0   observed=1   compromise_house=1   motive=1   target_object=1   know_object=0   
   ((   1   0)   % raining=0   successful_stolen=1   observed=1   compromise_house=1   motive=1   target_object=1   know_object=0   
   (   1   0)))))))   % raining=1   successful_stolen=1   observed=1   compromise_house=1   motive=1   target_object=1   know_object=0   
   (((((((   0.173913   0.826087)   % raining=0   successful_stolen=0   observed=0   compromise_house=0   motive=0   target_object=0   know_object=1   
   (   0.203125   0.796875))   % raining=1   successful_stolen=0   observed=0   compromise_house=0   motive=0   target_object=0   know_object=1   
   ((   1   0)   % raining=0   successful_stolen=1   observed=0   compromise_house=0   motive=0   target_object=0   know_object=1   
   (   1   0)))   % raining=1   successful_stolen=1   observed=0   compromise_house=0   motive=0   target_object=0   know_object=1   
   (((   1   0)   % raining=0   successful_stolen=0   observed=1   compromise_house=0   motive=0   target_object=0   know_object=1   
   (   1   0))   % raining=1   successful_stolen=0   observed=1   compromise_house=0   motive=0   target_object=0   know_object=1   
   ((   1   0)   % raining=0   successful_stolen=1   observed=1   compromise_house=0   motive=0   target_object=0   know_object=1   
   (   1   0))))   % raining=1   successful_stolen=1   observed=1   compromise_house=0   motive=0   target_object=0   know_object=1   
   ((((   1   0)   % raining=0   successful_stolen=0   observed=0   compromise_house=1   motive=0   target_object=0   know_object=1   
   (   1   0))   % raining=1   successful_stolen=0   observed=0   compromise_house=1   motive=0   target_object=0   know_object=1   
   ((   1   0)   % raining=0   successful_stolen=1   observed=0   compromise_house=1   motive=0   target_object=0   know_object=1   
   (   1   0)))   % raining=1   successful_stolen=1   observed=0   compromise_house=1   motive=0   target_object=0   know_object=1   
   (((   1   0)   % raining=0   successful_stolen=0   observed=1   compromise_house=1   motive=0   target_object=0   know_object=1   
   (   1   0))   % raining=1   successful_stolen=0   observed=1   compromise_house=1   motive=0   target_object=0   know_object=1   
   ((   1   0)   % raining=0   successful_stolen=1   observed=1   compromise_house=1   motive=0   target_object=0   know_object=1   
   (   1   0)))))   % raining=1   successful_stolen=1   observed=1   compromise_house=1   motive=0   target_object=0   know_object=1   
   (((((   1   0)   % raining=0   successful_stolen=0   observed=0   compromise_house=0   motive=1   target_object=0   know_object=1   
   (   1   0))   % raining=1   successful_stolen=0   observed=0   compromise_house=0   motive=1   target_object=0   know_object=1   
   ((   1   0)   % raining=0   successful_stolen=1   observed=0   compromise_house=0   motive=1   target_object=0   know_object=1   
   (   1   0)))   % raining=1   successful_stolen=1   observed=0   compromise_house=0   motive=1   target_object=0   know_object=1   
   (((   1   0)   % raining=0   successful_stolen=0   observed=1   compromise_house=0   motive=1   target_object=0   know_object=1   
   (   1   0))   % raining=1   successful_stolen=0   observed=1   compromise_house=0   motive=1   target_object=0   know_object=1   
   ((   1   0)   % raining=0   successful_stolen=1   observed=1   compromise_house=0   motive=1   target_object=0   know_object=1   
   (   1   0))))   % raining=1   successful_stolen=1   observed=1   compromise_house=0   motive=1   target_object=0   know_object=1   
   ((((   1   0)   % raining=0   successful_stolen=0   observed=0   compromise_house=1   motive=1   target_object=0   know_object=1   
   (   1   0))   % raining=1   successful_stolen=0   observed=0   compromise_house=1   motive=1   target_object=0   know_object=1   
   ((   1   0)   % raining=0   successful_stolen=1   observed=0   compromise_house=1   motive=1   target_object=0   know_object=1   
   (   1   0)))   % raining=1   successful_stolen=1   observed=0   compromise_house=1   motive=1   target_object=0   know_object=1   
   (((   1   0)   % raining=0   successful_stolen=0   observed=1   compromise_house=1   motive=1   target_object=0   know_object=1   
   (   1   0))   % raining=1   successful_stolen=0   observed=1   compromise_house=1   motive=1   target_object=0   know_object=1   
   ((   1   0)   % raining=0   successful_stolen=1   observed=1   compromise_house=1   motive=1   target_object=0   know_object=1   
   (   1   0))))))   % raining=1   successful_stolen=1   observed=1   compromise_house=1   motive=1   target_object=0   know_object=1   
   ((((((   1   0)   % raining=0   successful_stolen=0   observed=0   compromise_house=0   motive=0   target_object=1   know_object=1   
   (   1   0))   % raining=1   successful_stolen=0   observed=0   compromise_house=0   motive=0   target_object=1   know_object=1   
   ((   1   0)   % raining=0   successful_stolen=1   observed=0   compromise_house=0   motive=0   target_object=1   know_object=1   
   (   1   0)))   % raining=1   successful_stolen=1   observed=0   compromise_house=0   motive=0   target_object=1   know_object=1   
   (((   1   0)   % raining=0   successful_stolen=0   observed=1   compromise_house=0   motive=0   target_object=1   know_object=1   
   (   1   0))   % raining=1   successful_stolen=0   observed=1   compromise_house=0   motive=0   target_object=1   know_object=1   
   ((   1   0)   % raining=0   successful_stolen=1   observed=1   compromise_house=0   motive=0   target_object=1   know_object=1   
   (   1   0))))   % raining=1   successful_stolen=1   observed=1   compromise_house=0   motive=0   target_object=1   know_object=1   
   ((((   1   0)   % raining=0   successful_stolen=0   observed=0   compromise_house=1   motive=0   target_object=1   know_object=1   
   (   1   0))   % raining=1   successful_stolen=0   observed=0   compromise_house=1   motive=0   target_object=1   know_object=1   
   ((   1   0)   % raining=0   successful_stolen=1   observed=0   compromise_house=1   motive=0   target_object=1   know_object=1   
   (   1   0)))   % raining=1   successful_stolen=1   observed=0   compromise_house=1   motive=0   target_object=1   know_object=1   
   (((   1   0)   % raining=0   successful_stolen=0   observed=1   compromise_house=1   motive=0   target_object=1   know_object=1   
   (   1   0))   % raining=1   successful_stolen=0   observed=1   compromise_house=1   motive=0   target_object=1   know_object=1   
   ((   1   0)   % raining=0   successful_stolen=1   observed=1   compromise_house=1   motive=0   target_object=1   know_object=1   
   (   1   0)))))   % raining=1   successful_stolen=1   observed=1   compromise_house=1   motive=0   target_object=1   know_object=1   
   (((((   0   1)   % raining=0   successful_stolen=0   observed=0   compromise_house=0   motive=1   target_object=1   know_object=1   
   (   0   1))   % raining=1   successful_stolen=0   observed=0   compromise_house=0   motive=1   target_object=1   know_object=1   
   ((   1   0)   % raining=0   successful_stolen=1   observed=0   compromise_house=0   motive=1   target_object=1   know_object=1   
   (   1   0)))   % raining=1   successful_stolen=1   observed=0   compromise_house=0   motive=1   target_object=1   know_object=1   
   (((   0   1)   % raining=0   successful_stolen=0   observed=1   compromise_house=0   motive=1   target_object=1   know_object=1   
   (   0   1))   % raining=1   successful_stolen=0   observed=1   compromise_house=0   motive=1   target_object=1   know_object=1   
   ((   1   0)   % raining=0   successful_stolen=1   observed=1   compromise_house=0   motive=1   target_object=1   know_object=1   
   (   1   0))))   % raining=1   successful_stolen=1   observed=1   compromise_house=0   motive=1   target_object=1   know_object=1   
   ((((   1   0)   % raining=0   successful_stolen=0   observed=0   compromise_house=1   motive=1   target_object=1   know_object=1   
   (   1   0))   % raining=1   successful_stolen=0   observed=0   compromise_house=1   motive=1   target_object=1   know_object=1   
   ((   0   1)   % raining=0   successful_stolen=1   observed=0   compromise_house=1   motive=1   target_object=1   know_object=1   
   (   0   1)))   % raining=1   successful_stolen=1   observed=0   compromise_house=1   motive=1   target_object=1   know_object=1   
   (((   0   1)   % raining=0   successful_stolen=0   observed=1   compromise_house=1   motive=1   target_object=1   know_object=1   
   (   0   1))   % raining=1   successful_stolen=0   observed=1   compromise_house=1   motive=1   target_object=1   know_object=1   
   ((   1   0)   % raining=0   successful_stolen=1   observed=1   compromise_house=1   motive=1   target_object=1   know_object=1   
   (   1   0))))))));   % raining=1   successful_stolen=1   observed=1   compromise_house=1   motive=1   target_object=1   know_object=1   
}

potential ( E_s_spotted_with_goodie | know_object   target_object   motive   compromise_house   observed   successful_stolen   raining   E_s_spotted_by_house   ) {
   data = 
   (((((((((   1   0)   % E_s_spotted_by_house=0   raining=0   successful_stolen=0   observed=0   compromise_house=0   motive=0   target_object=0   know_object=0   
   (   1   0))   % E_s_spotted_by_house=1   raining=0   successful_stolen=0   observed=0   compromise_house=0   motive=0   target_object=0   know_object=0   
   ((   1   0)   % E_s_spotted_by_house=0   raining=1   successful_stolen=0   observed=0   compromise_house=0   motive=0   target_object=0   know_object=0   
   (   1   0)))   % E_s_spotted_by_house=1   raining=1   successful_stolen=0   observed=0   compromise_house=0   motive=0   target_object=0   know_object=0   
   (((   1   0)   % E_s_spotted_by_house=0   raining=0   successful_stolen=1   observed=0   compromise_house=0   motive=0   target_object=0   know_object=0   
   (   1   0))   % E_s_spotted_by_house=1   raining=0   successful_stolen=1   observed=0   compromise_house=0   motive=0   target_object=0   know_object=0   
   ((   1   0)   % E_s_spotted_by_house=0   raining=1   successful_stolen=1   observed=0   compromise_house=0   motive=0   target_object=0   know_object=0   
   (   1   0))))   % E_s_spotted_by_house=1   raining=1   successful_stolen=1   observed=0   compromise_house=0   motive=0   target_object=0   know_object=0   
   ((((   1   0)   % E_s_spotted_by_house=0   raining=0   successful_stolen=0   observed=1   compromise_house=0   motive=0   target_object=0   know_object=0   
   (   1   0))   % E_s_spotted_by_house=1   raining=0   successful_stolen=0   observed=1   compromise_house=0   motive=0   target_object=0   know_object=0   
   ((   1   0)   % E_s_spotted_by_house=0   raining=1   successful_stolen=0   observed=1   compromise_house=0   motive=0   target_object=0   know_object=0   
   (   1   0)))   % E_s_spotted_by_house=1   raining=1   successful_stolen=0   observed=1   compromise_house=0   motive=0   target_object=0   know_object=0   
   (((   1   0)   % E_s_spotted_by_house=0   raining=0   successful_stolen=1   observed=1   compromise_house=0   motive=0   target_object=0   know_object=0   
   (   1   0))   % E_s_spotted_by_house=1   raining=0   successful_stolen=1   observed=1   compromise_house=0   motive=0   target_object=0   know_object=0   
   ((   1   0)   % E_s_spotted_by_house=0   raining=1   successful_stolen=1   observed=1   compromise_house=0   motive=0   target_object=0   know_object=0   
   (   1   0)))))   % E_s_spotted_by_house=1   raining=1   successful_stolen=1   observed=1   compromise_house=0   motive=0   target_object=0   know_object=0   
   (((((   1   0)   % E_s_spotted_by_house=0   raining=0   successful_stolen=0   observed=0   compromise_house=1   motive=0   target_object=0   know_object=0   
   (   1   0))   % E_s_spotted_by_house=1   raining=0   successful_stolen=0   observed=0   compromise_house=1   motive=0   target_object=0   know_object=0   
   ((   1   0)   % E_s_spotted_by_house=0   raining=1   successful_stolen=0   observed=0   compromise_house=1   motive=0   target_object=0   know_object=0   
   (   1   0)))   % E_s_spotted_by_house=1   raining=1   successful_stolen=0   observed=0   compromise_house=1   motive=0   target_object=0   know_object=0   
   (((   1   0)   % E_s_spotted_by_house=0   raining=0   successful_stolen=1   observed=0   compromise_house=1   motive=0   target_object=0   know_object=0   
   (   1   0))   % E_s_spotted_by_house=1   raining=0   successful_stolen=1   observed=0   compromise_house=1   motive=0   target_object=0   know_object=0   
   ((   1   0)   % E_s_spotted_by_house=0   raining=1   successful_stolen=1   observed=0   compromise_house=1   motive=0   target_object=0   know_object=0   
   (   1   0))))   % E_s_spotted_by_house=1   raining=1   successful_stolen=1   observed=0   compromise_house=1   motive=0   target_object=0   know_object=0   
   ((((   1   0)   % E_s_spotted_by_house=0   raining=0   successful_stolen=0   observed=1   compromise_house=1   motive=0   target_object=0   know_object=0   
   (   1   0))   % E_s_spotted_by_house=1   raining=0   successful_stolen=0   observed=1   compromise_house=1   motive=0   target_object=0   know_object=0   
   ((   1   0)   % E_s_spotted_by_house=0   raining=1   successful_stolen=0   observed=1   compromise_house=1   motive=0   target_object=0   know_object=0   
   (   1   0)))   % E_s_spotted_by_house=1   raining=1   successful_stolen=0   observed=1   compromise_house=1   motive=0   target_object=0   know_object=0   
   (((   1   0)   % E_s_spotted_by_house=0   raining=0   successful_stolen=1   observed=1   compromise_house=1   motive=0   target_object=0   know_object=0   
   (   1   0))   % E_s_spotted_by_house=1   raining=0   successful_stolen=1   observed=1   compromise_house=1   motive=0   target_object=0   know_object=0   
   ((   1   0)   % E_s_spotted_by_house=0   raining=1   successful_stolen=1   observed=1   compromise_house=1   motive=0   target_object=0   know_object=0   
   (   1   0))))))   % E_s_spotted_by_house=1   raining=1   successful_stolen=1   observed=1   compromise_house=1   motive=0   target_object=0   know_object=0   
   ((((((   1   0)   % E_s_spotted_by_house=0   raining=0   successful_stolen=0   observed=0   compromise_house=0   motive=1   target_object=0   know_object=0   
   (   1   0))   % E_s_spotted_by_house=1   raining=0   successful_stolen=0   observed=0   compromise_house=0   motive=1   target_object=0   know_object=0   
   ((   1   0)   % E_s_spotted_by_house=0   raining=1   successful_stolen=0   observed=0   compromise_house=0   motive=1   target_object=0   know_object=0   
   (   1   0)))   % E_s_spotted_by_house=1   raining=1   successful_stolen=0   observed=0   compromise_house=0   motive=1   target_object=0   know_object=0   
   (((   1   0)   % E_s_spotted_by_house=0   raining=0   successful_stolen=1   observed=0   compromise_house=0   motive=1   target_object=0   know_object=0   
   (   1   0))   % E_s_spotted_by_house=1   raining=0   successful_stolen=1   observed=0   compromise_house=0   motive=1   target_object=0   know_object=0   
   ((   1   0)   % E_s_spotted_by_house=0   raining=1   successful_stolen=1   observed=0   compromise_house=0   motive=1   target_object=0   know_object=0   
   (   1   0))))   % E_s_spotted_by_house=1   raining=1   successful_stolen=1   observed=0   compromise_house=0   motive=1   target_object=0   know_object=0   
   ((((   1   0)   % E_s_spotted_by_house=0   raining=0   successful_stolen=0   observed=1   compromise_house=0   motive=1   target_object=0   know_object=0   
   (   1   0))   % E_s_spotted_by_house=1   raining=0   successful_stolen=0   observed=1   compromise_house=0   motive=1   target_object=0   know_object=0   
   ((   1   0)   % E_s_spotted_by_house=0   raining=1   successful_stolen=0   observed=1   compromise_house=0   motive=1   target_object=0   know_object=0   
   (   1   0)))   % E_s_spotted_by_house=1   raining=1   successful_stolen=0   observed=1   compromise_house=0   motive=1   target_object=0   know_object=0   
   (((   1   0)   % E_s_spotted_by_house=0   raining=0   successful_stolen=1   observed=1   compromise_house=0   motive=1   target_object=0   know_object=0   
   (   1   0))   % E_s_spotted_by_house=1   raining=0   successful_stolen=1   observed=1   compromise_house=0   motive=1   target_object=0   know_object=0   
   ((   1   0)   % E_s_spotted_by_house=0   raining=1   successful_stolen=1   observed=1   compromise_house=0   motive=1   target_object=0   know_object=0   
   (   1   0)))))   % E_s_spotted_by_house=1   raining=1   successful_stolen=1   observed=1   compromise_house=0   motive=1   target_object=0   know_object=0   
   (((((   1   0)   % E_s_spotted_by_house=0   raining=0   successful_stolen=0   observed=0   compromise_house=1   motive=1   target_object=0   know_object=0   
   (   1   0))   % E_s_spotted_by_house=1   raining=0   successful_stolen=0   observed=0   compromise_house=1   motive=1   target_object=0   know_object=0   
   ((   1   0)   % E_s_spotted_by_house=0   raining=1   successful_stolen=0   observed=0   compromise_house=1   motive=1   target_object=0   know_object=0   
   (   1   0)))   % E_s_spotted_by_house=1   raining=1   successful_stolen=0   observed=0   compromise_house=1   motive=1   target_object=0   know_object=0   
   (((   1   0)   % E_s_spotted_by_house=0   raining=0   successful_stolen=1   observed=0   compromise_house=1   motive=1   target_object=0   know_object=0   
   (   1   0))   % E_s_spotted_by_house=1   raining=0   successful_stolen=1   observed=0   compromise_house=1   motive=1   target_object=0   know_object=0   
   ((   1   0)   % E_s_spotted_by_house=0   raining=1   successful_stolen=1   observed=0   compromise_house=1   motive=1   target_object=0   know_object=0   
   (   1   0))))   % E_s_spotted_by_house=1   raining=1   successful_stolen=1   observed=0   compromise_house=1   motive=1   target_object=0   know_object=0   
   ((((   1   0)   % E_s_spotted_by_house=0   raining=0   successful_stolen=0   observed=1   compromise_house=1   motive=1   target_object=0   know_object=0   
   (   1   0))   % E_s_spotted_by_house=1   raining=0   successful_stolen=0   observed=1   compromise_house=1   motive=1   target_object=0   know_object=0   
   ((   1   0)   % E_s_spotted_by_house=0   raining=1   successful_stolen=0   observed=1   compromise_house=1   motive=1   target_object=0   know_object=0   
   (   1   0)))   % E_s_spotted_by_house=1   raining=1   successful_stolen=0   observed=1   compromise_house=1   motive=1   target_object=0   know_object=0   
   (((   1   0)   % E_s_spotted_by_house=0   raining=0   successful_stolen=1   observed=1   compromise_house=1   motive=1   target_object=0   know_object=0   
   (   1   0))   % E_s_spotted_by_house=1   raining=0   successful_stolen=1   observed=1   compromise_house=1   motive=1   target_object=0   know_object=0   
   ((   1   0)   % E_s_spotted_by_house=0   raining=1   successful_stolen=1   observed=1   compromise_house=1   motive=1   target_object=0   know_object=0   
   (   1   0)))))))   % E_s_spotted_by_house=1   raining=1   successful_stolen=1   observed=1   compromise_house=1   motive=1   target_object=0   know_object=0   
   (((((((   1   0)   % E_s_spotted_by_house=0   raining=0   successful_stolen=0   observed=0   compromise_house=0   motive=0   target_object=1   know_object=0   
   (   1   0))   % E_s_spotted_by_house=1   raining=0   successful_stolen=0   observed=0   compromise_house=0   motive=0   target_object=1   know_object=0   
   ((   1   0)   % E_s_spotted_by_house=0   raining=1   successful_stolen=0   observed=0   compromise_house=0   motive=0   target_object=1   know_object=0   
   (   1   0)))   % E_s_spotted_by_house=1   raining=1   successful_stolen=0   observed=0   compromise_house=0   motive=0   target_object=1   know_object=0   
   (((   1   0)   % E_s_spotted_by_house=0   raining=0   successful_stolen=1   observed=0   compromise_house=0   motive=0   target_object=1   know_object=0   
   (   1   0))   % E_s_spotted_by_house=1   raining=0   successful_stolen=1   observed=0   compromise_house=0   motive=0   target_object=1   know_object=0   
   ((   1   0)   % E_s_spotted_by_house=0   raining=1   successful_stolen=1   observed=0   compromise_house=0   motive=0   target_object=1   know_object=0   
   (   1   0))))   % E_s_spotted_by_house=1   raining=1   successful_stolen=1   observed=0   compromise_house=0   motive=0   target_object=1   know_object=0   
   ((((   1   0)   % E_s_spotted_by_house=0   raining=0   successful_stolen=0   observed=1   compromise_house=0   motive=0   target_object=1   know_object=0   
   (   1   0))   % E_s_spotted_by_house=1   raining=0   successful_stolen=0   observed=1   compromise_house=0   motive=0   target_object=1   know_object=0   
   ((   1   0)   % E_s_spotted_by_house=0   raining=1   successful_stolen=0   observed=1   compromise_house=0   motive=0   target_object=1   know_object=0   
   (   1   0)))   % E_s_spotted_by_house=1   raining=1   successful_stolen=0   observed=1   compromise_house=0   motive=0   target_object=1   know_object=0   
   (((   1   0)   % E_s_spotted_by_house=0   raining=0   successful_stolen=1   observed=1   compromise_house=0   motive=0   target_object=1   know_object=0   
   (   1   0))   % E_s_spotted_by_house=1   raining=0   successful_stolen=1   observed=1   compromise_house=0   motive=0   target_object=1   know_object=0   
   ((   1   0)   % E_s_spotted_by_house=0   raining=1   successful_stolen=1   observed=1   compromise_house=0   motive=0   target_object=1   know_object=0   
   (   1   0)))))   % E_s_spotted_by_house=1   raining=1   successful_stolen=1   observed=1   compromise_house=0   motive=0   target_object=1   know_object=0   
   (((((   1   0)   % E_s_spotted_by_house=0   raining=0   successful_stolen=0   observed=0   compromise_house=1   motive=0   target_object=1   know_object=0   
   (   1   0))   % E_s_spotted_by_house=1   raining=0   successful_stolen=0   observed=0   compromise_house=1   motive=0   target_object=1   know_object=0   
   ((   1   0)   % E_s_spotted_by_house=0   raining=1   successful_stolen=0   observed=0   compromise_house=1   motive=0   target_object=1   know_object=0   
   (   1   0)))   % E_s_spotted_by_house=1   raining=1   successful_stolen=0   observed=0   compromise_house=1   motive=0   target_object=1   know_object=0   
   (((   1   0)   % E_s_spotted_by_house=0   raining=0   successful_stolen=1   observed=0   compromise_house=1   motive=0   target_object=1   know_object=0   
   (   1   0))   % E_s_spotted_by_house=1   raining=0   successful_stolen=1   observed=0   compromise_house=1   motive=0   target_object=1   know_object=0   
   ((   1   0)   % E_s_spotted_by_house=0   raining=1   successful_stolen=1   observed=0   compromise_house=1   motive=0   target_object=1   know_object=0   
   (   1   0))))   % E_s_spotted_by_house=1   raining=1   successful_stolen=1   observed=0   compromise_house=1   motive=0   target_object=1   know_object=0   
   ((((   1   0)   % E_s_spotted_by_house=0   raining=0   successful_stolen=0   observed=1   compromise_house=1   motive=0   target_object=1   know_object=0   
   (   1   0))   % E_s_spotted_by_house=1   raining=0   successful_stolen=0   observed=1   compromise_house=1   motive=0   target_object=1   know_object=0   
   ((   1   0)   % E_s_spotted_by_house=0   raining=1   successful_stolen=0   observed=1   compromise_house=1   motive=0   target_object=1   know_object=0   
   (   1   0)))   % E_s_spotted_by_house=1   raining=1   successful_stolen=0   observed=1   compromise_house=1   motive=0   target_object=1   know_object=0   
   (((   1   0)   % E_s_spotted_by_house=0   raining=0   successful_stolen=1   observed=1   compromise_house=1   motive=0   target_object=1   know_object=0   
   (   1   0))   % E_s_spotted_by_house=1   raining=0   successful_stolen=1   observed=1   compromise_house=1   motive=0   target_object=1   know_object=0   
   ((   1   0)   % E_s_spotted_by_house=0   raining=1   successful_stolen=1   observed=1   compromise_house=1   motive=0   target_object=1   know_object=0   
   (   1   0))))))   % E_s_spotted_by_house=1   raining=1   successful_stolen=1   observed=1   compromise_house=1   motive=0   target_object=1   know_object=0   
   ((((((   1   0)   % E_s_spotted_by_house=0   raining=0   successful_stolen=0   observed=0   compromise_house=0   motive=1   target_object=1   know_object=0   
   (   1   0))   % E_s_spotted_by_house=1   raining=0   successful_stolen=0   observed=0   compromise_house=0   motive=1   target_object=1   know_object=0   
   ((   1   0)   % E_s_spotted_by_house=0   raining=1   successful_stolen=0   observed=0   compromise_house=0   motive=1   target_object=1   know_object=0   
   (   1   0)))   % E_s_spotted_by_house=1   raining=1   successful_stolen=0   observed=0   compromise_house=0   motive=1   target_object=1   know_object=0   
   (((   1   0)   % E_s_spotted_by_house=0   raining=0   successful_stolen=1   observed=0   compromise_house=0   motive=1   target_object=1   know_object=0   
   (   1   0))   % E_s_spotted_by_house=1   raining=0   successful_stolen=1   observed=0   compromise_house=0   motive=1   target_object=1   know_object=0   
   ((   1   0)   % E_s_spotted_by_house=0   raining=1   successful_stolen=1   observed=0   compromise_house=0   motive=1   target_object=1   know_object=0   
   (   1   0))))   % E_s_spotted_by_house=1   raining=1   successful_stolen=1   observed=0   compromise_house=0   motive=1   target_object=1   know_object=0   
   ((((   1   0)   % E_s_spotted_by_house=0   raining=0   successful_stolen=0   observed=1   compromise_house=0   motive=1   target_object=1   know_object=0   
   (   1   0))   % E_s_spotted_by_house=1   raining=0   successful_stolen=0   observed=1   compromise_house=0   motive=1   target_object=1   know_object=0   
   ((   1   0)   % E_s_spotted_by_house=0   raining=1   successful_stolen=0   observed=1   compromise_house=0   motive=1   target_object=1   know_object=0   
   (   1   0)))   % E_s_spotted_by_house=1   raining=1   successful_stolen=0   observed=1   compromise_house=0   motive=1   target_object=1   know_object=0   
   (((   1   0)   % E_s_spotted_by_house=0   raining=0   successful_stolen=1   observed=1   compromise_house=0   motive=1   target_object=1   know_object=0   
   (   1   0))   % E_s_spotted_by_house=1   raining=0   successful_stolen=1   observed=1   compromise_house=0   motive=1   target_object=1   know_object=0   
   ((   1   0)   % E_s_spotted_by_house=0   raining=1   successful_stolen=1   observed=1   compromise_house=0   motive=1   target_object=1   know_object=0   
   (   1   0)))))   % E_s_spotted_by_house=1   raining=1   successful_stolen=1   observed=1   compromise_house=0   motive=1   target_object=1   know_object=0   
   (((((   1   0)   % E_s_spotted_by_house=0   raining=0   successful_stolen=0   observed=0   compromise_house=1   motive=1   target_object=1   know_object=0   
   (   1   0))   % E_s_spotted_by_house=1   raining=0   successful_stolen=0   observed=0   compromise_house=1   motive=1   target_object=1   know_object=0   
   ((   1   0)   % E_s_spotted_by_house=0   raining=1   successful_stolen=0   observed=0   compromise_house=1   motive=1   target_object=1   know_object=0   
   (   1   0)))   % E_s_spotted_by_house=1   raining=1   successful_stolen=0   observed=0   compromise_house=1   motive=1   target_object=1   know_object=0   
   (((   1   0)   % E_s_spotted_by_house=0   raining=0   successful_stolen=1   observed=0   compromise_house=1   motive=1   target_object=1   know_object=0   
   (   1   0))   % E_s_spotted_by_house=1   raining=0   successful_stolen=1   observed=0   compromise_house=1   motive=1   target_object=1   know_object=0   
   ((   1   0)   % E_s_spotted_by_house=0   raining=1   successful_stolen=1   observed=0   compromise_house=1   motive=1   target_object=1   know_object=0   
   (   1   0))))   % E_s_spotted_by_house=1   raining=1   successful_stolen=1   observed=0   compromise_house=1   motive=1   target_object=1   know_object=0   
   ((((   1   0)   % E_s_spotted_by_house=0   raining=0   successful_stolen=0   observed=1   compromise_house=1   motive=1   target_object=1   know_object=0   
   (   1   0))   % E_s_spotted_by_house=1   raining=0   successful_stolen=0   observed=1   compromise_house=1   motive=1   target_object=1   know_object=0   
   ((   1   0)   % E_s_spotted_by_house=0   raining=1   successful_stolen=0   observed=1   compromise_house=1   motive=1   target_object=1   know_object=0   
   (   1   0)))   % E_s_spotted_by_house=1   raining=1   successful_stolen=0   observed=1   compromise_house=1   motive=1   target_object=1   know_object=0   
   (((   1   0)   % E_s_spotted_by_house=0   raining=0   successful_stolen=1   observed=1   compromise_house=1   motive=1   target_object=1   know_object=0   
   (   1   0))   % E_s_spotted_by_house=1   raining=0   successful_stolen=1   observed=1   compromise_house=1   motive=1   target_object=1   know_object=0   
   ((   1   0)   % E_s_spotted_by_house=0   raining=1   successful_stolen=1   observed=1   compromise_house=1   motive=1   target_object=1   know_object=0   
   (   1   0))))))))   % E_s_spotted_by_house=1   raining=1   successful_stolen=1   observed=1   compromise_house=1   motive=1   target_object=1   know_object=0   
   ((((((((   1   0)   % E_s_spotted_by_house=0   raining=0   successful_stolen=0   observed=0   compromise_house=0   motive=0   target_object=0   know_object=1   
   (   1   0))   % E_s_spotted_by_house=1   raining=0   successful_stolen=0   observed=0   compromise_house=0   motive=0   target_object=0   know_object=1   
   ((   1   0)   % E_s_spotted_by_house=0   raining=1   successful_stolen=0   observed=0   compromise_house=0   motive=0   target_object=0   know_object=1   
   (   1   0)))   % E_s_spotted_by_house=1   raining=1   successful_stolen=0   observed=0   compromise_house=0   motive=0   target_object=0   know_object=1   
   (((   1   0)   % E_s_spotted_by_house=0   raining=0   successful_stolen=1   observed=0   compromise_house=0   motive=0   target_object=0   know_object=1   
   (   1   0))   % E_s_spotted_by_house=1   raining=0   successful_stolen=1   observed=0   compromise_house=0   motive=0   target_object=0   know_object=1   
   ((   1   0)   % E_s_spotted_by_house=0   raining=1   successful_stolen=1   observed=0   compromise_house=0   motive=0   target_object=0   know_object=1   
   (   1   0))))   % E_s_spotted_by_house=1   raining=1   successful_stolen=1   observed=0   compromise_house=0   motive=0   target_object=0   know_object=1   
   ((((   1   0)   % E_s_spotted_by_house=0   raining=0   successful_stolen=0   observed=1   compromise_house=0   motive=0   target_object=0   know_object=1   
   (   1   0))   % E_s_spotted_by_house=1   raining=0   successful_stolen=0   observed=1   compromise_house=0   motive=0   target_object=0   know_object=1   
   ((   1   0)   % E_s_spotted_by_house=0   raining=1   successful_stolen=0   observed=1   compromise_house=0   motive=0   target_object=0   know_object=1   
   (   1   0)))   % E_s_spotted_by_house=1   raining=1   successful_stolen=0   observed=1   compromise_house=0   motive=0   target_object=0   know_object=1   
   (((   1   0)   % E_s_spotted_by_house=0   raining=0   successful_stolen=1   observed=1   compromise_house=0   motive=0   target_object=0   know_object=1   
   (   1   0))   % E_s_spotted_by_house=1   raining=0   successful_stolen=1   observed=1   compromise_house=0   motive=0   target_object=0   know_object=1   
   ((   1   0)   % E_s_spotted_by_house=0   raining=1   successful_stolen=1   observed=1   compromise_house=0   motive=0   target_object=0   know_object=1   
   (   1   0)))))   % E_s_spotted_by_house=1   raining=1   successful_stolen=1   observed=1   compromise_house=0   motive=0   target_object=0   know_object=1   
   (((((   1   0)   % E_s_spotted_by_house=0   raining=0   successful_stolen=0   observed=0   compromise_house=1   motive=0   target_object=0   know_object=1   
   (   1   0))   % E_s_spotted_by_house=1   raining=0   successful_stolen=0   observed=0   compromise_house=1   motive=0   target_object=0   know_object=1   
   ((   1   0)   % E_s_spotted_by_house=0   raining=1   successful_stolen=0   observed=0   compromise_house=1   motive=0   target_object=0   know_object=1   
   (   1   0)))   % E_s_spotted_by_house=1   raining=1   successful_stolen=0   observed=0   compromise_house=1   motive=0   target_object=0   know_object=1   
   (((   1   0)   % E_s_spotted_by_house=0   raining=0   successful_stolen=1   observed=0   compromise_house=1   motive=0   target_object=0   know_object=1   
   (   1   0))   % E_s_spotted_by_house=1   raining=0   successful_stolen=1   observed=0   compromise_house=1   motive=0   target_object=0   know_object=1   
   ((   1   0)   % E_s_spotted_by_house=0   raining=1   successful_stolen=1   observed=0   compromise_house=1   motive=0   target_object=0   know_object=1   
   (   1   0))))   % E_s_spotted_by_house=1   raining=1   successful_stolen=1   observed=0   compromise_house=1   motive=0   target_object=0   know_object=1   
   ((((   1   0)   % E_s_spotted_by_house=0   raining=0   successful_stolen=0   observed=1   compromise_house=1   motive=0   target_object=0   know_object=1   
   (   1   0))   % E_s_spotted_by_house=1   raining=0   successful_stolen=0   observed=1   compromise_house=1   motive=0   target_object=0   know_object=1   
   ((   1   0)   % E_s_spotted_by_house=0   raining=1   successful_stolen=0   observed=1   compromise_house=1   motive=0   target_object=0   know_object=1   
   (   1   0)))   % E_s_spotted_by_house=1   raining=1   successful_stolen=0   observed=1   compromise_house=1   motive=0   target_object=0   know_object=1   
   (((   1   0)   % E_s_spotted_by_house=0   raining=0   successful_stolen=1   observed=1   compromise_house=1   motive=0   target_object=0   know_object=1   
   (   1   0))   % E_s_spotted_by_house=1   raining=0   successful_stolen=1   observed=1   compromise_house=1   motive=0   target_object=0   know_object=1   
   ((   1   0)   % E_s_spotted_by_house=0   raining=1   successful_stolen=1   observed=1   compromise_house=1   motive=0   target_object=0   know_object=1   
   (   1   0))))))   % E_s_spotted_by_house=1   raining=1   successful_stolen=1   observed=1   compromise_house=1   motive=0   target_object=0   know_object=1   
   ((((((   1   0)   % E_s_spotted_by_house=0   raining=0   successful_stolen=0   observed=0   compromise_house=0   motive=1   target_object=0   know_object=1   
   (   1   0))   % E_s_spotted_by_house=1   raining=0   successful_stolen=0   observed=0   compromise_house=0   motive=1   target_object=0   know_object=1   
   ((   1   0)   % E_s_spotted_by_house=0   raining=1   successful_stolen=0   observed=0   compromise_house=0   motive=1   target_object=0   know_object=1   
   (   1   0)))   % E_s_spotted_by_house=1   raining=1   successful_stolen=0   observed=0   compromise_house=0   motive=1   target_object=0   know_object=1   
   (((   1   0)   % E_s_spotted_by_house=0   raining=0   successful_stolen=1   observed=0   compromise_house=0   motive=1   target_object=0   know_object=1   
   (   1   0))   % E_s_spotted_by_house=1   raining=0   successful_stolen=1   observed=0   compromise_house=0   motive=1   target_object=0   know_object=1   
   ((   1   0)   % E_s_spotted_by_house=0   raining=1   successful_stolen=1   observed=0   compromise_house=0   motive=1   target_object=0   know_object=1   
   (   1   0))))   % E_s_spotted_by_house=1   raining=1   successful_stolen=1   observed=0   compromise_house=0   motive=1   target_object=0   know_object=1   
   ((((   1   0)   % E_s_spotted_by_house=0   raining=0   successful_stolen=0   observed=1   compromise_house=0   motive=1   target_object=0   know_object=1   
   (   1   0))   % E_s_spotted_by_house=1   raining=0   successful_stolen=0   observed=1   compromise_house=0   motive=1   target_object=0   know_object=1   
   ((   1   0)   % E_s_spotted_by_house=0   raining=1   successful_stolen=0   observed=1   compromise_house=0   motive=1   target_object=0   know_object=1   
   (   1   0)))   % E_s_spotted_by_house=1   raining=1   successful_stolen=0   observed=1   compromise_house=0   motive=1   target_object=0   know_object=1   
   (((   1   0)   % E_s_spotted_by_house=0   raining=0   successful_stolen=1   observed=1   compromise_house=0   motive=1   target_object=0   know_object=1   
   (   1   0))   % E_s_spotted_by_house=1   raining=0   successful_stolen=1   observed=1   compromise_house=0   motive=1   target_object=0   know_object=1   
   ((   1   0)   % E_s_spotted_by_house=0   raining=1   successful_stolen=1   observed=1   compromise_house=0   motive=1   target_object=0   know_object=1   
   (   1   0)))))   % E_s_spotted_by_house=1   raining=1   successful_stolen=1   observed=1   compromise_house=0   motive=1   target_object=0   know_object=1   
   (((((   1   0)   % E_s_spotted_by_house=0   raining=0   successful_stolen=0   observed=0   compromise_house=1   motive=1   target_object=0   know_object=1   
   (   1   0))   % E_s_spotted_by_house=1   raining=0   successful_stolen=0   observed=0   compromise_house=1   motive=1   target_object=0   know_object=1   
   ((   1   0)   % E_s_spotted_by_house=0   raining=1   successful_stolen=0   observed=0   compromise_house=1   motive=1   target_object=0   know_object=1   
   (   1   0)))   % E_s_spotted_by_house=1   raining=1   successful_stolen=0   observed=0   compromise_house=1   motive=1   target_object=0   know_object=1   
   (((   1   0)   % E_s_spotted_by_house=0   raining=0   successful_stolen=1   observed=0   compromise_house=1   motive=1   target_object=0   know_object=1   
   (   1   0))   % E_s_spotted_by_house=1   raining=0   successful_stolen=1   observed=0   compromise_house=1   motive=1   target_object=0   know_object=1   
   ((   1   0)   % E_s_spotted_by_house=0   raining=1   successful_stolen=1   observed=0   compromise_house=1   motive=1   target_object=0   know_object=1   
   (   1   0))))   % E_s_spotted_by_house=1   raining=1   successful_stolen=1   observed=0   compromise_house=1   motive=1   target_object=0   know_object=1   
   ((((   1   0)   % E_s_spotted_by_house=0   raining=0   successful_stolen=0   observed=1   compromise_house=1   motive=1   target_object=0   know_object=1   
   (   1   0))   % E_s_spotted_by_house=1   raining=0   successful_stolen=0   observed=1   compromise_house=1   motive=1   target_object=0   know_object=1   
   ((   1   0)   % E_s_spotted_by_house=0   raining=1   successful_stolen=0   observed=1   compromise_house=1   motive=1   target_object=0   know_object=1   
   (   1   0)))   % E_s_spotted_by_house=1   raining=1   successful_stolen=0   observed=1   compromise_house=1   motive=1   target_object=0   know_object=1   
   (((   1   0)   % E_s_spotted_by_house=0   raining=0   successful_stolen=1   observed=1   compromise_house=1   motive=1   target_object=0   know_object=1   
   (   1   0))   % E_s_spotted_by_house=1   raining=0   successful_stolen=1   observed=1   compromise_house=1   motive=1   target_object=0   know_object=1   
   ((   1   0)   % E_s_spotted_by_house=0   raining=1   successful_stolen=1   observed=1   compromise_house=1   motive=1   target_object=0   know_object=1   
   (   1   0)))))))   % E_s_spotted_by_house=1   raining=1   successful_stolen=1   observed=1   compromise_house=1   motive=1   target_object=0   know_object=1   
   (((((((   1   0)   % E_s_spotted_by_house=0   raining=0   successful_stolen=0   observed=0   compromise_house=0   motive=0   target_object=1   know_object=1   
   (   1   0))   % E_s_spotted_by_house=1   raining=0   successful_stolen=0   observed=0   compromise_house=0   motive=0   target_object=1   know_object=1   
   ((   1   0)   % E_s_spotted_by_house=0   raining=1   successful_stolen=0   observed=0   compromise_house=0   motive=0   target_object=1   know_object=1   
   (   1   0)))   % E_s_spotted_by_house=1   raining=1   successful_stolen=0   observed=0   compromise_house=0   motive=0   target_object=1   know_object=1   
   (((   1   0)   % E_s_spotted_by_house=0   raining=0   successful_stolen=1   observed=0   compromise_house=0   motive=0   target_object=1   know_object=1   
   (   1   0))   % E_s_spotted_by_house=1   raining=0   successful_stolen=1   observed=0   compromise_house=0   motive=0   target_object=1   know_object=1   
   ((   1   0)   % E_s_spotted_by_house=0   raining=1   successful_stolen=1   observed=0   compromise_house=0   motive=0   target_object=1   know_object=1   
   (   1   0))))   % E_s_spotted_by_house=1   raining=1   successful_stolen=1   observed=0   compromise_house=0   motive=0   target_object=1   know_object=1   
   ((((   1   0)   % E_s_spotted_by_house=0   raining=0   successful_stolen=0   observed=1   compromise_house=0   motive=0   target_object=1   know_object=1   
   (   1   0))   % E_s_spotted_by_house=1   raining=0   successful_stolen=0   observed=1   compromise_house=0   motive=0   target_object=1   know_object=1   
   ((   1   0)   % E_s_spotted_by_house=0   raining=1   successful_stolen=0   observed=1   compromise_house=0   motive=0   target_object=1   know_object=1   
   (   1   0)))   % E_s_spotted_by_house=1   raining=1   successful_stolen=0   observed=1   compromise_house=0   motive=0   target_object=1   know_object=1   
   (((   1   0)   % E_s_spotted_by_house=0   raining=0   successful_stolen=1   observed=1   compromise_house=0   motive=0   target_object=1   know_object=1   
   (   1   0))   % E_s_spotted_by_house=1   raining=0   successful_stolen=1   observed=1   compromise_house=0   motive=0   target_object=1   know_object=1   
   ((   1   0)   % E_s_spotted_by_house=0   raining=1   successful_stolen=1   observed=1   compromise_house=0   motive=0   target_object=1   know_object=1   
   (   1   0)))))   % E_s_spotted_by_house=1   raining=1   successful_stolen=1   observed=1   compromise_house=0   motive=0   target_object=1   know_object=1   
   (((((   1   0)   % E_s_spotted_by_house=0   raining=0   successful_stolen=0   observed=0   compromise_house=1   motive=0   target_object=1   know_object=1   
   (   1   0))   % E_s_spotted_by_house=1   raining=0   successful_stolen=0   observed=0   compromise_house=1   motive=0   target_object=1   know_object=1   
   ((   1   0)   % E_s_spotted_by_house=0   raining=1   successful_stolen=0   observed=0   compromise_house=1   motive=0   target_object=1   know_object=1   
   (   1   0)))   % E_s_spotted_by_house=1   raining=1   successful_stolen=0   observed=0   compromise_house=1   motive=0   target_object=1   know_object=1   
   (((   1   0)   % E_s_spotted_by_house=0   raining=0   successful_stolen=1   observed=0   compromise_house=1   motive=0   target_object=1   know_object=1   
   (   1   0))   % E_s_spotted_by_house=1   raining=0   successful_stolen=1   observed=0   compromise_house=1   motive=0   target_object=1   know_object=1   
   ((   1   0)   % E_s_spotted_by_house=0   raining=1   successful_stolen=1   observed=0   compromise_house=1   motive=0   target_object=1   know_object=1   
   (   1   0))))   % E_s_spotted_by_house=1   raining=1   successful_stolen=1   observed=0   compromise_house=1   motive=0   target_object=1   know_object=1   
   ((((   1   0)   % E_s_spotted_by_house=0   raining=0   successful_stolen=0   observed=1   compromise_house=1   motive=0   target_object=1   know_object=1   
   (   1   0))   % E_s_spotted_by_house=1   raining=0   successful_stolen=0   observed=1   compromise_house=1   motive=0   target_object=1   know_object=1   
   ((   1   0)   % E_s_spotted_by_house=0   raining=1   successful_stolen=0   observed=1   compromise_house=1   motive=0   target_object=1   know_object=1   
   (   1   0)))   % E_s_spotted_by_house=1   raining=1   successful_stolen=0   observed=1   compromise_house=1   motive=0   target_object=1   know_object=1   
   (((   1   0)   % E_s_spotted_by_house=0   raining=0   successful_stolen=1   observed=1   compromise_house=1   motive=0   target_object=1   know_object=1   
   (   1   0))   % E_s_spotted_by_house=1   raining=0   successful_stolen=1   observed=1   compromise_house=1   motive=0   target_object=1   know_object=1   
   ((   1   0)   % E_s_spotted_by_house=0   raining=1   successful_stolen=1   observed=1   compromise_house=1   motive=0   target_object=1   know_object=1   
   (   1   0))))))   % E_s_spotted_by_house=1   raining=1   successful_stolen=1   observed=1   compromise_house=1   motive=0   target_object=1   know_object=1   
   ((((((   1   0)   % E_s_spotted_by_house=0   raining=0   successful_stolen=0   observed=0   compromise_house=0   motive=1   target_object=1   know_object=1   
   (   1   0))   % E_s_spotted_by_house=1   raining=0   successful_stolen=0   observed=0   compromise_house=0   motive=1   target_object=1   know_object=1   
   ((   1   0)   % E_s_spotted_by_house=0   raining=1   successful_stolen=0   observed=0   compromise_house=0   motive=1   target_object=1   know_object=1   
   (   1   0)))   % E_s_spotted_by_house=1   raining=1   successful_stolen=0   observed=0   compromise_house=0   motive=1   target_object=1   know_object=1   
   (((   1   0)   % E_s_spotted_by_house=0   raining=0   successful_stolen=1   observed=0   compromise_house=0   motive=1   target_object=1   know_object=1   
   (   1   0))   % E_s_spotted_by_house=1   raining=0   successful_stolen=1   observed=0   compromise_house=0   motive=1   target_object=1   know_object=1   
   ((   1   0)   % E_s_spotted_by_house=0   raining=1   successful_stolen=1   observed=0   compromise_house=0   motive=1   target_object=1   know_object=1   
   (   1   0))))   % E_s_spotted_by_house=1   raining=1   successful_stolen=1   observed=0   compromise_house=0   motive=1   target_object=1   know_object=1   
   ((((   1   0)   % E_s_spotted_by_house=0   raining=0   successful_stolen=0   observed=1   compromise_house=0   motive=1   target_object=1   know_object=1   
   (   1   0))   % E_s_spotted_by_house=1   raining=0   successful_stolen=0   observed=1   compromise_house=0   motive=1   target_object=1   know_object=1   
   ((   1   0)   % E_s_spotted_by_house=0   raining=1   successful_stolen=0   observed=1   compromise_house=0   motive=1   target_object=1   know_object=1   
   (   1   0)))   % E_s_spotted_by_house=1   raining=1   successful_stolen=0   observed=1   compromise_house=0   motive=1   target_object=1   know_object=1   
   (((   1   0)   % E_s_spotted_by_house=0   raining=0   successful_stolen=1   observed=1   compromise_house=0   motive=1   target_object=1   know_object=1   
   (   1   0))   % E_s_spotted_by_house=1   raining=0   successful_stolen=1   observed=1   compromise_house=0   motive=1   target_object=1   know_object=1   
   ((   1   0)   % E_s_spotted_by_house=0   raining=1   successful_stolen=1   observed=1   compromise_house=0   motive=1   target_object=1   know_object=1   
   (   1   0)))))   % E_s_spotted_by_house=1   raining=1   successful_stolen=1   observed=1   compromise_house=0   motive=1   target_object=1   know_object=1   
   (((((   1   0)   % E_s_spotted_by_house=0   raining=0   successful_stolen=0   observed=0   compromise_house=1   motive=1   target_object=1   know_object=1   
   (   1   0))   % E_s_spotted_by_house=1   raining=0   successful_stolen=0   observed=0   compromise_house=1   motive=1   target_object=1   know_object=1   
   ((   1   0)   % E_s_spotted_by_house=0   raining=1   successful_stolen=0   observed=0   compromise_house=1   motive=1   target_object=1   know_object=1   
   (   1   0)))   % E_s_spotted_by_house=1   raining=1   successful_stolen=0   observed=0   compromise_house=1   motive=1   target_object=1   know_object=1   
   (((   1   0)   % E_s_spotted_by_house=0   raining=0   successful_stolen=1   observed=0   compromise_house=1   motive=1   target_object=1   know_object=1   
   (   0   1))   % E_s_spotted_by_house=1   raining=0   successful_stolen=1   observed=0   compromise_house=1   motive=1   target_object=1   know_object=1   
   ((   1   0)   % E_s_spotted_by_house=0   raining=1   successful_stolen=1   observed=0   compromise_house=1   motive=1   target_object=1   know_object=1   
   (   0   1))))   % E_s_spotted_by_house=1   raining=1   successful_stolen=1   observed=0   compromise_house=1   motive=1   target_object=1   know_object=1   
   ((((   1   0)   % E_s_spotted_by_house=0   raining=0   successful_stolen=0   observed=1   compromise_house=1   motive=1   target_object=1   know_object=1   
   (   0.428571   0.571429))   % E_s_spotted_by_house=1   raining=0   successful_stolen=0   observed=1   compromise_house=1   motive=1   target_object=1   know_object=1   
   ((   1   0)   % E_s_spotted_by_house=0   raining=1   successful_stolen=0   observed=1   compromise_house=1   motive=1   target_object=1   know_object=1   
   (   0.333333   0.666667)))   % E_s_spotted_by_house=1   raining=1   successful_stolen=0   observed=1   compromise_house=1   motive=1   target_object=1   know_object=1   
   (((   1   0)   % E_s_spotted_by_house=0   raining=0   successful_stolen=1   observed=1   compromise_house=1   motive=1   target_object=1   know_object=1   
   (   1   0))   % E_s_spotted_by_house=1   raining=0   successful_stolen=1   observed=1   compromise_house=1   motive=1   target_object=1   know_object=1   
   ((   1   0)   % E_s_spotted_by_house=0   raining=1   successful_stolen=1   observed=1   compromise_house=1   motive=1   target_object=1   know_object=1   
   (   1   0)))))))));   % E_s_spotted_by_house=1   raining=1   successful_stolen=1   observed=1   compromise_house=1   motive=1   target_object=1   know_object=1   
}

potential ( E_object_is_gone | know_object   target_object   motive   compromise_house   observed   successful_stolen   raining   E_s_spotted_by_house   E_s_spotted_with_goodie   ) {
   data = 
   ((((((((((   1   0)   % E_s_spotted_with_goodie=0   E_s_spotted_by_house=0   raining=0   successful_stolen=0   observed=0   compromise_house=0   motive=0   target_object=0   know_object=0   
   (   1   0))   % E_s_spotted_with_goodie=1   E_s_spotted_by_house=0   raining=0   successful_stolen=0   observed=0   compromise_house=0   motive=0   target_object=0   know_object=0   
   ((   1   0)   % E_s_spotted_with_goodie=0   E_s_spotted_by_house=1   raining=0   successful_stolen=0   observed=0   compromise_house=0   motive=0   target_object=0   know_object=0   
   (   1   0)))   % E_s_spotted_with_goodie=1   E_s_spotted_by_house=1   raining=0   successful_stolen=0   observed=0   compromise_house=0   motive=0   target_object=0   know_object=0   
   (((   1   0)   % E_s_spotted_with_goodie=0   E_s_spotted_by_house=0   raining=1   successful_stolen=0   observed=0   compromise_house=0   motive=0   target_object=0   know_object=0   
   (   1   0))   % E_s_spotted_with_goodie=1   E_s_spotted_by_house=0   raining=1   successful_stolen=0   observed=0   compromise_house=0   motive=0   target_object=0   know_object=0   
   ((   1   0)   % E_s_spotted_with_goodie=0   E_s_spotted_by_house=1   raining=1   successful_stolen=0   observed=0   compromise_house=0   motive=0   target_object=0   know_object=0   
   (   1   0))))   % E_s_spotted_with_goodie=1   E_s_spotted_by_house=1   raining=1   successful_stolen=0   observed=0   compromise_house=0   motive=0   target_object=0   know_object=0   
   ((((   1   0)   % E_s_spotted_with_goodie=0   E_s_spotted_by_house=0   raining=0   successful_stolen=1   observed=0   compromise_house=0   motive=0   target_object=0   know_object=0   
   (   1   0))   % E_s_spotted_with_goodie=1   E_s_spotted_by_house=0   raining=0   successful_stolen=1   observed=0   compromise_house=0   motive=0   target_object=0   know_object=0   
   ((   1   0)   % E_s_spotted_with_goodie=0   E_s_spotted_by_house=1   raining=0   successful_stolen=1   observed=0   compromise_house=0   motive=0   target_object=0   know_object=0   
   (   1   0)))   % E_s_spotted_with_goodie=1   E_s_spotted_by_house=1   raining=0   successful_stolen=1   observed=0   compromise_house=0   motive=0   target_object=0   know_object=0   
   (((   1   0)   % E_s_spotted_with_goodie=0   E_s_spotted_by_house=0   raining=1   successful_stolen=1   observed=0   compromise_house=0   motive=0   target_object=0   know_object=0   
   (   1   0))   % E_s_spotted_with_goodie=1   E_s_spotted_by_house=0   raining=1   successful_stolen=1   observed=0   compromise_house=0   motive=0   target_object=0   know_object=0   
   ((   1   0)   % E_s_spotted_with_goodie=0   E_s_spotted_by_house=1   raining=1   successful_stolen=1   observed=0   compromise_house=0   motive=0   target_object=0   know_object=0   
   (   1   0)))))   % E_s_spotted_with_goodie=1   E_s_spotted_by_house=1   raining=1   successful_stolen=1   observed=0   compromise_house=0   motive=0   target_object=0   know_object=0   
   (((((   1   0)   % E_s_spotted_with_goodie=0   E_s_spotted_by_house=0   raining=0   successful_stolen=0   observed=1   compromise_house=0   motive=0   target_object=0   know_object=0   
   (   1   0))   % E_s_spotted_with_goodie=1   E_s_spotted_by_house=0   raining=0   successful_stolen=0   observed=1   compromise_house=0   motive=0   target_object=0   know_object=0   
   ((   1   0)   % E_s_spotted_with_goodie=0   E_s_spotted_by_house=1   raining=0   successful_stolen=0   observed=1   compromise_house=0   motive=0   target_object=0   know_object=0   
   (   1   0)))   % E_s_spotted_with_goodie=1   E_s_spotted_by_house=1   raining=0   successful_stolen=0   observed=1   compromise_house=0   motive=0   target_object=0   know_object=0   
   (((   1   0)   % E_s_spotted_with_goodie=0   E_s_spotted_by_house=0   raining=1   successful_stolen=0   observed=1   compromise_house=0   motive=0   target_object=0   know_object=0   
   (   1   0))   % E_s_spotted_with_goodie=1   E_s_spotted_by_house=0   raining=1   successful_stolen=0   observed=1   compromise_house=0   motive=0   target_object=0   know_object=0   
   ((   1   0)   % E_s_spotted_with_goodie=0   E_s_spotted_by_house=1   raining=1   successful_stolen=0   observed=1   compromise_house=0   motive=0   target_object=0   know_object=0   
   (   1   0))))   % E_s_spotted_with_goodie=1   E_s_spotted_by_house=1   raining=1   successful_stolen=0   observed=1   compromise_house=0   motive=0   target_object=0   know_object=0   
   ((((   1   0)   % E_s_spotted_with_goodie=0   E_s_spotted_by_house=0   raining=0   successful_stolen=1   observed=1   compromise_house=0   motive=0   target_object=0   know_object=0   
   (   1   0))   % E_s_spotted_with_goodie=1   E_s_spotted_by_house=0   raining=0   successful_stolen=1   observed=1   compromise_house=0   motive=0   target_object=0   know_object=0   
   ((   1   0)   % E_s_spotted_with_goodie=0   E_s_spotted_by_house=1   raining=0   successful_stolen=1   observed=1   compromise_house=0   motive=0   target_object=0   know_object=0   
   (   1   0)))   % E_s_spotted_with_goodie=1   E_s_spotted_by_house=1   raining=0   successful_stolen=1   observed=1   compromise_house=0   motive=0   target_object=0   know_object=0   
   (((   1   0)   % E_s_spotted_with_goodie=0   E_s_spotted_by_house=0   raining=1   successful_stolen=1   observed=1   compromise_house=0   motive=0   target_object=0   know_object=0   
   (   1   0))   % E_s_spotted_with_goodie=1   E_s_spotted_by_house=0   raining=1   successful_stolen=1   observed=1   compromise_house=0   motive=0   target_object=0   know_object=0   
   ((   1   0)   % E_s_spotted_with_goodie=0   E_s_spotted_by_house=1   raining=1   successful_stolen=1   observed=1   compromise_house=0   motive=0   target_object=0   know_object=0   
   (   1   0))))))   % E_s_spotted_with_goodie=1   E_s_spotted_by_house=1   raining=1   successful_stolen=1   observed=1   compromise_house=0   motive=0   target_object=0   know_object=0   
   ((((((   1   0)   % E_s_spotted_with_goodie=0   E_s_spotted_by_house=0   raining=0   successful_stolen=0   observed=0   compromise_house=1   motive=0   target_object=0   know_object=0   
   (   1   0))   % E_s_spotted_with_goodie=1   E_s_spotted_by_house=0   raining=0   successful_stolen=0   observed=0   compromise_house=1   motive=0   target_object=0   know_object=0   
   ((   1   0)   % E_s_spotted_with_goodie=0   E_s_spotted_by_house=1   raining=0   successful_stolen=0   observed=0   compromise_house=1   motive=0   target_object=0   know_object=0   
   (   1   0)))   % E_s_spotted_with_goodie=1   E_s_spotted_by_house=1   raining=0   successful_stolen=0   observed=0   compromise_house=1   motive=0   target_object=0   know_object=0   
   (((   1   0)   % E_s_spotted_with_goodie=0   E_s_spotted_by_house=0   raining=1   successful_stolen=0   observed=0   compromise_house=1   motive=0   target_object=0   know_object=0   
   (   1   0))   % E_s_spotted_with_goodie=1   E_s_spotted_by_house=0   raining=1   successful_stolen=0   observed=0   compromise_house=1   motive=0   target_object=0   know_object=0   
   ((   1   0)   % E_s_spotted_with_goodie=0   E_s_spotted_by_house=1   raining=1   successful_stolen=0   observed=0   compromise_house=1   motive=0   target_object=0   know_object=0   
   (   1   0))))   % E_s_spotted_with_goodie=1   E_s_spotted_by_house=1   raining=1   successful_stolen=0   observed=0   compromise_house=1   motive=0   target_object=0   know_object=0   
   ((((   1   0)   % E_s_spotted_with_goodie=0   E_s_spotted_by_house=0   raining=0   successful_stolen=1   observed=0   compromise_house=1   motive=0   target_object=0   know_object=0   
   (   1   0))   % E_s_spotted_with_goodie=1   E_s_spotted_by_house=0   raining=0   successful_stolen=1   observed=0   compromise_house=1   motive=0   target_object=0   know_object=0   
   ((   1   0)   % E_s_spotted_with_goodie=0   E_s_spotted_by_house=1   raining=0   successful_stolen=1   observed=0   compromise_house=1   motive=0   target_object=0   know_object=0   
   (   1   0)))   % E_s_spotted_with_goodie=1   E_s_spotted_by_house=1   raining=0   successful_stolen=1   observed=0   compromise_house=1   motive=0   target_object=0   know_object=0   
   (((   1   0)   % E_s_spotted_with_goodie=0   E_s_spotted_by_house=0   raining=1   successful_stolen=1   observed=0   compromise_house=1   motive=0   target_object=0   know_object=0   
   (   1   0))   % E_s_spotted_with_goodie=1   E_s_spotted_by_house=0   raining=1   successful_stolen=1   observed=0   compromise_house=1   motive=0   target_object=0   know_object=0   
   ((   1   0)   % E_s_spotted_with_goodie=0   E_s_spotted_by_house=1   raining=1   successful_stolen=1   observed=0   compromise_house=1   motive=0   target_object=0   know_object=0   
   (   1   0)))))   % E_s_spotted_with_goodie=1   E_s_spotted_by_house=1   raining=1   successful_stolen=1   observed=0   compromise_house=1   motive=0   target_object=0   know_object=0   
   (((((   1   0)   % E_s_spotted_with_goodie=0   E_s_spotted_by_house=0   raining=0   successful_stolen=0   observed=1   compromise_house=1   motive=0   target_object=0   know_object=0   
   (   1   0))   % E_s_spotted_with_goodie=1   E_s_spotted_by_house=0   raining=0   successful_stolen=0   observed=1   compromise_house=1   motive=0   target_object=0   know_object=0   
   ((   1   0)   % E_s_spotted_with_goodie=0   E_s_spotted_by_house=1   raining=0   successful_stolen=0   observed=1   compromise_house=1   motive=0   target_object=0   know_object=0   
   (   1   0)))   % E_s_spotted_with_goodie=1   E_s_spotted_by_house=1   raining=0   successful_stolen=0   observed=1   compromise_house=1   motive=0   target_object=0   know_object=0   
   (((   1   0)   % E_s_spotted_with_goodie=0   E_s_spotted_by_house=0   raining=1   successful_stolen=0   observed=1   compromise_house=1   motive=0   target_object=0   know_object=0   
   (   1   0))   % E_s_spotted_with_goodie=1   E_s_spotted_by_house=0   raining=1   successful_stolen=0   observed=1   compromise_house=1   motive=0   target_object=0   know_object=0   
   ((   1   0)   % E_s_spotted_with_goodie=0   E_s_spotted_by_house=1   raining=1   successful_stolen=0   observed=1   compromise_house=1   motive=0   target_object=0   know_object=0   
   (   1   0))))   % E_s_spotted_with_goodie=1   E_s_spotted_by_house=1   raining=1   successful_stolen=0   observed=1   compromise_house=1   motive=0   target_object=0   know_object=0   
   ((((   1   0)   % E_s_spotted_with_goodie=0   E_s_spotted_by_house=0   raining=0   successful_stolen=1   observed=1   compromise_house=1   motive=0   target_object=0   know_object=0   
   (   1   0))   % E_s_spotted_with_goodie=1   E_s_spotted_by_house=0   raining=0   successful_stolen=1   observed=1   compromise_house=1   motive=0   target_object=0   know_object=0   
   ((   1   0)   % E_s_spotted_with_goodie=0   E_s_spotted_by_house=1   raining=0   successful_stolen=1   observed=1   compromise_house=1   motive=0   target_object=0   know_object=0   
   (   1   0)))   % E_s_spotted_with_goodie=1   E_s_spotted_by_house=1   raining=0   successful_stolen=1   observed=1   compromise_house=1   motive=0   target_object=0   know_object=0   
   (((   1   0)   % E_s_spotted_with_goodie=0   E_s_spotted_by_house=0   raining=1   successful_stolen=1   observed=1   compromise_house=1   motive=0   target_object=0   know_object=0   
   (   1   0))   % E_s_spotted_with_goodie=1   E_s_spotted_by_house=0   raining=1   successful_stolen=1   observed=1   compromise_house=1   motive=0   target_object=0   know_object=0   
   ((   1   0)   % E_s_spotted_with_goodie=0   E_s_spotted_by_house=1   raining=1   successful_stolen=1   observed=1   compromise_house=1   motive=0   target_object=0   know_object=0   
   (   1   0)))))))   % E_s_spotted_with_goodie=1   E_s_spotted_by_house=1   raining=1   successful_stolen=1   observed=1   compromise_house=1   motive=0   target_object=0   know_object=0   
   (((((((   1   0)   % E_s_spotted_with_goodie=0   E_s_spotted_by_house=0   raining=0   successful_stolen=0   observed=0   compromise_house=0   motive=1   target_object=0   know_object=0   
   (   1   0))   % E_s_spotted_with_goodie=1   E_s_spotted_by_house=0   raining=0   successful_stolen=0   observed=0   compromise_house=0   motive=1   target_object=0   know_object=0   
   ((   1   0)   % E_s_spotted_with_goodie=0   E_s_spotted_by_house=1   raining=0   successful_stolen=0   observed=0   compromise_house=0   motive=1   target_object=0   know_object=0   
   (   1   0)))   % E_s_spotted_with_goodie=1   E_s_spotted_by_house=1   raining=0   successful_stolen=0   observed=0   compromise_house=0   motive=1   target_object=0   know_object=0   
   (((   1   0)   % E_s_spotted_with_goodie=0   E_s_spotted_by_house=0   raining=1   successful_stolen=0   observed=0   compromise_house=0   motive=1   target_object=0   know_object=0   
   (   1   0))   % E_s_spotted_with_goodie=1   E_s_spotted_by_house=0   raining=1   successful_stolen=0   observed=0   compromise_house=0   motive=1   target_object=0   know_object=0   
   ((   1   0)   % E_s_spotted_with_goodie=0   E_s_spotted_by_house=1   raining=1   successful_stolen=0   observed=0   compromise_house=0   motive=1   target_object=0   know_object=0   
   (   1   0))))   % E_s_spotted_with_goodie=1   E_s_spotted_by_house=1   raining=1   successful_stolen=0   observed=0   compromise_house=0   motive=1   target_object=0   know_object=0   
   ((((   1   0)   % E_s_spotted_with_goodie=0   E_s_spotted_by_house=0   raining=0   successful_stolen=1   observed=0   compromise_house=0   motive=1   target_object=0   know_object=0   
   (   1   0))   % E_s_spotted_with_goodie=1   E_s_spotted_by_house=0   raining=0   successful_stolen=1   observed=0   compromise_house=0   motive=1   target_object=0   know_object=0   
   ((   1   0)   % E_s_spotted_with_goodie=0   E_s_spotted_by_house=1   raining=0   successful_stolen=1   observed=0   compromise_house=0   motive=1   target_object=0   know_object=0   
   (   1   0)))   % E_s_spotted_with_goodie=1   E_s_spotted_by_house=1   raining=0   successful_stolen=1   observed=0   compromise_house=0   motive=1   target_object=0   know_object=0   
   (((   1   0)   % E_s_spotted_with_goodie=0   E_s_spotted_by_house=0   raining=1   successful_stolen=1   observed=0   compromise_house=0   motive=1   target_object=0   know_object=0   
   (   1   0))   % E_s_spotted_with_goodie=1   E_s_spotted_by_house=0   raining=1   successful_stolen=1   observed=0   compromise_house=0   motive=1   target_object=0   know_object=0   
   ((   1   0)   % E_s_spotted_with_goodie=0   E_s_spotted_by_house=1   raining=1   successful_stolen=1   observed=0   compromise_house=0   motive=1   target_object=0   know_object=0   
   (   1   0)))))   % E_s_spotted_with_goodie=1   E_s_spotted_by_house=1   raining=1   successful_stolen=1   observed=0   compromise_house=0   motive=1   target_object=0   know_object=0   
   (((((   1   0)   % E_s_spotted_with_goodie=0   E_s_spotted_by_house=0   raining=0   successful_stolen=0   observed=1   compromise_house=0   motive=1   target_object=0   know_object=0   
   (   1   0))   % E_s_spotted_with_goodie=1   E_s_spotted_by_house=0   raining=0   successful_stolen=0   observed=1   compromise_house=0   motive=1   target_object=0   know_object=0   
   ((   1   0)   % E_s_spotted_with_goodie=0   E_s_spotted_by_house=1   raining=0   successful_stolen=0   observed=1   compromise_house=0   motive=1   target_object=0   know_object=0   
   (   1   0)))   % E_s_spotted_with_goodie=1   E_s_spotted_by_house=1   raining=0   successful_stolen=0   observed=1   compromise_house=0   motive=1   target_object=0   know_object=0   
   (((   1   0)   % E_s_spotted_with_goodie=0   E_s_spotted_by_house=0   raining=1   successful_stolen=0   observed=1   compromise_house=0   motive=1   target_object=0   know_object=0   
   (   1   0))   % E_s_spotted_with_goodie=1   E_s_spotted_by_house=0   raining=1   successful_stolen=0   observed=1   compromise_house=0   motive=1   target_object=0   know_object=0   
   ((   1   0)   % E_s_spotted_with_goodie=0   E_s_spotted_by_house=1   raining=1   successful_stolen=0   observed=1   compromise_house=0   motive=1   target_object=0   know_object=0   
   (   1   0))))   % E_s_spotted_with_goodie=1   E_s_spotted_by_house=1   raining=1   successful_stolen=0   observed=1   compromise_house=0   motive=1   target_object=0   know_object=0   
   ((((   1   0)   % E_s_spotted_with_goodie=0   E_s_spotted_by_house=0   raining=0   successful_stolen=1   observed=1   compromise_house=0   motive=1   target_object=0   know_object=0   
   (   1   0))   % E_s_spotted_with_goodie=1   E_s_spotted_by_house=0   raining=0   successful_stolen=1   observed=1   compromise_house=0   motive=1   target_object=0   know_object=0   
   ((   1   0)   % E_s_spotted_with_goodie=0   E_s_spotted_by_house=1   raining=0   successful_stolen=1   observed=1   compromise_house=0   motive=1   target_object=0   know_object=0   
   (   1   0)))   % E_s_spotted_with_goodie=1   E_s_spotted_by_house=1   raining=0   successful_stolen=1   observed=1   compromise_house=0   motive=1   target_object=0   know_object=0   
   (((   1   0)   % E_s_spotted_with_goodie=0   E_s_spotted_by_house=0   raining=1   successful_stolen=1   observed=1   compromise_house=0   motive=1   target_object=0   know_object=0   
   (   1   0))   % E_s_spotted_with_goodie=1   E_s_spotted_by_house=0   raining=1   successful_stolen=1   observed=1   compromise_house=0   motive=1   target_object=0   know_object=0   
   ((   1   0)   % E_s_spotted_with_goodie=0   E_s_spotted_by_house=1   raining=1   successful_stolen=1   observed=1   compromise_house=0   motive=1   target_object=0   know_object=0   
   (   1   0))))))   % E_s_spotted_with_goodie=1   E_s_spotted_by_house=1   raining=1   successful_stolen=1   observed=1   compromise_house=0   motive=1   target_object=0   know_object=0   
   ((((((   1   0)   % E_s_spotted_with_goodie=0   E_s_spotted_by_house=0   raining=0   successful_stolen=0   observed=0   compromise_house=1   motive=1   target_object=0   know_object=0   
   (   1   0))   % E_s_spotted_with_goodie=1   E_s_spotted_by_house=0   raining=0   successful_stolen=0   observed=0   compromise_house=1   motive=1   target_object=0   know_object=0   
   ((   1   0)   % E_s_spotted_with_goodie=0   E_s_spotted_by_house=1   raining=0   successful_stolen=0   observed=0   compromise_house=1   motive=1   target_object=0   know_object=0   
   (   1   0)))   % E_s_spotted_with_goodie=1   E_s_spotted_by_house=1   raining=0   successful_stolen=0   observed=0   compromise_house=1   motive=1   target_object=0   know_object=0   
   (((   1   0)   % E_s_spotted_with_goodie=0   E_s_spotted_by_house=0   raining=1   successful_stolen=0   observed=0   compromise_house=1   motive=1   target_object=0   know_object=0   
   (   1   0))   % E_s_spotted_with_goodie=1   E_s_spotted_by_house=0   raining=1   successful_stolen=0   observed=0   compromise_house=1   motive=1   target_object=0   know_object=0   
   ((   1   0)   % E_s_spotted_with_goodie=0   E_s_spotted_by_house=1   raining=1   successful_stolen=0   observed=0   compromise_house=1   motive=1   target_object=0   know_object=0   
   (   1   0))))   % E_s_spotted_with_goodie=1   E_s_spotted_by_house=1   raining=1   successful_stolen=0   observed=0   compromise_house=1   motive=1   target_object=0   know_object=0   
   ((((   1   0)   % E_s_spotted_with_goodie=0   E_s_spotted_by_house=0   raining=0   successful_stolen=1   observed=0   compromise_house=1   motive=1   target_object=0   know_object=0   
   (   1   0))   % E_s_spotted_with_goodie=1   E_s_spotted_by_house=0   raining=0   successful_stolen=1   observed=0   compromise_house=1   motive=1   target_object=0   know_object=0   
   ((   1   0)   % E_s_spotted_with_goodie=0   E_s_spotted_by_house=1   raining=0   successful_stolen=1   observed=0   compromise_house=1   motive=1   target_object=0   know_object=0   
   (   1   0)))   % E_s_spotted_with_goodie=1   E_s_spotted_by_house=1   raining=0   successful_stolen=1   observed=0   compromise_house=1   motive=1   target_object=0   know_object=0   
   (((   1   0)   % E_s_spotted_with_goodie=0   E_s_spotted_by_house=0   raining=1   successful_stolen=1   observed=0   compromise_house=1   motive=1   target_object=0   know_object=0   
   (   1   0))   % E_s_spotted_with_goodie=1   E_s_spotted_by_house=0   raining=1   successful_stolen=1   observed=0   compromise_house=1   motive=1   target_object=0   know_object=0   
   ((   1   0)   % E_s_spotted_with_goodie=0   E_s_spotted_by_house=1   raining=1   successful_stolen=1   observed=0   compromise_house=1   motive=1   target_object=0   know_object=0   
   (   1   0)))))   % E_s_spotted_with_goodie=1   E_s_spotted_by_house=1   raining=1   successful_stolen=1   observed=0   compromise_house=1   motive=1   target_object=0   know_object=0   
   (((((   1   0)   % E_s_spotted_with_goodie=0   E_s_spotted_by_house=0   raining=0   successful_stolen=0   observed=1   compromise_house=1   motive=1   target_object=0   know_object=0   
   (   1   0))   % E_s_spotted_with_goodie=1   E_s_spotted_by_house=0   raining=0   successful_stolen=0   observed=1   compromise_house=1   motive=1   target_object=0   know_object=0   
   ((   1   0)   % E_s_spotted_with_goodie=0   E_s_spotted_by_house=1   raining=0   successful_stolen=0   observed=1   compromise_house=1   motive=1   target_object=0   know_object=0   
   (   1   0)))   % E_s_spotted_with_goodie=1   E_s_spotted_by_house=1   raining=0   successful_stolen=0   observed=1   compromise_house=1   motive=1   target_object=0   know_object=0   
   (((   1   0)   % E_s_spotted_with_goodie=0   E_s_spotted_by_house=0   raining=1   successful_stolen=0   observed=1   compromise_house=1   motive=1   target_object=0   know_object=0   
   (   1   0))   % E_s_spotted_with_goodie=1   E_s_spotted_by_house=0   raining=1   successful_stolen=0   observed=1   compromise_house=1   motive=1   target_object=0   know_object=0   
   ((   1   0)   % E_s_spotted_with_goodie=0   E_s_spotted_by_house=1   raining=1   successful_stolen=0   observed=1   compromise_house=1   motive=1   target_object=0   know_object=0   
   (   1   0))))   % E_s_spotted_with_goodie=1   E_s_spotted_by_house=1   raining=1   successful_stolen=0   observed=1   compromise_house=1   motive=1   target_object=0   know_object=0   
   ((((   1   0)   % E_s_spotted_with_goodie=0   E_s_spotted_by_house=0   raining=0   successful_stolen=1   observed=1   compromise_house=1   motive=1   target_object=0   know_object=0   
   (   1   0))   % E_s_spotted_with_goodie=1   E_s_spotted_by_house=0   raining=0   successful_stolen=1   observed=1   compromise_house=1   motive=1   target_object=0   know_object=0   
   ((   1   0)   % E_s_spotted_with_goodie=0   E_s_spotted_by_house=1   raining=0   successful_stolen=1   observed=1   compromise_house=1   motive=1   target_object=0   know_object=0   
   (   1   0)))   % E_s_spotted_with_goodie=1   E_s_spotted_by_house=1   raining=0   successful_stolen=1   observed=1   compromise_house=1   motive=1   target_object=0   know_object=0   
   (((   1   0)   % E_s_spotted_with_goodie=0   E_s_spotted_by_house=0   raining=1   successful_stolen=1   observed=1   compromise_house=1   motive=1   target_object=0   know_object=0   
   (   1   0))   % E_s_spotted_with_goodie=1   E_s_spotted_by_house=0   raining=1   successful_stolen=1   observed=1   compromise_house=1   motive=1   target_object=0   know_object=0   
   ((   1   0)   % E_s_spotted_with_goodie=0   E_s_spotted_by_house=1   raining=1   successful_stolen=1   observed=1   compromise_house=1   motive=1   target_object=0   know_object=0   
   (   1   0))))))))   % E_s_spotted_with_goodie=1   E_s_spotted_by_house=1   raining=1   successful_stolen=1   observed=1   compromise_house=1   motive=1   target_object=0   know_object=0   
   ((((((((   1   0)   % E_s_spotted_with_goodie=0   E_s_spotted_by_house=0   raining=0   successful_stolen=0   observed=0   compromise_house=0   motive=0   target_object=1   know_object=0   
   (   1   0))   % E_s_spotted_with_goodie=1   E_s_spotted_by_house=0   raining=0   successful_stolen=0   observed=0   compromise_house=0   motive=0   target_object=1   know_object=0   
   ((   1   0)   % E_s_spotted_with_goodie=0   E_s_spotted_by_house=1   raining=0   successful_stolen=0   observed=0   compromise_house=0   motive=0   target_object=1   know_object=0   
   (   1   0)))   % E_s_spotted_with_goodie=1   E_s_spotted_by_house=1   raining=0   successful_stolen=0   observed=0   compromise_house=0   motive=0   target_object=1   know_object=0   
   (((   1   0)   % E_s_spotted_with_goodie=0   E_s_spotted_by_house=0   raining=1   successful_stolen=0   observed=0   compromise_house=0   motive=0   target_object=1   know_object=0   
   (   1   0))   % E_s_spotted_with_goodie=1   E_s_spotted_by_house=0   raining=1   successful_stolen=0   observed=0   compromise_house=0   motive=0   target_object=1   know_object=0   
   ((   1   0)   % E_s_spotted_with_goodie=0   E_s_spotted_by_house=1   raining=1   successful_stolen=0   observed=0   compromise_house=0   motive=0   target_object=1   know_object=0   
   (   1   0))))   % E_s_spotted_with_goodie=1   E_s_spotted_by_house=1   raining=1   successful_stolen=0   observed=0   compromise_house=0   motive=0   target_object=1   know_object=0   
   ((((   1   0)   % E_s_spotted_with_goodie=0   E_s_spotted_by_house=0   raining=0   successful_stolen=1   observed=0   compromise_house=0   motive=0   target_object=1   know_object=0   
   (   1   0))   % E_s_spotted_with_goodie=1   E_s_spotted_by_house=0   raining=0   successful_stolen=1   observed=0   compromise_house=0   motive=0   target_object=1   know_object=0   
   ((   1   0)   % E_s_spotted_with_goodie=0   E_s_spotted_by_house=1   raining=0   successful_stolen=1   observed=0   compromise_house=0   motive=0   target_object=1   know_object=0   
   (   1   0)))   % E_s_spotted_with_goodie=1   E_s_spotted_by_house=1   raining=0   successful_stolen=1   observed=0   compromise_house=0   motive=0   target_object=1   know_object=0   
   (((   1   0)   % E_s_spotted_with_goodie=0   E_s_spotted_by_house=0   raining=1   successful_stolen=1   observed=0   compromise_house=0   motive=0   target_object=1   know_object=0   
