
net {
  name = GodBN;
  software = "aGrUM 0.22.5";
  node_size = (50 50);
}

node know_object {
   states = (0 1 );
   label = "know_object";
   ID = "know_object";
}

node target_object {
   states = (0 1 );
   label = "target_object";
   ID = "target_object";
}

node motive {
   states = (0 1 );
   label = "motive";
   ID = "motive";
}

node compromise_house {
   states = (0 1 );
   label = "compromise_house";
   ID = "compromise_house";
}

node observed {
   states = (0 1 );
   label = "observed";
   ID = "observed";
}

node successful_stolen {
   states = (0 1 );
   label = "successful_stolen";
   ID = "successful_stolen";
}

node raining {
   states = (0 1 );
   label = "raining";
   ID = "raining";
}

node spotted_by_house {
   states = (0 1 );
   label = "spotted_by_house";
   ID = "spotted_by_house";
}

node spotted_with_goodie {
   states = (0 1 );
   label = "spotted_with_goodie";
   ID = "spotted_with_goodie";
}

potential (know_object) {
   data = (  0 1);
}

potential ( target_object | know_object   ) {
   data = 
   ((   1   0)   % know_object=0   
   (   0.545   0.455));   % know_object=1   
}

potential ( motive | know_object   target_object   ) {
   data = 
   (((   1   0)   % target_object=0   know_object=0   
   (   1   0))   % target_object=1   know_object=0   
   ((   1   0)   % target_object=0   know_object=1   
   (   0   1)));   % target_object=1   know_object=1   
}

potential ( compromise_house | know_object   target_object   motive   ) {
   data = 
   ((((   1   0)   % motive=0   target_object=0   know_object=0   
   (   1   0))   % motive=1   target_object=0   know_object=0   
   ((   1   0)   % motive=0   target_object=1   know_object=0   
   (   1   0)))   % motive=1   target_object=1   know_object=0   
   (((   1   0)   % motive=0   target_object=0   know_object=1   
   (   1   0))   % motive=1   target_object=0   know_object=1   
   ((   1   0)   % motive=0   target_object=1   know_object=1   
   (   0.714286   0.285714))));   % motive=1   target_object=1   know_object=1   
}

potential ( observed | know_object   target_object   motive   compromise_house   ) {
   data = 
   (((((   1   0)   % compromise_house=0   motive=0   target_object=0   know_object=0   
   (   1   0))   % compromise_house=1   motive=0   target_object=0   know_object=0   
   ((   1   0)   % compromise_house=0   motive=1   target_object=0   know_object=0   
   (   1   0)))   % compromise_house=1   motive=1   target_object=0   know_object=0   
   (((   1   0)   % compromise_house=0   motive=0   target_object=1   know_object=0   
   (   1   0))   % compromise_house=1   motive=0   target_object=1   know_object=0   
   ((   1   0)   % compromise_house=0   motive=1   target_object=1   know_object=0   
   (   1   0))))   % compromise_house=1   motive=1   target_object=1   know_object=0   
   ((((   1   0)   % compromise_house=0   motive=0   target_object=0   know_object=1   
   (   1   0))   % compromise_house=1   motive=0   target_object=0   know_object=1   
   ((   1   0)   % compromise_house=0   motive=1   target_object=0   know_object=1   
   (   1   0)))   % compromise_house=1   motive=1   target_object=0   know_object=1   
   (((   1   0)   % compromise_house=0   motive=0   target_object=1   know_object=1   
   (   1   0))   % compromise_house=1   motive=0   target_object=1   know_object=1   
   ((   0.353846   0.646154)   % compromise_house=0   motive=1   target_object=1   know_object=1   
   (   0.730769   0.269231)))));   % compromise_house=1   motive=1   target_object=1   know_object=1   
}

potential ( successful_stolen | know_object   target_object   motive   compromise_house   observed   ) {
   data = 
   ((((((   1   0)   % observed=0   compromise_house=0   motive=0   target_object=0   know_object=0   
   (   1   0))   % observed=1   compromise_house=0   motive=0   target_object=0   know_object=0   
   ((   1   0)   % observed=0   compromise_house=1   motive=0   target_object=0   know_object=0   
   (   1   0)))   % observed=1   compromise_house=1   motive=0   target_object=0   know_object=0   
   (((   1   0)   % observed=0   compromise_house=0   motive=1   target_object=0   know_object=0   
   (   1   0))   % observed=1   compromise_house=0   motive=1   target_object=0   know_object=0   
   ((   1   0)   % observed=0   compromise_house=1   motive=1   target_object=0   know_object=0   
   (   1   0))))   % observed=1   compromise_house=1   motive=1   target_object=0   know_object=0   
   ((((   1   0)   % observed=0   compromise_house=0   motive=0   target_object=1   know_object=0   
   (   1   0))   % observed=1   compromise_house=0   motive=0   target_object=1   know_object=0   
   ((   1   0)   % observed=0   compromise_house=1   motive=0   target_object=1   know_object=0   
   (   1   0)))   % observed=1   compromise_house=1   motive=0   target_object=1   know_object=0   
   (((   1   0)   % observed=0   compromise_house=0   motive=1   target_object=1   know_object=0   
   (   1   0))   % observed=1   compromise_house=0   motive=1   target_object=1   know_object=0   
   ((   1   0)   % observed=0   compromise_house=1   motive=1   target_object=1   know_object=0   
   (   1   0)))))   % observed=1   compromise_house=1   motive=1   target_object=1   know_object=0   
   (((((   1   0)   % observed=0   compromise_house=0   motive=0   target_object=0   know_object=1   
   (   1   0))   % observed=1   compromise_house=0   motive=0   target_object=0   know_object=1   
   ((   1   0)   % observed=0   compromise_house=1   motive=0   target_object=0   know_object=1   
   (   1   0)))   % observed=1   compromise_house=1   motive=0   target_object=0   know_object=1   
   (((   1   0)   % observed=0   compromise_house=0   motive=1   target_object=0   know_object=1   
   (   1   0))   % observed=1   compromise_house=0   motive=1   target_object=0   know_object=1   
   ((   1   0)   % observed=0   compromise_house=1   motive=1   target_object=0   know_object=1   
   (   1   0))))   % observed=1   compromise_house=1   motive=1   target_object=0   know_object=1   
   ((((   1   0)   % observed=0   compromise_house=0   motive=0   target_object=1   know_object=1   
   (   1   0))   % observed=1   compromise_house=0   motive=0   target_object=1   know_object=1   
   ((   1   0)   % observed=0   compromise_house=1   motive=0   target_object=1   know_object=1   
   (   1   0)))   % observed=1   compromise_house=1   motive=0   target_object=1   know_object=1   
   (((   1   0)   % observed=0   compromise_house=0   motive=1   target_object=1   know_object=1   
   (   1   0))   % observed=1   compromise_house=0   motive=1   target_object=1   know_object=1   
   ((   0   1)   % observed=0   compromise_house=1   motive=1   target_object=1   know_object=1   
   (   0.571429   0.428571))))));   % observed=1   compromise_house=1   motive=1   target_object=1   know_object=1   
}

potential ( raining | know_object   target_object   motive   compromise_house   observed   successful_stolen   ) {
   data = 
   (((((((   1   0)   % successful_stolen=0   observed=0   compromise_house=0   motive=0   target_object=0   know_object=0   
   (   1   0))   % successful_stolen=1   observed=0   compromise_house=0   motive=0   target_object=0   know_object=0   
   ((   1   0)   % successful_stolen=0   observed=1   compromise_house=0   motive=0   target_object=0   know_object=0   
   (   1   0)))   % successful_stolen=1   observed=1   compromise_house=0   motive=0   target_object=0   know_object=0   
   (((   1   0)   % successful_stolen=0   observed=0   compromise_house=1   motive=0   target_object=0   know_object=0   
   (   1   0))   % successful_stolen=1   observed=0   compromise_house=1   motive=0   target_object=0   know_object=0   
   ((   1   0)   % successful_stolen=0   observed=1   compromise_house=1   motive=0   target_object=0   know_object=0   
   (   1   0))))   % successful_stolen=1   observed=1   compromise_house=1   motive=0   target_object=0   know_object=0   
   ((((   1   0)   % successful_stolen=0   observed=0   compromise_house=0   motive=1   target_object=0   know_object=0   
   (   1   0))   % successful_stolen=1   observed=0   compromise_house=0   motive=1   target_object=0   know_object=0   
   ((   1   0)   % successful_stolen=0   observed=1   compromise_house=0   motive=1   target_object=0   know_object=0   
   (   1   0)))   % successful_stolen=1   observed=1   compromise_house=0   motive=1   target_object=0   know_object=0   
   (((   1   0)   % successful_stolen=0   observed=0   compromise_house=1   motive=1   target_object=0   know_object=0   
   (   1   0))   % successful_stolen=1   observed=0   compromise_house=1   motive=1   target_object=0   know_object=0   
   ((   1   0)   % successful_stolen=0   observed=1   compromise_house=1   motive=1   target_object=0   know_object=0   
   (   1   0)))))   % successful_stolen=1   observed=1   compromise_house=1   motive=1   target_object=0   know_object=0   
   (((((   1   0)   % successful_stolen=0   observed=0   compromise_house=0   motive=0   target_object=1   know_object=0   
   (   1   0))   % successful_stolen=1   observed=0   compromise_house=0   motive=0   target_object=1   know_object=0   
   ((   1   0)   % successful_stolen=0   observed=1   compromise_house=0   motive=0   target_object=1   know_object=0   
   (   1   0)))   % successful_stolen=1   observed=1   compromise_house=0   motive=0   target_object=1   know_object=0   
   (((   1   0)   % successful_stolen=0   observed=0   compromise_house=1   motive=0   target_object=1   know_object=0   
   (   1   0))   % successful_stolen=1   observed=0   compromise_house=1   motive=0   target_object=1   know_object=0   
   ((   1   0)   % successful_stolen=0   observed=1   compromise_house=1   motive=0   target_object=1   know_object=0   
   (   1   0))))   % successful_stolen=1   observed=1   compromise_house=1   motive=0   target_object=1   know_object=0   
   ((((   1   0)   % successful_stolen=0   observed=0   compromise_house=0   motive=1   target_object=1   know_object=0   
   (   1   0))   % successful_stolen=1   observed=0   compromise_house=0   motive=1   target_object=1   know_object=0   
   ((   1   0)   % successful_stolen=0   observed=1   compromise_house=0   motive=1   target_object=1   know_object=0   
   (   1   0)))   % successful_stolen=1   observed=1   compromise_house=0   motive=1   target_object=1   know_object=0   
   (((   1   0)   % successful_stolen=0   observed=0   compromise_house=1   motive=1   target_object=1   know_object=0   
   (   1   0))   % successful_stolen=1   observed=0   compromise_house=1   motive=1   target_object=1   know_object=0   
   ((   1   0)   % successful_stolen=0   observed=1   compromise_house=1   motive=1   target_object=1   know_object=0   
   (   1   0))))))   % successful_stolen=1   observed=1   compromise_house=1   motive=1   target_object=1   know_object=0   
   ((((((   0.541284   0.458716)   % successful_stolen=0   observed=0   compromise_house=0   motive=0   target_object=0   know_object=1   
   (   1   0))   % successful_stolen=1   observed=0   compromise_house=0   motive=0   target_object=0   know_object=1   
   ((   1   0)   % successful_stolen=0   observed=1   compromise_house=0   motive=0   target_object=0   know_object=1   
   (   1   0)))   % successful_stolen=1   observed=1   compromise_house=0   motive=0   target_object=0   know_object=1   
   (((   1   0)   % successful_stolen=0   observed=0   compromise_house=1   motive=0   target_object=0   know_object=1   
   (   1   0))   % successful_stolen=1   observed=0   compromise_house=1   motive=0   target_object=0   know_object=1   
   ((   1   0)   % successful_stolen=0   observed=1   compromise_house=1   motive=0   target_object=0   know_object=1   
   (   1   0))))   % successful_stolen=1   observed=1   compromise_house=1   motive=0   target_object=0   know_object=1   
   ((((   1   0)   % successful_stolen=0   observed=0   compromise_house=0   motive=1   target_object=0   know_object=1   
   (   1   0))   % successful_stolen=1   observed=0   compromise_house=0   motive=1   target_object=0   know_object=1   
   ((   1   0)   % successful_stolen=0   observed=1   compromise_house=0   motive=1   target_object=0   know_object=1   
   (   1   0)))   % successful_stolen=1   observed=1   compromise_house=0   motive=1   target_object=0   know_object=1   
   (((   1   0)   % successful_stolen=0   observed=0   compromise_house=1   motive=1   target_object=0   know_object=1   
   (   1   0))   % successful_stolen=1   observed=0   compromise_house=1   motive=1   target_object=0   know_object=1   
   ((   1   0)   % successful_stolen=0   observed=1   compromise_house=1   motive=1   target_object=0   know_object=1   
   (   1   0)))))   % successful_stolen=1   observed=1   compromise_house=1   motive=1   target_object=0   know_object=1   
   (((((   1   0)   % successful_stolen=0   observed=0   compromise_house=0   motive=0   target_object=1   know_object=1   
   (   1   0))   % successful_stolen=1   observed=0   compromise_house=0   motive=0   target_object=1   know_object=1   
   ((   1   0)   % successful_stolen=0   observed=1   compromise_house=0   motive=0   target_object=1   know_object=1   
   (   1   0)))   % successful_stolen=1   observed=1   compromise_house=0   motive=0   target_object=1   know_object=1   
   (((   1   0)   % successful_stolen=0   observed=0   compromise_house=1   motive=0   target_object=1   know_object=1   
   (   1   0))   % successful_stolen=1   observed=0   compromise_house=1   motive=0   target_object=1   know_object=1   
   ((   1   0)   % successful_stolen=0   observed=1   compromise_house=1   motive=0   target_object=1   know_object=1   
   (   1   0))))   % successful_stolen=1   observed=1   compromise_house=1   motive=0   target_object=1   know_object=1   
   ((((   0.478261   0.521739)   % successful_stolen=0   observed=0   compromise_house=0   motive=1   target_object=1   know_object=1   
   (   1   0))   % successful_stolen=1   observed=0   compromise_house=0   motive=1   target_object=1   know_object=1   
   ((   0.452381   0.547619)   % successful_stolen=0   observed=1   compromise_house=0   motive=1   target_object=1   know_object=1   
   (   1   0)))   % successful_stolen=1   observed=1   compromise_house=0   motive=1   target_object=1   know_object=1   
   (((   1   0)   % successful_stolen=0   observed=0   compromise_house=1   motive=1   target_object=1   know_object=1   
   (   0.578947   0.421053))   % successful_stolen=1   observed=0   compromise_house=1   motive=1   target_object=1   know_object=1   
   ((   0.5   0.5)   % successful_stolen=0   observed=1   compromise_house=1   motive=1   target_object=1   know_object=1   
   (   1   0)))))));   % successful_stolen=1   observed=1   compromise_house=1   motive=1   target_object=1   know_object=1   
}

potential ( spotted_by_house | know_object   target_object   motive   compromise_house   observed   successful_stolen   raining   ) {
   data = 
   ((((((((   1   0)   % raining=0   successful_stolen=0   observed=0   compromise_house=0   motive=0   target_object=0   know_object=0   
   (   1   0))   % raining=1   successful_stolen=0   observed=0   compromise_house=0   motive=0   target_object=0   know_object=0   
   ((   1   0)   % raining=0   successful_stolen=1   observed=0   compromise_house=0   motive=0   target_object=0   know_object=0   
   (   1   0)))   % raining=1   successful_stolen=1   observed=0   compromise_house=0   motive=0   target_object=0   know_object=0   
   (((   1   0)   % raining=0   successful_stolen=0   observed=1   compromise_house=0   motive=0   target_object=0   know_object=0   
   (   1   0))   % raining=1   successful_stolen=0   observed=1   compromise_house=0   motive=0   target_object=0   know_object=0   
   ((   1   0)   % raining=0   successful_stolen=1   observed=1   compromise_house=0   motive=0   target_object=0   know_object=0   
   (   1   0))))   % raining=1   successful_stolen=1   observed=1   compromise_house=0   motive=0   target_object=0   know_object=0   
   ((((   1   0)   % raining=0   successful_stolen=0   observed=0   compromise_house=1   motive=0   target_object=0   know_object=0   
   (   1   0))   % raining=1   successful_stolen=0   observed=0   compromise_house=1   motive=0   target_object=0   know_object=0   
   ((   1   0)   % raining=0   successful_stolen=1   observed=0   compromise_house=1   motive=0   target_object=0   know_object=0   
   (   1   0)))   % raining=1   successful_stolen=1   observed=0   compromise_house=1   motive=0   target_object=0   know_object=0   
   (((   1   0)   % raining=0   successful_stolen=0   observed=1   compromise_house=1   motive=0   target_object=0   know_object=0   
   (   1   0))   % raining=1   successful_stolen=0   observed=1   compromise_house=1   motive=0   target_object=0   know_object=0   
   ((   1   0)   % raining=0   successful_stolen=1   observed=1   compromise_house=1   motive=0   target_object=0   know_object=0   
   (   1   0)))))   % raining=1   successful_stolen=1   observed=1   compromise_house=1   motive=0   target_object=0   know_object=0   
   (((((   1   0)   % raining=0   successful_stolen=0   observed=0   compromise_house=0   motive=1   target_object=0   know_object=0   
   (   1   0))   % raining=1   successful_stolen=0   observed=0   compromise_house=0   motive=1   target_object=0   know_object=0   
   ((   1   0)   % raining=0   successful_stolen=1   observed=0   compromise_house=0   motive=1   target_object=0   know_object=0   
   (   1   0)))   % raining=1   successful_stolen=1   observed=0   compromise_house=0   motive=1   target_object=0   know_object=0   
   (((   1   0)   % raining=0   successful_stolen=0   observed=1   compromise_house=0   motive=1   target_object=0   know_object=0   
   (   1   0))   % raining=1   successful_stolen=0   observed=1   compromise_house=0   motive=1   target_object=0   know_object=0   
   ((   1   0)   % raining=0   successful_stolen=1   observed=1   compromise_house=0   motive=1   target_object=0   know_object=0   
   (   1   0))))   % raining=1   successful_stolen=1   observed=1   compromise_house=0   motive=1   target_object=0   know_object=0   
   ((((   1   0)   % raining=0   successful_stolen=0   observed=0   compromise_house=1   motive=1   target_object=0   know_object=0   
   (   1   0))   % raining=1   successful_stolen=0   observed=0   compromise_house=1   motive=1   target_object=0   know_object=0   
   ((   1   0)   % raining=0   successful_stolen=1   observed=0   compromise_house=1   motive=1   target_object=0   know_object=0   
   (   1   0)))   % raining=1   successful_stolen=1   observed=0   compromise_house=1   motive=1   target_object=0   know_object=0   
   (((   1   0)   % raining=0   successful_stolen=0   observed=1   compromise_house=1   motive=1   target_object=0   know_object=0   
   (   1   0))   % raining=1   successful_stolen=0   observed=1   compromise_house=1   motive=1   target_object=0   know_object=0   
   ((   1   0)   % raining=0   successful_stolen=1   observed=1   compromise_house=1   motive=1   target_object=0   know_object=0   
   (   1   0))))))   % raining=1   successful_stolen=1   observed=1   compromise_house=1   motive=1   target_object=0   know_object=0   
   ((((((   1   0)   % raining=0   successful_stolen=0   observed=0   compromise_house=0   motive=0   target_object=1   know_object=0   
   (   1   0))   % raining=1   successful_stolen=0   observed=0   compromise_house=0   motive=0   target_object=1   know_object=0   
   ((   1   0)   % raining=0   successful_stolen=1   observed=0   compromise_house=0   motive=0   target_object=1   know_object=0   
   (   1   0)))   % raining=1   successful_stolen=1   observed=0   compromise_house=0   motive=0   target_object=1   know_object=0   
   (((   1   0)   % raining=0   successful_stolen=0   observed=1   compromise_house=0   motive=0   target_object=1   know_object=0   
   (   1   0))   % raining=1   successful_stolen=0   observed=1   compromise_house=0   motive=0   target_object=1   know_object=0   
   ((   1   0)   % raining=0   successful_stolen=1   observed=1   compromise_house=0   motive=0   target_object=1   know_object=0   
   (   1   0))))   % raining=1   successful_stolen=1   observed=1   compromise_house=0   motive=0   target_object=1   know_object=0   
   ((((   1   0)   % raining=0   successful_stolen=0   observed=0   compromise_house=1   motive=0   target_object=1   know_object=0   
   (   1   0))   % raining=1   successful_stolen=0   observed=0   compromise_house=1   motive=0   target_object=1   know_object=0   
   ((   1   0)   % raining=0   successful_stolen=1   observed=0   compromise_house=1   motive=0   target_object=1   know_object=0   
   (   1   0)))   % raining=1   successful_stolen=1   observed=0   compromise_house=1   motive=0   target_object=1   know_object=0   
   (((   1   0)   % raining=0   successful_stolen=0   observed=1   compromise_house=1   motive=0   target_object=1   know_object=0   
   (   1   0))   % raining=1   successful_stolen=0   observed=1   compromise_house=1   motive=0   target_object=1   know_object=0   
   ((   1   0)   % raining=0   successful_stolen=1   observed=1   compromise_house=1   motive=0   target_object=1   know_object=0   
   (   1   0)))))   % raining=1   successful_stolen=1   observed=1   compromise_house=1   motive=0   target_object=1   know_object=0   
   (((((   1   0)   % raining=0   successful_stolen=0   observed=0   compromise_house=0   motive=1   target_object=1   know_object=0   
   (   1   0))   % raining=1   successful_stolen=0   observed=0   compromise_house=0   motive=1   target_object=1   know_object=0   
   ((   1   0)   % raining=0   successful_stolen=1   observed=0   compromise_house=0   motive=1   target_object=1   know_object=0   
   (   1   0)))   % raining=1   successful_stolen=1   observed=0   compromise_house=0   motive=1   target_object=1   know_object=0   
   (((   1   0)   % raining=0   successful_stolen=0   observed=1   compromise_house=0   motive=1   target_object=1   know_object=0   
   (   1   0))   % raining=1   successful_stolen=0   observed=1   compromise_house=0   motive=1   target_object=1   know_object=0   
   ((   1   0)   % raining=0   successful_stolen=1   observed=1   compromise_house=0   motive=1   target_object=1   know_object=0   
   (   1   0))))   % raining=1   successful_stolen=1   observed=1   compromise_house=0   motive=1   target_object=1   know_object=0   
   ((((   1   0)   % raining=0   successful_stolen=0   observed=0   compromise_house=1   motive=1   target_object=1   know_object=0   
   (   1   0))   % raining=1   successful_stolen=0   observed=0   compromise_house=1   motive=1   target_object=1   know_object=0   
   ((   1   0)   % raining=0   successful_stolen=1   observed=0   compromise_house=1   motive=1   target_object=1   know_object=0   
   (   1   0)))   % raining=1   successful_stolen=1   observed=0   compromise_house=1   motive=1   target_object=1   know_object=0   
   (((   1   0)   % raining=0   successful_stolen=0   observed=1   compromise_house=1   motive=1   target_object=1   know_object=0   
   (   1   0))   % raining=1   successful_stolen=0   observed=1   compromise_house=1   motive=1   target_object=1   know_object=0   
   ((   1   0)   % raining=0   successful_stolen=1   observed=1   compromise_house=1   motive=1   target_object=1   know_object=0   
   (   1   0)))))))   % raining=1   successful_stolen=1   observed=1   compromise_house=1   motive=1   target_object=1   know_object=0   
   (((((((   0.610169   0.389831)   % raining=0   successful_stolen=0   observed=0   compromise_house=0   motive=0   target_object=0   know_object=1   
   (   0.6   0.4))   % raining=1   successful_stolen=0   observed=0   compromise_house=0   motive=0   target_object=0   know_object=1   
   ((   1   0)   % raining=0   successful_stolen=1   observed=0   compromise_house=0   motive=0   target_object=0   know_object=1   
   (   1   0)))   % raining=1   successful_stolen=1   observed=0   compromise_house=0   motive=0   target_object=0   know_object=1   
   (((   1   0)   % raining=0   successful_stolen=0   observed=1   compromise_house=0   motive=0   target_object=0   know_object=1   
   (   1   0))   % raining=1   successful_stolen=0   observed=1   compromise_house=0   motive=0   target_object=0   know_object=1   
   ((   1   0)   % raining=0   successful_stolen=1   observed=1   compromise_house=0   motive=0   target_object=0   know_object=1   
   (   1   0))))   % raining=1   successful_stolen=1   observed=1   compromise_house=0   motive=0   target_object=0   know_object=1   
   ((((   1   0)   % raining=0   successful_stolen=0   observed=0   compromise_house=1   motive=0   target_object=0   know_object=1   
   (   1   0))   % raining=1   successful_stolen=0   observed=0   compromise_house=1   motive=0   target_object=0   know_object=1   
   ((   1   0)   % raining=0   successful_stolen=1   observed=0   compromise_house=1   motive=0   target_object=0   know_object=1   
   (   1   0)))   % raining=1   successful_stolen=1   observed=0   compromise_house=1   motive=0   target_object=0   know_object=1   
   (((   1   0)   % raining=0   successful_stolen=0   observed=1   compromise_house=1   motive=0   target_object=0   know_object=1   
   (   1   0))   % raining=1   successful_stolen=0   observed=1   compromise_house=1   motive=0   target_object=0   know_object=1   
   ((   1   0)   % raining=0   successful_stolen=1   observed=1   compromise_house=1   motive=0   target_object=0   know_object=1   
   (   1   0)))))   % raining=1   successful_stolen=1   observed=1   compromise_house=1   motive=0   target_object=0   know_object=1   
   (((((   1   0)   % raining=0   successful_stolen=0   observed=0   compromise_house=0   motive=1   target_object=0   know_object=1   
   (   1   0))   % raining=1   successful_stolen=0   observed=0   compromise_house=0   motive=1   target_object=0   know_object=1   
   ((   1   0)   % raining=0   successful_stolen=1   observed=0   compromise_house=0   motive=1   target_object=0   know_object=1   
   (   1   0)))   % raining=1   successful_stolen=1   observed=0   compromise_house=0   motive=1   target_object=0   know_object=1   
   (((   1   0)   % raining=0   successful_stolen=0   observed=1   compromise_house=0   motive=1   target_object=0   know_object=1   
   (   1   0))   % raining=1   successful_stolen=0   observed=1   compromise_house=0   motive=1   target_object=0   know_object=1   
   ((   1   0)   % raining=0   successful_stolen=1   observed=1   compromise_house=0   motive=1   target_object=0   know_object=1   
   (   1   0))))   % raining=1   successful_stolen=1   observed=1   compromise_house=0   motive=1   target_object=0   know_object=1   
   ((((   1   0)   % raining=0   successful_stolen=0   observed=0   compromise_house=1   motive=1   target_object=0   know_object=1   
   (   1   0))   % raining=1   successful_stolen=0   observed=0   compromise_house=1   motive=1   target_object=0   know_object=1   
   ((   1   0)   % raining=0   successful_stolen=1   observed=0   compromise_house=1   motive=1   target_object=0   know_object=1   
   (   1   0)))   % raining=1   successful_stolen=1   observed=0   compromise_house=1   motive=1   target_object=0   know_object=1   
   (((   1   0)   % raining=0   successful_stolen=0   observed=1   compromise_house=1   motive=1   target_object=0   know_object=1   
   (   1   0))   % raining=1   successful_stolen=0   observed=1   compromise_house=1   motive=1   target_object=0   know_object=1   
   ((   1   0)   % raining=0   successful_stolen=1   observed=1   compromise_house=1   motive=1   target_object=0   know_object=1   
   (   1   0))))))   % raining=1   successful_stolen=1   observed=1   compromise_house=1   motive=1   target_object=0   know_object=1   
   ((((((   1   0)   % raining=0   successful_stolen=0   observed=0   compromise_house=0   motive=0   target_object=1   know_object=1   
   (   1   0))   % raining=1   successful_stolen=0   observed=0   compromise_house=0   motive=0   target_object=1   know_object=1   
   ((   1   0)   % raining=0   successful_stolen=1   observed=0   compromise_house=0   motive=0   target_object=1   know_object=1   
   (   1   0)))   % raining=1   successful_stolen=1   observed=0   compromise_house=0   motive=0   target_object=1   know_object=1   
   (((   1   0)   % raining=0   successful_stolen=0   observed=1   compromise_house=0   motive=0   target_object=1   know_object=1   
   (   1   0))   % raining=1   successful_stolen=0   observed=1   compromise_house=0   motive=0   target_object=1   know_object=1   
   ((   1   0)   % raining=0   successful_stolen=1   observed=1   compromise_house=0   motive=0   target_object=1   know_object=1   
   (   1   0))))   % raining=1   successful_stolen=1   observed=1   compromise_house=0   motive=0   target_object=1   know_object=1   
   ((((   1   0)   % raining=0   successful_stolen=0   observed=0   compromise_house=1   motive=0   target_object=1   know_object=1   
   (   1   0))   % raining=1   successful_stolen=0   observed=0   compromise_house=1   motive=0   target_object=1   know_object=1   
   ((   1   0)   % raining=0   successful_stolen=1   observed=0   compromise_house=1   motive=0   target_object=1   know_object=1   
   (   1   0)))   % raining=1   successful_stolen=1   observed=0   compromise_house=1   motive=0   target_object=1   know_object=1   
   (((   1   0)   % raining=0   successful_stolen=0   observed=1   compromise_house=1   motive=0   target_object=1   know_object=1   
   (   1   0))   % raining=1   successful_stolen=0   observed=1   compromise_house=1   motive=0   target_object=1   know_object=1   
   ((   1   0)   % raining=0   successful_stolen=1   observed=1   compromise_house=1   motive=0   target_object=1   know_object=1   
   (   1   0)))))   % raining=1   successful_stolen=1   observed=1   compromise_house=1   motive=0   target_object=1   know_object=1   
   (((((   0   1)   % raining=0   successful_stolen=0   observed=0   compromise_house=0   motive=1   target_object=1   know_object=1   
   (   0   1))   % raining=1   successful_stolen=0   observed=0   compromise_house=0   motive=1   target_object=1   know_object=1   
   ((   1   0)   % raining=0   successful_stolen=1   observed=0   compromise_house=0   motive=1   target_object=1   know_object=1   
   (   1   0)))   % raining=1   successful_stolen=1   observed=0   compromise_house=0   motive=1   target_object=1   know_object=1   
   (((   0.105263   0.894737)   % raining=0   successful_stolen=0   observed=1   compromise_house=0   motive=1   target_object=1   know_object=1   
   (   0.0869565   0.913043))   % raining=1   successful_stolen=0   observed=1   compromise_house=0   motive=1   target_object=1   know_object=1   
   ((   1   0)   % raining=0   successful_stolen=1   observed=1   compromise_house=0   motive=1   target_object=1   know_object=1   
   (   1   0))))   % raining=1   successful_stolen=1   observed=1   compromise_house=0   motive=1   target_object=1   know_object=1   
   ((((   1   0)   % raining=0   successful_stolen=0   observed=0   compromise_house=1   motive=1   target_object=1   know_object=1   
   (   1   0))   % raining=1   successful_stolen=0   observed=0   compromise_house=1   motive=1   target_object=1   know_object=1   
   ((   0   1)   % raining=0   successful_stolen=1   observed=0   compromise_house=1   motive=1   target_object=1   know_object=1   
   (   0   1)))   % raining=1   successful_stolen=1   observed=0   compromise_house=1   motive=1   target_object=1   know_object=1   
   (((   0   1)   % raining=0   successful_stolen=0   observed=1   compromise_house=1   motive=1   target_object=1   know_object=1   
   (   0   1))   % raining=1   successful_stolen=0   observed=1   compromise_house=1   motive=1   target_object=1   know_object=1   
   ((   0   1)   % raining=0   successful_stolen=1   observed=1   compromise_house=1   motive=1   target_object=1   know_object=1   
   (   1   0))))))));   % raining=1   successful_stolen=1   observed=1   compromise_house=1   motive=1   target_object=1   know_object=1   
}

potential ( spotted_with_goodie | know_object   target_object   motive   compromise_house   observed   successful_stolen   raining   spotted_by_house   ) {
   data = 
   (((((((((   1   0)   % spotted_by_house=0   raining=0   successful_stolen=0   observed=0   compromise_house=0   motive=0   target_object=0   know_object=0   
   (   1   0))   % spotted_by_house=1   raining=0   successful_stolen=0   observed=0   compromise_house=0   motive=0   target_object=0   know_object=0   
   ((   1   0)   % spotted_by_house=0   raining=1   successful_stolen=0   observed=0   compromise_house=0   motive=0   target_object=0   know_object=0   
   (   1   0)))   % spotted_by_house=1   raining=1   successful_stolen=0   observed=0   compromise_house=0   motive=0   target_object=0   know_object=0   
   (((   1   0)   % spotted_by_house=0   raining=0   successful_stolen=1   observed=0   compromise_house=0   motive=0   target_object=0   know_object=0   
   (   1   0))   % spotted_by_house=1   raining=0   successful_stolen=1   observed=0   compromise_house=0   motive=0   target_object=0   know_object=0   
   ((   1   0)   % spotted_by_house=0   raining=1   successful_stolen=1   observed=0   compromise_house=0   motive=0   target_object=0   know_object=0   
   (   1   0))))   % spotted_by_house=1   raining=1   successful_stolen=1   observed=0   compromise_house=0   motive=0   target_object=0   know_object=0   
   ((((   1   0)   % spotted_by_house=0   raining=0   successful_stolen=0   observed=1   compromise_house=0   motive=0   target_object=0   know_object=0   
   (   1   0))   % spotted_by_house=1   raining=0   successful_stolen=0   observed=1   compromise_house=0   motive=0   target_object=0   know_object=0   
   ((   1   0)   % spotted_by_house=0   raining=1   successful_stolen=0   observed=1   compromise_house=0   motive=0   target_object=0   know_object=0   
   (   1   0)))   % spotted_by_house=1   raining=1   successful_stolen=0   observed=1   compromise_house=0   motive=0   target_object=0   know_object=0   
   (((   1   0)   % spotted_by_house=0   raining=0   successful_stolen=1   observed=1   compromise_house=0   motive=0   target_object=0   know_object=0   
   (   1   0))   % spotted_by_house=1   raining=0   successful_stolen=1   observed=1   compromise_house=0   motive=0   target_object=0   know_object=0   
   ((   1   0)   % spotted_by_house=0   raining=1   successful_stolen=1   observed=1   compromise_house=0   motive=0   target_object=0   know_object=0   
   (   1   0)))))   % spotted_by_house=1   raining=1   successful_stolen=1   observed=1   compromise_house=0   motive=0   target_object=0   know_object=0   
   (((((   1   0)   % spotted_by_house=0   raining=0   successful_stolen=0   observed=0   compromise_house=1   motive=0   target_object=0   know_object=0   
   (   1   0))   % spotted_by_house=1   raining=0   successful_stolen=0   observed=0   compromise_house=1   motive=0   target_object=0   know_object=0   
   ((   1   0)   % spotted_by_house=0   raining=1   successful_stolen=0   observed=0   compromise_house=1   motive=0   target_object=0   know_object=0   
   (   1   0)))   % spotted_by_house=1   raining=1   successful_stolen=0   observed=0   compromise_house=1   motive=0   target_object=0   know_object=0   
   (((   1   0)   % spotted_by_house=0   raining=0   successful_stolen=1   observed=0   compromise_house=1   motive=0   target_object=0   know_object=0   
   (   1   0))   % spotted_by_house=1   raining=0   successful_stolen=1   observed=0   compromise_house=1   motive=0   target_object=0   know_object=0   
   ((   1   0)   % spotted_by_house=0   raining=1   successful_stolen=1   observed=0   compromise_house=1   motive=0   target_object=0   know_object=0   
   (   1   0))))   % spotted_by_house=1   raining=1   successful_stolen=1   observed=0   compromise_house=1   motive=0   target_object=0   know_object=0   
   ((((   1   0)   % spotted_by_house=0   raining=0   successful_stolen=0   observed=1   compromise_house=1   motive=0   target_object=0   know_object=0   
   (   1   0))   % spotted_by_house=1   raining=0   successful_stolen=0   observed=1   compromise_house=1   motive=0   target_object=0   know_object=0   
   ((   1   0)   % spotted_by_house=0   raining=1   successful_stolen=0   observed=1   compromise_house=1   motive=0   target_object=0   know_object=0   
   (   1   0)))   % spotted_by_house=1   raining=1   successful_stolen=0   observed=1   compromise_house=1   motive=0   target_object=0   know_object=0   
   (((   1   0)   % spotted_by_house=0   raining=0   successful_stolen=1   observed=1   compromise_house=1   motive=0   target_object=0   know_object=0   
   (   1   0))   % spotted_by_house=1   raining=0   successful_stolen=1   observed=1   compromise_house=1   motive=0   target_object=0   know_object=0   
   ((   1   0)   % spotted_by_house=0   raining=1   successful_stolen=1   observed=1   compromise_house=1   motive=0   target_object=0   know_object=0   
   (   1   0))))))   % spotted_by_house=1   raining=1   successful_stolen=1   observed=1   compromise_house=1   motive=0   target_object=0   know_object=0   
   ((((((   1   0)   % spotted_by_house=0   raining=0   successful_stolen=0   observed=0   compromise_house=0   motive=1   target_object=0   know_object=0   
   (   1   0))   % spotted_by_house=1   raining=0   successful_stolen=0   observed=0   compromise_house=0   motive=1   target_object=0   know_object=0   
   ((   1   0)   % spotted_by_house=0   raining=1   successful_stolen=0   observed=0   compromise_house=0   motive=1   target_object=0   know_object=0   
   (   1   0)))   % spotted_by_house=1   raining=1   successful_stolen=0   observed=0   compromise_house=0   motive=1   target_object=0   know_object=0   
   (((   1   0)   % spotted_by_house=0   raining=0   successful_stolen=1   observed=0   compromise_house=0   motive=1   target_object=0   know_object=0   
   (   1   0))   % spotted_by_house=1   raining=0   successful_stolen=1   observed=0   compromise_house=0   motive=1   target_object=0   know_object=0   
   ((   1   0)   % spotted_by_house=0   raining=1   successful_stolen=1   observed=0   compromise_house=0   motive=1   target_object=0   know_object=0   
   (   1   0))))   % spotted_by_house=1   raining=1   successful_stolen=1   observed=0   compromise_house=0   motive=1   target_object=0   know_object=0   
   ((((   1   0)   % spotted_by_house=0   raining=0   successful_stolen=0   observed=1   compromise_house=0   motive=1   target_object=0   know_object=0   
   (   1   0))   % spotted_by_house=1   raining=0   successful_stolen=0   observed=1   compromise_house=0   motive=1   target_object=0   know_object=0   
   ((   1   0)   % spotted_by_house=0   raining=1   successful_stolen=0   observed=1   compromise_house=0   motive=1   target_object=0   know_object=0   
   (   1   0)))   % spotted_by_house=1   raining=1   successful_stolen=0   observed=1   compromise_house=0   motive=1   target_object=0   know_object=0   
   (((   1   0)   % spotted_by_house=0   raining=0   successful_stolen=1   observed=1   compromise_house=0   motive=1   target_object=0   know_object=0   
   (   1   0))   % spotted_by_house=1   raining=0   successful_stolen=1   observed=1   compromise_house=0   motive=1   target_object=0   know_object=0   
   ((   1   0)   % spotted_by_house=0   raining=1   successful_stolen=1   observed=1   compromise_house=0   motive=1   target_object=0   know_object=0   
   (   1   0)))))   % spotted_by_house=1   raining=1   successful_stolen=1   observed=1   compromise_house=0   motive=1   target_object=0   know_object=0   
   (((((   1   0)   % spotted_by_house=0   raining=0   successful_stolen=0   observed=0   compromise_house=1   motive=1   target_object=0   know_object=0   
   (   1   0))   % spotted_by_house=1   raining=0   successful_stolen=0   observed=0   compromise_house=1   motive=1   target_object=0   know_object=0   
   ((   1   0)   % spotted_by_house=0   raining=1   successful_stolen=0   observed=0   compromise_house=1   motive=1   target_object=0   know_object=0   
   (   1   0)))   % spotted_by_house=1   raining=1   successful_stolen=0   observed=0   compromise_house=1   motive=1   target_object=0   know_object=0   
   (((   1   0)   % spotted_by_house=0   raining=0   successful_stolen=1   observed=0   compromise_house=1   motive=1   target_object=0   know_object=0   
   (   1   0))   % spotted_by_house=1   raining=0   successful_stolen=1   observed=0   compromise_house=1   motive=1   target_object=0   know_object=0   
   ((   1   0)   % spotted_by_house=0   raining=1   successful_stolen=1   observed=0   compromise_house=1   motive=1   target_object=0   know_object=0   
   (   1   0))))   % spotted_by_house=1   raining=1   successful_stolen=1   observed=0   compromise_house=1   motive=1   target_object=0   know_object=0   
   ((((   1   0)   % spotted_by_house=0   raining=0   successful_stolen=0   observed=1   compromise_house=1   motive=1   target_object=0   know_object=0   
   (   1   0))   % spotted_by_house=1   raining=0   successful_stolen=0   observed=1   compromise_house=1   motive=1   target_object=0   know_object=0   
   ((   1   0)   % spotted_by_house=0   raining=1   successful_stolen=0   observed=1   compromise_house=1   motive=1   target_object=0   know_object=0   
   (   1   0)))   % spotted_by_house=1   raining=1   successful_stolen=0   observed=1   compromise_house=1   motive=1   target_object=0   know_object=0   
   (((   1   0)   % spotted_by_house=0   raining=0   successful_stolen=1   observed=1   compromise_house=1   motive=1   target_object=0   know_object=0   
   (   1   0))   % spotted_by_house=1   raining=0   successful_stolen=1   observed=1   compromise_house=1   motive=1   target_object=0   know_object=0   
   ((   1   0)   % spotted_by_house=0   raining=1   successful_stolen=1   observed=1   compromise_house=1   motive=1   target_object=0   know_object=0   
   (   1   0)))))))   % spotted_by_house=1   raining=1   successful_stolen=1   observed=1   compromise_house=1   motive=1   target_object=0   know_object=0   
   (((((((   1   0)   % spotted_by_house=0   raining=0   successful_stolen=0   observed=0   compromise_house=0   motive=0   target_object=1   know_object=0   
   (   1   0))   % spotted_by_house=1   raining=0   successful_stolen=0   observed=0   compromise_house=0   motive=0   target_object=1   know_object=0   
   ((   1   0)   % spotted_by_house=0   raining=1   successful_stolen=0   observed=0   compromise_house=0   motive=0   target_object=1   know_object=0   
   (   1   0)))   % spotted_by_house=1   raining=1   successful_stolen=0   observed=0   compromise_house=0   motive=0   target_object=1   know_object=0   
   (((   1   0)   % spotted_by_house=0   raining=0   successful_stolen=1   observed=0   compromise_house=0   motive=0   target_object=1   know_object=0   
   (   1   0))   % spotted_by_house=1   raining=0   successful_stolen=1   observed=0   compromise_house=0   motive=0   target_object=1   know_object=0   
   ((   1   0)   % spotted_by_house=0   raining=1   successful_stolen=1   observed=0   compromise_house=0   motive=0   target_object=1   know_object=0   
   (   1   0))))   % spotted_by_house=1   raining=1   successful_stolen=1   observed=0   compromise_house=0   motive=0   target_object=1   know_object=0   
   ((((   1   0)   % spotted_by_house=0   raining=0   successful_stolen=0   observed=1   compromise_house=0   motive=0   target_object=1   know_object=0   
   (   1   0))   % spotted_by_house=1   raining=0   successful_stolen=0   observed=1   compromise_house=0   motive=0   target_object=1   know_object=0   
   ((   1   0)   % spotted_by_house=0   raining=1   successful_stolen=0   observed=1   compromise_house=0   motive=0   target_object=1   know_object=0   
   (   1   0)))   % spotted_by_house=1   raining=1   successful_stolen=0   observed=1   compromise_house=0   motive=0   target_object=1   know_object=0   
   (((   1   0)   % spotted_by_house=0   raining=0   successful_stolen=1   observed=1   compromise_house=0   motive=0   target_object=1   know_object=0   
   (   1   0))   % spotted_by_house=1   raining=0   successful_stolen=1   observed=1   compromise_house=0   motive=0   target_object=1   know_object=0   
   ((   1   0)   % spotted_by_house=0   raining=1   successful_stolen=1   observed=1   compromise_house=0   motive=0   target_object=1   know_object=0   
   (   1   0)))))   % spotted_by_house=1   raining=1   successful_stolen=1   observed=1   compromise_house=0   motive=0   target_object=1   know_object=0   
   (((((   1   0)   % spotted_by_house=0   raining=0   successful_stolen=0   observed=0   compromise_house=1   motive=0   target_object=1   know_object=0   
   (   1   0))   % spotted_by_house=1   raining=0   successful_stolen=0   observed=0   compromise_house=1   motive=0   target_object=1   know_object=0   
   ((   1   0)   % spotted_by_house=0   raining=1   successful_stolen=0   observed=0   compromise_house=1   motive=0   target_object=1   know_object=0   
   (   1   0)))   % spotted_by_house=1   raining=1   successful_stolen=0   observed=0   compromise_house=1   motive=0   target_object=1   know_object=0   
   (((   1   0)   % spotted_by_house=0   raining=0   successful_stolen=1   observed=0   compromise_house=1   motive=0   target_object=1   know_object=0   
   (   1   0))   % spotted_by_house=1   raining=0   successful_stolen=1   observed=0   compromise_house=1   motive=0   target_object=1   know_object=0   
   ((   1   0)   % spotted_by_house=0   raining=1   successful_stolen=1   observed=0   compromise_house=1   motive=0   target_object=1   know_object=0   
   (   1   0))))   % spotted_by_house=1   raining=1   successful_stolen=1   observed=0   compromise_house=1   motive=0   target_object=1   know_object=0   
   ((((   1   0)   % spotted_by_house=0   raining=0   successful_stolen=0   observed=1   compromise_house=1   motive=0   target_object=1   know_object=0   
   (   1   0))   % spotted_by_house=1   raining=0   successful_stolen=0   observed=1   compromise_house=1   motive=0   target_object=1   know_object=0   
   ((   1   0)   % spotted_by_house=0   raining=1   successful_stolen=0   observed=1   compromise_house=1   motive=0   target_object=1   know_object=0   
   (   1   0)))   % spotted_by_house=1   raining=1   successful_stolen=0   observed=1   compromise_house=1   motive=0   target_object=1   know_object=0   
   (((   1   0)   % spotted_by_house=0   raining=0   successful_stolen=1   observed=1   compromise_house=1   motive=0   target_object=1   know_object=0   
   (   1   0))   % spotted_by_house=1   raining=0   successful_stolen=1   observed=1   compromise_house=1   motive=0   target_object=1   know_object=0   
   ((   1   0)   % spotted_by_house=0   raining=1   successful_stolen=1   observed=1   compromise_house=1   motive=0   target_object=1   know_object=0   
   (   1   0))))))   % spotted_by_house=1   raining=1   successful_stolen=1   observed=1   compromise_house=1   motive=0   target_object=1   know_object=0   
   ((((((   1   0)   % spotted_by_house=0   raining=0   successful_stolen=0   observed=0   compromise_house=0   motive=1   target_object=1   know_object=0   
   (   1   0))   % spotted_by_house=1   raining=0   successful_stolen=0   observed=0   compromise_house=0   motive=1   target_object=1   know_object=0   
   ((   1   0)   % spotted_by_house=0   raining=1   successful_stolen=0   observed=0   compromise_house=0   motive=1   target_object=1   know_object=0   
   (   1   0)))   % spotted_by_house=1   raining=1   successful_stolen=0   observed=0   compromise_house=0   motive=1   target_object=1   know_object=0   
   (((   1   0)   % spotted_by_house=0   raining=0   successful_stolen=1   observed=0   compromise_house=0   motive=1   target_object=1   know_object=0   
   (   1   0))   % spotted_by_house=1   raining=0   successful_stolen=1   observed=0   compromise_house=0   motive=1   target_object=1   know_object=0   
   ((   1   0)   % spotted_by_house=0   raining=1   successful_stolen=1   observed=0   compromise_house=0   motive=1   target_object=1   know_object=0   
   (   1   0))))   % spotted_by_house=1   raining=1   successful_stolen=1   observed=0   compromise_house=0   motive=1   target_object=1   know_object=0   
   ((((   1   0)   % spotted_by_house=0   raining=0   successful_stolen=0   observed=1   compromise_house=0   motive=1   target_object=1   know_object=0   
   (   1   0))   % spotted_by_house=1   raining=0   successful_stolen=0   observed=1   compromise_house=0   motive=1   target_object=1   know_object=0   
   ((   1   0)   % spotted_by_house=0   raining=1   successful_stolen=0   observed=1   compromise_house=0   motive=1   target_object=1   know_object=0   
   (   1   0)))   % spotted_by_house=1   raining=1   successful_stolen=0   observed=1   compromise_house=0   motive=1   target_object=1   know_object=0   
   (((   1   0)   % spotted_by_house=0   raining=0   successful_stolen=1   observed=1   compromise_house=0   motive=1   target_object=1   know_object=0   
   (   1   0))   % spotted_by_house=1   raining=0   successful_stolen=1   observed=1   compromise_house=0   motive=1   target_object=1   know_object=0   
   ((   1   0)   % spotted_by_house=0   raining=1   successful_stolen=1   observed=1   compromise_house=0   motive=1   target_object=1   know_object=0   
   (   1   0)))))   % spotted_by_house=1   raining=1   successful_stolen=1   observed=1   compromise_house=0   motive=1   target_object=1   know_object=0   
   (((((   1   0)   % spotted_by_house=0   raining=0   successful_stolen=0   observed=0   compromise_house=1   motive=1   target_object=1   know_object=0   
   (   1   0))   % spotted_by_house=1   raining=0   successful_stolen=0   observed=0   compromise_house=1   motive=1   target_object=1   know_object=0   
   ((   1   0)   % spotted_by_house=0   raining=1   successful_stolen=0   observed=0   compromise_house=1   motive=1   target_object=1   know_object=0   
   (   1   0)))   % spotted_by_house=1   raining=1   successful_stolen=0   observed=0   compromise_house=1   motive=1   target_object=1   know_object=0   
   (((   1   0)   % spotted_by_house=0   raining=0   successful_stolen=1   observed=0   compromise_house=1   motive=1   target_object=1   know_object=0   
   (   1   0))   % spotted_by_house=1   raining=0   successful_stolen=1   observed=0   compromise_house=1   motive=1   target_object=1   know_object=0   
   ((   1   0)   % spotted_by_house=0   raining=1   successful_stolen=1   observed=0   compromise_house=1   motive=1   target_object=1   know_object=0   
   (   1   0))))   % spotted_by_house=1   raining=1   successful_stolen=1   observed=0   compromise_house=1   motive=1   target_object=1   know_object=0   
   ((((   1   0)   % spotted_by_house=0   raining=0   successful_stolen=0   observed=1   compromise_house=1   motive=1   target_object=1   know_object=0   
   (   1   0))   % spotted_by_house=1   raining=0   successful_stolen=0   observed=1   compromise_house=1   motive=1   target_object=1   know_object=0   
   ((   1   0)   % spotted_by_house=0   raining=1   successful_stolen=0   observed=1   compromise_house=1   motive=1   target_object=1   know_object=0   
   (   1   0)))   % spotted_by_house=1   raining=1   successful_stolen=0   observed=1   compromise_house=1   motive=1   target_object=1   know_object=0   
   (((   1   0)   % spotted_by_house=0   raining=0   successful_stolen=1   observed=1   compromise_house=1   motive=1   target_object=1   know_object=0   
   (   1   0))   % spotted_by_house=1   raining=0   successful_stolen=1   observed=1   compromise_house=1   motive=1   target_object=1   know_object=0   
   ((   1   0)   % spotted_by_house=0   raining=1   successful_stolen=1   observed=1   compromise_house=1   motive=1   target_object=1   know_object=0   
   (   1   0))))))))   % spotted_by_house=1   raining=1   successful_stolen=1   observed=1   compromise_house=1   motive=1   target_object=1   know_object=0   
   ((((((((   1   0)   % spotted_by_house=0   raining=0   successful_stolen=0   observed=0   compromise_house=0   motive=0   target_object=0   know_object=1   
   (   1   0))   % spotted_by_house=1   raining=0   successful_stolen=0   observed=0   compromise_house=0   motive=0   target_object=0   know_object=1   
   ((   1   0)   % spotted_by_house=0   raining=1   successful_stolen=0   observed=0   compromise_house=0   motive=0   target_object=0   know_object=1   
   (   1   0)))   % spotted_by_house=1   raining=1   successful_stolen=0   observed=0   compromise_house=0   motive=0   target_object=0   know_object=1   
   (((   1   0)   % spotted_by_house=0   raining=0   successful_stolen=1   observed=0   compromise_house=0   motive=0   target_object=0   know_object=1   
   (   1   0))   % spotted_by_house=1   raining=0   successful_stolen=1   observed=0   compromise_house=0   motive=0   target_object=0   know_object=1   
   ((   1   0)   % spotted_by_house=0   raining=1   successful_stolen=1   observed=0   compromise_house=0   motive=0   target_object=0   know_object=1   
   (   1   0))))   % spotted_by_house=1   raining=1   successful_stolen=1   observed=0   compromise_house=0   motive=0   target_object=0   know_object=1   
   ((((   1   0)   % spotted_by_house=0   raining=0   successful_stolen=0   observed=1   compromise_house=0   motive=0   target_object=0   know_object=1   
   (   1   0))   % spotted_by_house=1   raining=0   successful_stolen=0   observed=1   compromise_house=0   motive=0   target_object=0   know_object=1   
   ((   1   0)   % spotted_by_house=0   raining=1   successful_stolen=0   observed=1   compromise_house=0   motive=0   target_object=0   know_object=1   
   (   1   0)))   % spotted_by_house=1   raining=1   successful_stolen=0   observed=1   compromise_house=0   motive=0   target_object=0   know_object=1   
   (((   1   0)   % spotted_by_house=0   raining=0   successful_stolen=1   observed=1   compromise_house=0   motive=0   target_object=0   know_object=1   
   (   1   0))   % spotted_by_house=1   raining=0   successful_stolen=1   observed=1   compromise_house=0   motive=0   target_object=0   know_object=1   
   ((   1   0)   % spotted_by_house=0   raining=1   successful_stolen=1   observed=1   compromise_house=0   motive=0   target_object=0   know_object=1   
   (   1   0)))))   % spotted_by_house=1   raining=1   successful_stolen=1   observed=1   compromise_house=0   motive=0   target_object=0   know_object=1   
   (((((   1   0)   % spotted_by_house=0   raining=0   successful_stolen=0   observed=0   compromise_house=1   motive=0   target_object=0   know_object=1   
   (   1   0))   % spotted_by_house=1   raining=0   successful_stolen=0   observed=0   compromise_house=1   motive=0   target_object=0   know_object=1   
   ((   1   0)   % spotted_by_house=0   raining=1   successful_stolen=0   observed=0   compromise_house=1   motive=0   target_object=0   know_object=1   
   (   1   0)))   % spotted_by_house=1   raining=1   successful_stolen=0   observed=0   compromise_house=1   motive=0   target_object=0   know_object=1   
   (((   1   0)   % spotted_by_house=0   raining=0   successful_stolen=1   observed=0   compromise_house=1   motive=0   target_object=0   know_object=1   
   (   1   0))   % spotted_by_house=1   raining=0   successful_stolen=1   observed=0   compromise_house=1   motive=0   target_object=0   know_object=1   
   ((   1   0)   % spotted_by_house=0   raining=1   successful_stolen=1   observed=0   compromise_house=1   motive=0   target_object=0   know_object=1   
   (   1   0))))   % spotted_by_house=1   raining=1   successful_stolen=1   observed=0   compromise_house=1   motive=0   target_object=0   know_object=1   
   ((((   1   0)   % spotted_by_house=0   raining=0   successful_stolen=0   observed=1   compromise_house=1   motive=0   target_object=0   know_object=1   
   (   1   0))   % spotted_by_house=1   raining=0   successful_stolen=0   observed=1   compromise_house=1   motive=0   target_object=0   know_object=1   
   ((   1   0)   % spotted_by_house=0   raining=1   successful_stolen=0   observed=1   compromise_house=1   motive=0   target_object=0   know_object=1   
   (   1   0)))   % spotted_by_house=1   raining=1   successful_stolen=0   observed=1   compromise_house=1   motive=0   target_object=0   know_object=1   
   (((   1   0)   % spotted_by_house=0   raining=0   successful_stolen=1   observed=1   compromise_house=1   motive=0   target_object=0   know_object=1   
   (   1   0))   % spotted_by_house=1   raining=0   successful_stolen=1   observed=1   compromise_house=1   motive=0   target_object=0   know_object=1   
   ((   1   0)   % spotted_by_house=0   raining=1   successful_stolen=1   observed=1   compromise_house=1   motive=0   target_object=0   know_object=1   
   (   1   0))))))   % spotted_by_house=1   raining=1   successful_stolen=1   observed=1   compromise_house=1   motive=0   target_object=0   know_object=1   
   ((((((   1   0)   % spotted_by_house=0   raining=0   successful_stolen=0   observed=0   compromise_house=0   motive=1   target_object=0   know_object=1   
   (   1   0))   % spotted_by_house=1   raining=0   successful_stolen=0   observed=0   compromise_house=0   motive=1   target_object=0   know_object=1   
   ((   1   0)   % spotted_by_house=0   raining=1   successful_stolen=0   observed=0   compromise_house=0   motive=1   target_object=0   know_object=1   
   (   1   0)))   % spotted_by_house=1   raining=1   successful_stolen=0   observed=0   compromise_house=0   motive=1   target_object=0   know_object=1   
   (((   1   0)   % spotted_by_house=0   raining=0   successful_stolen=1   observed=0   compromise_house=0   motive=1   target_object=0   know_object=1   
   (   1   0))   % spotted_by_house=1   raining=0   successful_stolen=1   observed=0   compromise_house=0   motive=1   target_object=0   know_object=1   
   ((   1   0)   % spotted_by_house=0   raining=1   successful_stolen=1   observed=0   compromise_house=0   motive=1   target_object=0   know_object=1   
   (   1   0))))   % spotted_by_house=1   raining=1   successful_stolen=1   observed=0   compromise_house=0   motive=1   target_object=0   know_object=1   
   ((((   1   0)   % spotted_by_house=0   raining=0   successful_stolen=0   observed=1   compromise_house=0   motive=1   target_object=0   know_object=1   
   (   1   0))   % spotted_by_house=1   raining=0   successful_stolen=0   observed=1   compromise_house=0   motive=1   target_object=0   know_object=1   
   ((   1   0)   % spotted_by_house=0   raining=1   successful_stolen=0   observed=1   compromise_house=0   motive=1   target_object=0   know_object=1   
   (   1   0)))   % spotted_by_house=1   raining=1   successful_stolen=0   observed=1   compromise_house=0   motive=1   target_object=0   know_object=1   
   (((   1   0)   % spotted_by_house=0   raining=0   successful_stolen=1   observed=1   compromise_house=0   motive=1   target_object=0   know_object=1   
   (   1   0))   % spotted_by_house=1   raining=0   successful_stolen=1   observed=1   compromise_house=0   motive=1   target_object=0   know_object=1   
   ((   1   0)   % spotted_by_house=0   raining=1   successful_stolen=1   observed=1   compromise_house=0   motive=1   target_object=0   know_object=1   
   (   1   0)))))   % spotted_by_house=1   raining=1   successful_stolen=1   observed=1   compromise_house=0   motive=1   target_object=0   know_object=1   
   (((((   1   0)   % spotted_by_house=0   raining=0   successful_stolen=0   observed=0   compromise_house=1   motive=1   target_object=0   know_object=1   
   (   1   0))   % spotted_by_house=1   raining=0   successful_stolen=0   observed=0   compromise_house=1   motive=1   target_object=0   know_object=1   
   ((   1   0)   % spotted_by_house=0   raining=1   successful_stolen=0   observed=0   compromise_house=1   motive=1   target_object=0   know_object=1   
   (   1   0)))   % spotted_by_house=1   raining=1   successful_stolen=0   observed=0   compromise_house=1   motive=1   target_object=0   know_object=1   
   (((   1   0)   % spotted_by_house=0   raining=0   successful_stolen=1   observed=0   compromise_house=1   motive=1   target_object=0   know_object=1   
   (   1   0))   % spotted_by_house=1   raining=0   successful_stolen=1   observed=0   compromise_house=1   motive=1   target_object=0   know_object=1   
   ((   1   0)   % spotted_by_house=0   raining=1   successful_stolen=1   observed=0   compromise_house=1   motive=1   target_object=0   know_object=1   
   (   1   0))))   % spotted_by_house=1   raining=1   successful_stolen=1   observed=0   compromise_house=1   motive=1   target_object=0   know_object=1   
   ((((   1   0)   % spotted_by_house=0   raining=0   successful_stolen=0   observed=1   compromise_house=1   motive=1   target_object=0   know_object=1   
   (   1   0))   % spotted_by_house=1   raining=0   successful_stolen=0   observed=1   compromise_house=1   motive=1   target_object=0   know_object=1   
   ((   1   0)   % spotted_by_house=0   raining=1   successful_stolen=0   observed=1   compromise_house=1   motive=1   target_object=0   know_object=1   
   (   1   0)))   % spotted_by_house=1   raining=1   successful_stolen=0   observed=1   compromise_house=1   motive=1   target_object=0   know_object=1   
   (((   1   0)   % spotted_by_house=0   raining=0   successful_stolen=1   observed=1   compromise_house=1   motive=1   target_object=0   know_object=1   
   (   1   0))   % spotted_by_house=1   raining=0   successful_stolen=1   observed=1   compromise_house=1   motive=1   target_object=0   know_object=1   
   ((   1   0)   % spotted_by_house=0   raining=1   successful_stolen=1   observed=1   compromise_house=1   motive=1   target_object=0   know_object=1   
   (   1   0)))))))   % spotted_by_house=1   raining=1   successful_stolen=1   observed=1   compromise_house=1   motive=1   target_object=0   know_object=1   
   (((((((   1   0)   % spotted_by_house=0   raining=0   successful_stolen=0   observed=0   compromise_house=0   motive=0   target_object=1   know_object=1   
   (   1   0))   % spotted_by_house=1   raining=0   successful_stolen=0   observed=0   compromise_house=0   motive=0   target_object=1   know_object=1   
   ((   1   0)   % spotted_by_house=0   raining=1   successful_stolen=0   observed=0   compromise_house=0   motive=0   target_object=1   know_object=1   
   (   1   0)))   % spotted_by_house=1   raining=1   successful_stolen=0   observed=0   compromise_house=0   motive=0   target_object=1   know_object=1   
   (((   1   0)   % spotted_by_house=0   raining=0   successful_stolen=1   observed=0   compromise_house=0   motive=0   target_object=1   know_object=1   
   (   1   0))   % spotted_by_house=1   raining=0   successful_stolen=1   observed=0   compromise_house=0   motive=0   target_object=1   know_object=1   
   ((   1   0)   % spotted_by_house=0   raining=1   successful_stolen=1   observed=0   compromise_house=0   motive=0   target_object=1   know_object=1   
   (   1   0))))   % spotted_by_house=1   raining=1   successful_stolen=1   observed=0   compromise_house=0   motive=0   target_object=1   know_object=1   
   ((((   1   0)   % spotted_by_house=0   raining=0   successful_stolen=0   observed=1   compromise_house=0   motive=0   target_object=1   know_object=1   
   (   1   0))   % spotted_by_house=1   raining=0   successful_stolen=0   observed=1   compromise_house=0   motive=0   target_object=1   know_object=1   
   ((   1   0)   % spotted_by_house=0   raining=1   successful_stolen=0   observed=1   compromise_house=0   motive=0   target_object=1   know_object=1   
   (   1   0)))   % spotted_by_house=1   raining=1   successful_stolen=0   observed=1   compromise_house=0   motive=0   target_object=1   know_object=1   
   (((   1   0)   % spotted_by_house=0   raining=0   successful_stolen=1   observed=1   compromise_house=0   motive=0   target_object=1   know_object=1   
   (   1   0))   % spotted_by_house=1   raining=0   successful_stolen=1   observed=1   compromise_house=0   motive=0   target_object=1   know_object=1   
   ((   1   0)   % spotted_by_house=0   raining=1   successful_stolen=1   observed=1   compromise_house=0   motive=0   target_object=1   know_object=1   
   (   1   0)))))   % spotted_by_house=1   raining=1   successful_stolen=1   observed=1   compromise_house=0   motive=0   target_object=1   know_object=1   
   (((((   1   0)   % spotted_by_house=0   raining=0   successful_stolen=0   observed=0   compromise_house=1   motive=0   target_object=1   know_object=1   
   (   1   0))   % spotted_by_house=1   raining=0   successful_stolen=0   observed=0   compromise_house=1   motive=0   target_object=1   know_object=1   
   ((   1   0)   % spotted_by_house=0   raining=1   successful_stolen=0   observed=0   compromise_house=1   motive=0   target_object=1   know_object=1   
   (   1   0)))   % spotted_by_house=1   raining=1   successful_stolen=0   observed=0   compromise_house=1   motive=0   target_object=1   know_object=1   
   (((   1   0)   % spotted_by_house=0   raining=0   successful_stolen=1   observed=0   compromise_house=1   motive=0   target_object=1   know_object=1   
   (   1   0))   % spotted_by_house=1   raining=0   successful_stolen=1   observed=0   compromise_house=1   motive=0   target_object=1   know_object=1   
   ((   1   0)   % spotted_by_house=0   raining=1   successful_stolen=1   observed=0   compromise_house=1   motive=0   target_object=1   know_object=1   
   (   1   0))))   % spotted_by_house=1   raining=1   successful_stolen=1   observed=0   compromise_house=1   motive=0   target_object=1   know_object=1   
   ((((   1   0)   % spotted_by_house=0   raining=0   successful_stolen=0   observed=1   compromise_house=1   motive=0   target_object=1   know_object=1   
   (   1   0))   % spotted_by_house=1   raining=0   successful_stolen=0   observed=1   compromise_house=1   motive=0   target_object=1   know_object=1   
   ((   1   0)   % spotted_by_house=0   raining=1   successful_stolen=0   observed=1   compromise_house=1   motive=0   target_object=1   know_object=1   
   (   1   0)))   % spotted_by_house=1   raining=1   successful_stolen=0   observed=1   compromise_house=1   motive=0   target_object=1   know_object=1   
   (((   1   0)   % spotted_by_house=0   raining=0   successful_stolen=1   observed=1   compromise_house=1   motive=0   target_object=1   know_object=1   
   (   1   0))   % spotted_by_house=1   raining=0   successful_stolen=1   observed=1   compromise_house=1   motive=0   target_object=1   know_object=1   
   ((   1   0)   % spotted_by_house=0   raining=1   successful_stolen=1   observed=1   compromise_house=1   motive=0   target_object=1   know_object=1   
   (   1   0))))))   % spotted_by_house=1   raining=1   successful_stolen=1   observed=1   compromise_house=1   motive=0   target_object=1   know_object=1   
   ((((((   1   0)   % spotted_by_house=0   raining=0   successful_stolen=0   observed=0   compromise_house=0   motive=1   target_object=1   know_object=1   
   (   1   0))   % spotted_by_house=1   raining=0   successful_stolen=0   observed=0   compromise_house=0   motive=1   target_object=1   know_object=1   
   ((   1   0)   % spotted_by_house=0   raining=1   successful_stolen=0   observed=0   compromise_house=0   motive=1   target_object=1   know_object=1   
   (   1   0)))   % spotted_by_house=1   raining=1   successful_stolen=0   observed=0   compromise_house=0   motive=1   target_object=1   know_object=1   
   (((   1   0)   % spotted_by_house=0   raining=0   successful_stolen=1   observed=0   compromise_house=0   motive=1   target_object=1   know_object=1   
   (   1   0))   % spotted_by_house=1   raining=0   successful_stolen=1   observed=0   compromise_house=0   motive=1   target_object=1   know_object=1   
   ((   1   0)   % spotted_by_house=0   raining=1   successful_stolen=1   observed=0   compromise_house=0   motive=1   target_object=1   know_object=1   
   (   1   0))))   % spotted_by_house=1   raining=1   successful_stolen=1   observed=0   compromise_house=0   motive=1   target_object=1   know_object=1   
   ((((   1   0)   % spotted_by_house=0   raining=0   successful_stolen=0   observed=1   compromise_house=0   motive=1   target_object=1   know_object=1   
   (   1   0))   % spotted_by_house=1   raining=0   successful_stolen=0   observed=1   compromise_house=0   motive=1   target_object=1   know_object=1   
   ((   1   0)   % spotted_by_house=0   raining=1   successful_stolen=0   observed=1   compromise_house=0   motive=1   target_object=1   know_object=1   
   (   1   0)))   % spotted_by_house=1   raining=1   successful_stolen=0   observed=1   compromise_house=0   motive=1   target_object=1   know_object=1   
   (((   1   0)   % spotted_by_house=0   raining=0   successful_stolen=1   observed=1   compromise_house=0   motive=1   target_object=1   know_object=1   
   (   1   0))   % spotted_by_house=1   raining=0   successful_stolen=1   observed=1   compromise_house=0   motive=1   target_object=1   know_object=1   
   ((   1   0)   % spotted_by_house=0   raining=1   successful_stolen=1   observed=1   compromise_house=0   motive=1   target_object=1   know_object=1   
   (   1   0)))))   % spotted_by_house=1   raining=1   successful_stolen=1   observed=1   compromise_house=0   motive=1   target_object=1   know_object=1   
   (((((   1   0)   % spotted_by_house=0   raining=0   successful_stolen=0   observed=0   compromise_house=1   motive=1   target_object=1   know_object=1   
   (   1   0))   % spotted_by_house=1   raining=0   successful_stolen=0   observed=0   compromise_house=1   motive=1   target_object=1   know_object=1   
   ((   1   0)   % spotted_by_house=0   raining=1   successful_stolen=0   observed=0   compromise_house=1   motive=1   target_object=1   know_object=1   
   (   1   0)))   % spotted_by_house=1   raining=1   successful_stolen=0   observed=0   compromise_house=1   motive=1   target_object=1   know_object=1   
   (((   1   0)   % spotted_by_house=0   raining=0   successful_stolen=1   observed=0   compromise_house=1   motive=1   target_object=1   know_object=1   
   (   0.0909091   0.909091))   % spotted_by_house=1   raining=0   successful_stolen=1   observed=0   compromise_house=1   motive=1   target_object=1   know_object=1   
   ((   1   0)   % spotted_by_house=0   raining=1   successful_stolen=1   observed=0   compromise_house=1   motive=1   target_object=1   know_object=1   
   (   0   1))))   % spotted_by_house=1   raining=1   successful_stolen=1   observed=0   compromise_house=1   motive=1   target_object=1   know_object=1   
   ((((   1   0)   % spotted_by_house=0   raining=0   successful_stolen=0   observed=1   compromise_house=1   motive=1   target_object=1   know_object=1   
   (   1   0))   % spotted_by_house=1   raining=0   successful_stolen=0   observed=1   compromise_house=1   motive=1   target_object=1   know_object=1   
   ((   1   0)   % spotted_by_house=0   raining=1   successful_stolen=0   observed=1   compromise_house=1   motive=1   target_object=1   know_object=1   
   (   1   0)))   % spotted_by_house=1   raining=1   successful_stolen=0   observed=1   compromise_house=1   motive=1   target_object=1   know_object=1   
   (((   1   0)   % spotted_by_house=0   raining=0   successful_stolen=1   observed=1   compromise_house=1   motive=1   target_object=1   know_object=1   
   (   0   1))   % spotted_by_house=1   raining=0   successful_stolen=1   observed=1   compromise_house=1   motive=1   target_object=1   know_object=1   
   ((   1   0)   % spotted_by_house=0   raining=1   successful_stolen=1   observed=1   compromise_house=1   motive=1   target_object=1   know_object=1   
   (   1   0)))))))));   % spotted_by_house=1   raining=1   successful_stolen=1   observed=1   compromise_house=1   motive=1   target_object=1   know_object=1   
}


