
net {
  name = unnamedBN;
  software = "aGrUM 0.22.5";
  node_size = (50 50);
}

node know_object {
   states = (0 1 );
   label = "know_object";
   ID = "know_object";
}

node target_object {
   states = (0 1 );
   label = "target_object";
   ID = "target_object";
}

node motive {
   states = (0 1 );
   label = "motive";
   ID = "motive";
}

node compromise_house {
   states = (0 1 );
   label = "compromise_house";
   ID = "compromise_house";
}

node flees_startled {
   states = (0 1 );
   label = "flees_startled";
   ID = "flees_startled";
}

node successful_stolen {
   states = (0 1 );
   label = "successful_stolen";
   ID = "successful_stolen";
}

node raining {
   states = (0 1 );
   label = "raining";
   ID = "raining";
}

node curtains {
   states = (0 1 );
   label = "curtains";
   ID = "curtains";
}

node lost_object {
   states = (0 1 );
   label = "lost_object";
   ID = "lost_object";
}

node E_object_is_gone {
   states = (0 1 );
   label = "E_object_is_gone";
   ID = "E_object_is_gone";
}

node E_broken_lock {
   states = (0 1 );
   label = "E_broken_lock";
   ID = "E_broken_lock";
}

node E_disturbed_house {
   states = (0 1 );
   label = "E_disturbed_house";
   ID = "E_disturbed_house";
}

node E_s_spotted_by_house {
   states = (0 1 );
   label = "E_s_spotted_by_house";
   ID = "E_s_spotted_by_house";
}

node E_s_spotted_with_goodie {
   states = (0 1 );
   label = "E_s_spotted_with_goodie";
   ID = "E_s_spotted_with_goodie";
}

node E_private {
   states = (0 1 );
   label = "E_private";
   ID = "E_private";
}

potential ( know_object | curtains   lost_object   ) {
   data = 
   (((   0.0215896   0.97841)   % lost_object=0   curtains=0   
   (   0.999127   0.0008726))   % lost_object=1   curtains=0   
   ((   0.999234   0.000765697)   % lost_object=0   curtains=1   
   (   0.99697   0.0030303)));   % lost_object=1   curtains=1   
}

potential ( target_object | know_object   ) {
   data = 
   ((   0.999308   0.000691563)   % know_object=0   
   (   0.496877   0.503123));   % know_object=1   
}

potential ( motive | lost_object   target_object   ) {
   data = 
   (((   0.999748   0.000252398)   % target_object=0   lost_object=0   
   (   0.000387898   0.999612))   % target_object=1   lost_object=0   
   ((   0.999322   0.000678426)   % target_object=0   lost_object=1   
   (   1   0)));   % target_object=1   lost_object=1   
}

potential ( compromise_house | motive   target_object   ) {
   data = 
   (((   0.999816   0.000184026)   % target_object=0   motive=0   
   (   1   0))   % target_object=1   motive=0   
   ((   1   0)   % target_object=0   motive=1   
   (   0.6955   0.3045)));   % target_object=1   motive=1   
}

potential ( flees_startled | target_object   motive   ) {
   data = 
   (((   0.999816   0.000184026)   % motive=0   target_object=0   
   (   1   0))   % motive=1   target_object=0   
   ((   1   0)   % motive=0   target_object=1   
   (   0.506206   0.493794)));   % motive=1   target_object=1   
}

potential ( successful_stolen | flees_startled   compromise_house   ) {
   data = 
   (((   0.999841   0.000158579)   % compromise_house=0   flees_startled=0   
   (   0.00230415   0.997696))   % compromise_house=1   flees_startled=0   
   ((   0.998915   0.0010846)   % compromise_house=0   flees_startled=1   
   (   0.997175   0.00282486)));   % compromise_house=1   flees_startled=1   
}

potential (raining) {
   data = (  0.507485 0.492515);
}

potential (curtains) {
   data = (  0.795908 0.204092);
}

potential (lost_object) {
   data = (  0.815868 0.184132);
}

potential ( E_object_is_gone | successful_stolen   lost_object   compromise_house   ) {
   data = 
   ((((   0.999913   8.69112e-05)   % compromise_house=0   lost_object=0   successful_stolen=0   
   (   0.296034   0.703966))   % compromise_house=1   lost_object=0   successful_stolen=0   
   ((   0.000339443   0.999661)   % compromise_house=0   lost_object=1   successful_stolen=0   
   (   1   0)))   % compromise_house=1   lost_object=1   successful_stolen=0   
   (((   1   0)   % compromise_house=0   lost_object=0   successful_stolen=1   
   (   0.00115473   0.998845))   % compromise_house=1   lost_object=0   successful_stolen=1   
   ((   1   0)   % compromise_house=0   lost_object=1   successful_stolen=1   
   (   1   0))));   % compromise_house=1   lost_object=1   successful_stolen=1   
}

potential ( E_broken_lock | compromise_house   successful_stolen   ) {
   data = 
   (((   0.999862   0.000138389)   % successful_stolen=0   compromise_house=0   
   (   1   0))   % successful_stolen=1   compromise_house=0   
   ((   0.00282486   0.997175)   % successful_stolen=0   compromise_house=1   
   (   0.00230415   0.997696)));   % successful_stolen=1   compromise_house=1   
}

potential ( E_disturbed_house | compromise_house   successful_stolen   ) {
   data = 
   (((   0.999862   0.000138389)   % successful_stolen=0   compromise_house=0   
   (   1   0))   % successful_stolen=1   compromise_house=0   
   ((   0.00282486   0.997175)   % successful_stolen=0   compromise_house=1   
   (   0.00230415   0.997696)));   % successful_stolen=1   compromise_house=1   
}

potential ( E_s_spotted_by_house | target_object   know_object   lost_object   curtains   motive   ) {
   data = 
   ((((((   0.998886   0.00111359)   % motive=0   curtains=0   lost_object=0   know_object=0   target_object=0   
   (   1   0))   % motive=1   curtains=0   lost_object=0   know_object=0   target_object=0   
   ((   0.0553   0.9447)   % motive=0   curtains=1   lost_object=0   know_object=0   target_object=0   
   (   1   0)))   % motive=1   curtains=1   lost_object=0   know_object=0   target_object=0   
   (((   0.209854   0.790146)   % motive=0   curtains=0   lost_object=1   know_object=0   target_object=0   
   (   1   0))   % motive=1   curtains=0   lost_object=1   know_object=0   target_object=0   
   ((   0.0491241   0.950876)   % motive=0   curtains=1   lost_object=1   know_object=0   target_object=0   
   (   1   0))))   % motive=1   curtains=1   lost_object=1   know_object=0   target_object=0   
   ((((   0.125823   0.874177)   % motive=0   curtains=0   lost_object=0   know_object=1   target_object=0   
   (   1   0))   % motive=1   curtains=0   lost_object=0   know_object=1   target_object=0   
   ((   1   0)   % motive=0   curtains=1   lost_object=0   know_object=1   target_object=0   
   (   1   0)))   % motive=1   curtains=1   lost_object=0   know_object=1   target_object=0   
   (((   1   0)   % motive=0   curtains=0   lost_object=1   know_object=1   target_object=0   
   (   1   0))   % motive=1   curtains=0   lost_object=1   know_object=1   target_object=0   
   ((   1   0)   % motive=0   curtains=1   lost_object=1   know_object=1   target_object=0   
   (   1   0)))))   % motive=1   curtains=1   lost_object=1   know_object=1   target_object=0   
   (((((   1   0)   % motive=0   curtains=0   lost_object=0   know_object=0   target_object=1   
   (   1   0))   % motive=1   curtains=0   lost_object=0   know_object=0   target_object=1   
   ((   1   0)   % motive=0   curtains=1   lost_object=0   know_object=0   target_object=1   
   (   1   0)))   % motive=1   curtains=1   lost_object=0   know_object=0   target_object=1   
   (((   1   0)   % motive=0   curtains=0   lost_object=1   know_object=0   target_object=1   
   (   1   0))   % motive=1   curtains=0   lost_object=1   know_object=0   target_object=1   
   ((   1   0)   % motive=0   curtains=1   lost_object=1   know_object=0   target_object=1   
   (   1   0))))   % motive=1   curtains=1   lost_object=1   know_object=0   target_object=1   
   ((((   1   0)   % motive=0   curtains=0   lost_object=0   know_object=1   target_object=1   
   (   4.85201e-05   0.999951))   % motive=1   curtains=0   lost_object=0   know_object=1   target_object=1   
   ((   1   0)   % motive=0   curtains=1   lost_object=0   know_object=1   target_object=1   
   (   1   0)))   % motive=1   curtains=1   lost_object=0   know_object=1   target_object=1   
   (((   1   0)   % motive=0   curtains=0   lost_object=1   know_object=1   target_object=1   
   (   1   0))   % motive=1   curtains=0   lost_object=1   know_object=1   target_object=1   
   ((   1   0)   % motive=0   curtains=1   lost_object=1   know_object=1   target_object=1   
   (   1   0))))));   % motive=1   curtains=1   lost_object=1   know_object=1   target_object=1   
}

potential ( E_s_spotted_with_goodie | compromise_house   successful_stolen   ) {
   data = 
   (((   0.999862   0.000138389)   % successful_stolen=0   compromise_house=0   
   (   1   0))   % successful_stolen=1   compromise_house=0   
   ((   0.29661   0.70339)   % successful_stolen=0   compromise_house=1   
   (   0.00230415   0.997696)));   % successful_stolen=1   compromise_house=1   
}

potential ( E_private | successful_stolen   flees_startled   ) {
   data = 
   (((   0.999841   0.000158579)   % flees_startled=0   successful_stolen=0   
   (   0.000784929   0.999215))   % flees_startled=1   successful_stolen=0   
   ((   0.997696   0.00230415)   % flees_startled=0   successful_stolen=1   
   (   1   0)));   % flees_startled=1   successful_stolen=1   
}


