
net {
  name = unnamedBN;
  software = "aGrUM 0.22.5";
  node_size = (50 50);
}

node lost_object {
   states = (0 1 );
   label = "lost_object";
   ID = "lost_object";
}

node know_object {
   states = (0 1 );
   label = "know_object";
   ID = "know_object";
}

node target_object {
   states = (0 1 );
   label = "target_object";
   ID = "target_object";
}

node motive {
   states = (0 1 );
   label = "motive";
   ID = "motive";
}

node compromise_house {
   states = (0 1 );
   label = "compromise_house";
   ID = "compromise_house";
}

node flees_startled {
   states = (0 1 );
   label = "flees_startled";
   ID = "flees_startled";
}

node successful_stolen {
   states = (0 1 );
   label = "successful_stolen";
   ID = "successful_stolen";
}

node raining {
   states = (0 1 );
   label = "raining";
   ID = "raining";
}

node curtains {
   states = (0 1 );
   label = "curtains";
   ID = "curtains";
}

node E_object_is_gone {
   states = (0 1 );
   label = "E_object_is_gone";
   ID = "E_object_is_gone";
}

node E_broken_lock {
   states = (0 1 );
   label = "E_broken_lock";
   ID = "E_broken_lock";
}

node E_disturbed_house {
   states = (0 1 );
   label = "E_disturbed_house";
   ID = "E_disturbed_house";
}

node E_s_spotted_by_house {
   states = (0 1 );
   label = "E_s_spotted_by_house";
   ID = "E_s_spotted_by_house";
}

node E_s_spotted_with_goodie {
   states = (0 1 );
   label = "E_s_spotted_with_goodie";
   ID = "E_s_spotted_with_goodie";
}

node E_private {
   states = (0 1 );
   label = "E_private";
   ID = "E_private";
}

potential (lost_object) {
   data = (  0.735149 0.264851);
}

potential ( know_object | lost_object   curtains   ) {
   data = 
   (((   0.0505155   0.949485)   % curtains=0   lost_object=0   
   (   0.995413   0.00458716))   % curtains=1   lost_object=0   
   ((   0.997175   0.00282486)   % curtains=0   lost_object=1   
   (   0.986486   0.0135135)));   % curtains=1   lost_object=1   
}

potential ( target_object | know_object   ) {
   data = 
   ((   0.99711   0.00289017)   % know_object=0   
   (   0.495671   0.504329));   % know_object=1   
}

potential ( motive | target_object   curtains   ) {
   data = 
   (((   0.998834   0.0011655)   % curtains=0   target_object=0   
   (   0.996552   0.00344828))   % curtains=1   target_object=0   
   ((   0.00214592   0.997854)   % curtains=0   target_object=1   
   (   1   0)));   % curtains=1   target_object=1   
}

potential ( compromise_house | motive   raining   ) {
   data = 
   (((   0.998423   0.00157729)   % raining=0   motive=0   
   (   0.998054   0.00194553))   % raining=1   motive=0   
   ((   0.830579   0.169421)   % raining=0   motive=1   
   (   0.464602   0.535398)));   % raining=1   motive=1   
}

potential ( flees_startled | target_object   motive   ) {
   data = 
   (((   0.999127   0.0008726)   % motive=0   target_object=0   
   (   1   0))   % motive=1   target_object=0   
   ((   1   0)   % motive=0   target_object=1   
   (   0.551502   0.448498)));   % motive=1   target_object=1   
}

potential ( successful_stolen | compromise_house   flees_startled   ) {
   data = 
   (((   0.999225   0.000775194)   % flees_startled=0   compromise_house=0   
   (   0.993827   0.00617284))   % flees_startled=1   compromise_house=0   
   ((   0.00877193   0.991228)   % flees_startled=0   compromise_house=1   
   (   0.98   0.02)));   % flees_startled=1   compromise_house=1   
}

potential (raining) {
   data = (  0.542079 0.457921);
}

potential (curtains) {
   data = (  0.819307 0.180693);
}

potential ( E_object_is_gone | lost_object   compromise_house   successful_stolen   ) {
   data = 
   ((((   0.999512   0.000487805)   % successful_stolen=0   compromise_house=0   lost_object=0   
   (   1   0))   % successful_stolen=1   compromise_house=0   lost_object=0   
   ((   1   0)   % successful_stolen=0   compromise_house=1   lost_object=0   
   (   0.00442478   0.995575)))   % successful_stolen=1   compromise_house=1   lost_object=0   
   (((   0.00117647   0.998824)   % successful_stolen=0   compromise_house=0   lost_object=1   
   (   1   0))   % successful_stolen=1   compromise_house=0   lost_object=1   
   ((   1   0)   % successful_stolen=0   compromise_house=1   lost_object=1   
   (   1   0))));   % successful_stolen=1   compromise_house=1   lost_object=1   
}

potential ( E_broken_lock | compromise_house   successful_stolen   ) {
   data = 
   (((   0.99931   0.000689655)   % successful_stolen=0   compromise_house=0   
   (   1   0))   % successful_stolen=1   compromise_house=0   
   ((   0.02   0.98)   % successful_stolen=0   compromise_house=1   
   (   0.00877193   0.991228)));   % successful_stolen=1   compromise_house=1   
}

potential ( E_disturbed_house | compromise_house   successful_stolen   ) {
   data = 
   (((   0.99931   0.000689655)   % successful_stolen=0   compromise_house=0   
   (   1   0))   % successful_stolen=1   compromise_house=0   
   ((   0.02   0.98)   % successful_stolen=0   compromise_house=1   
   (   0.00877193   0.991228)));   % successful_stolen=1   compromise_house=1   
}

potential ( E_s_spotted_by_house | target_object   curtains   ) {
   data = 
   (((   0.19697   0.80303)   % curtains=0   target_object=0   
   (   0.0586207   0.941379))   % curtains=1   target_object=0   
   ((   0.00214592   0.997854)   % curtains=0   target_object=1   
   (   1   0)));   % curtains=1   target_object=1   
}

potential ( E_s_spotted_with_goodie | compromise_house   successful_stolen   ) {
   data = 
   (((   0.99931   0.000689655)   % successful_stolen=0   compromise_house=0   
   (   1   0))   % successful_stolen=1   compromise_house=0   
   ((   1   0)   % successful_stolen=0   compromise_house=1   
   (   0.00877193   0.991228)));   % successful_stolen=1   compromise_house=1   
}

potential ( E_private | successful_stolen   flees_startled   ) {
   data = 
   (((   0.999225   0.000775194)   % flees_startled=0   successful_stolen=0   
   (   0.0047619   0.995238))   % flees_startled=1   successful_stolen=0   
   ((   0.991228   0.00877193)   % flees_startled=0   successful_stolen=1   
   (   1   0)));   % flees_startled=1   successful_stolen=1   
}


