
net {
  name = unnamedBN;
  software = "aGrUM 0.22.5";
  node_size = (50 50);
}

node lost_object {
   states = (0 1 );
   label = "lost_object";
   ID = "lost_object";
}

node know_object {
   states = (0 1 );
   label = "know_object";
   ID = "know_object";
}

node target_object {
   states = (0 1 );
   label = "target_object";
   ID = "target_object";
}

node motive {
   states = (0 1 );
   label = "motive";
   ID = "motive";
}

node compromise_house {
   states = (0 1 );
   label = "compromise_house";
   ID = "compromise_house";
}

node flees_startled {
   states = (0 1 );
   label = "flees_startled";
   ID = "flees_startled";
}

node successful_stolen {
   states = (0 1 );
   label = "successful_stolen";
   ID = "successful_stolen";
}

node raining {
   states = (0 1 );
   label = "raining";
   ID = "raining";
}

node curtains {
   states = (0 1 );
   label = "curtains";
   ID = "curtains";
}

node E_object_is_gone {
   states = (0 1 );
   label = "E_object_is_gone";
   ID = "E_object_is_gone";
}

node E_broken_lock {
   states = (0 1 );
   label = "E_broken_lock";
   ID = "E_broken_lock";
}

node E_disturbed_house {
   states = (0 1 );
   label = "E_disturbed_house";
   ID = "E_disturbed_house";
}

node E_s_spotted_by_house {
   states = (0 1 );
   label = "E_s_spotted_by_house";
   ID = "E_s_spotted_by_house";
}

node E_s_spotted_with_goodie {
   states = (0 1 );
   label = "E_s_spotted_with_goodie";
   ID = "E_s_spotted_with_goodie";
}

node E_private {
   states = (0 1 );
   label = "E_private";
   ID = "E_private";
}

potential (lost_object) {
   data = (  0.798226 0.201774);
}

potential ( know_object | curtains   lost_object   ) {
   data = 
   (((   0.0223683   0.977632)   % lost_object=0   curtains=0   
   (   0.999811   0.000189322))   % lost_object=1   curtains=0   
   ((   0.999773   0.000226757)   % lost_object=0   curtains=1   
   (   0.999151   0.000848896)));   % lost_object=1   curtains=1   
}

potential ( target_object | know_object   ) {
   data = 
   ((   0.999824   0.000176367)   % know_object=0   
   (   0.493035   0.506965));   % know_object=1   
}

potential ( motive | target_object   curtains   ) {
   data = 
   (((   0.999937   6.27117e-05)   % curtains=0   target_object=0   
   (   0.999821   0.000179019))   % curtains=1   target_object=0   
   ((   9.54016e-05   0.999905)   % curtains=0   target_object=1   
   (   1   0)));   % curtains=1   target_object=1   
}

potential ( compromise_house | motive   target_object   ) {
   data = 
   (((   0.999954   4.64468e-05)   % target_object=0   motive=0   
   (   1   0))   % target_object=1   motive=0   
   ((   1   0)   % target_object=0   motive=1   
   (   0.674776   0.325224)));   % target_object=1   motive=1   
}

potential ( flees_startled | motive   target_object   ) {
   data = 
   (((   0.999954   4.64468e-05)   % target_object=0   motive=0   
   (   1   0))   % target_object=1   motive=0   
   ((   1   0)   % target_object=0   motive=1   
   (   0.487789   0.512211)));   % target_object=1   motive=1   
}

potential ( successful_stolen | flees_startled   compromise_house   ) {
   data = 
   (((   0.99996   4.01252e-05)   % compromise_house=0   flees_startled=0   
   (   0.00058072   0.999419))   % compromise_house=1   flees_startled=0   
   ((   0.999728   0.000271592)   % compromise_house=0   flees_startled=1   
   (   0.999408   0.000591716)));   % compromise_house=1   flees_startled=1   
}

potential (raining) {
   data = (  0.48963 0.51037);
}

potential (curtains) {
   data = (  0.825462 0.174538);
}

potential ( E_object_is_gone | successful_stolen   compromise_house   lost_object   ) {
   data = 
   ((((   0.999977   2.25785e-05)   % lost_object=0   compromise_house=0   successful_stolen=0   
   (   7.74353e-05   0.999923))   % lost_object=1   compromise_house=0   successful_stolen=0   
   ((   0.327117   0.672883)   % lost_object=0   compromise_house=1   successful_stolen=0   
   (   1   0)))   % lost_object=1   compromise_house=1   successful_stolen=0   
   (((   1   0)   % lost_object=0   compromise_house=0   successful_stolen=1   
   (   1   0))   % lost_object=1   compromise_house=0   successful_stolen=1   
   ((   0.000290529   0.999709)   % lost_object=0   compromise_house=1   successful_stolen=1   
   (   1   0))));   % lost_object=1   compromise_house=1   successful_stolen=1   
}

potential ( E_broken_lock | compromise_house   successful_stolen   ) {
   data = 
   (((   0.999965   3.49626e-05)   % successful_stolen=0   compromise_house=0   
   (   1   0))   % successful_stolen=1   compromise_house=0   
   ((   0.000591716   0.999408)   % successful_stolen=0   compromise_house=1   
   (   0.00058072   0.999419)));   % successful_stolen=1   compromise_house=1   
}

potential ( E_disturbed_house | successful_stolen   compromise_house   ) {
   data = 
   (((   0.999965   3.49626e-05)   % compromise_house=0   successful_stolen=0   
   (   0.000591716   0.999408))   % compromise_house=1   successful_stolen=0   
   ((   1   0)   % compromise_house=0   successful_stolen=1   
   (   0.00058072   0.999419)));   % compromise_house=1   successful_stolen=1   
}

potential ( E_s_spotted_by_house | know_object   curtains   lost_object   motive   target_object   ) {
   data = 
   ((((((   0.999735   0.00026469)   % target_object=0   motive=0   lost_object=0   curtains=0   know_object=0   
   (   1   0))   % target_object=1   motive=0   lost_object=0   curtains=0   know_object=0   
   ((   1   0)   % target_object=0   motive=1   lost_object=0   curtains=0   know_object=0   
   (   1   0)))   % target_object=1   motive=1   lost_object=0   curtains=0   know_object=0   
   (((   0.187894   0.812106)   % target_object=0   motive=0   lost_object=1   curtains=0   know_object=0   
   (   1   0))   % target_object=1   motive=0   lost_object=1   curtains=0   know_object=0   
   ((   1   0)   % target_object=0   motive=1   lost_object=1   curtains=0   know_object=0   
   (   1   0))))   % target_object=1   motive=1   lost_object=1   curtains=0   know_object=0   
   ((((   0.0308796   0.96912)   % target_object=0   motive=0   lost_object=0   curtains=1   know_object=0   
   (   1   0))   % target_object=1   motive=0   lost_object=0   curtains=1   know_object=0   
   ((   1   0)   % target_object=0   motive=1   lost_object=0   curtains=1   know_object=0   
   (   1   0)))   % target_object=1   motive=1   lost_object=0   curtains=1   know_object=0   
   (((   0.0409139   0.959086)   % target_object=0   motive=0   lost_object=1   curtains=1   know_object=0   
   (   1   0))   % target_object=1   motive=0   lost_object=1   curtains=1   know_object=0   
   ((   1   0)   % target_object=0   motive=1   lost_object=1   curtains=1   know_object=0   
   (   1   0)))))   % target_object=1   motive=1   lost_object=1   curtains=1   know_object=0   
   (((((   0.160919   0.839081)   % target_object=0   motive=0   lost_object=0   curtains=0   know_object=1   
   (   1   0))   % target_object=1   motive=0   lost_object=0   curtains=0   know_object=1   
   ((   1   0)   % target_object=0   motive=1   lost_object=0   curtains=0   know_object=1   
   (   1.19272e-05   0.999988)))   % target_object=1   motive=1   lost_object=0   curtains=0   know_object=1   
   (((   1   0)   % target_object=0   motive=0   lost_object=1   curtains=0   know_object=1   
   (   1   0))   % target_object=1   motive=0   lost_object=1   curtains=0   know_object=1   
   ((   1   0)   % target_object=0   motive=1   lost_object=1   curtains=0   know_object=1   
   (   1   0))))   % target_object=1   motive=1   lost_object=1   curtains=0   know_object=1   
   ((((   1   0)   % target_object=0   motive=0   lost_object=0   curtains=1   know_object=1   
   (   1   0))   % target_object=1   motive=0   lost_object=0   curtains=1   know_object=1   
   ((   1   0)   % target_object=0   motive=1   lost_object=0   curtains=1   know_object=1   
   (   1   0)))   % target_object=1   motive=1   lost_object=0   curtains=1   know_object=1   
   (((   1   0)   % target_object=0   motive=0   lost_object=1   curtains=1   know_object=1   
   (   1   0))   % target_object=1   motive=0   lost_object=1   curtains=1   know_object=1   
   ((   1   0)   % target_object=0   motive=1   lost_object=1   curtains=1   know_object=1   
   (   1   0))))));   % target_object=1   motive=1   lost_object=1   curtains=1   know_object=1   
}

potential ( E_s_spotted_with_goodie | compromise_house   successful_stolen   ) {
   data = 
   (((   0.999965   3.49626e-05)   % successful_stolen=0   compromise_house=0   
   (   1   0))   % successful_stolen=1   compromise_house=0   
   ((   0.317751   0.682249)   % successful_stolen=0   compromise_house=1   
   (   0.00058072   0.999419)));   % successful_stolen=1   compromise_house=1   
}

potential ( E_private | successful_stolen   flees_startled   ) {
   data = 
   (((   0.99996   4.01252e-05)   % flees_startled=0   successful_stolen=0   
   (   0.00018622   0.999814))   % flees_startled=1   successful_stolen=0   
   ((   0.999419   0.00058072)   % flees_startled=0   successful_stolen=1   
   (   1   0)));   % flees_startled=1   successful_stolen=1   
}


