
net {
  name = unnamedBN;
  software = "aGrUM 0.22.5";
  node_size = (50 50);
}

node know_object {
   states = (0 1 );
   label = "know_object";
   ID = "know_object";
}

node target_object {
   states = (0 1 );
   label = "target_object";
   ID = "target_object";
}

node motive {
   states = (0 1 );
   label = "motive";
   ID = "motive";
}

node compromise_house {
   states = (0 1 );
   label = "compromise_house";
   ID = "compromise_house";
}

node observed {
   states = (0 1 );
   label = "observed";
   ID = "observed";
}

node successful_stolen {
   states = (0 1 );
   label = "successful_stolen";
   ID = "successful_stolen";
}

node raining {
   states = (0 1 );
   label = "raining";
   ID = "raining";
}

node E_s_spotted_by_house {
   states = (0 1 );
   label = "E_s_spotted_by_house";
   ID = "E_s_spotted_by_house";
}

node E_s_spotted_with_goodie {
   states = (0 1 );
   label = "E_s_spotted_with_goodie";
   ID = "E_s_spotted_with_goodie";
}

node E_object_is_gone {
   states = (0 1 );
   label = "E_object_is_gone";
   ID = "E_object_is_gone";
}

node E_broken_lock {
   states = (0 1 );
   label = "E_broken_lock";
   ID = "E_broken_lock";
}

potential (know_object) {
   data = (  0.323705 0.676295);
}

potential ( target_object | know_object   ) {
   data = 
   ((   0.998462   0.00153846)   % know_object=0   
   (   0.460236   0.539764));   % know_object=1   
}

potential ( motive | know_object   target_object   ) {
   data = 
   (((   0.99923   0.000770416)   % target_object=0   know_object=0   
   (   0.5   0.5))   % target_object=1   know_object=0   
   ((   0.9992   0.0008)   % target_object=0   know_object=1   
   (   0.000682128   0.999318)));   % target_object=1   know_object=1   
}

potential ( compromise_house | target_object   motive   ) {
   data = 
   (((   0.999607   0.000392773)   % motive=0   target_object=0   
   (   0.5   0.5))   % motive=1   target_object=0   
   ((   0.5   0.5)   % motive=0   target_object=1   
   (   0.742838   0.257162)));   % motive=1   target_object=1   
}

potential ( observed | target_object   motive   ) {
   data = 
   (((   0.999607   0.000392773)   % motive=0   target_object=0   
   (   0.5   0.5))   % motive=1   target_object=0   
   ((   0.5   0.5)   % motive=0   target_object=1   
   (   0.530014   0.469986)));   % motive=1   target_object=1   
}

potential ( successful_stolen | observed   compromise_house   ) {
   data = 
   (((   0.99968   0.000320307)   % compromise_house=0   observed=0   
   (   0.0049505   0.99505))   % compromise_house=1   observed=0   
   ((   0.998054   0.00194553)   % compromise_house=0   observed=1   
   (   0.994382   0.00561798)));   % compromise_house=1   observed=1   
}

potential (raining) {
   data = (  0.512948 0.487052);
}

potential ( E_s_spotted_by_house | know_object   motive   ) {
   data = 
   (((   0.00693374   0.993066)   % motive=0   know_object=0   
   (   0.5   0.5))   % motive=1   know_object=0   
   ((   0.1864   0.8136)   % motive=0   know_object=1   
   (   0.000682128   0.999318)));   % motive=1   know_object=1   
}

potential ( E_s_spotted_with_goodie | compromise_house   successful_stolen   ) {
   data = 
   (((   0.999725   0.000275179)   % successful_stolen=0   compromise_house=0   
   (   0.5   0.5))   % successful_stolen=1   compromise_house=0   
   ((   0.365169   0.634831)   % successful_stolen=0   compromise_house=1   
   (   0.0049505   0.99505)));   % successful_stolen=1   compromise_house=1   
}

potential ( E_object_is_gone | successful_stolen   compromise_house   ) {
   data = 
   (((   0.999725   0.000275179)   % compromise_house=0   successful_stolen=0   
   (   0.365169   0.634831))   % compromise_house=1   successful_stolen=0   
   ((   0.5   0.5)   % compromise_house=0   successful_stolen=1   
   (   0.0049505   0.99505)));   % compromise_house=1   successful_stolen=1   
}

potential ( E_broken_lock | compromise_house   successful_stolen   ) {
   data = 
   (((   0.999725   0.000275179)   % successful_stolen=0   compromise_house=0   
   (   0.5   0.5))   % successful_stolen=1   compromise_house=0   
   ((   0.00561798   0.994382)   % successful_stolen=0   compromise_house=1   
   (   0.0049505   0.99505)));   % successful_stolen=1   compromise_house=1   
}


