
net {
  name = unnamedBN;
  software = "aGrUM 0.22.5";
  node_size = (50 50);
}

node lost_object {
   states = (0 1 );
   label = "lost_object";
   ID = "lost_object";
}

node know_object {
   states = (0 1 );
   label = "know_object";
   ID = "know_object";
}

node target_object {
   states = (0 1 );
   label = "target_object";
   ID = "target_object";
}

node motive {
   states = (0 1 );
   label = "motive";
   ID = "motive";
}

node compromise_house {
   states = (0 1 );
   label = "compromise_house";
   ID = "compromise_house";
}

node flees_startled {
   states = (0 1 );
   label = "flees_startled";
   ID = "flees_startled";
}

node successful_stolen {
   states = (0 1 );
   label = "successful_stolen";
   ID = "successful_stolen";
}

node raining {
   states = (0 1 );
   label = "raining";
   ID = "raining";
}

node curtains {
   states = (0 1 );
   label = "curtains";
   ID = "curtains";
}

node E_object_is_gone {
   states = (0 1 );
   label = "E_object_is_gone";
   ID = "E_object_is_gone";
}

node E_broken_lock {
   states = (0 1 );
   label = "E_broken_lock";
   ID = "E_broken_lock";
}

node E_disturbed_house {
   states = (0 1 );
   label = "E_disturbed_house";
   ID = "E_disturbed_house";
}

node E_s_spotted_by_house {
   states = (0 1 );
   label = "E_s_spotted_by_house";
   ID = "E_s_spotted_by_house";
}

node E_s_spotted_with_goodie {
   states = (0 1 );
   label = "E_s_spotted_with_goodie";
   ID = "E_s_spotted_with_goodie";
}

node E_private {
   states = (0 1 );
   label = "E_private";
   ID = "E_private";
}

potential (lost_object) {
   data = (  0.789604 0.210396);
}

potential ( know_object | lost_object   curtains   ) {
   data = 
   (((   0.0526802   0.94732)   % curtains=0   lost_object=0   
   (   0.994845   0.00515464))   % curtains=1   lost_object=0   
   ((   0.99635   0.00364964)   % curtains=0   lost_object=1   
   (   0.984848   0.0151515)));   % curtains=1   lost_object=1   
}

potential ( target_object | know_object   ) {
   data = 
   ((   0.996599   0.00340136)   % know_object=0   
   (   0.515564   0.484436));   % know_object=1   
}

potential ( motive | target_object   curtains   ) {
   data = 
   (((   0.998834   0.0011655)   % curtains=0   target_object=0   
   (   0.996124   0.00387597))   % curtains=1   target_object=0   
   ((   0.00200803   0.997992)   % curtains=0   target_object=1   
   (   1   0)));   % curtains=1   target_object=1   
}

potential ( compromise_house | motive   target_object   ) {
   data = 
   (((   0.999102   0.000897666)   % target_object=0   motive=0   
   (   1   0))   % target_object=1   motive=0   
   ((   1   0)   % target_object=0   motive=1   
   (   0.805221   0.194779)));   % target_object=1   motive=1   
}

potential ( flees_startled | target_object   motive   ) {
   data = 
   (((   0.999102   0.000897666)   % motive=0   target_object=0   
   (   1   0))   % motive=1   target_object=0   
   ((   1   0)   % motive=0   target_object=1   
   (   0.596386   0.403614)));   % motive=1   target_object=1   
}

potential ( successful_stolen | compromise_house   flees_startled   ) {
   data = 
   (((   0.999253   0.000747384)   % flees_startled=0   compromise_house=0   
   (   0.994382   0.00561798))   % flees_startled=1   compromise_house=0   
   ((   0.0135135   0.986486)   % flees_startled=0   compromise_house=1   
   (   0.961538   0.0384615)));   % flees_startled=1   compromise_house=1   
}

potential (raining) {
   data = (  0.423267 0.576733);
}

potential (curtains) {
   data = (  0.839109 0.160891);
}

potential ( E_object_is_gone | lost_object   compromise_house   ) {
   data = 
   (((   0.999151   0.000848896)   % compromise_house=0   lost_object=0   
   (   0.0102041   0.989796))   % compromise_house=1   lost_object=0   
   ((   0.00295858   0.997041)   % compromise_house=0   lost_object=1   
   (   1   0)));   % compromise_house=1   lost_object=1   
}

potential ( E_broken_lock | compromise_house   successful_stolen   ) {
   data = 
   (((   0.999339   0.000660502)   % successful_stolen=0   compromise_house=0   
   (   1   0))   % successful_stolen=1   compromise_house=0   
   ((   0.0384615   0.961538)   % successful_stolen=0   compromise_house=1   
   (   0.0135135   0.986486)));   % successful_stolen=1   compromise_house=1   
}

potential ( E_disturbed_house | compromise_house   successful_stolen   ) {
   data = 
   (((   0.999339   0.000660502)   % successful_stolen=0   compromise_house=0   
   (   1   0))   % successful_stolen=1   compromise_house=0   
   ((   0.0384615   0.961538)   % successful_stolen=0   compromise_house=1   
   (   0.0135135   0.986486)));   % successful_stolen=1   compromise_house=1   
}

potential ( E_s_spotted_by_house | target_object   curtains   ) {
   data = 
   (((   0.206294   0.793706)   % curtains=0   target_object=0   
   (   0.00387597   0.996124))   % curtains=1   target_object=0   
   ((   0.00200803   0.997992)   % curtains=0   target_object=1   
   (   1   0)));   % curtains=1   target_object=1   
}

potential ( E_s_spotted_with_goodie | compromise_house   successful_stolen   ) {
   data = 
   (((   0.999339   0.000660502)   % successful_stolen=0   compromise_house=0   
   (   1   0))   % successful_stolen=1   compromise_house=0   
   ((   0.0384615   0.961538)   % successful_stolen=0   compromise_house=1   
   (   0.0135135   0.986486)));   % successful_stolen=1   compromise_house=1   
}

potential ( E_private | successful_stolen   flees_startled   ) {
   data = 
   (((   0.999253   0.000747384)   % flees_startled=0   successful_stolen=0   
   (   0.0049505   0.99505))   % flees_startled=1   successful_stolen=0   
   ((   0.986486   0.0135135)   % flees_startled=0   successful_stolen=1   
   (   1   0)));   % flees_startled=1   successful_stolen=1   
}


