
net {
  name = unnamedBN;
  software = "aGrUM 0.22.5";
  node_size = (50 50);
}

node know_object {
   states = (0 1 );
   label = "know_object";
   ID = "know_object";
}

node target_object {
   states = (0 1 );
   label = "target_object";
   ID = "target_object";
}

node motive {
   states = (0 1 );
   label = "motive";
   ID = "motive";
}

node compromise_house {
   states = (0 1 );
   label = "compromise_house";
   ID = "compromise_house";
}

node observed {
   states = (0 1 );
   label = "observed";
   ID = "observed";
}

node successful_stolen {
   states = (0 1 );
   label = "successful_stolen";
   ID = "successful_stolen";
}

node raining {
   states = (0 1 );
   label = "raining";
   ID = "raining";
}

node curtains {
   states = (0 1 );
   label = "curtains";
   ID = "curtains";
}

node lost_object {
   states = (0 1 );
   label = "lost_object";
   ID = "lost_object";
}

node E_s_spotted_by_house {
   states = (0 1 );
   label = "E_s_spotted_by_house";
   ID = "E_s_spotted_by_house";
}

node E_s_spotted_with_goodie {
   states = (0 1 );
   label = "E_s_spotted_with_goodie";
   ID = "E_s_spotted_with_goodie";
}

node E_object_is_gone {
   states = (0 1 );
   label = "E_object_is_gone";
   ID = "E_object_is_gone";
}

node E_broken_lock {
   states = (0 1 );
   label = "E_broken_lock";
   ID = "E_broken_lock";
}

node E_disturbed_house {
   states = (0 1 );
   label = "E_disturbed_house";
   ID = "E_disturbed_house";
}

potential ( know_object | curtains   lost_object   ) {
   data = 
   (((   0.0228388   0.977161)   % lost_object=0   curtains=0   
   (   0.999244   0.00075643))   % lost_object=1   curtains=0   
   ((   0.999115   0.000884956)   % lost_object=0   curtains=1   
   (   0.996241   0.0037594)));   % lost_object=1   curtains=1   
}

potential ( target_object | know_object   ) {
   data = 
   ((   0.999295   0.000705219)   % know_object=0   
   (   0.482239   0.517761));   % know_object=1   
}

potential ( motive | target_object   curtains   ) {
   data = 
   (((   0.999746   0.000253936)   % curtains=0   target_object=0   
   (   0.999283   0.00071736))   % curtains=1   target_object=0   
   ((   0.000372856   0.999627)   % curtains=0   target_object=1   
   (   0.5   0.5)));   % curtains=1   target_object=1   
}

potential ( compromise_house | target_object   motive   ) {
   data = 
   (((   0.999812   0.000187617)   % motive=0   target_object=0   
   (   0.5   0.5))   % motive=1   target_object=0   
   ((   0.5   0.5)   % motive=0   target_object=1   
   (   0.686428   0.313572)));   % motive=1   target_object=1   
}

potential ( observed | target_object   motive   ) {
   data = 
   (((   0.999812   0.000187617)   % motive=0   target_object=0   
   (   0.5   0.5))   % motive=1   target_object=0   
   ((   0.5   0.5)   % motive=0   target_object=1   
   (   0.543251   0.456749)));   % motive=1   target_object=1   
}

potential ( successful_stolen | observed   compromise_house   ) {
   data = 
   (((   0.999841   0.000159388)   % compromise_house=0   observed=0   
   (   0.00194553   0.998054))   % compromise_house=1   observed=0   
   ((   0.998886   0.00111359)   % compromise_house=0   observed=1   
   (   0.99697   0.0030303)));   % compromise_house=1   observed=1   
}

potential (raining) {
   data = (  0.493513 0.506487);
}

potential (curtains) {
   data = (  0.825848 0.174152);
}

potential (lost_object) {
   data = (  0.801896 0.198104);
}

potential ( E_s_spotted_by_house | target_object   curtains   ) {
   data = 
   (((   0.203403   0.796597)   % curtains=0   target_object=0   
   (   0.0408895   0.95911))   % curtains=1   target_object=0   
   ((   0.000372856   0.999627)   % curtains=0   target_object=1   
   (   0.5   0.5)));   % curtains=1   target_object=1   
}

potential ( E_s_spotted_with_goodie | compromise_house   successful_stolen   ) {
   data = 
   (((   0.999861   0.00013947)   % successful_stolen=0   compromise_house=0   
   (   0.5   0.5))   % successful_stolen=1   compromise_house=0   
   ((   0.269697   0.730303)   % successful_stolen=0   compromise_house=1   
   (   0.00194553   0.998054)));   % successful_stolen=1   compromise_house=1   
}

potential ( E_object_is_gone | compromise_house   successful_stolen   lost_object   ) {
   data = 
   ((((   0.99991   8.95255e-05)   % lost_object=0   successful_stolen=0   compromise_house=0   
   (   0.000315457   0.999685))   % lost_object=1   successful_stolen=0   compromise_house=0   
   ((   0.5   0.5)   % lost_object=0   successful_stolen=1   compromise_house=0   
   (   0.5   0.5)))   % lost_object=1   successful_stolen=1   compromise_house=0   
   (((   0.268997   0.731003)   % lost_object=0   successful_stolen=0   compromise_house=1   
   (   0.5   0.5))   % lost_object=1   successful_stolen=0   compromise_house=1   
   ((   0.000974659   0.999025)   % lost_object=0   successful_stolen=1   compromise_house=1   
   (   0.5   0.5))));   % lost_object=1   successful_stolen=1   compromise_house=1   
}

potential ( E_broken_lock | compromise_house   successful_stolen   ) {
   data = 
   (((   0.999861   0.00013947)   % successful_stolen=0   compromise_house=0   
   (   0.5   0.5))   % successful_stolen=1   compromise_house=0   
   ((   0.0030303   0.99697)   % successful_stolen=0   compromise_house=1   
   (   0.00194553   0.998054)));   % successful_stolen=1   compromise_house=1   
}

potential ( E_disturbed_house | compromise_house   successful_stolen   ) {
   data = 
   (((   0.999861   0.00013947)   % successful_stolen=0   compromise_house=0   
   (   0.5   0.5))   % successful_stolen=1   compromise_house=0   
   ((   0.0030303   0.99697)   % successful_stolen=0   compromise_house=1   
   (   0.00194553   0.998054)));   % successful_stolen=1   compromise_house=1   
}


