
net {
  name = unnamedBN;
  software = "aGrUM 0.22.5";
  node_size = (50 50);
}

node know_object {
   states = (0 1 );
   label = "know_object";
   ID = "know_object";
}

node target_object {
   states = (0 1 );
   label = "target_object";
   ID = "target_object";
}

node motive {
   states = (0 1 );
   label = "motive";
   ID = "motive";
}

node compromise_house {
   states = (0 1 );
   label = "compromise_house";
   ID = "compromise_house";
}

node flees_startled {
   states = (0 1 );
   label = "flees_startled";
   ID = "flees_startled";
}

node successful_stolen {
   states = (0 1 );
   label = "successful_stolen";
   ID = "successful_stolen";
}

node raining {
   states = (0 1 );
   label = "raining";
   ID = "raining";
}

node curtains {
   states = (0 1 );
   label = "curtains";
   ID = "curtains";
}

node lost_object {
   states = (0 1 );
   label = "lost_object";
   ID = "lost_object";
}

node E_object_is_gone {
   states = (0 1 );
   label = "E_object_is_gone";
   ID = "E_object_is_gone";
}

node E_broken_lock {
   states = (0 1 );
   label = "E_broken_lock";
   ID = "E_broken_lock";
}

node E_disturbed_house {
   states = (0 1 );
   label = "E_disturbed_house";
   ID = "E_disturbed_house";
}

node E_s_spotted_by_house {
   states = (0 1 );
   label = "E_s_spotted_by_house";
   ID = "E_s_spotted_by_house";
}

node E_s_spotted_with_goodie {
   states = (0 1 );
   label = "E_s_spotted_with_goodie";
   ID = "E_s_spotted_with_goodie";
}

node E_private {
   states = (0 1 );
   label = "E_private";
   ID = "E_private";
}

potential ( know_object | curtains   lost_object   ) {
   data = 
   (((   0.0265813   0.973419)   % lost_object=0   curtains=0   
   (   0.999244   0.00075643))   % lost_object=1   curtains=0   
   ((   0.99922   0.000780031)   % lost_object=0   curtains=1   
   (   0.996124   0.00387597)));   % lost_object=1   curtains=1   
}

potential ( target_object | know_object   ) {
   data = 
   ((   0.999332   0.000667557)   % know_object=0   
   (   0.523108   0.476892));   % know_object=1   
}

potential ( motive | curtains   target_object   ) {
   data = 
   (((   0.999755   0.000244978)   % target_object=0   curtains=0   
   (   0.000417711   0.999582))   % target_object=1   curtains=0   
   ((   0.99935   0.000650195)   % target_object=0   curtains=1   
   (   1   0)));   % target_object=1   curtains=1   
}

potential ( compromise_house | motive   target_object   ) {
   data = 
   (((   0.999822   0.000177999)   % target_object=0   motive=0   
   (   1   0))   % target_object=1   motive=0   
   ((   1   0)   % target_object=0   motive=1   
   (   0.67878   0.32122)));   % target_object=1   motive=1   
}

potential ( flees_startled | target_object   motive   ) {
   data = 
   (((   0.999822   0.000177999)   % motive=0   target_object=0   
   (   1   0))   % motive=1   target_object=0   
   ((   1   0)   % motive=0   target_object=1   
   (   0.484962   0.515038)));   % motive=1   target_object=1   
}

potential ( successful_stolen | flees_startled   compromise_house   ) {
   data = 
   (((   0.999844   0.000156201)   % compromise_house=0   flees_startled=0   
   (   0.0026455   0.997354))   % compromise_house=1   flees_startled=0   
   ((   0.998812   0.00118765)   % compromise_house=0   flees_startled=1   
   (   0.997462   0.00253807)));   % compromise_house=1   flees_startled=1   
}

potential (raining) {
   data = (  0.507485 0.492515);
}

potential (curtains) {
   data = (  0.807884 0.192116);
}

potential (lost_object) {
   data = (  0.802894 0.197106);
}

potential ( E_object_is_gone | successful_stolen   lost_object   compromise_house   ) {
   data = 
   ((((   0.999912   8.82613e-05)   % compromise_house=0   lost_object=0   successful_stolen=0   
   (   0.245547   0.754453))   % compromise_house=1   lost_object=0   successful_stolen=0   
   ((   0.000317058   0.999683)   % compromise_house=0   lost_object=1   successful_stolen=0   
   (   1   0)))   % compromise_house=1   lost_object=1   successful_stolen=0   
   (((   1   0)   % compromise_house=0   lost_object=0   successful_stolen=1   
   (   0.00132626   0.998674))   % compromise_house=1   lost_object=0   successful_stolen=1   
   ((   1   0)   % compromise_house=0   lost_object=1   successful_stolen=1   
   (   1   0))));   % compromise_house=1   lost_object=1   successful_stolen=1   
}

potential ( E_broken_lock | compromise_house   successful_stolen   ) {
   data = 
   (((   0.999862   0.000138083)   % successful_stolen=0   compromise_house=0   
   (   1   0))   % successful_stolen=1   compromise_house=0   
   ((   0.00253807   0.997462)   % successful_stolen=0   compromise_house=1   
   (   0.0026455   0.997354)));   % successful_stolen=1   compromise_house=1   
}

potential ( E_disturbed_house | compromise_house   successful_stolen   ) {
   data = 
   (((   0.999862   0.000138083)   % successful_stolen=0   compromise_house=0   
   (   1   0))   % successful_stolen=1   compromise_house=0   
   ((   0.00253807   0.997462)   % successful_stolen=0   compromise_house=1   
   (   0.0026455   0.997354)));   % successful_stolen=1   compromise_house=1   
}

potential ( E_s_spotted_by_house | target_object   know_object   lost_object   curtains   motive   ) {
   data = 
   ((((((   0.999083   0.000917431)   % motive=0   curtains=0   lost_object=0   know_object=0   target_object=0   
   (   1   0))   % motive=1   curtains=0   lost_object=0   know_object=0   target_object=0   
   ((   0.0688342   0.931166)   % motive=0   curtains=1   lost_object=0   know_object=0   target_object=0   
   (   1   0)))   % motive=1   curtains=1   lost_object=0   know_object=0   target_object=0   
   (((   0.230354   0.769646)   % motive=0   curtains=0   lost_object=1   know_object=0   target_object=0   
   (   1   0))   % motive=1   curtains=0   lost_object=1   know_object=0   target_object=0   
   ((   0.000487805   0.999512)   % motive=0   curtains=1   lost_object=1   know_object=0   target_object=0   
   (   1   0))))   % motive=1   curtains=1   lost_object=1   know_object=0   target_object=0   
   ((((   0.164666   0.835334)   % motive=0   curtains=0   lost_object=0   know_object=1   target_object=0   
   (   1   0))   % motive=1   curtains=0   lost_object=0   know_object=1   target_object=0   
   ((   1   0)   % motive=0   curtains=1   lost_object=0   know_object=1   target_object=0   
   (   1   0)))   % motive=1   curtains=1   lost_object=0   know_object=1   target_object=0   
   (((   1   0)   % motive=0   curtains=0   lost_object=1   know_object=1   target_object=0   
   (   1   0))   % motive=1   curtains=0   lost_object=1   know_object=1   target_object=0   
   ((   1   0)   % motive=0   curtains=1   lost_object=1   know_object=1   target_object=0   
   (   1   0)))))   % motive=1   curtains=1   lost_object=1   know_object=1   target_object=0   
   (((((   1   0)   % motive=0   curtains=0   lost_object=0   know_object=0   target_object=1   
   (   1   0))   % motive=1   curtains=0   lost_object=0   know_object=0   target_object=1   
   ((   1   0)   % motive=0   curtains=1   lost_object=0   know_object=0   target_object=1   
   (   1   0)))   % motive=1   curtains=1   lost_object=0   know_object=0   target_object=1   
   (((   1   0)   % motive=0   curtains=0   lost_object=1   know_object=0   target_object=1   
   (   1   0))   % motive=1   curtains=0   lost_object=1   know_object=0   target_object=1   
   ((   1   0)   % motive=0   curtains=1   lost_object=1   know_object=0   target_object=1   
   (   1   0))))   % motive=1   curtains=1   lost_object=1   know_object=0   target_object=1   
   ((((   1   0)   % motive=0   curtains=0   lost_object=0   know_object=1   target_object=1   
   (   5.22521e-05   0.999948))   % motive=1   curtains=0   lost_object=0   know_object=1   target_object=1   
   ((   1   0)   % motive=0   curtains=1   lost_object=0   know_object=1   target_object=1   
   (   1   0)))   % motive=1   curtains=1   lost_object=0   know_object=1   target_object=1   
   (((   1   0)   % motive=0   curtains=0   lost_object=1   know_object=1   target_object=1   
   (   1   0))   % motive=1   curtains=0   lost_object=1   know_object=1   target_object=1   
   ((   1   0)   % motive=0   curtains=1   lost_object=1   know_object=1   target_object=1   
   (   1   0))))));   % motive=1   curtains=1   lost_object=1   know_object=1   target_object=1   
}

potential ( E_s_spotted_with_goodie | compromise_house   successful_stolen   ) {
   data = 
   (((   0.999862   0.000138083)   % successful_stolen=0   compromise_house=0   
   (   1   0))   % successful_stolen=1   compromise_house=0   
   ((   0.225888   0.774112)   % successful_stolen=0   compromise_house=1   
   (   0.0026455   0.997354)));   % successful_stolen=1   compromise_house=1   
}

potential ( E_private | successful_stolen   flees_startled   ) {
   data = 
   (((   0.999844   0.000156201)   % flees_startled=0   successful_stolen=0   
   (   0.000810373   0.99919))   % flees_startled=1   successful_stolen=0   
   ((   0.997354   0.0026455)   % flees_startled=0   successful_stolen=1   
   (   1   0)));   % flees_startled=1   successful_stolen=1   
}


