
net {
  name = unnamedBN;
  software = "aGrUM 0.22.5";
  node_size = (50 50);
}

node know_object {
   states = (0 1 );
   label = "know_object";
   ID = "know_object";
}

node target_object {
   states = (0 1 );
   label = "target_object";
   ID = "target_object";
}

node motive {
   states = (0 1 );
   label = "motive";
   ID = "motive";
}

node compromise_house {
   states = (0 1 );
   label = "compromise_house";
   ID = "compromise_house";
}

node observed {
   states = (0 1 );
   label = "observed";
   ID = "observed";
}

node successful_stolen {
   states = (0 1 );
   label = "successful_stolen";
   ID = "successful_stolen";
}

node raining {
   states = (0 1 );
   label = "raining";
   ID = "raining";
}

node curtains {
   states = (0 1 );
   label = "curtains";
   ID = "curtains";
}

node lost_object {
   states = (0 1 );
   label = "lost_object";
   ID = "lost_object";
}

node E_s_spotted_by_house {
   states = (0 1 );
   label = "E_s_spotted_by_house";
   ID = "E_s_spotted_by_house";
}

node E_s_spotted_with_goodie {
   states = (0 1 );
   label = "E_s_spotted_with_goodie";
   ID = "E_s_spotted_with_goodie";
}

node E_object_is_gone {
   states = (0 1 );
   label = "E_object_is_gone";
   ID = "E_object_is_gone";
}

node E_broken_lock {
   states = (0 1 );
   label = "E_broken_lock";
   ID = "E_broken_lock";
}

node E_disturbed_house {
   states = (0 1 );
   label = "E_disturbed_house";
   ID = "E_disturbed_house";
}

potential ( know_object | curtains   lost_object   ) {
   data = 
   (((   0.0199392   0.980061)   % lost_object=0   curtains=0   
   (   0.999184   0.000815661))   % lost_object=1   curtains=0   
   ((   0.999168   0.000831947)   % lost_object=0   curtains=1   
   (   0.996894   0.00310559)));   % lost_object=1   curtains=1   
}

potential ( target_object | know_object   ) {
   data = 
   ((   0.999299   0.000701262)   % know_object=0   
   (   0.514717   0.485283));   % know_object=1   
}

potential ( motive | target_object   curtains   ) {
   data = 
   (((   0.999749   0.000250878)   % curtains=0   target_object=0   
   (   0.999343   0.00065703))   % curtains=1   target_object=0   
   ((   0.000399042   0.999601)   % curtains=0   target_object=1   
   (   0.5   0.5)));   % curtains=1   target_object=1   
}

potential ( compromise_house | target_object   motive   ) {
   data = 
   (((   0.999818   0.00018162)   % motive=0   target_object=0   
   (   0.5   0.5))   % motive=1   target_object=0   
   ((   0.5   0.5)   % motive=0   target_object=1   
   (   0.696329   0.303671)));   % motive=1   target_object=1   
}

potential ( observed | target_object   motive   ) {
   data = 
   (((   0.999818   0.00018162)   % motive=0   target_object=0   
   (   0.5   0.5))   % motive=1   target_object=0   
   ((   0.5   0.5)   % motive=0   target_object=1   
   (   0.488827   0.511173)));   % motive=1   target_object=1   
}

potential ( successful_stolen | observed   compromise_house   ) {
   data = 
   (((   0.999843   0.000156593)   % compromise_house=0   observed=0   
   (   0.00289017   0.99711))   % compromise_house=1   observed=0   
   ((   0.998845   0.00115473)   % compromise_house=0   observed=1   
   (   0.997608   0.00239234)));   % compromise_house=1   observed=1   
}

potential (raining) {
   data = (  0.492515 0.507485);
}

potential (curtains) {
   data = (  0.80988 0.19012);
}

potential (lost_object) {
   data = (  0.806886 0.193114);
}

potential ( E_s_spotted_by_house | target_object   curtains   ) {
   data = 
   (((   0.174862   0.825138)   % curtains=0   target_object=0   
   (   0.0269382   0.973062))   % curtains=1   target_object=0   
   ((   0.000399042   0.999601)   % curtains=0   target_object=1   
   (   0.5   0.5)));   % curtains=1   target_object=1   
}

potential ( E_s_spotted_with_goodie | compromise_house   successful_stolen   ) {
   data = 
   (((   0.999862   0.000137931)   % successful_stolen=0   compromise_house=0   
   (   0.5   0.5))   % successful_stolen=1   compromise_house=0   
   ((   0.366029   0.633971)   % successful_stolen=0   compromise_house=1   
   (   0.00289017   0.99711)));   % successful_stolen=1   compromise_house=1   
}

potential ( E_object_is_gone | compromise_house   successful_stolen   lost_object   ) {
   data = 
   ((((   0.999912   8.76424e-05)   % lost_object=0   successful_stolen=0   compromise_house=0   
   (   0.000323625   0.999676))   % lost_object=1   successful_stolen=0   compromise_house=0   
   ((   0.5   0.5)   % lost_object=0   successful_stolen=1   compromise_house=0   
   (   0.5   0.5)))   % lost_object=1   successful_stolen=1   compromise_house=0   
   (((   0.365707   0.634293)   % lost_object=0   successful_stolen=0   compromise_house=1   
   (   0.5   0.5))   % lost_object=1   successful_stolen=0   compromise_house=1   
   ((   0.00144928   0.998551)   % lost_object=0   successful_stolen=1   compromise_house=1   
   (   0.5   0.5))));   % lost_object=1   successful_stolen=1   compromise_house=1   
}

potential ( E_broken_lock | compromise_house   successful_stolen   ) {
   data = 
   (((   0.999862   0.000137931)   % successful_stolen=0   compromise_house=0   
   (   0.5   0.5))   % successful_stolen=1   compromise_house=0   
   ((   0.00239234   0.997608)   % successful_stolen=0   compromise_house=1   
   (   0.00289017   0.99711)));   % successful_stolen=1   compromise_house=1   
}

potential ( E_disturbed_house | compromise_house   successful_stolen   ) {
   data = 
   (((   0.999862   0.000137931)   % successful_stolen=0   compromise_house=0   
   (   0.5   0.5))   % successful_stolen=1   compromise_house=0   
   ((   0.00239234   0.997608)   % successful_stolen=0   compromise_house=1   
   (   0.00289017   0.99711)));   % successful_stolen=1   compromise_house=1   
}


