
net {
  name = noiseBN.net;
  software = "aGrUM 0.22.5";
  node_size = (50 50);
}

node lost_object {
   states = (0 1 );
   label = "lost_object";
   ID = "lost_object";
}

node know_object {
   states = (0 1 );
   label = "know_object";
   ID = "know_object";
}

node target_object {
   states = (0 1 );
   label = "target_object";
   ID = "target_object";
}

node motive {
   states = (0 1 );
   label = "motive";
   ID = "motive";
}

node compromise_house {
   states = (0 1 );
   label = "compromise_house";
   ID = "compromise_house";
}

node flees_startled {
   states = (0 1 );
   label = "flees_startled";
   ID = "flees_startled";
}

node successful_stolen {
   states = (0 1 );
   label = "successful_stolen";
   ID = "successful_stolen";
}

node raining {
   states = (0 1 );
   label = "raining";
   ID = "raining";
}

node curtains {
   states = (0 1 );
   label = "curtains";
   ID = "curtains";
}

node E_object_is_gone {
   states = (0 1 );
   label = "E_object_is_gone";
   ID = "E_object_is_gone";
}

node E_broken_lock {
   states = (0 1 );
   label = "E_broken_lock";
   ID = "E_broken_lock";
}

node E_disturbed_house {
   states = (0 1 );
   label = "E_disturbed_house";
   ID = "E_disturbed_house";
}

node E_s_spotted_by_house {
   states = (0 1 );
   label = "E_s_spotted_by_house";
   ID = "E_s_spotted_by_house";
}

node E_s_spotted_with_goodie {
   states = (0 1 );
   label = "E_s_spotted_with_goodie";
   ID = "E_s_spotted_with_goodie";
}

node E_private {
   states = (0 1 );
   label = "E_private";
   ID = "E_private";
}

potential (lost_object) {
   data = (  1.03147 0.796879);
}

potential ( know_object | curtains   lost_object   ) {
   data = 
   (((   0.0725443   1.08584)   % lost_object=0   curtains=0   
   (   0.730094   0.145472))   % lost_object=1   curtains=0   
   ((   0.805404   0.0492956)   % lost_object=0   curtains=1   
   (   1.16812   -0.0772459)));   % lost_object=1   curtains=1   
}

potential ( target_object | know_object   ) {
   data = 
   ((   0.928037   -0.0177259)   % know_object=0   
   (   0.354549   0.443547));   % know_object=1   
}

potential ( motive | curtains   target_object   ) {
   data = 
   (((   0.786537   -0.0221888)   % target_object=0   curtains=0   
   (   -0.24364   1.23336))   % target_object=1   curtains=0   
   ((   0.93158   0.134702)   % target_object=0   curtains=1   
   (   1.08456   0.453074)));   % target_object=1   curtains=1   
}

potential ( compromise_house | target_object   motive   ) {
   data = 
   (((   1.47939   0.0288224)   % motive=0   target_object=0   
   (   0.845818   0.0885052))   % motive=1   target_object=0   
   ((   1.28385   -0.0746591)   % motive=0   target_object=1   
   (   0.818447   0.0907873)));   % motive=1   target_object=1   
}

potential ( flees_startled | motive   target_object   ) {
   data = 
   (((   1.07805   0.196418)   % target_object=0   motive=0   
   (   0.980565   -0.0417511))   % target_object=1   motive=0   
   ((   1.51141   0.173615)   % target_object=0   motive=1   
   (   0.37994   0.136461)));   % target_object=1   motive=1   
}

potential ( successful_stolen | flees_startled   compromise_house   ) {
   data = 
   (((   1.26785   -0.169381)   % compromise_house=0   flees_startled=0   
   (   0.36759   1.03514))   % compromise_house=1   flees_startled=0   
   ((   1.22723   0.228381)   % compromise_house=0   flees_startled=1   
   (   0.703733   0.107276)));   % compromise_house=1   flees_startled=1   
}

potential (raining) {
   data = (  0.784176 0.697426);
}

potential (curtains) {
   data = (  1.09323 0.0528737);
}

potential ( E_object_is_gone | compromise_house   lost_object   ) {
   data = 
   (((   1.09819   -0.0712462)   % lost_object=0   compromise_house=0   
   (   -0.13683   1.11727))   % lost_object=1   compromise_house=0   
   ((   -0.199267   1.44665)   % lost_object=0   compromise_house=1   
   (   0.983449   0.106666)));   % lost_object=1   compromise_house=1   
}

potential ( E_broken_lock | successful_stolen   compromise_house   ) {
   data = 
   (((   0.882936   -0.143581)   % compromise_house=0   successful_stolen=0   
   (   0.0109506   1.15381))   % compromise_house=1   successful_stolen=0   
   ((   0.597749   0.352184)   % compromise_house=0   successful_stolen=1   
   (   -0.0394947   1.24775)));   % compromise_house=1   successful_stolen=1   
}

potential ( E_disturbed_house | successful_stolen   compromise_house   ) {
   data = 
   (((   1.35382   -0.0696436)   % compromise_house=0   successful_stolen=0   
   (   -0.0969728   1.00401))   % compromise_house=1   successful_stolen=0   
   ((   1.21011   -0.00996921)   % compromise_house=0   successful_stolen=1   
   (   0.0451387   0.965409)));   % compromise_house=1   successful_stolen=1   
}

potential ( E_s_spotted_by_house | curtains   target_object   ) {
   data = 
   (((   0.0727795   0.784171)   % target_object=0   curtains=0   
   (   0.146589   1.3093))   % target_object=1   curtains=0   
   ((   -0.474017   0.675058)   % target_object=0   curtains=1   
   (   1.58875   -0.271767)));   % target_object=1   curtains=1   
}

potential ( E_s_spotted_with_goodie | successful_stolen   compromise_house   ) {
   data = 
   (((   1.15177   0.114083)   % compromise_house=0   successful_stolen=0   
   (   -0.00183294   0.735511))   % compromise_house=1   successful_stolen=0   
   ((   1.12576   -0.244466)   % compromise_house=0   successful_stolen=1   
   (   0.125545   0.955709)));   % compromise_house=1   successful_stolen=1   
}

potential ( E_private | flees_startled   successful_stolen   ) {
   data = 
   (((   1.11658   -0.20144)   % successful_stolen=0   flees_startled=0   
   (   1.0109   -0.194117))   % successful_stolen=1   flees_startled=0   
   ((   -0.162249   1.08719)   % successful_stolen=0   flees_startled=1   
   (   1.13311   0.0741154)));   % successful_stolen=1   flees_startled=1   
}


