
net {
}

node seen_1_0 {
states = ("0" "1");
   label = "seen_1_0";
   ID = "seen_1_0";
}

node know_valuable_1_0 {
states = ("0" "1");
   label = "know_valuable_1_0";
   ID = "know_valuable_1_0";
}

node know_vulnerable_1_0 {
states = ("0" "1");
   label = "know_vulnerable_1_0";
   ID = "know_vulnerable_1_0";
}

node motive_1_0 {
states = ("0" "1");
   label = "motive_1_0";
   ID = "motive_1_0";
}

node sneak_1_0 {
states = ("0" "1");
   label = "sneak_1_0";
   ID = "sneak_1_0";
}

node stealing_1_0 {
states = ("0" "1");
   label = "stealing_1_0";
   ID = "stealing_1_0";
}

node object_dropped_accidentally_0 {
states = ("0" "1");
   label = "object_dropped_accidentally_0";
   ID = "object_dropped_accidentally_0";
}

node E_psych_report_1_0 {
states = ("0" "1");
   label = "E_psych_report_1_0";
   ID = "E_psych_report_1_0";
}

node E_camera_1 {
states = ("0" "1");
   label = "E_camera_1";
   ID = "E_camera_1";
}

node E_camera_sees_object_1_0 {
states = ("0" "1");
   label = "E_camera_sees_object_1_0";
   ID = "E_camera_sees_object_1_0";
}

node E_object_gone_0 {
states = ("0" "1");
   label = "E_object_gone_0";
   ID = "E_object_gone_0";
}

potential (seen_1_0) {
   data = (  0.528648 0.471352);
}

potential ( know_valuable_1_0 | seen_1_0   ) {
   data = 
   ((   0.999685   0.00031506)   % seen_1_0=0   
   (   0.562898   0.437102));   % seen_1_0=1   
}

potential ( know_vulnerable_1_0 | seen_1_0   know_valuable_1_0   ) {
   data = 
   (((   0.999842   0.00015758)   % know_valuable_1_0=0   seen_1_0=0   
   (   1   0))   % know_valuable_1_0=1   seen_1_0=0   
   ((   0.000313873   0.999686)   % know_valuable_1_0=0   seen_1_0=1   
   (   0.000404204   0.999596)));   % know_valuable_1_0=1   seen_1_0=1   
}

potential ( motive_1_0 | know_valuable_1_0   seen_1_0   know_vulnerable_1_0   ) {
   data = 
   ((((   0.999921   7.88022e-05)   % know_vulnerable_1_0=0   seen_1_0=0   know_valuable_1_0=0   
   (   1   0))   % know_vulnerable_1_0=1   seen_1_0=0   know_valuable_1_0=0   
   ((   1   0)   % know_vulnerable_1_0=0   seen_1_0=1   know_valuable_1_0=0   
   (   0.999843   0.000156986)))   % know_vulnerable_1_0=1   seen_1_0=1   know_valuable_1_0=0   
   (((   1   0)   % know_vulnerable_1_0=0   seen_1_0=0   know_valuable_1_0=1   
   (   1   0))   % know_vulnerable_1_0=1   seen_1_0=0   know_valuable_1_0=1   
   ((   1   0)   % know_vulnerable_1_0=0   seen_1_0=1   know_valuable_1_0=1   
   (   0.000202184   0.999798))));   % know_vulnerable_1_0=1   seen_1_0=1   know_valuable_1_0=1   
}

potential ( sneak_1_0 | know_valuable_1_0   motive_1_0   ) {
   data = 
   (((   0.999895   0.000104932)   % motive_1_0=0   know_valuable_1_0=0   
   (   1   0))   % motive_1_0=1   know_valuable_1_0=0   
   ((   1   0)   % motive_1_0=0   know_valuable_1_0=1   
   (   0.000404204   0.999596)));   % motive_1_0=1   know_valuable_1_0=1   
}

potential ( stealing_1_0 | motive_1_0   know_valuable_1_0   ) {
   data = 
   (((   0.999895   0.000104932)   % know_valuable_1_0=0   motive_1_0=0   
   (   1   0))   % know_valuable_1_0=1   motive_1_0=0   
   ((   1   0)   % know_valuable_1_0=0   motive_1_0=1   
   (   0.155618   0.844382)));   % know_valuable_1_0=1   motive_1_0=1   
}

potential ( object_dropped_accidentally_0 | stealing_1_0   ) {
   data = 
   ((   0.832795   0.167205)   % stealing_1_0=0   
   (   0.999044   0.000956023));   % stealing_1_0=1   
}

potential ( E_psych_report_1_0 | know_valuable_1_0   sneak_1_0   ) {
   data = 
   (((   0.999895   0.000104932)   % sneak_1_0=0   know_valuable_1_0=0   
   (   1   0))   % sneak_1_0=1   know_valuable_1_0=0   
   ((   1   0)   % sneak_1_0=0   know_valuable_1_0=1   
   (   0.194422   0.805578)));   % sneak_1_0=1   know_valuable_1_0=1   
}

potential ( E_camera_1 | know_vulnerable_1_0   seen_1_0   ) {
   data = 
   (((   0.0203278   0.979672)   % seen_1_0=0   know_vulnerable_1_0=0   
   (   1   0))   % seen_1_0=1   know_vulnerable_1_0=0   
   ((   1   0)   % seen_1_0=0   know_vulnerable_1_0=1   
   (   0.000176741   0.999823)));   % seen_1_0=1   know_vulnerable_1_0=1   
}

potential ( E_camera_sees_object_1_0 | E_camera_1   stealing_1_0   ) {
   data = 
   (((   0.992308   0.00769231)   % stealing_1_0=0   E_camera_1=0   
   (   1   0))   % stealing_1_0=1   E_camera_1=0   
   ((   0.999898   0.000102187)   % stealing_1_0=0   E_camera_1=1   
   (   0.000478469   0.999522)));   % stealing_1_0=1   E_camera_1=1   
}

potential ( E_object_gone_0 | object_dropped_accidentally_0   stealing_1_0   E_camera_sees_object_1_0   ) {
   data = 
   ((((   0.999939   6.05547e-05)   % E_camera_sees_object_1_0=0   stealing_1_0=0   object_dropped_accidentally_0=0   
   (   1   0))   % E_camera_sees_object_1_0=1   stealing_1_0=0   object_dropped_accidentally_0=0   
   ((   1   0)   % E_camera_sees_object_1_0=0   stealing_1_0=1   object_dropped_accidentally_0=0   
   (   0.000239349   0.999761)))   % E_camera_sees_object_1_0=1   stealing_1_0=1   object_dropped_accidentally_0=0   
   (((   0.00030175   0.999698)   % E_camera_sees_object_1_0=0   stealing_1_0=0   object_dropped_accidentally_0=1   
   (   1   0))   % E_camera_sees_object_1_0=1   stealing_1_0=0   object_dropped_accidentally_0=1   
   ((   1   0)   % E_camera_sees_object_1_0=0   stealing_1_0=1   object_dropped_accidentally_0=1   
   (   1   0))));   % E_camera_sees_object_1_0=1   stealing_1_0=1   object_dropped_accidentally_0=1   
}


