
net {
}

node seen_1_0 {
states = ("0" "1");
   label = "seen_1_0";
   ID = "seen_1_0";
}

node know_valuable_1_0 {
states = ("0" "1");
   label = "know_valuable_1_0";
   ID = "know_valuable_1_0";
}

node know_vulnerable_1_0 {
states = ("0" "1");
   label = "know_vulnerable_1_0";
   ID = "know_vulnerable_1_0";
}

node motive_1_0 {
states = ("0" "1");
   label = "motive_1_0";
   ID = "motive_1_0";
}

node sneak_1_0 {
states = ("0" "1");
   label = "sneak_1_0";
   ID = "sneak_1_0";
}

node stealing_1_0 {
states = ("0" "1");
   label = "stealing_1_0";
   ID = "stealing_1_0";
}

node object_dropped_accidentally_0 {
states = ("0" "1");
   label = "object_dropped_accidentally_0";
   ID = "object_dropped_accidentally_0";
}

node E_psych_report_1_0 {
states = ("0" "1");
   label = "E_psych_report_1_0";
   ID = "E_psych_report_1_0";
}

node E_camera_1 {
states = ("0" "1");
   label = "E_camera_1";
   ID = "E_camera_1";
}

node E_camera_sees_object_1_0 {
states = ("0" "1");
   label = "E_camera_sees_object_1_0";
   ID = "E_camera_sees_object_1_0";
}

node E_object_gone_0 {
states = ("0" "1");
   label = "E_object_gone_0";
   ID = "E_object_gone_0";
}

potential (seen_1_0) {
   data = (  0.483344 0.516656);
}

potential ( know_valuable_1_0 | seen_1_0   ) {
   data = 
   ((   0.999655   0.00034459)   % seen_1_0=0   
   (   0.565119   0.434881));   % seen_1_0=1   
}

potential ( know_vulnerable_1_0 | seen_1_0   know_valuable_1_0   ) {
   data = 
   (((   0.999828   0.000172354)   % know_valuable_1_0=0   seen_1_0=0   
   (   1   0))   % know_valuable_1_0=1   seen_1_0=0   
   ((   0.000285225   0.999715)   % know_valuable_1_0=0   seen_1_0=1   
   (   0.000370645   0.999629)));   % know_valuable_1_0=1   seen_1_0=1   
}

potential ( motive_1_0 | know_valuable_1_0   seen_1_0   know_vulnerable_1_0   ) {
   data = 
   ((((   0.999914   8.6192e-05)   % know_vulnerable_1_0=0   seen_1_0=0   know_valuable_1_0=0   
   (   1   0))   % know_vulnerable_1_0=1   seen_1_0=0   know_valuable_1_0=0   
   ((   1   0)   % know_vulnerable_1_0=0   seen_1_0=1   know_valuable_1_0=0   
   (   0.999857   0.000142653)))   % know_vulnerable_1_0=1   seen_1_0=1   know_valuable_1_0=0   
   (((   1   0)   % know_vulnerable_1_0=0   seen_1_0=0   know_valuable_1_0=1   
   (   1   0))   % know_vulnerable_1_0=1   seen_1_0=0   know_valuable_1_0=1   
   ((   1   0)   % know_vulnerable_1_0=0   seen_1_0=1   know_valuable_1_0=1   
   (   0.000185391   0.999815))));   % know_vulnerable_1_0=1   seen_1_0=1   know_valuable_1_0=1   
}

potential ( sneak_1_0 | know_valuable_1_0   motive_1_0   ) {
   data = 
   (((   0.999893   0.000107458)   % motive_1_0=0   know_valuable_1_0=0   
   (   1   0))   % motive_1_0=1   know_valuable_1_0=0   
   ((   1   0)   % motive_1_0=0   know_valuable_1_0=1   
   (   0.000370645   0.999629)));   % motive_1_0=1   know_valuable_1_0=1   
}

potential ( stealing_1_0 | motive_1_0   know_valuable_1_0   ) {
   data = 
   (((   0.999893   0.000107458)   % know_valuable_1_0=0   motive_1_0=0   
   (   1   0))   % know_valuable_1_0=1   motive_1_0=0   
   ((   1   0)   % know_valuable_1_0=0   motive_1_0=1   
   (   0.130838   0.869162)));   % know_valuable_1_0=1   motive_1_0=1   
}

potential ( object_dropped_accidentally_0 | stealing_1_0   ) {
   data = 
   ((   0.840787   0.159213)   % stealing_1_0=0   
   (   0.999148   0.000851789));   % stealing_1_0=1   
}

potential ( E_psych_report_1_0 | know_valuable_1_0   sneak_1_0   ) {
   data = 
   (((   0.999893   0.000107458)   % sneak_1_0=0   know_valuable_1_0=0   
   (   1   0))   % sneak_1_0=1   know_valuable_1_0=0   
   ((   1   0)   % sneak_1_0=0   know_valuable_1_0=1   
   (   0.228688   0.771312)));   % sneak_1_0=1   know_valuable_1_0=1   
}

potential ( E_camera_1 | know_vulnerable_1_0   seen_1_0   ) {
   data = 
   (((   0.00293002   0.99707)   % seen_1_0=0   know_vulnerable_1_0=0   
   (   1   0))   % seen_1_0=1   know_vulnerable_1_0=0   
   ((   1   0)   % seen_1_0=0   know_vulnerable_1_0=1   
   (   0.000161238   0.999839)));   % seen_1_0=1   know_vulnerable_1_0=1   
}

potential ( E_camera_sees_object_1_0 | E_camera_1   stealing_1_0   ) {
   data = 
   (((   0.944444   0.0555556)   % stealing_1_0=0   E_camera_1=0   
   (   1   0))   % stealing_1_0=1   E_camera_1=0   
   ((   0.999896   0.000103713)   % stealing_1_0=0   E_camera_1=1   
   (   0.00383632   0.996164)));   % stealing_1_0=1   E_camera_1=1   
}

potential ( E_object_gone_0 | object_dropped_accidentally_0   E_camera_1   sneak_1_0   stealing_1_0   E_camera_sees_object_1_0   ) {
   data = 
   ((((((   0.992308   0.00769231)   % E_camera_sees_object_1_0=0   stealing_1_0=0   sneak_1_0=0   E_camera_1=0   object_dropped_accidentally_0=0   
   (   1   0))   % E_camera_sees_object_1_0=1   stealing_1_0=0   sneak_1_0=0   E_camera_1=0   object_dropped_accidentally_0=0   
   ((   1   0)   % E_camera_sees_object_1_0=0   stealing_1_0=1   sneak_1_0=0   E_camera_1=0   object_dropped_accidentally_0=0   
   (   1   0)))   % E_camera_sees_object_1_0=1   stealing_1_0=1   sneak_1_0=0   E_camera_1=0   object_dropped_accidentally_0=0   
   (((   1   0)   % E_camera_sees_object_1_0=0   stealing_1_0=0   sneak_1_0=1   E_camera_1=0   object_dropped_accidentally_0=0   
   (   1   0))   % E_camera_sees_object_1_0=1   stealing_1_0=0   sneak_1_0=1   E_camera_1=0   object_dropped_accidentally_0=0   
   ((   1   0)   % E_camera_sees_object_1_0=0   stealing_1_0=1   sneak_1_0=1   E_camera_1=0   object_dropped_accidentally_0=0   
   (   1   0))))   % E_camera_sees_object_1_0=1   stealing_1_0=1   sneak_1_0=1   E_camera_1=0   object_dropped_accidentally_0=0   
   ((((   0.999984   1.60746e-05)   % E_camera_sees_object_1_0=0   stealing_1_0=0   sneak_1_0=0   E_camera_1=1   object_dropped_accidentally_0=0   
   (   1   0))   % E_camera_sees_object_1_0=1   stealing_1_0=0   sneak_1_0=0   E_camera_1=1   object_dropped_accidentally_0=0   
   ((   1   0)   % E_camera_sees_object_1_0=0   stealing_1_0=1   sneak_1_0=0   E_camera_1=1   object_dropped_accidentally_0=0   
   (   1   0)))   % E_camera_sees_object_1_0=1   stealing_1_0=1   sneak_1_0=0   E_camera_1=1   object_dropped_accidentally_0=0   
   (((   0.999619   0.000380807)   % E_camera_sees_object_1_0=0   stealing_1_0=0   sneak_1_0=1   E_camera_1=1   object_dropped_accidentally_0=0   
   (   1   0))   % E_camera_sees_object_1_0=1   stealing_1_0=0   sneak_1_0=1   E_camera_1=1   object_dropped_accidentally_0=0   
   ((   0.0151515   0.984848)   % E_camera_sees_object_1_0=0   stealing_1_0=1   sneak_1_0=1   E_camera_1=1   object_dropped_accidentally_0=0   
   (   5.35045e-05   0.999946)))))   % E_camera_sees_object_1_0=1   stealing_1_0=1   sneak_1_0=1   E_camera_1=1   object_dropped_accidentally_0=0   
   (((((   1   0)   % E_camera_sees_object_1_0=0   stealing_1_0=0   sneak_1_0=0   E_camera_1=0   object_dropped_accidentally_0=1   
   (   1   0))   % E_camera_sees_object_1_0=1   stealing_1_0=0   sneak_1_0=0   E_camera_1=0   object_dropped_accidentally_0=1   
   ((   1   0)   % E_camera_sees_object_1_0=0   stealing_1_0=1   sneak_1_0=0   E_camera_1=0   object_dropped_accidentally_0=1   
   (   1   0)))   % E_camera_sees_object_1_0=1   stealing_1_0=1   sneak_1_0=0   E_camera_1=0   object_dropped_accidentally_0=1   
   (((   1   0)   % E_camera_sees_object_1_0=0   stealing_1_0=0   sneak_1_0=1   E_camera_1=0   object_dropped_accidentally_0=1   
   (   1   0))   % E_camera_sees_object_1_0=1   stealing_1_0=0   sneak_1_0=1   E_camera_1=0   object_dropped_accidentally_0=1   
   ((   1   0)   % E_camera_sees_object_1_0=0   stealing_1_0=1   sneak_1_0=1   E_camera_1=0   object_dropped_accidentally_0=1   
   (   1   0))))   % E_camera_sees_object_1_0=1   stealing_1_0=1   sneak_1_0=1   E_camera_1=0   object_dropped_accidentally_0=1   
   ((((   8.26583e-05   0.999917)   % E_camera_sees_object_1_0=0   stealing_1_0=0   sneak_1_0=0   E_camera_1=1   object_dropped_accidentally_0=1   
   (   1   0))   % E_camera_sees_object_1_0=1   stealing_1_0=0   sneak_1_0=0   E_camera_1=1   object_dropped_accidentally_0=1   
   ((   1   0)   % E_camera_sees_object_1_0=0   stealing_1_0=1   sneak_1_0=0   E_camera_1=1   object_dropped_accidentally_0=1   
   (   1   0)))   % E_camera_sees_object_1_0=1   stealing_1_0=1   sneak_1_0=0   E_camera_1=1   object_dropped_accidentally_0=1   
   (((   0.00515464   0.994845)   % E_camera_sees_object_1_0=0   stealing_1_0=0   sneak_1_0=1   E_camera_1=1   object_dropped_accidentally_0=1   
   (   1   0))   % E_camera_sees_object_1_0=1   stealing_1_0=0   sneak_1_0=1   E_camera_1=1   object_dropped_accidentally_0=1   
   ((   1   0)   % E_camera_sees_object_1_0=0   stealing_1_0=1   sneak_1_0=1   E_camera_1=1   object_dropped_accidentally_0=1   
   (   1   0))))));   % E_camera_sees_object_1_0=1   stealing_1_0=1   sneak_1_0=1   E_camera_1=1   object_dropped_accidentally_0=1   
}


