
net {
}

node seen_1_0 {
states = ("0" "1");
   label = "seen_1_0";
   ID = "seen_1_0";
}

node know_valuable_1_0 {
states = ("0" "1");
   label = "know_valuable_1_0";
   ID = "know_valuable_1_0";
}

node know_vulnerable_1_0 {
states = ("0" "1");
   label = "know_vulnerable_1_0";
   ID = "know_vulnerable_1_0";
}

node motive_1_0 {
states = ("0" "1");
   label = "motive_1_0";
   ID = "motive_1_0";
}

node sneak_1_0 {
states = ("0" "1");
   label = "sneak_1_0";
   ID = "sneak_1_0";
}

node stealing_1_0 {
states = ("0" "1");
   label = "stealing_1_0";
   ID = "stealing_1_0";
}

node object_dropped_accidentally_0 {
states = ("0" "1");
   label = "object_dropped_accidentally_0";
   ID = "object_dropped_accidentally_0";
}

node E_psych_report_1_0 {
states = ("0" "1");
   label = "E_psych_report_1_0";
   ID = "E_psych_report_1_0";
}

node E_camera_1 {
states = ("0" "1");
   label = "E_camera_1";
   ID = "E_camera_1";
}

node E_camera_sees_object_1_0 {
states = ("0" "1");
   label = "E_camera_sees_object_1_0";
   ID = "E_camera_sees_object_1_0";
}

node E_object_gone_0 {
states = ("0" "1");
   label = "E_object_gone_0";
   ID = "E_object_gone_0";
}

potential (seen_1_0) {
   data = (  0.52998 0.47002);
}

potential ( know_valuable_1_0 | seen_1_0   ) {
   data = 
   ((   0.999686   0.000314268)   % seen_1_0=0   
   (   0.563076   0.436924));   % seen_1_0=1   
}

potential ( know_vulnerable_1_0 | seen_1_0   know_valuable_1_0   ) {
   data = 
   (((   0.999843   0.000157183)   % know_valuable_1_0=0   seen_1_0=0   
   (   1   0))   % know_valuable_1_0=1   seen_1_0=0   
   ((   0.000314663   0.999685)   % know_valuable_1_0=0   seen_1_0=1   
   (   0.000405515   0.999594)));   % know_valuable_1_0=1   seen_1_0=1   
}

potential ( motive_1_0 | know_valuable_1_0   seen_1_0   know_vulnerable_1_0   ) {
   data = 
   ((((   0.999921   7.8604e-05)   % know_vulnerable_1_0=0   seen_1_0=0   know_valuable_1_0=0   
   (   1   0))   % know_vulnerable_1_0=1   seen_1_0=0   know_valuable_1_0=0   
   ((   1   0)   % know_vulnerable_1_0=0   seen_1_0=1   know_valuable_1_0=0   
   (   0.999843   0.000157381)))   % know_vulnerable_1_0=1   seen_1_0=1   know_valuable_1_0=0   
   (((   1   0)   % know_vulnerable_1_0=0   seen_1_0=0   know_valuable_1_0=1   
   (   1   0))   % know_vulnerable_1_0=1   seen_1_0=0   know_valuable_1_0=1   
   ((   1   0)   % know_vulnerable_1_0=0   seen_1_0=1   know_valuable_1_0=1   
   (   0.00020284   0.999797))));   % know_vulnerable_1_0=1   seen_1_0=1   know_valuable_1_0=1   
}

potential ( sneak_1_0 | motive_1_0   know_valuable_1_0   ) {
   data = 
   (((   0.999895   0.000104844)   % know_valuable_1_0=0   motive_1_0=0   
   (   1   0))   % know_valuable_1_0=1   motive_1_0=0   
   ((   1   0)   % know_valuable_1_0=0   motive_1_0=1   
   (   0.000405515   0.999594)));   % know_valuable_1_0=1   motive_1_0=1   
}

potential ( stealing_1_0 | motive_1_0   know_valuable_1_0   ) {
   data = 
   (((   0.999895   0.000104844)   % know_valuable_1_0=0   motive_1_0=0   
   (   1   0))   % know_valuable_1_0=1   motive_1_0=0   
   ((   1   0)   % know_valuable_1_0=0   motive_1_0=1   
   (   0.149635   0.850365)));   % know_valuable_1_0=1   motive_1_0=1   
}

potential ( object_dropped_accidentally_0 | motive_1_0   stealing_1_0   ) {
   data = 
   (((   0.763368   0.236632)   % stealing_1_0=0   motive_1_0=0   
   (   1   0))   % stealing_1_0=1   motive_1_0=0   
   ((   0.932432   0.0675676)   % stealing_1_0=0   motive_1_0=1   
   (   0.999523   0.000476644)));   % stealing_1_0=1   motive_1_0=1   
}

potential ( E_psych_report_1_0 | know_valuable_1_0   sneak_1_0   ) {
   data = 
   (((   0.999895   0.000104844)   % sneak_1_0=0   know_valuable_1_0=0   
   (   1   0))   % sneak_1_0=1   know_valuable_1_0=0   
   ((   1   0)   % sneak_1_0=0   know_valuable_1_0=1   
   (   0.152879   0.847121)));   % sneak_1_0=1   know_valuable_1_0=1   
}

potential ( E_camera_1 | know_vulnerable_1_0   seen_1_0   ) {
   data = 
   (((   0.00644451   0.993555)   % seen_1_0=0   know_vulnerable_1_0=0   
   (   1   0))   % seen_1_0=1   know_vulnerable_1_0=0   
   ((   1   0)   % seen_1_0=0   know_vulnerable_1_0=1   
   (   0.000177242   0.999823)));   % seen_1_0=1   know_vulnerable_1_0=1   
}

potential ( E_camera_sees_object_1_0 | E_camera_1   stealing_1_0   ) {
   data = 
   (((   0.97619   0.0238095)   % stealing_1_0=0   E_camera_1=0   
   (   1   0))   % stealing_1_0=1   E_camera_1=0   
   ((   0.999899   0.000101358)   % stealing_1_0=0   E_camera_1=1   
   (   0.0042898   0.99571)));   % stealing_1_0=1   E_camera_1=1   
}

potential ( E_object_gone_0 | object_dropped_accidentally_0   stealing_1_0   E_camera_sees_object_1_0   ) {
   data = 
   ((((   0.999934   6.55738e-05)   % E_camera_sees_object_1_0=0   stealing_1_0=0   object_dropped_accidentally_0=0   
   (   1   0))   % E_camera_sees_object_1_0=1   stealing_1_0=0   object_dropped_accidentally_0=0   
   ((   0.0555556   0.944444)   % E_camera_sees_object_1_0=0   stealing_1_0=1   object_dropped_accidentally_0=0   
   (   0.000239349   0.999761)))   % E_camera_sees_object_1_0=1   stealing_1_0=1   object_dropped_accidentally_0=0   
   (((   0.000219202   0.999781)   % E_camera_sees_object_1_0=0   stealing_1_0=0   object_dropped_accidentally_0=1   
   (   1   0))   % E_camera_sees_object_1_0=1   stealing_1_0=0   object_dropped_accidentally_0=1   
   ((   1   0)   % E_camera_sees_object_1_0=0   stealing_1_0=1   object_dropped_accidentally_0=1   
   (   1   0))));   % E_camera_sees_object_1_0=1   stealing_1_0=1   object_dropped_accidentally_0=1   
}


