
net {
}

node seen_1_0 {
states = ("0" "1");
   label = "seen_1_0";
   ID = "seen_1_0";
}

node know_valuable_1_0 {
states = ("0" "1");
   label = "know_valuable_1_0";
   ID = "know_valuable_1_0";
}

node know_vulnerable_1_0 {
states = ("0" "1");
   label = "know_vulnerable_1_0";
   ID = "know_vulnerable_1_0";
}

node motive_1_0 {
states = ("0" "1");
   label = "motive_1_0";
   ID = "motive_1_0";
}

node sneak_1_0 {
states = ("0" "1");
   label = "sneak_1_0";
   ID = "sneak_1_0";
}

node stealing_1_0 {
states = ("0" "1");
   label = "stealing_1_0";
   ID = "stealing_1_0";
}

node object_dropped_accidentally_0 {
states = ("0" "1");
   label = "object_dropped_accidentally_0";
   ID = "object_dropped_accidentally_0";
}

node E_psych_report_1_0 {
states = ("0" "1");
   label = "E_psych_report_1_0";
   ID = "E_psych_report_1_0";
}

node E_camera_1 {
states = ("0" "1");
   label = "E_camera_1";
   ID = "E_camera_1";
}

node E_camera_sees_object_1_0 {
states = ("0" "1");
   label = "E_camera_sees_object_1_0";
   ID = "E_camera_sees_object_1_0";
}

node E_object_gone_0 {
states = ("0" "1");
   label = "E_object_gone_0";
   ID = "E_object_gone_0";
}

potential (seen_1_0) {
   data = (  0.491339 0.508661);
}

potential ( know_valuable_1_0 | seen_1_0   ) {
   data = 
   ((   0.999661   0.000338983)   % seen_1_0=0   
   (   0.576621   0.423379));   % seen_1_0=1   
}

potential ( know_vulnerable_1_0 | seen_1_0   know_valuable_1_0   ) {
   data = 
   (((   0.99983   0.000169549)   % know_valuable_1_0=0   seen_1_0=0   
   (   1   0))   % know_valuable_1_0=1   seen_1_0=0   
   ((   0.00028393   0.999716)   % know_valuable_1_0=0   seen_1_0=1   
   (   0.000386698   0.999613)));   % know_valuable_1_0=1   seen_1_0=1   
}

potential ( motive_1_0 | know_valuable_1_0   seen_1_0   know_vulnerable_1_0   ) {
   data = 
   ((((   0.999915   8.47889e-05)   % know_vulnerable_1_0=0   seen_1_0=0   know_valuable_1_0=0   
   (   1   0))   % know_vulnerable_1_0=1   seen_1_0=0   know_valuable_1_0=0   
   ((   1   0)   % know_vulnerable_1_0=0   seen_1_0=1   know_valuable_1_0=0   
   (   0.999858   0.000142005)))   % know_vulnerable_1_0=1   seen_1_0=1   know_valuable_1_0=0   
   (((   1   0)   % know_vulnerable_1_0=0   seen_1_0=0   know_valuable_1_0=1   
   (   1   0))   % know_vulnerable_1_0=1   seen_1_0=0   know_valuable_1_0=1   
   ((   1   0)   % know_vulnerable_1_0=0   seen_1_0=1   know_valuable_1_0=1   
   (   0.000193424   0.999807))));   % know_vulnerable_1_0=1   seen_1_0=1   know_valuable_1_0=1   
}

potential ( sneak_1_0 | know_valuable_1_0   motive_1_0   ) {
   data = 
   (((   0.999894   0.00010618)   % motive_1_0=0   know_valuable_1_0=0   
   (   1   0))   % motive_1_0=1   know_valuable_1_0=0   
   ((   1   0)   % motive_1_0=0   know_valuable_1_0=1   
   (   0.000386698   0.999613)));   % motive_1_0=1   know_valuable_1_0=1   
}

potential ( stealing_1_0 | motive_1_0   know_valuable_1_0   ) {
   data = 
   (((   0.999894   0.00010618)   % know_valuable_1_0=0   motive_1_0=0   
   (   1   0))   % know_valuable_1_0=1   motive_1_0=0   
   ((   1   0)   % know_valuable_1_0=0   motive_1_0=1   
   (   0.170534   0.829466)));   % know_valuable_1_0=1   motive_1_0=1   
}

potential ( object_dropped_accidentally_0 | stealing_1_0   ) {
   data = 
   ((   0.781542   0.218458)   % stealing_1_0=0   
   (   0.999069   0.000931099));   % stealing_1_0=1   
}

potential ( E_psych_report_1_0 | know_valuable_1_0   sneak_1_0   ) {
   data = 
   (((   0.999894   0.00010618)   % sneak_1_0=0   know_valuable_1_0=0   
   (   1   0))   % sneak_1_0=1   know_valuable_1_0=0   
   ((   1   0)   % sneak_1_0=0   know_valuable_1_0=1   
   (   0.220031   0.779969)));   % sneak_1_0=1   know_valuable_1_0=1   
}

potential ( E_camera_1 | know_vulnerable_1_0   seen_1_0   ) {
   data = 
   (((   0.00695151   0.993048)   % seen_1_0=0   know_vulnerable_1_0=0   
   (   1   0))   % seen_1_0=1   know_vulnerable_1_0=0   
   ((   1   0)   % seen_1_0=0   know_vulnerable_1_0=1   
   (   0.000163773   0.999836)));   % seen_1_0=1   know_vulnerable_1_0=1   
}

potential ( E_camera_sees_object_1_0 | E_camera_1   stealing_1_0   ) {
   data = 
   (((   0.97619   0.0238095)   % stealing_1_0=0   E_camera_1=0   
   (   1   0))   % stealing_1_0=1   E_camera_1=0   
   ((   0.999898   0.000101854)   % stealing_1_0=0   E_camera_1=1   
   (   0.000465983   0.999534)));   % stealing_1_0=1   E_camera_1=1   
}

potential ( E_object_gone_0 | object_dropped_accidentally_0   E_camera_1   sneak_1_0   E_camera_sees_object_1_0   stealing_1_0   ) {
   data = 
   ((((((   0.996894   0.00310559)   % stealing_1_0=0   E_camera_sees_object_1_0=0   sneak_1_0=0   E_camera_1=0   object_dropped_accidentally_0=0   
   (   1   0))   % stealing_1_0=1   E_camera_sees_object_1_0=0   sneak_1_0=0   E_camera_1=0   object_dropped_accidentally_0=0   
   ((   1   0)   % stealing_1_0=0   E_camera_sees_object_1_0=1   sneak_1_0=0   E_camera_1=0   object_dropped_accidentally_0=0   
   (   1   0)))   % stealing_1_0=1   E_camera_sees_object_1_0=1   sneak_1_0=0   E_camera_1=0   object_dropped_accidentally_0=0   
   (((   1   0)   % stealing_1_0=0   E_camera_sees_object_1_0=0   sneak_1_0=1   E_camera_1=0   object_dropped_accidentally_0=0   
   (   1   0))   % stealing_1_0=1   E_camera_sees_object_1_0=0   sneak_1_0=1   E_camera_1=0   object_dropped_accidentally_0=0   
   ((   1   0)   % stealing_1_0=0   E_camera_sees_object_1_0=1   sneak_1_0=1   E_camera_1=0   object_dropped_accidentally_0=0   
   (   1   0))))   % stealing_1_0=1   E_camera_sees_object_1_0=1   sneak_1_0=1   E_camera_1=0   object_dropped_accidentally_0=0   
   ((((   0.999983   1.71697e-05)   % stealing_1_0=0   E_camera_sees_object_1_0=0   sneak_1_0=0   E_camera_1=1   object_dropped_accidentally_0=0   
   (   1   0))   % stealing_1_0=1   E_camera_sees_object_1_0=0   sneak_1_0=0   E_camera_1=1   object_dropped_accidentally_0=0   
   ((   1   0)   % stealing_1_0=0   E_camera_sees_object_1_0=1   sneak_1_0=0   E_camera_1=1   object_dropped_accidentally_0=0   
   (   1   0)))   % stealing_1_0=1   E_camera_sees_object_1_0=1   sneak_1_0=0   E_camera_1=1   object_dropped_accidentally_0=0   
   (((   0.999675   0.000325309)   % stealing_1_0=0   E_camera_sees_object_1_0=0   sneak_1_0=1   E_camera_1=1   object_dropped_accidentally_0=0   
   (   1   0))   % stealing_1_0=1   E_camera_sees_object_1_0=0   sneak_1_0=1   E_camera_1=1   object_dropped_accidentally_0=0   
   ((   1   0)   % stealing_1_0=0   E_camera_sees_object_1_0=1   sneak_1_0=1   E_camera_1=1   object_dropped_accidentally_0=0   
   (   5.82954e-05   0.999942)))))   % stealing_1_0=1   E_camera_sees_object_1_0=1   sneak_1_0=1   E_camera_1=1   object_dropped_accidentally_0=0   
   (((((   1   0)   % stealing_1_0=0   E_camera_sees_object_1_0=0   sneak_1_0=0   E_camera_1=0   object_dropped_accidentally_0=1   
   (   1   0))   % stealing_1_0=1   E_camera_sees_object_1_0=0   sneak_1_0=0   E_camera_1=0   object_dropped_accidentally_0=1   
   ((   1   0)   % stealing_1_0=0   E_camera_sees_object_1_0=1   sneak_1_0=0   E_camera_1=0   object_dropped_accidentally_0=1   
   (   1   0)))   % stealing_1_0=1   E_camera_sees_object_1_0=1   sneak_1_0=0   E_camera_1=0   object_dropped_accidentally_0=1   
   (((   1   0)   % stealing_1_0=0   E_camera_sees_object_1_0=0   sneak_1_0=1   E_camera_1=0   object_dropped_accidentally_0=1   
   (   1   0))   % stealing_1_0=1   E_camera_sees_object_1_0=0   sneak_1_0=1   E_camera_1=0   object_dropped_accidentally_0=1   
   ((   1   0)   % stealing_1_0=0   E_camera_sees_object_1_0=1   sneak_1_0=1   E_camera_1=0   object_dropped_accidentally_0=1   
   (   1   0))))   % stealing_1_0=1   E_camera_sees_object_1_0=1   sneak_1_0=1   E_camera_1=0   object_dropped_accidentally_0=1   
   ((((   5.96303e-05   0.99994)   % stealing_1_0=0   E_camera_sees_object_1_0=0   sneak_1_0=0   E_camera_1=1   object_dropped_accidentally_0=1   
   (   1   0))   % stealing_1_0=1   E_camera_sees_object_1_0=0   sneak_1_0=0   E_camera_1=1   object_dropped_accidentally_0=1   
   ((   1   0)   % stealing_1_0=0   E_camera_sees_object_1_0=1   sneak_1_0=0   E_camera_1=1   object_dropped_accidentally_0=1   
   (   1   0)))   % stealing_1_0=1   E_camera_sees_object_1_0=1   sneak_1_0=0   E_camera_1=1   object_dropped_accidentally_0=1   
   (((   0.00222222   0.997778)   % stealing_1_0=0   E_camera_sees_object_1_0=0   sneak_1_0=1   E_camera_1=1   object_dropped_accidentally_0=1   
   (   1   0))   % stealing_1_0=1   E_camera_sees_object_1_0=0   sneak_1_0=1   E_camera_1=1   object_dropped_accidentally_0=1   
   ((   1   0)   % stealing_1_0=0   E_camera_sees_object_1_0=1   sneak_1_0=1   E_camera_1=1   object_dropped_accidentally_0=1   
   (   1   0))))));   % stealing_1_0=1   E_camera_sees_object_1_0=1   sneak_1_0=1   E_camera_1=1   object_dropped_accidentally_0=1   
}


