
net {
  name = unnamedBN;
  software = "aGrUM 0.22.5";
  node_size = (50 50);
}

node lost_object {
   states = (0 1 );
   label = "lost_object";
   ID = "lost_object";
}

node know_object {
   states = (0 1 );
   label = "know_object";
   ID = "know_object";
}

node target_object {
   states = (0 1 );
   label = "target_object";
   ID = "target_object";
}

node motive {
   states = (0 1 );
   label = "motive";
   ID = "motive";
}

node compromise_house {
   states = (0 1 );
   label = "compromise_house";
   ID = "compromise_house";
}

node flees_startled {
   states = (0 1 );
   label = "flees_startled";
   ID = "flees_startled";
}

node successful_stolen {
   states = (0 1 );
   label = "successful_stolen";
   ID = "successful_stolen";
}

node raining {
   states = (0 1 );
   label = "raining";
   ID = "raining";
}

node curtains {
   states = (0 1 );
   label = "curtains";
   ID = "curtains";
}

node E_object_is_gone {
   states = (0 1 );
   label = "E_object_is_gone";
   ID = "E_object_is_gone";
}

node E_broken_lock {
   states = (0 1 );
   label = "E_broken_lock";
   ID = "E_broken_lock";
}

node E_disturbed_house {
   states = (0 1 );
   label = "E_disturbed_house";
   ID = "E_disturbed_house";
}

node E_s_spotted_by_house {
   states = (0 1 );
   label = "E_s_spotted_by_house";
   ID = "E_s_spotted_by_house";
}

node E_s_spotted_with_goodie {
   states = (0 1 );
   label = "E_s_spotted_with_goodie";
   ID = "E_s_spotted_with_goodie";
}

node E_private {
   states = (0 1 );
   label = "E_private";
   ID = "E_private";
}

potential (lost_object) {
   data = (  0.797942 0.202058);
}

potential ( know_object | lost_object   curtains   ) {
   data = 
   (((   0.0241035   0.975896)   % curtains=0   lost_object=0   
   (   0.997857   0.00214339))   % curtains=1   lost_object=0   
   ((   0.997881   0.00211954)   % curtains=0   lost_object=1   
   (   0.996389   0.00361107)));   % curtains=1   lost_object=1   
}

potential ( target_object | know_object   raining   ) {
   data = 
   (((   0.990873   0.00912653)   % raining=0   know_object=0   
   (   0.990869   0.00913045))   % raining=1   know_object=0   
   ((   0.544459   0.455541)   % raining=0   know_object=1   
   (   0.453242   0.546758)));   % raining=1   know_object=1   
}

potential ( motive | curtains   target_object   ) {
   data = 
   (((   1   0)   % target_object=0   curtains=0   
   (   0.00061891   0.999381))   % target_object=1   curtains=0   
   ((   1   0)   % target_object=0   curtains=1   
   (   1   0)));   % target_object=1   curtains=1   
}

potential ( compromise_house | target_object   motive   ) {
   data = 
   (((   1   0)   % motive=0   target_object=0   
   (   1   0))   % motive=1   target_object=0   
   ((   1   0)   % motive=0   target_object=1   
   (   0.667182   0.332818)));   % motive=1   target_object=1   
}

potential ( flees_startled | target_object   motive   ) {
   data = 
   (((   0.988903   0.0110977)   % motive=0   target_object=0   
   (   0.988994   0.0110062))   % motive=1   target_object=0   
   ((   0.988994   0.0110062)   % motive=0   target_object=1   
   (   0.5008   0.4992)));   % motive=1   target_object=1   
}

potential ( successful_stolen | compromise_house   flees_startled   ) {
   data = 
   (((   1   0)   % flees_startled=0   compromise_house=0   
   (   1   0))   % flees_startled=1   compromise_house=0   
   ((   0.0124373   0.987563)   % flees_startled=0   compromise_house=1   
   (   1   0)));   % flees_startled=1   compromise_house=1   
}

potential (raining) {
   data = (  0.502772 0.497228);
}

potential (curtains) {
   data = (  0.822957 0.177043);
}

potential ( E_object_is_gone | lost_object   compromise_house   successful_stolen   ) {
   data = 
   ((((   1   0)   % successful_stolen=0   compromise_house=0   lost_object=0   
   (   1   0))   % successful_stolen=1   compromise_house=0   lost_object=0   
   ((   0.368757   0.631243)   % successful_stolen=0   compromise_house=1   lost_object=0   
   (   0.0095041   0.990495)))   % successful_stolen=1   compromise_house=1   lost_object=0   
   (((   0.00917212   0.990827)   % successful_stolen=0   compromise_house=0   lost_object=1   
   (   1   0))   % successful_stolen=1   compromise_house=0   lost_object=1   
   ((   1   0)   % successful_stolen=0   compromise_house=1   lost_object=1   
   (   1   0))));   % successful_stolen=1   compromise_house=1   lost_object=1   
}

potential ( E_broken_lock | successful_stolen   compromise_house   ) {
   data = 
   (((   0.993093   0.00690726)   % compromise_house=0   successful_stolen=0   
   (   0   1))   % compromise_house=1   successful_stolen=0   
   ((   0.993163   0.00683728)   % compromise_house=0   successful_stolen=1   
   (   0   1)));   % compromise_house=1   successful_stolen=1   
}

potential ( E_disturbed_house | compromise_house   ) {
   data = 
   ((   0.998631   0.00136884)   % compromise_house=0   
   (   0.250511   0.749489));   % compromise_house=1   
}

potential ( E_s_spotted_by_house | target_object   motive   lost_object   curtains   know_object   ) {
   data = 
   ((((((   0.990183   0.00981683)   % know_object=0   curtains=0   lost_object=0   motive=0   target_object=0   
   (   0.122561   0.877439))   % know_object=1   curtains=0   lost_object=0   motive=0   target_object=0   
   ((   0.0108268   0.989173)   % know_object=0   curtains=1   lost_object=0   motive=0   target_object=0   
   (   0.990642   0.00935769)))   % know_object=1   curtains=1   lost_object=0   motive=0   target_object=0   
   (((   0.186875   0.813125)   % know_object=0   curtains=0   lost_object=1   motive=0   target_object=0   
   (   0.990642   0.00935769))   % know_object=1   curtains=0   lost_object=1   motive=0   target_object=0   
   ((   0.0211676   0.978833)   % know_object=0   curtains=1   lost_object=1   motive=0   target_object=0   
   (   0.990642   0.00935769))))   % know_object=1   curtains=1   lost_object=1   motive=0   target_object=0   
   ((((   0.990642   0.00935769)   % know_object=0   curtains=0   lost_object=0   motive=1   target_object=0   
   (   0.990642   0.00935769))   % know_object=1   curtains=0   lost_object=0   motive=1   target_object=0   
   ((   0.990642   0.00935769)   % know_object=0   curtains=1   lost_object=0   motive=1   target_object=0   
   (   0.990642   0.00935769)))   % know_object=1   curtains=1   lost_object=0   motive=1   target_object=0   
   (((   0.990642   0.00935769)   % know_object=0   curtains=0   lost_object=1   motive=1   target_object=0   
   (   0.990642   0.00935769))   % know_object=1   curtains=0   lost_object=1   motive=1   target_object=0   
   ((   0.990642   0.00935769)   % know_object=0   curtains=1   lost_object=1   motive=1   target_object=0   
   (   0.990642   0.00935769)))))   % know_object=1   curtains=1   lost_object=1   motive=1   target_object=0   
   (((((   0.990642   0.00935769)   % know_object=0   curtains=0   lost_object=0   motive=0   target_object=1   
   (   0.990642   0.00935769))   % know_object=1   curtains=0   lost_object=0   motive=0   target_object=1   
   ((   0.990642   0.00935769)   % know_object=0   curtains=1   lost_object=0   motive=0   target_object=1   
   (   0.990642   0.00935769)))   % know_object=1   curtains=1   lost_object=0   motive=0   target_object=1   
   (((   0.990642   0.00935769)   % know_object=0   curtains=0   lost_object=1   motive=0   target_object=1   
   (   0.990642   0.00935769))   % know_object=1   curtains=0   lost_object=1   motive=0   target_object=1   
   ((   0.990642   0.00935769)   % know_object=0   curtains=1   lost_object=1   motive=0   target_object=1   
   (   0.990642   0.00935769))))   % know_object=1   curtains=1   lost_object=1   motive=0   target_object=1   
   ((((   0.990642   0.00935769)   % know_object=0   curtains=0   lost_object=0   motive=1   target_object=1   
   (   0   1))   % know_object=1   curtains=0   lost_object=0   motive=1   target_object=1   
   ((   0.990642   0.00935769)   % know_object=0   curtains=1   lost_object=0   motive=1   target_object=1   
   (   0.990642   0.00935769)))   % know_object=1   curtains=1   lost_object=0   motive=1   target_object=1   
   (((   0.990642   0.00935769)   % know_object=0   curtains=0   lost_object=1   motive=1   target_object=1   
   (   0.990642   0.00935769))   % know_object=1   curtains=0   lost_object=1   motive=1   target_object=1   
   ((   0.990642   0.00935769)   % know_object=0   curtains=1   lost_object=1   motive=1   target_object=1   
   (   0.990642   0.00935769))))));   % know_object=1   curtains=1   lost_object=1   motive=1   target_object=1   
}

potential ( E_s_spotted_with_goodie | successful_stolen   compromise_house   ) {
   data = 
   (((   0.997251   0.00274886)   % compromise_house=0   successful_stolen=0   
   (   0.34606   0.65394))   % compromise_house=1   successful_stolen=0   
   ((   0.997321   0.00267888)   % compromise_house=0   successful_stolen=1   
   (   0   1)));   % compromise_house=1   successful_stolen=1   
}

potential ( E_private | flees_startled   successful_stolen   ) {
   data = 
   (((   1   0)   % successful_stolen=0   flees_startled=0   
   (   1   0))   % successful_stolen=1   flees_startled=0   
   ((   0.00570646   0.994293)   % successful_stolen=0   flees_startled=1   
   (   1   0)));   % successful_stolen=1   flees_startled=1   
}


