
net {
  name = unnamedBN;
  software = "aGrUM 0.22.5";
  node_size = (50 50);
}

node lost_object {
   states = (0 1 );
   label = "lost_object";
   ID = "lost_object";
}

node know_object {
   states = (0 1 );
   label = "know_object";
   ID = "know_object";
}

node target_object {
   states = (0 1 );
   label = "target_object";
   ID = "target_object";
}

node motive {
   states = (0 1 );
   label = "motive";
   ID = "motive";
}

node compromise_house {
   states = (0 1 );
   label = "compromise_house";
   ID = "compromise_house";
}

node flees_startled {
   states = (0 1 );
   label = "flees_startled";
   ID = "flees_startled";
}

node successful_stolen {
   states = (0 1 );
   label = "successful_stolen";
   ID = "successful_stolen";
}

node raining {
   states = (0 1 );
   label = "raining";
   ID = "raining";
}

node curtains {
   states = (0 1 );
   label = "curtains";
   ID = "curtains";
}

node E_object_is_gone {
   states = (0 1 );
   label = "E_object_is_gone";
   ID = "E_object_is_gone";
}

node E_broken_lock {
   states = (0 1 );
   label = "E_broken_lock";
   ID = "E_broken_lock";
}

node E_disturbed_house {
   states = (0 1 );
   label = "E_disturbed_house";
   ID = "E_disturbed_house";
}

node E_s_spotted_by_house {
   states = (0 1 );
   label = "E_s_spotted_by_house";
   ID = "E_s_spotted_by_house";
}

node E_s_spotted_with_goodie {
   states = (0 1 );
   label = "E_s_spotted_with_goodie";
   ID = "E_s_spotted_with_goodie";
}

node E_private {
   states = (0 1 );
   label = "E_private";
   ID = "E_private";
}

potential (lost_object) {
   data = (  0.796495 0.203505);
}

potential ( know_object | lost_object   curtains   ) {
   data = 
   (((   0.0240365   0.975964)   % curtains=0   lost_object=0   
   (   0.999307   0.000693229))   % curtains=1   lost_object=0   
   ((   0.999313   0.00068682)   % curtains=0   lost_object=1   
   (   0.999064   0.000935381)));   % curtains=1   lost_object=1   
}

potential ( target_object | know_object   ) {
   data = 
   ((   0.999405   0.000594954)   % know_object=0   
   (   0.504346   0.495654));   % know_object=1   
}

potential ( motive | curtains   target_object   ) {
   data = 
   (((   0.998902   0.00109806)   % target_object=0   curtains=0   
   (   0   1))   % target_object=1   curtains=0   
   ((   0.998862   0.00113806)   % target_object=0   curtains=1   
   (   0.998927   0.00107297)));   % target_object=1   curtains=1   
}

potential ( compromise_house | target_object   motive   ) {
   data = 
   (((   1   0)   % motive=0   target_object=0   
   (   1   0))   % motive=1   target_object=0   
   ((   1   0)   % motive=0   target_object=1   
   (   0.674834   0.325166)));   % motive=1   target_object=1   
}

potential ( flees_startled | motive   compromise_house   ) {
   data = 
   (((   0.99768   0.00231965)   % compromise_house=0   motive=0   
   (   0.997698   0.00230154))   % compromise_house=1   motive=0   
   ((   0.47136   0.52864)   % compromise_house=0   motive=1   
   (   0.531353   0.468647)));   % compromise_house=1   motive=1   
}

potential ( successful_stolen | motive   curtains   compromise_house   flees_startled   target_object   ) {
   data = 
   ((((((   1   0)   % target_object=0   flees_startled=0   compromise_house=0   curtains=0   motive=0   
   (   1   0))   % target_object=1   flees_startled=0   compromise_house=0   curtains=0   motive=0   
   ((   1   0)   % target_object=0   flees_startled=1   compromise_house=0   curtains=0   motive=0   
   (   1   0)))   % target_object=1   flees_startled=1   compromise_house=0   curtains=0   motive=0   
   (((   1   0)   % target_object=0   flees_startled=0   compromise_house=1   curtains=0   motive=0   
   (   1   0))   % target_object=1   flees_startled=0   compromise_house=1   curtains=0   motive=0   
   ((   1   0)   % target_object=0   flees_startled=1   compromise_house=1   curtains=0   motive=0   
   (   1   0))))   % target_object=1   flees_startled=1   compromise_house=1   curtains=0   motive=0   
   ((((   1   0)   % target_object=0   flees_startled=0   compromise_house=0   curtains=1   motive=0   
   (   1   0))   % target_object=1   flees_startled=0   compromise_house=0   curtains=1   motive=0   
   ((   1   0)   % target_object=0   flees_startled=1   compromise_house=0   curtains=1   motive=0   
   (   1   0)))   % target_object=1   flees_startled=1   compromise_house=0   curtains=1   motive=0   
   (((   1   0)   % target_object=0   flees_startled=0   compromise_house=1   curtains=1   motive=0   
   (   1   0))   % target_object=1   flees_startled=0   compromise_house=1   curtains=1   motive=0   
   ((   1   0)   % target_object=0   flees_startled=1   compromise_house=1   curtains=1   motive=0   
   (   1   0)))))   % target_object=1   flees_startled=1   compromise_house=1   curtains=1   motive=0   
   (((((   1   0)   % target_object=0   flees_startled=0   compromise_house=0   curtains=0   motive=1   
   (   1   0))   % target_object=1   flees_startled=0   compromise_house=0   curtains=0   motive=1   
   ((   1   0)   % target_object=0   flees_startled=1   compromise_house=0   curtains=0   motive=1   
   (   1   0)))   % target_object=1   flees_startled=1   compromise_house=0   curtains=0   motive=1   
   (((   1   0)   % target_object=0   flees_startled=0   compromise_house=1   curtains=0   motive=1   
   (   0.0017738   0.998226))   % target_object=1   flees_startled=0   compromise_house=1   curtains=0   motive=1   
   ((   1   0)   % target_object=0   flees_startled=1   compromise_house=1   curtains=0   motive=1   
   (   1   0))))   % target_object=1   flees_startled=1   compromise_house=1   curtains=0   motive=1   
   ((((   1   0)   % target_object=0   flees_startled=0   compromise_house=0   curtains=1   motive=1   
   (   1   0))   % target_object=1   flees_startled=0   compromise_house=0   curtains=1   motive=1   
   ((   1   0)   % target_object=0   flees_startled=1   compromise_house=0   curtains=1   motive=1   
   (   1   0)))   % target_object=1   flees_startled=1   compromise_house=0   curtains=1   motive=1   
   (((   1   0)   % target_object=0   flees_startled=0   compromise_house=1   curtains=1   motive=1   
   (   1   0))   % target_object=1   flees_startled=0   compromise_house=1   curtains=1   motive=1   
   ((   1   0)   % target_object=0   flees_startled=1   compromise_house=1   curtains=1   motive=1   
   (   1   0))))));   % target_object=1   flees_startled=1   compromise_house=1   curtains=1   motive=1   
}

potential (raining) {
   data = (  0.505238 0.494762);
}

potential (curtains) {
   data = (  0.808288 0.191712);
}

potential ( E_object_is_gone | lost_object   compromise_house   successful_stolen   ) {
   data = 
   ((((   0.999742   0.000258377)   % successful_stolen=0   compromise_house=0   lost_object=0   
   (   0.999751   0.00024937))   % successful_stolen=1   compromise_house=0   lost_object=0   
   ((   0.303412   0.696588)   % successful_stolen=0   compromise_house=1   lost_object=0   
   (   0   1)))   % successful_stolen=1   compromise_house=1   lost_object=0   
   (((   0   1)   % successful_stolen=0   compromise_house=0   lost_object=1   
   (   0.999751   0.00024937))   % successful_stolen=1   compromise_house=0   lost_object=1   
   ((   0.999751   0.00024937)   % successful_stolen=0   compromise_house=1   lost_object=1   
   (   0.999751   0.00024937))));   % successful_stolen=1   compromise_house=1   lost_object=1   
}

potential ( E_broken_lock | successful_stolen   compromise_house   ) {
   data = 
   (((   1   0)   % compromise_house=0   successful_stolen=0   
   (   0.00172736   0.998273))   % compromise_house=1   successful_stolen=0   
   ((   1   0)   % compromise_house=0   successful_stolen=1   
   (   0.00169391   0.998306)));   % compromise_house=1   successful_stolen=1   
}

potential ( E_disturbed_house | compromise_house   ) {
   data = 
   ((   0.997912   0.00208795)   % compromise_house=0   
   (   0.255486   0.744514));   % compromise_house=1   
}

potential ( E_s_spotted_by_house | target_object   motive   lost_object   curtains   know_object   ) {
   data = 
   ((((((   0.999579   0.00042129)   % know_object=0   curtains=0   lost_object=0   motive=0   target_object=0   
   (   0.161758   0.838242))   % know_object=1   curtains=0   lost_object=0   motive=0   target_object=0   
   ((   0.035541   0.964459)   % know_object=0   curtains=1   lost_object=0   motive=0   target_object=0   
   (   0.999678   0.000322417)))   % know_object=1   curtains=1   lost_object=0   motive=0   target_object=0   
   (((   0.182867   0.817133)   % know_object=0   curtains=0   lost_object=1   motive=0   target_object=0   
   (   0.999678   0.000322417))   % know_object=1   curtains=0   lost_object=1   motive=0   target_object=0   
   ((   0.0230323   0.976967)   % know_object=0   curtains=1   lost_object=1   motive=0   target_object=0   
   (   0.999678   0.000322417))))   % know_object=1   curtains=1   lost_object=1   motive=0   target_object=0   
   ((((   0.999678   0.000322417)   % know_object=0   curtains=0   lost_object=0   motive=1   target_object=0   
   (   0.999678   0.000322417))   % know_object=1   curtains=0   lost_object=0   motive=1   target_object=0   
   ((   0.999678   0.000322417)   % know_object=0   curtains=1   lost_object=0   motive=1   target_object=0   
   (   0.999678   0.000322417)))   % know_object=1   curtains=1   lost_object=0   motive=1   target_object=0   
   (((   0.999678   0.000322417)   % know_object=0   curtains=0   lost_object=1   motive=1   target_object=0   
   (   0.999678   0.000322417))   % know_object=1   curtains=0   lost_object=1   motive=1   target_object=0   
   ((   0.999678   0.000322417)   % know_object=0   curtains=1   lost_object=1   motive=1   target_object=0   
   (   0.999678   0.000322417)))))   % know_object=1   curtains=1   lost_object=1   motive=1   target_object=0   
   (((((   0.999678   0.000322417)   % know_object=0   curtains=0   lost_object=0   motive=0   target_object=1   
   (   0.999678   0.000322417))   % know_object=1   curtains=0   lost_object=0   motive=0   target_object=1   
   ((   0.999678   0.000322417)   % know_object=0   curtains=1   lost_object=0   motive=0   target_object=1   
   (   0.999678   0.000322417)))   % know_object=1   curtains=1   lost_object=0   motive=0   target_object=1   
   (((   0.999678   0.000322417)   % know_object=0   curtains=0   lost_object=1   motive=0   target_object=1   
   (   0.999678   0.000322417))   % know_object=1   curtains=0   lost_object=1   motive=0   target_object=1   
   ((   0.999678   0.000322417)   % know_object=0   curtains=1   lost_object=1   motive=0   target_object=1   
   (   0.999678   0.000322417))))   % know_object=1   curtains=1   lost_object=1   motive=0   target_object=1   
   ((((   0.999678   0.000322417)   % know_object=0   curtains=0   lost_object=0   motive=1   target_object=1   
   (   0   1))   % know_object=1   curtains=0   lost_object=0   motive=1   target_object=1   
   ((   0.999678   0.000322417)   % know_object=0   curtains=1   lost_object=0   motive=1   target_object=1   
   (   0.999678   0.000322417)))   % know_object=1   curtains=1   lost_object=0   motive=1   target_object=1   
   (((   0.999678   0.000322417)   % know_object=0   curtains=0   lost_object=1   motive=1   target_object=1   
   (   0.999678   0.000322417))   % know_object=1   curtains=0   lost_object=1   motive=1   target_object=1   
   ((   0.999678   0.000322417)   % know_object=0   curtains=1   lost_object=1   motive=1   target_object=1   
   (   0.999678   0.000322417))))));   % know_object=1   curtains=1   lost_object=1   motive=1   target_object=1   
}

potential ( E_s_spotted_with_goodie | successful_stolen   compromise_house   ) {
   data = 
   (((   0.999602   0.000397958)   % compromise_house=0   successful_stolen=0   
   (   0.294841   0.705159))   % compromise_house=1   successful_stolen=0   
   ((   0.999616   0.000384054)   % compromise_house=0   successful_stolen=1   
   (   0   1)));   % compromise_house=1   successful_stolen=1   
}

potential ( E_private | flees_startled   successful_stolen   ) {
   data = 
   (((   1   0)   % successful_stolen=0   flees_startled=0   
   (   1   0))   % successful_stolen=1   flees_startled=0   
   ((   0.00121337   0.998786)   % successful_stolen=0   flees_startled=1   
   (   1   0)));   % successful_stolen=1   flees_startled=1   
}


