
net {
  name = unnamedBN;
  software = "aGrUM 0.22.5";
  node_size = (50 50);
}

node lost_object {
   states = (0 1 );
   label = "lost_object";
   ID = "lost_object";
}

node know_object {
   states = (0 1 );
   label = "know_object";
   ID = "know_object";
}

node target_object {
   states = (0 1 );
   label = "target_object";
   ID = "target_object";
}

node motive {
   states = (0 1 );
   label = "motive";
   ID = "motive";
}

node compromise_house {
   states = (0 1 );
   label = "compromise_house";
   ID = "compromise_house";
}

node flees_startled {
   states = (0 1 );
   label = "flees_startled";
   ID = "flees_startled";
}

node successful_stolen {
   states = (0 1 );
   label = "successful_stolen";
   ID = "successful_stolen";
}

node raining {
   states = (0 1 );
   label = "raining";
   ID = "raining";
}

node curtains {
   states = (0 1 );
   label = "curtains";
   ID = "curtains";
}

node E_object_is_gone {
   states = (0 1 );
   label = "E_object_is_gone";
   ID = "E_object_is_gone";
}

node E_broken_lock {
   states = (0 1 );
   label = "E_broken_lock";
   ID = "E_broken_lock";
}

node E_disturbed_house {
   states = (0 1 );
   label = "E_disturbed_house";
   ID = "E_disturbed_house";
}

node E_s_spotted_by_house {
   states = (0 1 );
   label = "E_s_spotted_by_house";
   ID = "E_s_spotted_by_house";
}

node E_s_spotted_with_goodie {
   states = (0 1 );
   label = "E_s_spotted_with_goodie";
   ID = "E_s_spotted_with_goodie";
}

node E_private {
   states = (0 1 );
   label = "E_private";
   ID = "E_private";
}

potential (lost_object) {
   data = (  0.77723 0.22277);
}

potential ( know_object | lost_object   curtains   ) {
   data = 
   (((   0.01867   0.98133)   % curtains=0   lost_object=0   
   (   0.99315   0.00685))   % curtains=1   lost_object=0   
   ((   0.99275   0.00725)   % curtains=0   lost_object=1   
   (   0.97619   0.02381)));   % curtains=1   lost_object=1   
}

potential ( target_object | know_object   ) {
   data = 
   ((   0.99398   0.00602)   % know_object=0   
   (   0.45798   0.54202));   % know_object=1   
}

potential ( motive | lost_object   target_object   ) {
   data = 
   (((   0.9973   0.0027)   % target_object=0   lost_object=0   
   (   0.00388   0.99612))   % target_object=1   lost_object=0   
   ((   0.99438   0.00562)   % target_object=0   lost_object=1   
   (   1   0)));   % target_object=1   lost_object=1   
}

potential ( compromise_house | target_object   motive   ) {
   data = 
   (((   0.99817   0.00183)   % motive=0   target_object=0   
   (   1   0))   % motive=1   target_object=0   
   ((   1   0)   % motive=0   target_object=1   
   (   0.56202   0.43798)));   % motive=1   target_object=1   
}

potential ( flees_startled | motive   target_object   ) {
   data = 
   (((   0.99817   0.00183)   % target_object=0   motive=0   
   (   1   0))   % target_object=1   motive=0   
   ((   1   0)   % target_object=0   motive=1   
   (   0.46899   0.53101)));   % target_object=1   motive=1   
}

potential ( successful_stolen | flees_startled   compromise_house   ) {
   data = 
   (((   0.99838   0.00162)   % compromise_house=0   flees_startled=0   
   (   0.02   0.98))   % compromise_house=1   flees_startled=0   
   ((   0.98649   0.01351)   % compromise_house=0   flees_startled=1   
   (   0.98485   0.01515)));   % compromise_house=1   flees_startled=1   
}

potential (raining) {
   data = (  0.4802 0.5198);
}

potential (curtains) {
   data = (  0.76733 0.23267);
}

potential ( E_object_is_gone | successful_stolen   compromise_house   lost_object   ) {
   data = 
   ((((   0.99902   0.00097)   % lost_object=0   compromise_house=0   successful_stolen=0   
   (   0.00282   0.99717))   % lost_object=1   compromise_house=0   successful_stolen=0   
   ((   0.37692   0.62308)   % lost_object=0   compromise_house=1   successful_stolen=0   
   (   1   0)))   % lost_object=1   compromise_house=1   successful_stolen=0   
   (((   1   0)   % lost_object=0   compromise_house=0   successful_stolen=1   
   (   1   0))   % lost_object=1   compromise_house=0   successful_stolen=1   
   ((   0.0102   0.9898)   % lost_object=0   compromise_house=1   successful_stolen=1   
   (   1   0))));   % lost_object=1   compromise_house=1   successful_stolen=1   
}

potential ( E_broken_lock | successful_stolen   compromise_house   ) {
   data = 
   (((   0.99855   0.00145)   % compromise_house=0   successful_stolen=0   
   (   0.01515   0.98485))   % compromise_house=1   successful_stolen=0   
   ((   1   0)   % compromise_house=0   successful_stolen=1   
   (   0.02   0.98)));   % compromise_house=1   successful_stolen=1   
}

potential ( E_disturbed_house | compromise_house   ) {
   data = 
   ((   0.99711   0.00289)   % compromise_house=0   
   (   0.15517   0.84483));   % compromise_house=1   
}

potential ( E_s_spotted_by_house | curtains   target_object   ) {
   data = 
   (((   0.20166   0.79834)   % target_object=0   curtains=0   
   (   0.00388   0.99612))   % target_object=1   curtains=0   
   ((   0.00538   0.99462)   % target_object=0   curtains=1   
   (   1   0)));   % target_object=1   curtains=1   
}

potential ( E_s_spotted_with_goodie | successful_stolen   compromise_house   ) {
   data = 
   (((   0.99855   0.00145)   % compromise_house=0   successful_stolen=0   
   (   0.37879   0.62121))   % compromise_house=1   successful_stolen=0   
   ((   1   0)   % compromise_house=0   successful_stolen=1   
   (   0.02   0.98)));   % compromise_house=1   successful_stolen=1   
}

potential ( E_private | flees_startled   successful_stolen   ) {
   data = 
   (((   0.99838   0.00162)   % successful_stolen=0   flees_startled=0   
   (   0.98   0.02))   % successful_stolen=1   flees_startled=0   
   ((   0.00725   0.99275)   % successful_stolen=0   flees_startled=1   
   (   1   0)));   % successful_stolen=1   flees_startled=1   
}


