
net {
  name = unnamedBN;
  software = "aGrUM 0.22.5";
  node_size = (50 50);
}

node lost_object {
   states = (0 1 );
   label = "lost_object";
   ID = "lost_object";
}

node know_object {
   states = (0 1 );
   label = "know_object";
   ID = "know_object";
}

node target_object {
   states = (0 1 );
   label = "target_object";
   ID = "target_object";
}

node motive {
   states = (0 1 );
   label = "motive";
   ID = "motive";
}

node compromise_house {
   states = (0 1 );
   label = "compromise_house";
   ID = "compromise_house";
}

node flees_startled {
   states = (0 1 );
   label = "flees_startled";
   ID = "flees_startled";
}

node successful_stolen {
   states = (0 1 );
   label = "successful_stolen";
   ID = "successful_stolen";
}

node raining {
   states = (0 1 );
   label = "raining";
   ID = "raining";
}

node curtains {
   states = (0 1 );
   label = "curtains";
   ID = "curtains";
}

node E_object_is_gone {
   states = (0 1 );
   label = "E_object_is_gone";
   ID = "E_object_is_gone";
}

node E_broken_lock {
   states = (0 1 );
   label = "E_broken_lock";
   ID = "E_broken_lock";
}

node E_disturbed_house {
   states = (0 1 );
   label = "E_disturbed_house";
   ID = "E_disturbed_house";
}

node E_s_spotted_by_house {
   states = (0 1 );
   label = "E_s_spotted_by_house";
   ID = "E_s_spotted_by_house";
}

node E_s_spotted_with_goodie {
   states = (0 1 );
   label = "E_s_spotted_with_goodie";
   ID = "E_s_spotted_with_goodie";
}

node E_private {
   states = (0 1 );
   label = "E_private";
   ID = "E_private";
}

potential (lost_object) {
   data = (  0.7772 0.2228);
}

potential ( know_object | lost_object   curtains   ) {
   data = 
   (((   0.0187   0.9813)   % curtains=0   lost_object=0   
   (   0.9932   0.0068))   % curtains=1   lost_object=0   
   ((   0.9928   0.0072)   % curtains=0   lost_object=1   
   (   0.9762   0.0238)));   % curtains=1   lost_object=1   
}

potential ( target_object | know_object   ) {
   data = 
   ((   0.994   0.006)   % know_object=0   
   (   0.458   0.542));   % know_object=1   
}

potential ( motive | lost_object   target_object   ) {
   data = 
   (((   0.9973   0.0027)   % target_object=0   lost_object=0   
   (   0.0039   0.9961))   % target_object=1   lost_object=0   
   ((   0.9944   0.0056)   % target_object=0   lost_object=1   
   (   1   0)));   % target_object=1   lost_object=1   
}

potential ( compromise_house | target_object   motive   ) {
   data = 
   (((   0.9982   0.0018)   % motive=0   target_object=0   
   (   1   0))   % motive=1   target_object=0   
   ((   1   0)   % motive=0   target_object=1   
   (   0.562   0.438)));   % motive=1   target_object=1   
}

potential ( flees_startled | motive   target_object   ) {
   data = 
   (((   0.9982   0.0018)   % target_object=0   motive=0   
   (   1   0))   % target_object=1   motive=0   
   ((   1   0)   % target_object=0   motive=1   
   (   0.469   0.531)));   % target_object=1   motive=1   
}

potential ( successful_stolen | flees_startled   compromise_house   ) {
   data = 
   (((   0.9984   0.0016)   % compromise_house=0   flees_startled=0   
   (   0.02   0.98))   % compromise_house=1   flees_startled=0   
   ((   0.9865   0.0135)   % compromise_house=0   flees_startled=1   
   (   0.9848   0.0152)));   % compromise_house=1   flees_startled=1   
}

potential (raining) {
   data = (  0.4802 0.5198);
}

potential (curtains) {
   data = (  0.7673 0.2327);
}

potential ( E_object_is_gone | successful_stolen   compromise_house   lost_object   ) {
   data = 
   ((((   0.999   0.001)   % lost_object=0   compromise_house=0   successful_stolen=0   
   (   0.0028   0.9972))   % lost_object=1   compromise_house=0   successful_stolen=0   
   ((   0.3769   0.6231)   % lost_object=0   compromise_house=1   successful_stolen=0   
   (   1   0)))   % lost_object=1   compromise_house=1   successful_stolen=0   
   (((   1   0)   % lost_object=0   compromise_house=0   successful_stolen=1   
   (   1   0))   % lost_object=1   compromise_house=0   successful_stolen=1   
   ((   0.0102   0.9898)   % lost_object=0   compromise_house=1   successful_stolen=1   
   (   1   0))));   % lost_object=1   compromise_house=1   successful_stolen=1   
}

potential ( E_broken_lock | successful_stolen   compromise_house   ) {
   data = 
   (((   0.9986   0.0014)   % compromise_house=0   successful_stolen=0   
   (   0.0152   0.9848))   % compromise_house=1   successful_stolen=0   
   ((   1   0)   % compromise_house=0   successful_stolen=1   
   (   0.02   0.98)));   % compromise_house=1   successful_stolen=1   
}

potential ( E_disturbed_house | compromise_house   ) {
   data = 
   ((   0.9971   0.0029)   % compromise_house=0   
   (   0.1552   0.8448));   % compromise_house=1   
}

potential ( E_s_spotted_by_house | curtains   target_object   ) {
   data = 
   (((   0.2017   0.7983)   % target_object=0   curtains=0   
   (   0.0039   0.9961))   % target_object=1   curtains=0   
   ((   0.0054   0.9946)   % target_object=0   curtains=1   
   (   1   0)));   % target_object=1   curtains=1   
}

potential ( E_s_spotted_with_goodie | successful_stolen   compromise_house   ) {
   data = 
   (((   0.9986   0.0014)   % compromise_house=0   successful_stolen=0   
   (   0.3788   0.6212))   % compromise_house=1   successful_stolen=0   
   ((   1   0)   % compromise_house=0   successful_stolen=1   
   (   0.02   0.98)));   % compromise_house=1   successful_stolen=1   
}

potential ( E_private | flees_startled   successful_stolen   ) {
   data = 
   (((   0.9984   0.0016)   % successful_stolen=0   flees_startled=0   
   (   0.98   0.02))   % successful_stolen=1   flees_startled=0   
   ((   0.0072   0.9928)   % successful_stolen=0   flees_startled=1   
   (   1   0)));   % successful_stolen=1   flees_startled=1   
}


