
net {
  name = unnamedBN;
  software = "aGrUM 0.22.5";
  node_size = (50 50);
}

node lost_object {
   states = (0 1 );
   label = "lost_object";
   ID = "lost_object";
}

node know_object {
   states = (0 1 );
   label = "know_object";
   ID = "know_object";
}

node target_object {
   states = (0 1 );
   label = "target_object";
   ID = "target_object";
}

node motive {
   states = (0 1 );
   label = "motive";
   ID = "motive";
}

node compromise_house {
   states = (0 1 );
   label = "compromise_house";
   ID = "compromise_house";
}

node flees_startled {
   states = (0 1 );
   label = "flees_startled";
   ID = "flees_startled";
}

node successful_stolen {
   states = (0 1 );
   label = "successful_stolen";
   ID = "successful_stolen";
}

node raining {
   states = (0 1 );
   label = "raining";
   ID = "raining";
}

node curtains {
   states = (0 1 );
   label = "curtains";
   ID = "curtains";
}

node E_object_is_gone {
   states = (0 1 );
   label = "E_object_is_gone";
   ID = "E_object_is_gone";
}

node E_broken_lock {
   states = (0 1 );
   label = "E_broken_lock";
   ID = "E_broken_lock";
}

node E_disturbed_house {
   states = (0 1 );
   label = "E_disturbed_house";
   ID = "E_disturbed_house";
}

node E_s_spotted_by_house {
   states = (0 1 );
   label = "E_s_spotted_by_house";
   ID = "E_s_spotted_by_house";
}

node E_s_spotted_with_goodie {
   states = (0 1 );
   label = "E_s_spotted_with_goodie";
   ID = "E_s_spotted_with_goodie";
}

node E_private {
   states = (0 1 );
   label = "E_private";
   ID = "E_private";
}

potential (lost_object) {
   data = (  0 1);
}

potential ( know_object | lost_object   curtains   ) {
   data = 
   (((   0   1)   % curtains=0   lost_object=0   
   (   0.846817   0.153183))   % curtains=1   lost_object=0   
   ((   0.846823   0.153177)   % curtains=0   lost_object=1   
   (   0.846574   0.153426)));   % curtains=1   lost_object=1   
}

potential ( target_object | know_object   ) {
   data = 
   ((   1   0)   % know_object=0   
   (   0.918861   0.0811387));   % know_object=1   
}

potential ( motive | curtains   target_object   ) {
   data = 
   (((   1   0)   % target_object=0   curtains=0   
   (   0.115088   0.884913))   % target_object=1   curtains=0   
   ((   1   0)   % target_object=0   curtains=1   
   (   1   0)));   % target_object=1   curtains=1   
}

potential ( compromise_house | target_object   motive   ) {
   data = 
   (((   1   0)   % motive=0   target_object=0   
   (   1   0))   % motive=1   target_object=0   
   ((   1   0)   % motive=0   target_object=1   
   (   1   0)));   % motive=1   target_object=1   
}

potential ( flees_startled | motive   compromise_house   ) {
   data = 
   (((   0.888818   0.111182)   % compromise_house=0   motive=0   
   (   0.888836   0.111164))   % compromise_house=1   motive=0   
   ((   0.362498   0.637502)   % compromise_house=0   motive=1   
   (   0.422491   0.577509)));   % compromise_house=1   motive=1   
}

potential ( successful_stolen | motive   curtains   compromise_house   flees_startled   target_object   ) {
   data = 
   ((((((   0.899618   0.100382)   % target_object=0   flees_startled=0   compromise_house=0   curtains=0   motive=0   
   (   0.899621   0.100379))   % target_object=1   flees_startled=0   compromise_house=0   curtains=0   motive=0   
   ((   0.899621   0.100379)   % target_object=0   flees_startled=1   compromise_house=0   curtains=0   motive=0   
   (   0.899621   0.100379)))   % target_object=1   flees_startled=1   compromise_house=0   curtains=0   motive=0   
   (((   0.899621   0.100379)   % target_object=0   flees_startled=0   compromise_house=1   curtains=0   motive=0   
   (   0.899621   0.100379))   % target_object=1   flees_startled=0   compromise_house=1   curtains=0   motive=0   
   ((   0.899621   0.100379)   % target_object=0   flees_startled=1   compromise_house=1   curtains=0   motive=0   
   (   0.899621   0.100379))))   % target_object=1   flees_startled=1   compromise_house=1   curtains=0   motive=0   
   ((((   0.899613   0.100387)   % target_object=0   flees_startled=0   compromise_house=0   curtains=1   motive=0   
   (   0.899621   0.100379))   % target_object=1   flees_startled=0   compromise_house=0   curtains=1   motive=0   
   ((   0.899621   0.100379)   % target_object=0   flees_startled=1   compromise_house=0   curtains=1   motive=0   
   (   0.899621   0.100379)))   % target_object=1   flees_startled=1   compromise_house=0   curtains=1   motive=0   
   (((   0.899621   0.100379)   % target_object=0   flees_startled=0   compromise_house=1   curtains=1   motive=0   
   (   0.899621   0.100379))   % target_object=1   flees_startled=0   compromise_house=1   curtains=1   motive=0   
   ((   0.899621   0.100379)   % target_object=0   flees_startled=1   compromise_house=1   curtains=1   motive=0   
   (   0.899621   0.100379)))))   % target_object=1   flees_startled=1   compromise_house=1   curtains=1   motive=0   
   (((((   0.899621   0.100379)   % target_object=0   flees_startled=0   compromise_house=0   curtains=0   motive=1   
   (   0.899605   0.100395))   % target_object=1   flees_startled=0   compromise_house=0   curtains=0   motive=1   
   ((   0.899621   0.100379)   % target_object=0   flees_startled=1   compromise_house=0   curtains=0   motive=1   
   (   0.899607   0.100393)))   % target_object=1   flees_startled=1   compromise_house=0   curtains=0   motive=1   
   (((   0.899621   0.100379)   % target_object=0   flees_startled=0   compromise_house=1   curtains=0   motive=1   
   (   0   1))   % target_object=1   flees_startled=0   compromise_house=1   curtains=0   motive=1   
   ((   0.899621   0.100379)   % target_object=0   flees_startled=1   compromise_house=1   curtains=0   motive=1   
   (   0.899588   0.100412))))   % target_object=1   flees_startled=1   compromise_house=1   curtains=0   motive=1   
   ((((   0.899621   0.100379)   % target_object=0   flees_startled=0   compromise_house=0   curtains=1   motive=1   
   (   0.899621   0.100379))   % target_object=1   flees_startled=0   compromise_house=0   curtains=1   motive=1   
   ((   0.899621   0.100379)   % target_object=0   flees_startled=1   compromise_house=0   curtains=1   motive=1   
   (   0.899621   0.100379)))   % target_object=1   flees_startled=1   compromise_house=0   curtains=1   motive=1   
   (((   0.899621   0.100379)   % target_object=0   flees_startled=0   compromise_house=1   curtains=1   motive=1   
   (   0.899621   0.100379))   % target_object=1   flees_startled=0   compromise_house=1   curtains=1   motive=1   
   ((   0.899621   0.100379)   % target_object=0   flees_startled=1   compromise_house=1   curtains=1   motive=1   
   (   0.899621   0.100379))))));   % target_object=1   flees_startled=1   compromise_house=1   curtains=1   motive=1   
}

potential (raining) {
   data = (  0.59928 0.40072);
}

potential (curtains) {
   data = (  1 0);
}

potential ( E_object_is_gone | lost_object   compromise_house   successful_stolen   ) {
   data = 
   ((((   1   0)   % successful_stolen=0   compromise_house=0   lost_object=0   
   (   1   0))   % successful_stolen=1   compromise_house=0   lost_object=0   
   ((   0.402811   0.597189)   % successful_stolen=0   compromise_house=1   lost_object=0   
   (   0.0992658   0.900734)))   % successful_stolen=1   compromise_house=1   lost_object=0   
   (((   0.0991803   0.90082)   % successful_stolen=0   compromise_house=0   lost_object=1   
   (   1   0))   % successful_stolen=1   compromise_house=0   lost_object=1   
   ((   1   0)   % successful_stolen=0   compromise_house=1   lost_object=1   
   (   1   0))));   % successful_stolen=1   compromise_house=1   lost_object=1   
}

potential ( E_broken_lock | successful_stolen   compromise_house   ) {
   data = 
   (((   1   0)   % compromise_house=0   successful_stolen=0   
   (   0.0597696   0.940231))   % compromise_house=1   successful_stolen=0   
   ((   1   0)   % compromise_house=0   successful_stolen=1   
   (   0.0597361   0.940264)));   % compromise_house=1   successful_stolen=1   
}

potential ( E_disturbed_house | compromise_house   ) {
   data = 
   ((   0.664641   0.335359)   % compromise_house=0   
   (   0   1));   % compromise_house=1   
}

potential ( E_s_spotted_by_house | target_object   motive   lost_object   curtains   know_object   ) {
   data = 
   ((((((   1   0)   % know_object=0   curtains=0   lost_object=0   motive=0   target_object=0   
   (   0.350862   0.649138))   % know_object=1   curtains=0   lost_object=0   motive=0   target_object=0   
   ((   0.224645   0.775355)   % know_object=0   curtains=1   lost_object=0   motive=0   target_object=0   
   (   1   0)))   % know_object=1   curtains=1   lost_object=0   motive=0   target_object=0   
   (((   0.371971   0.628029)   % know_object=0   curtains=0   lost_object=1   motive=0   target_object=0   
   (   1   0))   % know_object=1   curtains=0   lost_object=1   motive=0   target_object=0   
   ((   0.212137   0.787863)   % know_object=0   curtains=1   lost_object=1   motive=0   target_object=0   
   (   1   0))))   % know_object=1   curtains=1   lost_object=1   motive=0   target_object=0   
   ((((   1   0)   % know_object=0   curtains=0   lost_object=0   motive=1   target_object=0   
   (   1   0))   % know_object=1   curtains=0   lost_object=0   motive=1   target_object=0   
   ((   1   0)   % know_object=0   curtains=1   lost_object=0   motive=1   target_object=0   
   (   1   0)))   % know_object=1   curtains=1   lost_object=0   motive=1   target_object=0   
   (((   1   0)   % know_object=0   curtains=0   lost_object=1   motive=1   target_object=0   
   (   1   0))   % know_object=1   curtains=0   lost_object=1   motive=1   target_object=0   
   ((   1   0)   % know_object=0   curtains=1   lost_object=1   motive=1   target_object=0   
   (   1   0)))))   % know_object=1   curtains=1   lost_object=1   motive=1   target_object=0   
   (((((   1   0)   % know_object=0   curtains=0   lost_object=0   motive=0   target_object=1   
   (   1   0))   % know_object=1   curtains=0   lost_object=0   motive=0   target_object=1   
   ((   1   0)   % know_object=0   curtains=1   lost_object=0   motive=0   target_object=1   
   (   1   0)))   % know_object=1   curtains=1   lost_object=0   motive=0   target_object=1   
   (((   1   0)   % know_object=0   curtains=0   lost_object=1   motive=0   target_object=1   
   (   1   0))   % know_object=1   curtains=0   lost_object=1   motive=0   target_object=1   
   ((   1   0)   % know_object=0   curtains=1   lost_object=1   motive=0   target_object=1   
   (   1   0))))   % know_object=1   curtains=1   lost_object=1   motive=0   target_object=1   
   ((((   1   0)   % know_object=0   curtains=0   lost_object=0   motive=1   target_object=1   
   (   0.188787   0.811213))   % know_object=1   curtains=0   lost_object=0   motive=1   target_object=1   
   ((   1   0)   % know_object=0   curtains=1   lost_object=0   motive=1   target_object=1   
   (   1   0)))   % know_object=1   curtains=1   lost_object=0   motive=1   target_object=1   
   (((   1   0)   % know_object=0   curtains=0   lost_object=1   motive=1   target_object=1   
   (   1   0))   % know_object=1   curtains=0   lost_object=1   motive=1   target_object=1   
   ((   1   0)   % know_object=0   curtains=1   lost_object=1   motive=1   target_object=1   
   (   1   0))))));   % know_object=1   curtains=1   lost_object=1   motive=1   target_object=1   
}

potential ( E_s_spotted_with_goodie | successful_stolen   compromise_house   ) {
   data = 
   (((   1   0)   % compromise_house=0   successful_stolen=0   
   (   0.356136   0.643864))   % compromise_house=1   successful_stolen=0   
   ((   1   0)   % compromise_house=0   successful_stolen=1   
   (   0.0611424   0.938857)));   % compromise_house=1   successful_stolen=1   
}

potential ( E_private | flees_startled   successful_stolen   ) {
   data = 
   (((   1   0)   % successful_stolen=0   flees_startled=0   
   (   1   0))   % successful_stolen=1   flees_startled=0   
   ((   0.564822   0.435178)   % successful_stolen=0   flees_startled=1   
   (   1   0)));   % successful_stolen=1   flees_startled=1   
}


