
net {
  name = unnamedBN;
  software = "aGrUM 0.22.5";
  node_size = (50 50);
}

node lost_object {
   states = (0 1 );
   label = "lost_object";
   ID = "lost_object";
}

node know_object {
   states = (0 1 );
   label = "know_object";
   ID = "know_object";
}

node target_object {
   states = (0 1 );
   label = "target_object";
   ID = "target_object";
}

node motive {
   states = (0 1 );
   label = "motive";
   ID = "motive";
}

node compromise_house {
   states = (0 1 );
   label = "compromise_house";
   ID = "compromise_house";
}

node flees_startled {
   states = (0 1 );
   label = "flees_startled";
   ID = "flees_startled";
}

node successful_stolen {
   states = (0 1 );
   label = "successful_stolen";
   ID = "successful_stolen";
}

node raining {
   states = (0 1 );
   label = "raining";
   ID = "raining";
}

node curtains {
   states = (0 1 );
   label = "curtains";
   ID = "curtains";
}

node E_object_is_gone {
   states = (0 1 );
   label = "E_object_is_gone";
   ID = "E_object_is_gone";
}

node E_broken_lock {
   states = (0 1 );
   label = "E_broken_lock";
   ID = "E_broken_lock";
}

node E_disturbed_house {
   states = (0 1 );
   label = "E_disturbed_house";
   ID = "E_disturbed_house";
}

node E_s_spotted_by_house {
   states = (0 1 );
   label = "E_s_spotted_by_house";
   ID = "E_s_spotted_by_house";
}

node E_s_spotted_with_goodie {
   states = (0 1 );
   label = "E_s_spotted_with_goodie";
   ID = "E_s_spotted_with_goodie";
}

node E_private {
   states = (0 1 );
   label = "E_private";
   ID = "E_private";
}

potential (lost_object) {
   data = (  0.778852 0.221148);
}

potential ( know_object | lost_object   curtains   ) {
   data = 
   (((   0.0180604   0.98194)   % curtains=0   lost_object=0   
   (   0.992539   0.00746108))   % curtains=1   lost_object=0   
   ((   0.992142   0.00785814)   % curtains=0   lost_object=1   
   (   0.975578   0.0244213)));   % curtains=1   lost_object=1   
}

potential ( target_object | know_object   ) {
   data = 
   ((   0.993448   0.00655227)   % know_object=0   
   (   0.457455   0.542545));   % know_object=1   
}

potential ( motive | lost_object   target_object   ) {
   data = 
   (((   0.996224   0.00377567)   % target_object=0   lost_object=0   
   (   0.002803   0.997197))   % target_object=1   lost_object=0   
   ((   0.993309   0.00669095)   % target_object=0   lost_object=1   
   (   0.998927   0.00107297)));   % target_object=1   lost_object=1   
}

potential ( compromise_house | target_object   motive   ) {
   data = 
   (((   0.999033   0.000966092)   % motive=0   target_object=0   
   (   1   0))   % motive=1   target_object=0   
   ((   1   0)   % motive=0   target_object=1   
   (   0.562881   0.437119)));   % motive=1   target_object=1   
}

potential ( flees_startled | motive   target_object   ) {
   data = 
   (((   0.995866   0.00413304)   % target_object=0   motive=0   
   (   0.997698   0.00230154))   % target_object=1   motive=0   
   ((   0.997698   0.00230154)   % target_object=0   motive=1   
   (   0.46669   0.53331)));   % target_object=1   motive=1   
}

potential ( successful_stolen | flees_startled   compromise_house   ) {
   data = 
   (((   1   0)   % compromise_house=0   flees_startled=0   
   (   0.0217448   0.978255))   % compromise_house=1   flees_startled=0   
   ((   0.988231   0.0117687)   % compromise_house=0   flees_startled=1   
   (   0.986593   0.0134067)));   % compromise_house=1   flees_startled=1   
}

potential (raining) {
   data = (  0.479437 0.520563);
}

potential (curtains) {
   data = (  0.767646 0.232354);
}

potential ( E_object_is_gone | successful_stolen   compromise_house   lost_object   ) {
   data = 
   ((((   0.998776   0.00122403)   % lost_object=0   compromise_house=0   successful_stolen=0   
   (   0.00257549   0.997424))   % lost_object=1   compromise_house=0   successful_stolen=0   
   ((   0.376674   0.623326)   % lost_object=0   compromise_house=1   successful_stolen=0   
   (   0.999751   0.00024937)))   % lost_object=1   compromise_house=1   successful_stolen=0   
   (((   0.999751   0.00024937)   % lost_object=0   compromise_house=0   successful_stolen=1   
   (   0.999751   0.00024937))   % lost_object=1   compromise_house=0   successful_stolen=1   
   ((   0.00995473   0.990045)   % lost_object=0   compromise_house=1   successful_stolen=1   
   (   0.999751   0.00024937))));   % lost_object=1   compromise_house=1   successful_stolen=1   
}

potential ( E_broken_lock | successful_stolen   compromise_house   ) {
   data = 
   (((   1   0)   % compromise_house=0   successful_stolen=0   
   (   0.0166136   0.983386))   % compromise_house=1   successful_stolen=0   
   ((   1   0)   % compromise_house=0   successful_stolen=1   
   (   0.0214621   0.978538)));   % compromise_house=1   successful_stolen=1   
}

potential ( E_disturbed_house | compromise_house   ) {
   data = 
   ((   0.99505   0.00495031)   % compromise_house=0   
   (   0.153112   0.846888));   % compromise_house=1   
}

potential ( E_s_spotted_by_house | curtains   target_object   ) {
   data = 
   (((   0.201335   0.798665)   % target_object=0   curtains=0   
   (   0.00355355   0.996446))   % target_object=1   curtains=0   
   ((   0.00505392   0.994946)   % target_object=0   curtains=1   
   (   0.999678   0.000322417)));   % target_object=1   curtains=1   
}

potential ( E_s_spotted_with_goodie | successful_stolen   compromise_house   ) {
   data = 
   (((   0.998167   0.00183333)   % compromise_house=0   successful_stolen=0   
   (   0.378404   0.621596))   % compromise_house=1   successful_stolen=0   
   ((   0.999616   0.000384054)   % compromise_house=0   successful_stolen=1   
   (   0.0196159   0.980384)));   % compromise_house=1   successful_stolen=1   
}

potential ( E_private | flees_startled   successful_stolen   ) {
   data = 
   (((   0.999516   0.000484351)   % successful_stolen=0   flees_startled=0   
   (   0.981134   0.0188662))   % successful_stolen=1   flees_startled=0   
   ((   0.00838015   0.99162)   % successful_stolen=0   flees_startled=1   
   (   1   0)));   % successful_stolen=1   flees_startled=1   
}


