
net {
  name = unnamedBN;
  software = "aGrUM 0.22.5";
  node_size = (50 50);
}

node lost_object {
   states = (0 1 );
   label = "lost_object";
   ID = "lost_object";
}

node know_object {
   states = (0 1 );
   label = "know_object";
   ID = "know_object";
}

node target_object {
   states = (0 1 );
   label = "target_object";
   ID = "target_object";
}

node motive {
   states = (0 1 );
   label = "motive";
   ID = "motive";
}

node compromise_house {
   states = (0 1 );
   label = "compromise_house";
   ID = "compromise_house";
}

node flees_startled {
   states = (0 1 );
   label = "flees_startled";
   ID = "flees_startled";
}

node successful_stolen {
   states = (0 1 );
   label = "successful_stolen";
   ID = "successful_stolen";
}

node raining {
   states = (0 1 );
   label = "raining";
   ID = "raining";
}

node curtains {
   states = (0 1 );
   label = "curtains";
   ID = "curtains";
}

node E_object_is_gone {
   states = (0 1 );
   label = "E_object_is_gone";
   ID = "E_object_is_gone";
}

node E_broken_lock {
   states = (0 1 );
   label = "E_broken_lock";
   ID = "E_broken_lock";
}

node E_disturbed_house {
   states = (0 1 );
   label = "E_disturbed_house";
   ID = "E_disturbed_house";
}

node E_s_spotted_by_house {
   states = (0 1 );
   label = "E_s_spotted_by_house";
   ID = "E_s_spotted_by_house";
}

node E_s_spotted_with_goodie {
   states = (0 1 );
   label = "E_s_spotted_with_goodie";
   ID = "E_s_spotted_with_goodie";
}

node E_private {
   states = (0 1 );
   label = "E_private";
   ID = "E_private";
}

potential (lost_object) {
   data = (  0.768951 0.231049);
}

potential ( know_object | curtains   lost_object   ) {
   data = 
   (((   0.0804159   0.919584)   % lost_object=0   curtains=0   
   (   0.992142   0.00785814))   % lost_object=1   curtains=0   
   ((   0.990616   0.00938369)   % lost_object=0   curtains=1   
   (   0.979388   0.0206118)));   % lost_object=1   curtains=1   
}

potential ( target_object | know_object   ) {
   data = 
   ((   0.99359   0.00641052)   % know_object=0   
   (   0.396908   0.603092));   % know_object=1   
}

potential ( motive | curtains   target_object   ) {
   data = 
   (((   0.996165   0.0038354)   % target_object=0   curtains=0   
   (   0.00247313   0.997527))   % target_object=1   curtains=0   
   ((   0.992754   0.00724581)   % target_object=0   curtains=1   
   (   0.998927   0.00107297)));   % target_object=1   curtains=1   
}

potential ( compromise_house | target_object   motive   ) {
   data = 
   (((   0.998949   0.0010503)   % motive=0   target_object=0   
   (   1   0))   % motive=1   target_object=0   
   ((   1   0)   % motive=0   target_object=1   
   (   0.685262   0.314738)));   % motive=1   target_object=1   
}

potential ( flees_startled | motive   target_object   ) {
   data = 
   (((   0.995782   0.00421725)   % target_object=0   motive=0   
   (   0.997698   0.00230154))   % target_object=1   motive=0   
   ((   0.997698   0.00230154)   % target_object=0   motive=1   
   (   0.398407   0.601593)));   % target_object=1   motive=1   
}

potential ( successful_stolen | flees_startled   compromise_house   ) {
   data = 
   (((   1   0)   % compromise_house=0   flees_startled=0   
   (   0.0402063   0.959793))   % compromise_house=1   flees_startled=0   
   ((   0.992311   0.00768915)   % compromise_house=0   flees_startled=1   
   (   0.986593   0.0134067)));   % compromise_house=1   flees_startled=1   
}

potential (raining) {
   data = (  0.489338 0.510662);
}

potential (curtains) {
   data = (  0.797349 0.202651);
}

potential ( E_object_is_gone | compromise_house   lost_object   ) {
   data = 
   (((   0.997864   0.00213616)   % lost_object=0   compromise_house=0   
   (   0.00512697   0.994873))   % lost_object=1   compromise_house=0   
   ((   0.18864   0.81136)   % lost_object=0   compromise_house=1   
   (   0.999751   0.00024937)));   % lost_object=1   compromise_house=1   
}

potential ( E_broken_lock | successful_stolen   compromise_house   ) {
   data = 
   (((   1   0)   % compromise_house=0   successful_stolen=0   
   (   0.0166136   0.983386))   % compromise_house=1   successful_stolen=0   
   ((   1   0)   % compromise_house=0   successful_stolen=1   
   (   0.0399236   0.960076)));   % compromise_house=1   successful_stolen=1   
}

potential ( E_disturbed_house | compromise_house   ) {
   data = 
   ((   0.995147   0.00485344)   % compromise_house=0   
   (   0.541418   0.458582));   % compromise_house=1   
}

potential ( E_s_spotted_by_house | lost_object   curtains   know_object   ) {
   data = 
   ((((   0.987483   0.0125175)   % know_object=0   curtains=0   lost_object=0   
   (   0.0179572   0.982042))   % know_object=1   curtains=0   lost_object=0   
   ((   0.0748988   0.925101)   % know_object=0   curtains=1   lost_object=0   
   (   0.999678   0.000322417)))   % know_object=1   curtains=1   lost_object=0   
   (((   0.236904   0.763096)   % know_object=0   curtains=0   lost_object=1   
   (   0.999678   0.000322417))   % know_object=1   curtains=0   lost_object=1   
   ((   0.00988168   0.990118)   % know_object=0   curtains=1   lost_object=1   
   (   0.999678   0.000322417))));   % know_object=1   curtains=1   lost_object=1   
}

potential ( E_s_spotted_with_goodie | successful_stolen   compromise_house   ) {
   data = 
   (((   0.998215   0.00178461)   % compromise_house=0   successful_stolen=0   
   (   0.257192   0.742808))   % compromise_house=1   successful_stolen=0   
   ((   0.999616   0.000384054)   % compromise_house=0   successful_stolen=1   
   (   0.0380774   0.961922)));   % compromise_house=1   successful_stolen=1   
}

potential ( E_private | flees_startled   successful_stolen   ) {
   data = 
   (((   0.999495   0.000505571)   % successful_stolen=0   flees_startled=0   
   (   0.962672   0.0373277))   % successful_stolen=1   flees_startled=0   
   ((   0.00701612   0.992984)   % successful_stolen=0   flees_startled=1   
   (   1   0)));   % successful_stolen=1   flees_startled=1   
}


