
net {
  name = unnamedBN;
  software = "aGrUM 0.22.5";
  node_size = (50 50);
}

node lost_object {
   states = (0 1 );
   label = "lost_object";
   ID = "lost_object";
}

node know_object {
   states = (0 1 );
   label = "know_object";
   ID = "know_object";
}

node target_object {
   states = (0 1 );
   label = "target_object";
   ID = "target_object";
}

node motive {
   states = (0 1 );
   label = "motive";
   ID = "motive";
}

node compromise_house {
   states = (0 1 );
   label = "compromise_house";
   ID = "compromise_house";
}

node flees_startled {
   states = (0 1 );
   label = "flees_startled";
   ID = "flees_startled";
}

node successful_stolen {
   states = (0 1 );
   label = "successful_stolen";
   ID = "successful_stolen";
}

node raining {
   states = (0 1 );
   label = "raining";
   ID = "raining";
}

node curtains {
   states = (0 1 );
   label = "curtains";
   ID = "curtains";
}

node E_object_is_gone {
   states = (0 1 );
   label = "E_object_is_gone";
   ID = "E_object_is_gone";
}

node E_broken_lock {
   states = (0 1 );
   label = "E_broken_lock";
   ID = "E_broken_lock";
}

node E_disturbed_house {
   states = (0 1 );
   label = "E_disturbed_house";
   ID = "E_disturbed_house";
}

node E_s_spotted_by_house {
   states = (0 1 );
   label = "E_s_spotted_by_house";
   ID = "E_s_spotted_by_house";
}

node E_s_spotted_with_goodie {
   states = (0 1 );
   label = "E_s_spotted_with_goodie";
   ID = "E_s_spotted_with_goodie";
}

node E_private {
   states = (0 1 );
   label = "E_private";
   ID = "E_private";
}

potential (lost_object) {
   data = (  0.568552 0.431448);
}

potential ( know_object | lost_object   curtains   ) {
   data = 
   (((   0.400509   0.599492)   % curtains=0   lost_object=0   
   (   1   0))   % curtains=1   lost_object=0   
   ((   1   0)   % curtains=0   lost_object=1   
   (   1   0)));   % curtains=1   lost_object=1   
}

potential ( target_object | know_object   ) {
   data = 
   ((   1   0)   % know_object=0   
   (   0.658753   0.341247));   % know_object=1   
}

potential ( motive | curtains   target_object   ) {
   data = 
   (((   0.910547   0.0894529)   % target_object=0   curtains=0   
   (   0   1))   % target_object=1   curtains=0   
   ((   0.910507   0.0894929)   % target_object=0   curtains=1   
   (   0.910572   0.0894279)));   % target_object=1   curtains=1   
}

potential ( compromise_house | target_object   motive   ) {
   data = 
   (((   1   0)   % motive=0   target_object=0   
   (   1   0))   % motive=1   target_object=0   
   ((   1   0)   % motive=0   target_object=1   
   (   0.820524   0.179476)));   % motive=1   target_object=1   
}

potential ( flees_startled | motive   compromise_house   ) {
   data = 
   (((   0.97731   0.0226896)   % compromise_house=0   motive=0   
   (   0.977328   0.0226715))   % compromise_house=1   motive=0   
   ((   0.45099   0.549009)   % compromise_house=0   motive=1   
   (   0.510983   0.489017)));   % compromise_house=1   motive=1   
}

potential ( successful_stolen | motive   curtains   compromise_house   flees_startled   target_object   ) {
   data = 
   ((((((   1   0)   % target_object=0   flees_startled=0   compromise_house=0   curtains=0   motive=0   
   (   1   0))   % target_object=1   flees_startled=0   compromise_house=0   curtains=0   motive=0   
   ((   1   0)   % target_object=0   flees_startled=1   compromise_house=0   curtains=0   motive=0   
   (   1   0)))   % target_object=1   flees_startled=1   compromise_house=0   curtains=0   motive=0   
   (((   1   0)   % target_object=0   flees_startled=0   compromise_house=1   curtains=0   motive=0   
   (   1   0))   % target_object=1   flees_startled=0   compromise_house=1   curtains=0   motive=0   
   ((   1   0)   % target_object=0   flees_startled=1   compromise_house=1   curtains=0   motive=0   
   (   1   0))))   % target_object=1   flees_startled=1   compromise_house=1   curtains=0   motive=0   
   ((((   1   0)   % target_object=0   flees_startled=0   compromise_house=0   curtains=1   motive=0   
   (   1   0))   % target_object=1   flees_startled=0   compromise_house=0   curtains=1   motive=0   
   ((   1   0)   % target_object=0   flees_startled=1   compromise_house=0   curtains=1   motive=0   
   (   1   0)))   % target_object=1   flees_startled=1   compromise_house=0   curtains=1   motive=0   
   (((   1   0)   % target_object=0   flees_startled=0   compromise_house=1   curtains=1   motive=0   
   (   1   0))   % target_object=1   flees_startled=0   compromise_house=1   curtains=1   motive=0   
   ((   1   0)   % target_object=0   flees_startled=1   compromise_house=1   curtains=1   motive=0   
   (   1   0)))))   % target_object=1   flees_startled=1   compromise_house=1   curtains=1   motive=0   
   (((((   1   0)   % target_object=0   flees_startled=0   compromise_house=0   curtains=0   motive=1   
   (   1   0))   % target_object=1   flees_startled=0   compromise_house=0   curtains=0   motive=1   
   ((   1   0)   % target_object=0   flees_startled=1   compromise_house=0   curtains=0   motive=1   
   (   1   0)))   % target_object=1   flees_startled=1   compromise_house=0   curtains=0   motive=1   
   (((   1   0)   % target_object=0   flees_startled=0   compromise_house=1   curtains=0   motive=1   
   (   0.339518   0.660482))   % target_object=1   flees_startled=0   compromise_house=1   curtains=0   motive=1   
   ((   1   0)   % target_object=0   flees_startled=1   compromise_house=1   curtains=0   motive=1   
   (   1   0))))   % target_object=1   flees_startled=1   compromise_house=1   curtains=0   motive=1   
   ((((   1   0)   % target_object=0   flees_startled=0   compromise_house=0   curtains=1   motive=1   
   (   1   0))   % target_object=1   flees_startled=0   compromise_house=0   curtains=1   motive=1   
   ((   1   0)   % target_object=0   flees_startled=1   compromise_house=0   curtains=1   motive=1   
   (   1   0)))   % target_object=1   flees_startled=1   compromise_house=0   curtains=1   motive=1   
   (((   1   0)   % target_object=0   flees_startled=0   compromise_house=1   curtains=1   motive=1   
   (   1   0))   % target_object=1   flees_startled=0   compromise_house=1   curtains=1   motive=1   
   ((   1   0)   % target_object=0   flees_startled=1   compromise_house=1   curtains=1   motive=1   
   (   1   0))))));   % target_object=1   flees_startled=1   compromise_house=1   curtains=1   motive=1   
}

potential (raining) {
   data = (  0.961944 0.038056);
}

potential (curtains) {
   data = (  1 0);
}

potential ( E_object_is_gone | lost_object   compromise_house   successful_stolen   ) {
   data = 
   ((((   0.581042   0.418958)   % successful_stolen=0   compromise_house=0   lost_object=0   
   (   0.581051   0.418949))   % successful_stolen=1   compromise_house=0   lost_object=0   
   ((   0   1)   % successful_stolen=0   compromise_house=1   lost_object=0   
   (   0   1)))   % successful_stolen=1   compromise_house=1   lost_object=0   
   (((   0   1)   % successful_stolen=0   compromise_house=0   lost_object=1   
   (   0.581051   0.418949))   % successful_stolen=1   compromise_house=0   lost_object=1   
   ((   0.581051   0.418949)   % successful_stolen=0   compromise_house=1   lost_object=1   
   (   0.581051   0.418949))));   % successful_stolen=1   compromise_house=1   lost_object=1   
}

potential ( E_broken_lock | successful_stolen   compromise_house   ) {
   data = 
   (((   0.566752   0.433248)   % compromise_house=0   successful_stolen=0   
   (   0   1))   % compromise_house=1   successful_stolen=0   
   ((   0.566766   0.433234)   % compromise_house=0   successful_stolen=1   
   (   0   1)));   % compromise_house=1   successful_stolen=1   
}

potential ( E_disturbed_house | compromise_house   ) {
   data = 
   ((   0.848632   0.151368)   % compromise_house=0   
   (   0.106206   0.893794));   % compromise_house=1   
}

potential ( E_s_spotted_by_house | target_object   motive   lost_object   curtains   know_object   ) {
   data = 
   ((((((   1   0)   % know_object=0   curtains=0   lost_object=0   motive=0   target_object=0   
   (   0.210091   0.789909))   % know_object=1   curtains=0   lost_object=0   motive=0   target_object=0   
   ((   0.0838745   0.916126)   % know_object=0   curtains=1   lost_object=0   motive=0   target_object=0   
   (   1   0)))   % know_object=1   curtains=1   lost_object=0   motive=0   target_object=0   
   (((   0.2312   0.7688)   % know_object=0   curtains=0   lost_object=1   motive=0   target_object=0   
   (   1   0))   % know_object=1   curtains=0   lost_object=1   motive=0   target_object=0   
   ((   0.0713658   0.928634)   % know_object=0   curtains=1   lost_object=1   motive=0   target_object=0   
   (   1   0))))   % know_object=1   curtains=1   lost_object=1   motive=0   target_object=0   
   ((((   1   0)   % know_object=0   curtains=0   lost_object=0   motive=1   target_object=0   
   (   1   0))   % know_object=1   curtains=0   lost_object=0   motive=1   target_object=0   
   ((   1   0)   % know_object=0   curtains=1   lost_object=0   motive=1   target_object=0   
   (   1   0)))   % know_object=1   curtains=1   lost_object=0   motive=1   target_object=0   
   (((   1   0)   % know_object=0   curtains=0   lost_object=1   motive=1   target_object=0   
   (   1   0))   % know_object=1   curtains=0   lost_object=1   motive=1   target_object=0   
   ((   1   0)   % know_object=0   curtains=1   lost_object=1   motive=1   target_object=0   
   (   1   0)))))   % know_object=1   curtains=1   lost_object=1   motive=1   target_object=0   
   (((((   1   0)   % know_object=0   curtains=0   lost_object=0   motive=0   target_object=1   
   (   1   0))   % know_object=1   curtains=0   lost_object=0   motive=0   target_object=1   
   ((   1   0)   % know_object=0   curtains=1   lost_object=0   motive=0   target_object=1   
   (   1   0)))   % know_object=1   curtains=1   lost_object=0   motive=0   target_object=1   
   (((   1   0)   % know_object=0   curtains=0   lost_object=1   motive=0   target_object=1   
   (   1   0))   % know_object=1   curtains=0   lost_object=1   motive=0   target_object=1   
   ((   1   0)   % know_object=0   curtains=1   lost_object=1   motive=0   target_object=1   
   (   1   0))))   % know_object=1   curtains=1   lost_object=1   motive=0   target_object=1   
   ((((   1   0)   % know_object=0   curtains=0   lost_object=0   motive=1   target_object=1   
   (   0.0480162   0.951984))   % know_object=1   curtains=0   lost_object=0   motive=1   target_object=1   
   ((   1   0)   % know_object=0   curtains=1   lost_object=0   motive=1   target_object=1   
   (   1   0)))   % know_object=1   curtains=1   lost_object=0   motive=1   target_object=1   
   (((   1   0)   % know_object=0   curtains=0   lost_object=1   motive=1   target_object=1   
   (   1   0))   % know_object=1   curtains=0   lost_object=1   motive=1   target_object=1   
   ((   1   0)   % know_object=0   curtains=1   lost_object=1   motive=1   target_object=1   
   (   1   0))))));   % know_object=1   curtains=1   lost_object=1   motive=1   target_object=1   
}

potential ( E_s_spotted_with_goodie | successful_stolen   compromise_house   ) {
   data = 
   (((   1   0)   % compromise_house=0   successful_stolen=0   
   (   0.558076   0.441924))   % compromise_house=1   successful_stolen=0   
   ((   1   0)   % compromise_house=0   successful_stolen=1   
   (   0.263082   0.736917)));   % compromise_house=1   successful_stolen=1   
}

potential ( E_private | flees_startled   successful_stolen   ) {
   data = 
   (((   1   0)   % successful_stolen=0   flees_startled=0   
   (   1   0))   % successful_stolen=1   flees_startled=0   
   ((   0.0947701   0.90523)   % successful_stolen=0   flees_startled=1   
   (   1   0)));   % successful_stolen=1   flees_startled=1   
}


