
net {
  name = unnamedBN;
  software = "aGrUM 0.22.5";
  node_size = (50 50);
}

node lost_object {
   states = (0 1 );
   label = "lost_object";
   ID = "lost_object";
}

node know_object {
   states = (0 1 );
   label = "know_object";
   ID = "know_object";
}

node target_object {
   states = (0 1 );
   label = "target_object";
   ID = "target_object";
}

node motive {
   states = (0 1 );
   label = "motive";
   ID = "motive";
}

node compromise_house {
   states = (0 1 );
   label = "compromise_house";
   ID = "compromise_house";
}

node flees_startled {
   states = (0 1 );
   label = "flees_startled";
   ID = "flees_startled";
}

node successful_stolen {
   states = (0 1 );
   label = "successful_stolen";
   ID = "successful_stolen";
}

node raining {
   states = (0 1 );
   label = "raining";
   ID = "raining";
}

node curtains {
   states = (0 1 );
   label = "curtains";
   ID = "curtains";
}

node E_object_is_gone {
   states = (0 1 );
   label = "E_object_is_gone";
   ID = "E_object_is_gone";
}

node E_broken_lock {
   states = (0 1 );
   label = "E_broken_lock";
   ID = "E_broken_lock";
}

node E_disturbed_house {
   states = (0 1 );
   label = "E_disturbed_house";
   ID = "E_disturbed_house";
}

node E_s_spotted_by_house {
   states = (0 1 );
   label = "E_s_spotted_by_house";
   ID = "E_s_spotted_by_house";
}

node E_s_spotted_with_goodie {
   states = (0 1 );
   label = "E_s_spotted_with_goodie";
   ID = "E_s_spotted_with_goodie";
}

node E_private {
   states = (0 1 );
   label = "E_private";
   ID = "E_private";
}

potential (lost_object) {
   data = (  0.725705 0.274295);
}

potential ( know_object | lost_object   curtains   ) {
   data = 
   (((   0   1)   % curtains=0   lost_object=0   
   (   0.960244   0.0397568))   % curtains=1   lost_object=0   
   ((   0.96025   0.0397504)   % curtains=0   lost_object=1   
   (   0.960001   0.039999)));   % curtains=1   lost_object=1   
}

potential ( target_object | know_object   ) {
   data = 
   ((   0.931216   0.0687841)   % know_object=0   
   (   0.436157   0.563843));   % know_object=1   
}

potential ( motive | curtains   target_object   ) {
   data = 
   (((   0.915454   0.0845457)   % target_object=0   curtains=0   
   (   0   1))   % target_object=1   curtains=0   
   ((   0.915414   0.0845857)   % target_object=0   curtains=1   
   (   0.915479   0.0845206)));   % target_object=1   curtains=1   
}

potential ( compromise_house | target_object   motive   ) {
   data = 
   (((   0.932857   0.0671427)   % motive=0   target_object=0   
   (   0.932875   0.0671246))   % motive=1   target_object=0   
   ((   0.932875   0.0671246)   % motive=0   target_object=1   
   (   0.606844   0.393156)));   % motive=1   target_object=1   
}

potential ( flees_startled | motive   compromise_house   ) {
   data = 
   (((   0.998716   0.00128457)   % compromise_house=0   motive=0   
   (   0.998734   0.00126646))   % compromise_house=1   motive=0   
   ((   0.472396   0.527604)   % compromise_house=0   motive=1   
   (   0.532389   0.467611)));   % compromise_house=1   motive=1   
}

potential ( successful_stolen | motive   curtains   compromise_house   flees_startled   target_object   ) {
   data = 
   ((((((   0.888266   0.111734)   % target_object=0   flees_startled=0   compromise_house=0   curtains=0   motive=0   
   (   0.888269   0.111731))   % target_object=1   flees_startled=0   compromise_house=0   curtains=0   motive=0   
   ((   0.888269   0.111731)   % target_object=0   flees_startled=1   compromise_house=0   curtains=0   motive=0   
   (   0.888269   0.111731)))   % target_object=1   flees_startled=1   compromise_house=0   curtains=0   motive=0   
   (((   0.888269   0.111731)   % target_object=0   flees_startled=0   compromise_house=1   curtains=0   motive=0   
   (   0.888269   0.111731))   % target_object=1   flees_startled=0   compromise_house=1   curtains=0   motive=0   
   ((   0.888269   0.111731)   % target_object=0   flees_startled=1   compromise_house=1   curtains=0   motive=0   
   (   0.888269   0.111731))))   % target_object=1   flees_startled=1   compromise_house=1   curtains=0   motive=0   
   ((((   0.888261   0.111739)   % target_object=0   flees_startled=0   compromise_house=0   curtains=1   motive=0   
   (   0.888269   0.111731))   % target_object=1   flees_startled=0   compromise_house=0   curtains=1   motive=0   
   ((   0.888269   0.111731)   % target_object=0   flees_startled=1   compromise_house=0   curtains=1   motive=0   
   (   0.888269   0.111731)))   % target_object=1   flees_startled=1   compromise_house=0   curtains=1   motive=0   
   (((   0.888269   0.111731)   % target_object=0   flees_startled=0   compromise_house=1   curtains=1   motive=0   
   (   0.888269   0.111731))   % target_object=1   flees_startled=0   compromise_house=1   curtains=1   motive=0   
   ((   0.888269   0.111731)   % target_object=0   flees_startled=1   compromise_house=1   curtains=1   motive=0   
   (   0.888269   0.111731)))))   % target_object=1   flees_startled=1   compromise_house=1   curtains=1   motive=0   
   (((((   0.888269   0.111731)   % target_object=0   flees_startled=0   compromise_house=0   curtains=0   motive=1   
   (   0.888253   0.111747))   % target_object=1   flees_startled=0   compromise_house=0   curtains=0   motive=1   
   ((   0.888269   0.111731)   % target_object=0   flees_startled=1   compromise_house=0   curtains=0   motive=1   
   (   0.888255   0.111745)))   % target_object=1   flees_startled=1   compromise_house=0   curtains=0   motive=1   
   (((   0.888269   0.111731)   % target_object=0   flees_startled=0   compromise_house=1   curtains=0   motive=1   
   (   0   1))   % target_object=1   flees_startled=0   compromise_house=1   curtains=0   motive=1   
   ((   0.888269   0.111731)   % target_object=0   flees_startled=1   compromise_house=1   curtains=0   motive=1   
   (   0.888236   0.111764))))   % target_object=1   flees_startled=1   compromise_house=1   curtains=0   motive=1   
   ((((   0.888269   0.111731)   % target_object=0   flees_startled=0   compromise_house=0   curtains=1   motive=1   
   (   0.888269   0.111731))   % target_object=1   flees_startled=0   compromise_house=0   curtains=1   motive=1   
   ((   0.888269   0.111731)   % target_object=0   flees_startled=1   compromise_house=0   curtains=1   motive=1   
   (   0.888269   0.111731)))   % target_object=1   flees_startled=1   compromise_house=0   curtains=1   motive=1   
   (((   0.888269   0.111731)   % target_object=0   flees_startled=0   compromise_house=1   curtains=1   motive=1   
   (   0.888269   0.111731))   % target_object=1   flees_startled=0   compromise_house=1   curtains=1   motive=1   
   ((   0.888269   0.111731)   % target_object=0   flees_startled=1   compromise_house=1   curtains=1   motive=1   
   (   0.888269   0.111731))))));   % target_object=1   flees_startled=1   compromise_house=1   curtains=1   motive=1   
}

potential (raining) {
   data = (  0.529441 0.470559);
}

potential (curtains) {
   data = (  0.973949 0.0260508);
}

potential ( E_object_is_gone | lost_object   compromise_house   successful_stolen   ) {
   data = 
   ((((   1   0)   % successful_stolen=0   compromise_house=0   lost_object=0   
   (   1   0))   % successful_stolen=1   compromise_house=0   lost_object=0   
   ((   0.377865   0.622135)   % successful_stolen=0   compromise_house=1   lost_object=0   
   (   0.0743203   0.92568)))   % successful_stolen=1   compromise_house=1   lost_object=0   
   (((   0.0742349   0.925766)   % successful_stolen=0   compromise_house=0   lost_object=1   
   (   1   0))   % successful_stolen=1   compromise_house=0   lost_object=1   
   ((   1   0)   % successful_stolen=0   compromise_house=1   lost_object=1   
   (   1   0))));   % successful_stolen=1   compromise_house=1   lost_object=1   
}

potential ( E_broken_lock | successful_stolen   compromise_house   ) {
   data = 
   (((   0.980802   0.0191975)   % compromise_house=0   successful_stolen=0   
   (   0   1))   % compromise_house=1   successful_stolen=0   
   ((   0.980816   0.0191836)   % compromise_house=0   successful_stolen=1   
   (   0   1)));   % compromise_house=1   successful_stolen=1   
}

potential ( E_disturbed_house | compromise_house   ) {
   data = 
   ((   0.911209   0.0887907)   % compromise_house=0   
   (   0.168783   0.831217));   % compromise_house=1   
}

potential ( E_s_spotted_by_house | target_object   motive   lost_object   curtains   know_object   ) {
   data = 
   ((((((   0.925185   0.0748147)   % know_object=0   curtains=0   lost_object=0   motive=0   target_object=0   
   (   0.0873642   0.912636))   % know_object=1   curtains=0   lost_object=0   motive=0   target_object=0   
   ((   0   1)   % know_object=0   curtains=1   lost_object=0   motive=0   target_object=0   
   (   0.925284   0.0747158)))   % know_object=1   curtains=1   lost_object=0   motive=0   target_object=0   
   (((   0.108473   0.891527)   % know_object=0   curtains=0   lost_object=1   motive=0   target_object=0   
   (   0.925284   0.0747158))   % know_object=1   curtains=0   lost_object=1   motive=0   target_object=0   
   ((   0   1)   % know_object=0   curtains=1   lost_object=1   motive=0   target_object=0   
   (   0.925284   0.0747158))))   % know_object=1   curtains=1   lost_object=1   motive=0   target_object=0   
   ((((   0.925284   0.0747158)   % know_object=0   curtains=0   lost_object=0   motive=1   target_object=0   
   (   0.925284   0.0747158))   % know_object=1   curtains=0   lost_object=0   motive=1   target_object=0   
   ((   0.925284   0.0747158)   % know_object=0   curtains=1   lost_object=0   motive=1   target_object=0   
   (   0.925284   0.0747158)))   % know_object=1   curtains=1   lost_object=0   motive=1   target_object=0   
   (((   0.925284   0.0747158)   % know_object=0   curtains=0   lost_object=1   motive=1   target_object=0   
   (   0.925284   0.0747158))   % know_object=1   curtains=0   lost_object=1   motive=1   target_object=0   
   ((   0.925284   0.0747158)   % know_object=0   curtains=1   lost_object=1   motive=1   target_object=0   
   (   0.925284   0.0747158)))))   % know_object=1   curtains=1   lost_object=1   motive=1   target_object=0   
   (((((   0.925284   0.0747158)   % know_object=0   curtains=0   lost_object=0   motive=0   target_object=1   
   (   0.925284   0.0747158))   % know_object=1   curtains=0   lost_object=0   motive=0   target_object=1   
   ((   0.925284   0.0747158)   % know_object=0   curtains=1   lost_object=0   motive=0   target_object=1   
   (   0.925284   0.0747158)))   % know_object=1   curtains=1   lost_object=0   motive=0   target_object=1   
   (((   0.925284   0.0747158)   % know_object=0   curtains=0   lost_object=1   motive=0   target_object=1   
   (   0.925284   0.0747158))   % know_object=1   curtains=0   lost_object=1   motive=0   target_object=1   
   ((   0.925284   0.0747158)   % know_object=0   curtains=1   lost_object=1   motive=0   target_object=1   
   (   0.925284   0.0747158))))   % know_object=1   curtains=1   lost_object=1   motive=0   target_object=1   
   ((((   0.925284   0.0747158)   % know_object=0   curtains=0   lost_object=0   motive=1   target_object=1   
   (   0   1))   % know_object=1   curtains=0   lost_object=0   motive=1   target_object=1   
   ((   0.925284   0.0747158)   % know_object=0   curtains=1   lost_object=0   motive=1   target_object=1   
   (   0.925284   0.0747158)))   % know_object=1   curtains=1   lost_object=0   motive=1   target_object=1   
   (((   0.925284   0.0747158)   % know_object=0   curtains=0   lost_object=1   motive=1   target_object=1   
   (   0.925284   0.0747158))   % know_object=1   curtains=0   lost_object=1   motive=1   target_object=1   
   ((   0.925284   0.0747158)   % know_object=0   curtains=1   lost_object=1   motive=1   target_object=1   
   (   0.925284   0.0747158))))));   % know_object=1   curtains=1   lost_object=1   motive=1   target_object=1   
}

potential ( E_s_spotted_with_goodie | successful_stolen   compromise_house   ) {
   data = 
   (((   1   0)   % compromise_house=0   successful_stolen=0   
   (   0.46447   0.53553))   % compromise_house=1   successful_stolen=0   
   ((   1   0)   % compromise_house=0   successful_stolen=1   
   (   0.169477   0.830523)));   % compromise_house=1   successful_stolen=1   
}

potential ( E_private | flees_startled   successful_stolen   ) {
   data = 
   (((   1   0)   % successful_stolen=0   flees_startled=0   
   (   1   0))   % successful_stolen=1   flees_startled=0   
   ((   0.00516038   0.994839)   % successful_stolen=0   flees_startled=1   
   (   1   0)));   % successful_stolen=1   flees_startled=1   
}


