
net {
  name = unnamedBN;
  software = "aGrUM 0.22.5";
  node_size = (50 50);
}

node lost_object {
   states = (0 1 );
   label = "lost_object";
   ID = "lost_object";
}

node know_object {
   states = (0 1 );
   label = "know_object";
   ID = "know_object";
}

node target_object {
   states = (0 1 );
   label = "target_object";
   ID = "target_object";
}

node motive {
   states = (0 1 );
   label = "motive";
   ID = "motive";
}

node compromise_house {
   states = (0 1 );
   label = "compromise_house";
   ID = "compromise_house";
}

node flees_startled {
   states = (0 1 );
   label = "flees_startled";
   ID = "flees_startled";
}

node successful_stolen {
   states = (0 1 );
   label = "successful_stolen";
   ID = "successful_stolen";
}

node raining {
   states = (0 1 );
   label = "raining";
   ID = "raining";
}

node curtains {
   states = (0 1 );
   label = "curtains";
   ID = "curtains";
}

node E_object_is_gone {
   states = (0 1 );
   label = "E_object_is_gone";
   ID = "E_object_is_gone";
}

node E_broken_lock {
   states = (0 1 );
   label = "E_broken_lock";
   ID = "E_broken_lock";
}

node E_disturbed_house {
   states = (0 1 );
   label = "E_disturbed_house";
   ID = "E_disturbed_house";
}

node E_s_spotted_by_house {
   states = (0 1 );
   label = "E_s_spotted_by_house";
   ID = "E_s_spotted_by_house";
}

node E_s_spotted_with_goodie {
   states = (0 1 );
   label = "E_s_spotted_with_goodie";
   ID = "E_s_spotted_with_goodie";
}

node E_private {
   states = (0 1 );
   label = "E_private";
   ID = "E_private";
}

potential (lost_object) {
   data = (  0.748616 0.251384);
}

potential ( know_object | lost_object   curtains   ) {
   data = 
   (((   0.0354658   0.964534)   % curtains=0   lost_object=0   
   (   0.984762   0.0152378))   % curtains=1   lost_object=0   
   ((   0.984762   0.0152378)   % curtains=0   lost_object=1   
   (   0.959814   0.0401858)));   % curtains=1   lost_object=1   
}

potential ( target_object | know_object   ) {
   data = 
   ((   0.98011   0.0198897)   % know_object=0   
   (   0.50817   0.49183));   % know_object=1   
}

potential ( motive | target_object   ) {
   data = 
   ((   0.993755   0.00624453)   % target_object=0   
   (   0.0176635   0.982337));   % target_object=1   
}

potential ( compromise_house | target_object   motive   ) {
   data = 
   (((   1   0)   % motive=0   target_object=0   
   (   1   0))   % motive=1   target_object=0   
   ((   1   0)   % motive=0   target_object=1   
   (   0.646179   0.353821)));   % motive=1   target_object=1   
}

potential ( flees_startled | motive   target_object   ) {
   data = 
   (((   0.985638   0.0143619)   % target_object=0   motive=0   
   (   0.988994   0.0110062))   % target_object=1   motive=0   
   ((   0.988994   0.0110062)   % target_object=0   motive=1   
   (   0.559169   0.440831)));   % target_object=1   motive=1   
}

potential ( successful_stolen | flees_startled   compromise_house   ) {
   data = 
   (((   1   0)   % compromise_house=0   flees_startled=0   
   (   0.0499087   0.950091))   % compromise_house=1   flees_startled=0   
   ((   0.982035   0.0179646)   % compromise_house=0   flees_startled=1   
   (   0.955891   0.0441084)));   % compromise_house=1   flees_startled=1   
}

potential (raining) {
   data = (  0.441708 0.558292);
}

potential (curtains) {
   data = (  0.76464 0.23536);
}

potential ( E_object_is_gone | compromise_house   lost_object   ) {
   data = 
   (((   1   0)   % lost_object=0   compromise_house=0   
   (   0.0192127   0.980787))   % lost_object=1   compromise_house=0   
   ((   0.223295   0.776705)   % lost_object=0   compromise_house=1   
   (   1   0)));   % lost_object=1   compromise_house=1   
}

potential ( E_broken_lock | successful_stolen   compromise_house   ) {
   data = 
   (((   0.99046   0.00953998)   % compromise_house=0   successful_stolen=0   
   (   0.0487183   0.951281))   % compromise_house=1   successful_stolen=0   
   ((   0.993163   0.00683728)   % compromise_house=0   successful_stolen=1   
   (   0.0316242   0.968375)));   % compromise_house=1   successful_stolen=1   
}

potential ( E_disturbed_house | successful_stolen   compromise_house   ) {
   data = 
   (((   0.996068   0.0039316)   % compromise_house=0   successful_stolen=0   
   (   0.0543267   0.945673))   % compromise_house=1   successful_stolen=0   
   ((   0.998771   0.0012289)   % compromise_house=0   successful_stolen=1   
   (   0.0372326   0.962767)));   % compromise_house=1   successful_stolen=1   
}

potential (E_s_spotted_by_house) {
   data = (  0.05795 0.94205);
}

potential ( E_s_spotted_with_goodie | successful_stolen   compromise_house   ) {
   data = 
   (((   0.994618   0.00538158)   % compromise_house=0   successful_stolen=0   
   (   0.997321   0.00267888))   % compromise_house=1   successful_stolen=0   
   ((   0.997321   0.00267888)   % compromise_house=0   successful_stolen=1   
   (   0.0357826   0.964217)));   % compromise_house=1   successful_stolen=1   
}

potential ( E_private | flees_startled   ) {
   data = 
   ((   0.999809   0.000190955)   % flees_startled=0   
   (   0.0437651   0.956234));   % flees_startled=1   
}


