
net {
  name = unnamedBN;
  software = "aGrUM 0.22.5";
  node_size = (50 50);
}

node lost_object {
   states = (0 1 );
   label = "lost_object";
   ID = "lost_object";
}

node know_object {
   states = (0 1 );
   label = "know_object";
   ID = "know_object";
}

node target_object {
   states = (0 1 );
   label = "target_object";
   ID = "target_object";
}

node motive {
   states = (0 1 );
   label = "motive";
   ID = "motive";
}

node compromise_house {
   states = (0 1 );
   label = "compromise_house";
   ID = "compromise_house";
}

node flees_startled {
   states = (0 1 );
   label = "flees_startled";
   ID = "flees_startled";
}

node successful_stolen {
   states = (0 1 );
   label = "successful_stolen";
   ID = "successful_stolen";
}

node raining {
   states = (0 1 );
   label = "raining";
   ID = "raining";
}

node curtains {
   states = (0 1 );
   label = "curtains";
   ID = "curtains";
}

node E_object_is_gone {
   states = (0 1 );
   label = "E_object_is_gone";
   ID = "E_object_is_gone";
}

node E_broken_lock {
   states = (0 1 );
   label = "E_broken_lock";
   ID = "E_broken_lock";
}

node E_disturbed_house {
   states = (0 1 );
   label = "E_disturbed_house";
   ID = "E_disturbed_house";
}

node E_s_spotted_by_house {
   states = (0 1 );
   label = "E_s_spotted_by_house";
   ID = "E_s_spotted_by_house";
}

node E_s_spotted_with_goodie {
   states = (0 1 );
   label = "E_s_spotted_with_goodie";
   ID = "E_s_spotted_with_goodie";
}

node E_private {
   states = (0 1 );
   label = "E_private";
   ID = "E_private";
}

potential (lost_object) {
   data = (  0.767327 0.232673);
}

potential ( know_object | lost_object   curtains   ) {
   data = 
   (((   0.0810277   0.918972)   % curtains=0   lost_object=0   
   (   0.991228   0.00877193))   % curtains=1   lost_object=0   
   ((   0.992754   0.00724638)   % curtains=0   lost_object=1   
   (   0.98   0.02)));   % curtains=1   lost_object=1   
}

potential ( target_object | know_object   ) {
   data = 
   ((   0.994118   0.00588235)   % know_object=0   
   (   0.397436   0.602564));   % know_object=1   
}

potential ( motive | target_object   curtains   ) {
   data = 
   (((   0.997238   0.00276243)   % curtains=0   target_object=0   
   (   0.993827   0.00617284))   % curtains=1   target_object=0   
   ((   0.0035461   0.996454)   % curtains=0   target_object=1   
   (   1   0)));   % curtains=1   target_object=1   
}

potential ( compromise_house | motive   target_object   ) {
   data = 
   (((   0.998084   0.00191571)   % target_object=0   motive=0   
   (   1   0))   % target_object=1   motive=0   
   ((   1   0)   % target_object=0   motive=1   
   (   0.684397   0.315603)));   % target_object=1   motive=1   
}

potential ( flees_startled | target_object   motive   ) {
   data = 
   (((   0.998084   0.00191571)   % motive=0   target_object=0   
   (   1   0))   % motive=1   target_object=0   
   ((   1   0)   % motive=0   target_object=1   
   (   0.400709   0.599291)));   % motive=1   target_object=1   
}

potential ( successful_stolen | compromise_house   flees_startled   ) {
   data = 
   (((   0.998361   0.00163934)   % flees_startled=0   compromise_house=0   
   (   0.990566   0.00943396))   % flees_startled=1   compromise_house=0   
   ((   0.0384615   0.961538)   % flees_startled=0   compromise_house=1   
   (   0.984848   0.0151515)));   % flees_startled=1   compromise_house=1   
}

potential (raining) {
   data = (  0.490099 0.509901);
}

potential (curtains) {
   data = (  0.79703 0.20297);
}

potential ( E_object_is_gone | lost_object   compromise_house   ) {
   data = 
   (((   0.998113   0.00188679)   % compromise_house=0   lost_object=0   
   (   0.188889   0.811111))   % compromise_house=1   lost_object=0   
   ((   0.00537634   0.994624)   % compromise_house=0   lost_object=1   
   (   1   0)));   % compromise_house=1   lost_object=1   
}

potential ( E_broken_lock | compromise_house   successful_stolen   ) {
   data = 
   (((   0.998599   0.00140056)   % successful_stolen=0   compromise_house=0   
   (   1   0))   % successful_stolen=1   compromise_house=0   
   ((   0.0151515   0.984848)   % successful_stolen=0   compromise_house=1   
   (   0.0384615   0.961538)));   % successful_stolen=1   compromise_house=1   
}

potential ( E_disturbed_house | compromise_house   ) {
   data = 
   ((   0.997207   0.0027933)   % compromise_house=0   
   (   0.543478   0.456522));   % compromise_house=1   
}

potential ( E_s_spotted_by_house | know_object   curtains   lost_object   ) {
   data = 
   ((((   0.987805   0.0121951)   % lost_object=0   curtains=0   know_object=0   
   (   0.237226   0.762774))   % lost_object=1   curtains=0   know_object=0   
   ((   0.0752212   0.924779)   % lost_object=0   curtains=1   know_object=0   
   (   0.0102041   0.989796)))   % lost_object=1   curtains=1   know_object=0   
   (((   0.0182796   0.98172)   % lost_object=0   curtains=0   know_object=1   
   (   1   0))   % lost_object=1   curtains=0   know_object=1   
   ((   1   0)   % lost_object=0   curtains=1   know_object=1   
   (   1   0))));   % lost_object=1   curtains=1   know_object=1   
}

potential ( E_s_spotted_with_goodie | compromise_house   successful_stolen   ) {
   data = 
   (((   0.998599   0.00140056)   % successful_stolen=0   compromise_house=0   
   (   1   0))   % successful_stolen=1   compromise_house=0   
   ((   0.257576   0.742424)   % successful_stolen=0   compromise_house=1   
   (   0.0384615   0.961538)));   % successful_stolen=1   compromise_house=1   
}

potential ( E_private | successful_stolen   flees_startled   ) {
   data = 
   (((   0.998361   0.00163934)   % flees_startled=0   successful_stolen=0   
   (   0.00588235   0.994118))   % flees_startled=1   successful_stolen=0   
   ((   0.961538   0.0384615)   % flees_startled=0   successful_stolen=1   
   (   1   0)));   % flees_startled=1   successful_stolen=1   
}


