
net {
  name = unnamedBN;
  software = "aGrUM 0.22.5";
  node_size = (50 50);
}

node lost_object {
   states = (0 1 );
   label = "lost_object";
   ID = "lost_object";
}

node know_object {
   states = (0 1 );
   label = "know_object";
   ID = "know_object";
}

node target_object {
   states = (0 1 );
   label = "target_object";
   ID = "target_object";
}

node motive {
   states = (0 1 );
   label = "motive";
   ID = "motive";
}

node compromise_house {
   states = (0 1 );
   label = "compromise_house";
   ID = "compromise_house";
}

node flees_startled {
   states = (0 1 );
   label = "flees_startled";
   ID = "flees_startled";
}

node successful_stolen {
   states = (0 1 );
   label = "successful_stolen";
   ID = "successful_stolen";
}

node raining {
   states = (0 1 );
   label = "raining";
   ID = "raining";
}

node curtains {
   states = (0 1 );
   label = "curtains";
   ID = "curtains";
}

node E_object_is_gone {
   states = (0 1 );
   label = "E_object_is_gone";
   ID = "E_object_is_gone";
}

node E_broken_lock {
   states = (0 1 );
   label = "E_broken_lock";
   ID = "E_broken_lock";
}

node E_disturbed_house {
   states = (0 1 );
   label = "E_disturbed_house";
   ID = "E_disturbed_house";
}

node E_s_spotted_by_house {
   states = (0 1 );
   label = "E_s_spotted_by_house";
   ID = "E_s_spotted_by_house";
}

node E_s_spotted_with_goodie {
   states = (0 1 );
   label = "E_s_spotted_with_goodie";
   ID = "E_s_spotted_with_goodie";
}

node E_private {
   states = (0 1 );
   label = "E_private";
   ID = "E_private";
}

potential (lost_object) {
   data = (  0 1);
}

potential ( know_object | lost_object   curtains   ) {
   data = 
   (((   0   1)   % curtains=0   lost_object=0   
   (   0.833384   0.166616))   % curtains=1   lost_object=0   
   ((   0.833384   0.166616)   % curtains=0   lost_object=1   
   (   0.808436   0.191564)));   % curtains=1   lost_object=1   
}

potential ( target_object | know_object   ) {
   data = 
   ((   1   0)   % know_object=0   
   (   0.930936   0.0690637));   % know_object=1   
}

potential ( motive | target_object   ) {
   data = 
   ((   1   0)   % target_object=0   
   (   0.132289   0.867712));   % target_object=1   
}

potential ( compromise_house | target_object   motive   ) {
   data = 
   (((   1   0)   % motive=0   target_object=0   
   (   1   0))   % motive=1   target_object=0   
   ((   1   0)   % motive=0   target_object=1   
   (   1   0)));   % motive=1   target_object=1   
}

potential ( flees_startled | motive   target_object   ) {
   data = 
   (((   0.88548   0.11452)   % target_object=0   motive=0   
   (   0.888836   0.111164))   % target_object=1   motive=0   
   ((   0.888836   0.111164)   % target_object=0   motive=1   
   (   0.459011   0.540989)));   % target_object=1   motive=1   
}

potential ( successful_stolen | flees_startled   compromise_house   ) {
   data = 
   (((   0.896662   0.103338)   % compromise_house=0   flees_startled=0   
   (   0   1))   % compromise_house=1   flees_startled=0   
   ((   0.870209   0.129791)   % compromise_house=0   flees_startled=1   
   (   0.844065   0.155935)));   % compromise_house=1   flees_startled=1   
}

potential (raining) {
   data = (  0.525973 0.474027);
}

potential (curtains) {
   data = (  0.964641 0.0353592);
}

potential ( E_object_is_gone | compromise_house   lost_object   ) {
   data = 
   (((   1   0)   % lost_object=0   compromise_house=0   
   (   0.109354   0.890646))   % lost_object=1   compromise_house=0   
   ((   0.313436   0.686564)   % lost_object=0   compromise_house=1   
   (   1   0)));   % lost_object=1   compromise_house=1   
}

potential ( E_broken_lock | successful_stolen   compromise_house   ) {
   data = 
   (((   1   0)   % compromise_house=0   successful_stolen=0   
   (   0.11506   0.88494))   % compromise_house=1   successful_stolen=0   
   ((   1   0)   % compromise_house=0   successful_stolen=1   
   (   0.0979658   0.902034)));   % compromise_house=1   successful_stolen=1   
}

potential ( E_disturbed_house | successful_stolen   compromise_house   ) {
   data = 
   (((   0.661966   0.338034)   % compromise_house=0   successful_stolen=0   
   (   0   1))   % compromise_house=1   successful_stolen=0   
   ((   0.664669   0.335331)   % compromise_house=0   successful_stolen=1   
   (   0   1)));   % compromise_house=1   successful_stolen=1   
}

potential (E_s_spotted_by_house) {
   data = (  0.25609 0.74391);
}

potential ( E_s_spotted_with_goodie | successful_stolen   compromise_house   ) {
   data = 
   (((   1   0)   % compromise_house=0   successful_stolen=0   
   (   1   0))   % compromise_house=1   successful_stolen=0   
   ((   1   0)   % compromise_house=0   successful_stolen=1   
   (   0.0993721   0.900627)));   % compromise_house=1   successful_stolen=1   
}

potential ( E_private | flees_startled   ) {
   data = 
   ((   1   0)   % flees_startled=0   
   (   0.603203   0.396796));   % flees_startled=1   
}


