
net {
  name = unnamedBN;
  software = "aGrUM 0.22.5";
  node_size = (50 50);
}

node lost_object {
   states = (0 1 );
   label = "lost_object";
   ID = "lost_object";
}

node know_object {
   states = (0 1 );
   label = "know_object";
   ID = "know_object";
}

node target_object {
   states = (0 1 );
   label = "target_object";
   ID = "target_object";
}

node motive {
   states = (0 1 );
   label = "motive";
   ID = "motive";
}

node compromise_house {
   states = (0 1 );
   label = "compromise_house";
   ID = "compromise_house";
}

node flees_startled {
   states = (0 1 );
   label = "flees_startled";
   ID = "flees_startled";
}

node successful_stolen {
   states = (0 1 );
   label = "successful_stolen";
   ID = "successful_stolen";
}

node raining {
   states = (0 1 );
   label = "raining";
   ID = "raining";
}

node curtains {
   states = (0 1 );
   label = "curtains";
   ID = "curtains";
}

node E_object_is_gone {
   states = (0 1 );
   label = "E_object_is_gone";
   ID = "E_object_is_gone";
}

node E_broken_lock {
   states = (0 1 );
   label = "E_broken_lock";
   ID = "E_broken_lock";
}

node E_disturbed_house {
   states = (0 1 );
   label = "E_disturbed_house";
   ID = "E_disturbed_house";
}

node E_s_spotted_by_house {
   states = (0 1 );
   label = "E_s_spotted_by_house";
   ID = "E_s_spotted_by_house";
}

node E_s_spotted_with_goodie {
   states = (0 1 );
   label = "E_s_spotted_with_goodie";
   ID = "E_s_spotted_with_goodie";
}

node E_private {
   states = (0 1 );
   label = "E_private";
   ID = "E_private";
}

potential (lost_object) {
   data = (  0.79487 0.20513);
}

potential ( know_object | lost_object   curtains   ) {
   data = 
   (((   0.02465   0.97535)   % curtains=0   lost_object=0   
   (   0.99992   8e-05))   % curtains=1   lost_object=0   
   ((   0.99993   8e-05)   % curtains=0   lost_object=1   
   (   0.99968   0.00032)));   % curtains=1   lost_object=1   
}

potential ( target_object | know_object   ) {
   data = 
   ((   0.99993   7e-05)   % know_object=0   
   (   0.50487   0.49513));   % know_object=1   
}

potential ( motive | curtains   target_object   ) {
   data = 
   (((   0.99998   3e-05)   % target_object=0   curtains=0   
   (   4e-05   0.99996))   % target_object=1   curtains=0   
   ((   0.99993   7e-05)   % target_object=0   curtains=1   
   (   1   0)));   % target_object=1   curtains=1   
}

potential ( compromise_house | target_object   motive   ) {
   data = 
   (((   0.99998   2e-05)   % motive=0   target_object=0   
   (   1   0))   % motive=1   target_object=0   
   ((   1   0)   % motive=0   target_object=1   
   (   0.67397   0.32603)));   % motive=1   target_object=1   
}

potential ( flees_startled | motive   compromise_house   ) {
   data = 
   (((   0.99998   2e-05)   % compromise_house=0   motive=0   
   (   1   0))   % compromise_house=1   motive=0   
   ((   0.47366   0.52634)   % compromise_house=0   motive=1   
   (   0.53365   0.46635)));   % compromise_house=1   motive=1   
}

potential ( successful_stolen | motive   curtains   compromise_house   flees_startled   target_object   ) {
   data = 
   ((((((   1   0)   % target_object=0   flees_startled=0   compromise_house=0   curtains=0   motive=0   
   (   1   0))   % target_object=1   flees_startled=0   compromise_house=0   curtains=0   motive=0   
   ((   1   0)   % target_object=0   flees_startled=1   compromise_house=0   curtains=0   motive=0   
   (   1   0)))   % target_object=1   flees_startled=1   compromise_house=0   curtains=0   motive=0   
   (((   1   0)   % target_object=0   flees_startled=0   compromise_house=1   curtains=0   motive=0   
   (   1   0))   % target_object=1   flees_startled=0   compromise_house=1   curtains=0   motive=0   
   ((   1   0)   % target_object=0   flees_startled=1   compromise_house=1   curtains=0   motive=0   
   (   1   0))))   % target_object=1   flees_startled=1   compromise_house=1   curtains=0   motive=0   
   ((((   0.99999   1e-05)   % target_object=0   flees_startled=0   compromise_house=0   curtains=1   motive=0   
   (   1   0))   % target_object=1   flees_startled=0   compromise_house=0   curtains=1   motive=0   
   ((   1   0)   % target_object=0   flees_startled=1   compromise_house=0   curtains=1   motive=0   
   (   1   0)))   % target_object=1   flees_startled=1   compromise_house=0   curtains=1   motive=0   
   (((   1   0)   % target_object=0   flees_startled=0   compromise_house=1   curtains=1   motive=0   
   (   1   0))   % target_object=1   flees_startled=0   compromise_house=1   curtains=1   motive=0   
   ((   1   0)   % target_object=0   flees_startled=1   compromise_house=1   curtains=1   motive=0   
   (   1   0)))))   % target_object=1   flees_startled=1   compromise_house=1   curtains=1   motive=0   
   (((((   1   0)   % target_object=0   flees_startled=0   compromise_house=0   curtains=0   motive=1   
   (   0.99998   2e-05))   % target_object=1   flees_startled=0   compromise_house=0   curtains=0   motive=1   
   ((   1   0)   % target_object=0   flees_startled=1   compromise_house=0   curtains=0   motive=1   
   (   0.99999   1e-05)))   % target_object=1   flees_startled=1   compromise_house=0   curtains=0   motive=1   
   (((   1   0)   % target_object=0   flees_startled=0   compromise_house=1   curtains=0   motive=1   
   (   3e-05   0.99997))   % target_object=1   flees_startled=0   compromise_house=1   curtains=0   motive=1   
   ((   1   0)   % target_object=0   flees_startled=1   compromise_house=1   curtains=0   motive=1   
   (   0.99997   3e-05))))   % target_object=1   flees_startled=1   compromise_house=1   curtains=0   motive=1   
   ((((   1   0)   % target_object=0   flees_startled=0   compromise_house=0   curtains=1   motive=1   
   (   1   0))   % target_object=1   flees_startled=0   compromise_house=0   curtains=1   motive=1   
   ((   1   0)   % target_object=0   flees_startled=1   compromise_house=0   curtains=1   motive=1   
   (   1   0)))   % target_object=1   flees_startled=1   compromise_house=0   curtains=1   motive=1   
   (((   1   0)   % target_object=0   flees_startled=0   compromise_house=1   curtains=1   motive=1   
   (   1   0))   % target_object=1   flees_startled=0   compromise_house=1   curtains=1   motive=1   
   ((   1   0)   % target_object=0   flees_startled=1   compromise_house=1   curtains=1   motive=1   
   (   1   0))))));   % target_object=1   flees_startled=1   compromise_house=1   curtains=1   motive=1   
}

potential (raining) {
   data = (  0.506 0.494);
}

potential (curtains) {
   data = (  0.80797 0.19203);
}

potential ( E_object_is_gone | lost_object   compromise_house   successful_stolen   ) {
   data = 
   ((((   0.99999   1e-05)   % successful_stolen=0   compromise_house=0   lost_object=0   
   (   1   0))   % successful_stolen=1   compromise_house=0   lost_object=0   
   ((   0.30366   0.69634)   % successful_stolen=0   compromise_house=1   lost_object=0   
   (   0.00012   0.99988)))   % successful_stolen=1   compromise_house=1   lost_object=0   
   (((   3e-05   0.99997)   % successful_stolen=0   compromise_house=0   lost_object=1   
   (   1   0))   % successful_stolen=1   compromise_house=0   lost_object=1   
   ((   1   0)   % successful_stolen=0   compromise_house=1   lost_object=1   
   (   1   0))));   % successful_stolen=1   compromise_house=1   lost_object=1   
}

potential ( E_broken_lock | successful_stolen   compromise_house   ) {
   data = 
   (((   0.99999   1e-05)   % compromise_house=0   successful_stolen=0   
   (   0.00027   0.99973))   % compromise_house=1   successful_stolen=0   
   ((   1   0)   % compromise_house=0   successful_stolen=1   
   (   0.00023   0.99977)));   % compromise_house=1   successful_stolen=1   
}

potential ( E_disturbed_house | compromise_house   ) {
   data = 
   ((   0.99997   3e-05)   % compromise_house=0   
   (   0.25755   0.74245));   % compromise_house=1   
}

potential ( E_s_spotted_by_house | target_object   motive   lost_object   curtains   know_object   ) {
   data = 
   ((((((   0.9999   0.0001)   % know_object=0   curtains=0   lost_object=0   motive=0   target_object=0   
   (   0.16208   0.83792))   % know_object=1   curtains=0   lost_object=0   motive=0   target_object=0   
   ((   0.03586   0.96414)   % know_object=0   curtains=1   lost_object=0   motive=0   target_object=0   
   (   1   0)))   % know_object=1   curtains=1   lost_object=0   motive=0   target_object=0   
   (((   0.18319   0.81681)   % know_object=0   curtains=0   lost_object=1   motive=0   target_object=0   
   (   1   0))   % know_object=1   curtains=0   lost_object=1   motive=0   target_object=0   
   ((   0.02335   0.97664)   % know_object=0   curtains=1   lost_object=1   motive=0   target_object=0   
   (   1   0))))   % know_object=1   curtains=1   lost_object=1   motive=0   target_object=0   
   ((((   1   0)   % know_object=0   curtains=0   lost_object=0   motive=1   target_object=0   
   (   1   0))   % know_object=1   curtains=0   lost_object=0   motive=1   target_object=0   
   ((   1   0)   % know_object=0   curtains=1   lost_object=0   motive=1   target_object=0   
   (   1   0)))   % know_object=1   curtains=1   lost_object=0   motive=1   target_object=0   
   (((   1   0)   % know_object=0   curtains=0   lost_object=1   motive=1   target_object=0   
   (   1   0))   % know_object=1   curtains=0   lost_object=1   motive=1   target_object=0   
   ((   1   0)   % know_object=0   curtains=1   lost_object=1   motive=1   target_object=0   
   (   1   0)))))   % know_object=1   curtains=1   lost_object=1   motive=1   target_object=0   
   (((((   1   0)   % know_object=0   curtains=0   lost_object=0   motive=0   target_object=1   
   (   1   0))   % know_object=1   curtains=0   lost_object=0   motive=0   target_object=1   
   ((   1   0)   % know_object=0   curtains=1   lost_object=0   motive=0   target_object=1   
   (   1   0)))   % know_object=1   curtains=1   lost_object=0   motive=0   target_object=1   
   (((   1   0)   % know_object=0   curtains=0   lost_object=1   motive=0   target_object=1   
   (   1   0))   % know_object=1   curtains=0   lost_object=1   motive=0   target_object=1   
   ((   1   0)   % know_object=0   curtains=1   lost_object=1   motive=0   target_object=1   
   (   1   0))))   % know_object=1   curtains=1   lost_object=1   motive=0   target_object=1   
   ((((   1   0)   % know_object=0   curtains=0   lost_object=0   motive=1   target_object=1   
   (   1e-05   0.99999))   % know_object=1   curtains=0   lost_object=0   motive=1   target_object=1   
   ((   1   0)   % know_object=0   curtains=1   lost_object=0   motive=1   target_object=1   
   (   1   0)))   % know_object=1   curtains=1   lost_object=0   motive=1   target_object=1   
   (((   1   0)   % know_object=0   curtains=0   lost_object=1   motive=1   target_object=1   
   (   1   0))   % know_object=1   curtains=0   lost_object=1   motive=1   target_object=1   
   ((   1   0)   % know_object=0   curtains=1   lost_object=1   motive=1   target_object=1   
   (   1   0))))));   % know_object=1   curtains=1   lost_object=1   motive=1   target_object=1   
}

potential ( E_s_spotted_with_goodie | successful_stolen   compromise_house   ) {
   data = 
   (((   0.99999   1e-05)   % compromise_house=0   successful_stolen=0   
   (   0.29522   0.70477))   % compromise_house=1   successful_stolen=0   
   ((   1   0)   % compromise_house=0   successful_stolen=1   
   (   0.00023   0.99977)));   % compromise_house=1   successful_stolen=1   
}

potential ( E_private | flees_startled   successful_stolen   ) {
   data = 
   (((   0.99998   2e-05)   % successful_stolen=0   flees_startled=0   
   (   0.99977   0.00023))   % successful_stolen=1   flees_startled=0   
   ((   8e-05   0.99992)   % successful_stolen=0   flees_startled=1   
   (   1   0)));   % successful_stolen=1   flees_startled=1   
}


