
net {
  name = unnamedBN;
  software = "aGrUM 0.22.5";
  node_size = (50 50);
}

node lost_object {
   states = (0 1 );
   label = "lost_object";
   ID = "lost_object";
}

node know_object {
   states = (0 1 );
   label = "know_object";
   ID = "know_object";
}

node target_object {
   states = (0 1 );
   label = "target_object";
   ID = "target_object";
}

node motive {
   states = (0 1 );
   label = "motive";
   ID = "motive";
}

node compromise_house {
   states = (0 1 );
   label = "compromise_house";
   ID = "compromise_house";
}

node flees_startled {
   states = (0 1 );
   label = "flees_startled";
   ID = "flees_startled";
}

node successful_stolen {
   states = (0 1 );
   label = "successful_stolen";
   ID = "successful_stolen";
}

node raining {
   states = (0 1 );
   label = "raining";
   ID = "raining";
}

node curtains {
   states = (0 1 );
   label = "curtains";
   ID = "curtains";
}

node E_object_is_gone {
   states = (0 1 );
   label = "E_object_is_gone";
   ID = "E_object_is_gone";
}

node E_broken_lock {
   states = (0 1 );
   label = "E_broken_lock";
   ID = "E_broken_lock";
}

node E_disturbed_house {
   states = (0 1 );
   label = "E_disturbed_house";
   ID = "E_disturbed_house";
}

node E_s_spotted_by_house {
   states = (0 1 );
   label = "E_s_spotted_by_house";
   ID = "E_s_spotted_by_house";
}

node E_s_spotted_with_goodie {
   states = (0 1 );
   label = "E_s_spotted_with_goodie";
   ID = "E_s_spotted_with_goodie";
}

node E_private {
   states = (0 1 );
   label = "E_private";
   ID = "E_private";
}

potential (lost_object) {
   data = (  0.810565 0.189435);
}

potential ( know_object | lost_object   curtains   ) {
   data = 
   (((   0.025216   0.974784)   % curtains=0   lost_object=0   
   (   0.998969   0.00103087))   % curtains=1   lost_object=0   
   ((   0.998993   0.00100701)   % curtains=0   lost_object=1   
   (   0.997501   0.00249855)));   % curtains=1   lost_object=1   
}

potential ( target_object | know_object   raining   ) {
   data = 
   (((   0.999124   0.000876119)   % raining=0   know_object=0   
   (   0.99912   0.000880037))   % raining=1   know_object=0   
   ((   0.55271   0.44729)   % raining=0   know_object=1   
   (   0.461493   0.538507)));   % raining=1   know_object=1   
}

potential ( motive | curtains   target_object   ) {
   data = 
   (((   0.998802   0.00119769)   % target_object=0   curtains=0   
   (   0   1))   % target_object=1   curtains=0   
   ((   0.998584   0.00141614)   % target_object=0   curtains=1   
   (   0.998927   0.00107297)));   % target_object=1   curtains=1   
}

potential ( compromise_house | target_object   motive   ) {
   data = 
   (((   1   0)   % motive=0   target_object=0   
   (   1   0))   % motive=1   target_object=0   
   ((   1   0)   % motive=0   target_object=1   
   (   0.662219   0.337781)));   % motive=1   target_object=1   
}

potential ( flees_startled | target_object   motive   ) {
   data = 
   (((   0.997607   0.00239303)   % motive=0   target_object=0   
   (   0.997698   0.00230154))   % motive=1   target_object=0   
   ((   0.997698   0.00230154)   % motive=0   target_object=1   
   (   0.509504   0.490496)));   % motive=1   target_object=1   
}

potential ( successful_stolen | compromise_house   flees_startled   ) {
   data = 
   (((   1   0)   % flees_startled=0   compromise_house=0   
   (   1   0))   % flees_startled=1   compromise_house=0   
   ((   0.00273491   0.997265)   % flees_startled=0   compromise_house=1   
   (   1   0)));   % flees_startled=1   compromise_house=1   
}

potential (raining) {
   data = (  0.492995 0.507005);
}

potential (curtains) {
   data = (  0.818251 0.181749);
}

potential ( E_object_is_gone | lost_object   compromise_house   successful_stolen   ) {
   data = 
   ((((   0.999706   0.000293882)   % successful_stolen=0   compromise_house=0   lost_object=0   
   (   0.999751   0.00024937))   % successful_stolen=1   compromise_house=0   lost_object=0   
   ((   0.359499   0.640501)   % successful_stolen=0   compromise_house=1   lost_object=0   
   (   0.00024617   0.999753)))   % successful_stolen=1   compromise_house=1   lost_object=0   
   (((   0   1)   % successful_stolen=0   compromise_house=0   lost_object=1   
   (   0.999751   0.00024937))   % successful_stolen=1   compromise_house=0   lost_object=1   
   ((   0.999751   0.00024937)   % successful_stolen=0   compromise_house=1   lost_object=1   
   (   0.999751   0.00024937))));   % successful_stolen=1   compromise_house=1   lost_object=1   
}

potential ( E_broken_lock | successful_stolen   compromise_house   ) {
   data = 
   (((   1   0)   % compromise_house=0   successful_stolen=0   
   (   0.00286267   0.997137))   % compromise_house=1   successful_stolen=0   
   ((   1   0)   % compromise_house=0   successful_stolen=1   
   (   0.00245221   0.997548)));   % compromise_house=1   successful_stolen=1   
}

potential ( E_disturbed_house | compromise_house   ) {
   data = 
   ((   0.9978   0.00220008)   % compromise_house=0   
   (   0.24968   0.75032));   % compromise_house=1   
}

potential ( E_s_spotted_by_house | target_object   motive   lost_object   curtains   know_object   ) {
   data = 
   ((((((   0.999219   0.000781554)   % know_object=0   curtains=0   lost_object=0   motive=0   target_object=0   
   (   0.131597   0.868403))   % know_object=1   curtains=0   lost_object=0   motive=0   target_object=0   
   ((   0.0198621   0.980137)   % know_object=0   curtains=1   lost_object=0   motive=0   target_object=0   
   (   0.999678   0.000322417)))   % know_object=1   curtains=1   lost_object=0   motive=0   target_object=0   
   (((   0.195911   0.804089)   % know_object=0   curtains=0   lost_object=1   motive=0   target_object=0   
   (   0.999678   0.000322417))   % know_object=1   curtains=0   lost_object=1   motive=0   target_object=0   
   ((   0.0302029   0.969797)   % know_object=0   curtains=1   lost_object=1   motive=0   target_object=0   
   (   0.999678   0.000322417))))   % know_object=1   curtains=1   lost_object=1   motive=0   target_object=0   
   ((((   0.999678   0.000322417)   % know_object=0   curtains=0   lost_object=0   motive=1   target_object=0   
   (   0.999678   0.000322417))   % know_object=1   curtains=0   lost_object=0   motive=1   target_object=0   
   ((   0.999678   0.000322417)   % know_object=0   curtains=1   lost_object=0   motive=1   target_object=0   
   (   0.999678   0.000322417)))   % know_object=1   curtains=1   lost_object=0   motive=1   target_object=0   
   (((   0.999678   0.000322417)   % know_object=0   curtains=0   lost_object=1   motive=1   target_object=0   
   (   0.999678   0.000322417))   % know_object=1   curtains=0   lost_object=1   motive=1   target_object=0   
   ((   0.999678   0.000322417)   % know_object=0   curtains=1   lost_object=1   motive=1   target_object=0   
   (   0.999678   0.000322417)))))   % know_object=1   curtains=1   lost_object=1   motive=1   target_object=0   
   (((((   0.999678   0.000322417)   % know_object=0   curtains=0   lost_object=0   motive=0   target_object=1   
   (   0.999678   0.000322417))   % know_object=1   curtains=0   lost_object=0   motive=0   target_object=1   
   ((   0.999678   0.000322417)   % know_object=0   curtains=1   lost_object=0   motive=0   target_object=1   
   (   0.999678   0.000322417)))   % know_object=1   curtains=1   lost_object=0   motive=0   target_object=1   
   (((   0.999678   0.000322417)   % know_object=0   curtains=0   lost_object=1   motive=0   target_object=1   
   (   0.999678   0.000322417))   % know_object=1   curtains=0   lost_object=1   motive=0   target_object=1   
   ((   0.999678   0.000322417)   % know_object=0   curtains=1   lost_object=1   motive=0   target_object=1   
   (   0.999678   0.000322417))))   % know_object=1   curtains=1   lost_object=1   motive=0   target_object=1   
   ((((   0.999678   0.000322417)   % know_object=0   curtains=0   lost_object=0   motive=1   target_object=1   
   (   0   1))   % know_object=1   curtains=0   lost_object=0   motive=1   target_object=1   
   ((   0.999678   0.000322417)   % know_object=0   curtains=1   lost_object=0   motive=1   target_object=1   
   (   0.999678   0.000322417)))   % know_object=1   curtains=1   lost_object=0   motive=1   target_object=1   
   (((   0.999678   0.000322417)   % know_object=0   curtains=0   lost_object=1   motive=1   target_object=1   
   (   0.999678   0.000322417))   % know_object=1   curtains=0   lost_object=1   motive=1   target_object=1   
   ((   0.999678   0.000322417)   % know_object=0   curtains=1   lost_object=1   motive=1   target_object=1   
   (   0.999678   0.000322417))))));   % know_object=1   curtains=1   lost_object=1   motive=1   target_object=1   
}

potential ( E_s_spotted_with_goodie | successful_stolen   compromise_house   ) {
   data = 
   (((   0.999546   0.000454033)   % compromise_house=0   successful_stolen=0   
   (   0.348355   0.651645))   % compromise_house=1   successful_stolen=0   
   ((   0.999616   0.000384054)   % compromise_house=0   successful_stolen=1   
   (   0.000606045   0.999394)));   % compromise_house=1   successful_stolen=1   
}

potential ( E_private | flees_startled   successful_stolen   ) {
   data = 
   (((   1   0)   % successful_stolen=0   flees_startled=0   
   (   1   0))   % successful_stolen=1   flees_startled=0   
   ((   0.00153667   0.998463)   % successful_stolen=0   flees_startled=1   
   (   1   0)));   % successful_stolen=1   flees_startled=1   
}


