
net {
  name = unnamedBN;
  software = "aGrUM 0.22.5";
  node_size = (50 50);
}

node lost_object {
   states = (0 1 );
   label = "lost_object";
   ID = "lost_object";
}

node know_object {
   states = (0 1 );
   label = "know_object";
   ID = "know_object";
}

node target_object {
   states = (0 1 );
   label = "target_object";
   ID = "target_object";
}

node motive {
   states = (0 1 );
   label = "motive";
   ID = "motive";
}

node compromise_house {
   states = (0 1 );
   label = "compromise_house";
   ID = "compromise_house";
}

node flees_startled {
   states = (0 1 );
   label = "flees_startled";
   ID = "flees_startled";
}

node successful_stolen {
   states = (0 1 );
   label = "successful_stolen";
   ID = "successful_stolen";
}

node raining {
   states = (0 1 );
   label = "raining";
   ID = "raining";
}

node curtains {
   states = (0 1 );
   label = "curtains";
   ID = "curtains";
}

node E_object_is_gone {
   states = (0 1 );
   label = "E_object_is_gone";
   ID = "E_object_is_gone";
}

node E_broken_lock {
   states = (0 1 );
   label = "E_broken_lock";
   ID = "E_broken_lock";
}

node E_disturbed_house {
   states = (0 1 );
   label = "E_disturbed_house";
   ID = "E_disturbed_house";
}

node E_s_spotted_by_house {
   states = (0 1 );
   label = "E_s_spotted_by_house";
   ID = "E_s_spotted_by_house";
}

node E_s_spotted_with_goodie {
   states = (0 1 );
   label = "E_s_spotted_with_goodie";
   ID = "E_s_spotted_with_goodie";
}

node E_private {
   states = (0 1 );
   label = "E_private";
   ID = "E_private";
}

potential (lost_object) {
   data = (  0 1);
}

potential ( know_object | lost_object   curtains   ) {
   data = 
   (((   0   1)   % curtains=0   lost_object=0   
   (   0.840049   0.159951))   % curtains=1   lost_object=0   
   ((   0.839652   0.160348)   % curtains=0   lost_object=1   
   (   0.823088   0.176912)));   % curtains=1   lost_object=1   
}

potential ( target_object | know_object   ) {
   data = 
   ((   1   0)   % know_object=0   
   (   0.87197   0.12803));   % know_object=1   
}

potential ( motive | lost_object   target_object   ) {
   data = 
   (((   1   0)   % target_object=0   lost_object=0   
   (   0.118923   0.881077))   % target_object=1   lost_object=0   
   ((   1   0)   % target_object=0   lost_object=1   
   (   1   0)));   % target_object=1   lost_object=1   
}

potential ( compromise_house | target_object   motive   ) {
   data = 
   (((   1   0)   % motive=0   target_object=0   
   (   1   0))   % motive=1   target_object=0   
   ((   1   0)   % motive=0   target_object=1   
   (   0.943022   0.0569784)));   % motive=1   target_object=1   
}

potential ( flees_startled | motive   target_object   ) {
   data = 
   (((   0.887004   0.112996)   % target_object=0   motive=0   
   (   0.888836   0.111164))   % target_object=1   motive=0   
   ((   0.888836   0.111164)   % target_object=0   motive=1   
   (   0.357828   0.642172)));   % target_object=1   motive=1   
}

potential ( successful_stolen | flees_startled   compromise_house   ) {
   data = 
   (((   0.898003   0.101997)   % compromise_house=0   flees_startled=0   
   (   0   1))   % compromise_house=1   flees_startled=0   
   ((   0.886107   0.113893)   % compromise_house=0   flees_startled=1   
   (   0.884469   0.115531)));   % compromise_house=1   flees_startled=1   
}

potential (raining) {
   data = (  0.573479 0.426521);
}

potential (curtains) {
   data = (  0.972353 0.0276472);
}

potential ( E_object_is_gone | successful_stolen   compromise_house   lost_object   ) {
   data = 
   ((((   1   0)   % lost_object=0   compromise_house=0   successful_stolen=0   
   (   0.101975   0.898025))   % lost_object=1   compromise_house=0   successful_stolen=0   
   ((   0.476073   0.523927)   % lost_object=0   compromise_house=1   successful_stolen=0   
   (   1   0)))   % lost_object=1   compromise_house=1   successful_stolen=0   
   (((   1   0)   % lost_object=0   compromise_house=0   successful_stolen=1   
   (   1   0))   % lost_object=1   compromise_house=0   successful_stolen=1   
   ((   0.109354   0.890646)   % lost_object=0   compromise_house=1   successful_stolen=1   
   (   1   0))));   % lost_object=1   compromise_house=1   successful_stolen=1   
}

potential ( E_broken_lock | successful_stolen   compromise_house   ) {
   data = 
   (((   1   0)   % compromise_house=0   successful_stolen=0   
   (   0.0746558   0.925344))   % compromise_house=1   successful_stolen=0   
   ((   1   0)   % compromise_house=0   successful_stolen=1   
   (   0.0795043   0.920496)));   % compromise_house=1   successful_stolen=1   
}

potential ( E_disturbed_house | compromise_house   ) {
   data = 
   ((   0.661779   0.338221)   % compromise_house=0   
   (   0   1));   % compromise_house=1   
}

potential ( E_s_spotted_by_house | curtains   target_object   ) {
   data = 
   (((   0.390439   0.609561)   % target_object=0   curtains=0   
   (   0.192658   0.807342))   % target_object=1   curtains=0   
   ((   0.194158   0.805842)   % target_object=0   curtains=1   
   (   1   0)));   % target_object=1   curtains=1   
}

potential ( E_s_spotted_with_goodie | successful_stolen   compromise_house   ) {
   data = 
   (((   1   0)   % compromise_house=0   successful_stolen=0   
   (   0.439699   0.560301))   % compromise_house=1   successful_stolen=0   
   ((   1   0)   % compromise_house=0   successful_stolen=1   
   (   0.0809106   0.919089)));   % compromise_house=1   successful_stolen=1   
}

potential ( E_private | flees_startled   successful_stolen   ) {
   data = 
   (((   1   0)   % successful_stolen=0   flees_startled=0   
   (   1   0))   % successful_stolen=1   flees_startled=0   
   ((   0.571988   0.428012)   % successful_stolen=0   flees_startled=1   
   (   1   0)));   % successful_stolen=1   flees_startled=1   
}


